{"layers":[{"input_weights":[[-0.4360538261337459,-0.5875918544374448,0.42998257374192095,-0.2294306538459887,-0.11639823895537749,0.4676347125327718,-0.08029778366528872,-0.4305140085056216,-0.03374231067942879,-0.2988492447388935,0.5532040426686633,0.5415195979272305,-0.3827878531018911,0.5356666977868709,0.379448952011904,0.14775928854621334,0.436306856530567,-0.4355530998886543,0.4664928930417367,0.1235432922079771,-0.11495150125868592,-0.481661924209307,0.26828831652153573,-0.11377178124547083,0.40391881892167447,-0.30476311480566376,0.3492694741021367,0.27153117453291964,0.27018632848100665,-0.5571706649626269],[0.21959313602483288,0.29389239893524177,0.5728079353523445,-0.14807924105383852,-0.4222263341691199,0.21848649804595022,-0.3336079925859907,0.2691997982881751,0.3533782513400552,0.36066957126952826,-0.3724340245109865,0.21129511713958982,0.569120814982325,-0.39265307948215544,0.010551982480214273,0.4818897118419754,-0.5614964869226187,-0.18496028454228752,0.2697562909129396,-0.03063098818999843,0.508899155351759,0.16959979967848793,-0.07684353011414147,0.3232326300504922,-0.16767438197771267,-0.020743370906806113,-0.38434320321528603,-0.3087145159471165,0.09242663605598378,0.44449903811564084],[-0.5011677864090123,0.5977486507992591,0.3681540604714266,0.22420893896889593,-0.38256076586629106,-0.36847749994456946,-0.3727258893207712,-0.49332262149718265,0.4628948561690853,0.41298409326592633,-0.2713465594016633,0.138671669855704,-0.5971770575708422,0.42840866306513536,0.26457490473497236,-0.5673631424061221,-0.27759979372842847,0.23673061876511126,0.0034948584440974706,-0.08699311629870876,-0.49467402359678636,-0.4625267468791485,0.4405952518901253,-0.42836669405998196,0.5483481994211923,0.49582443780241103,0.29633367969259083,-0.5058204146046967,0.431646810710967,0.220243563554134],[0.0515861248414633,-0.5606451424348946,0.32119088589018263,-0.4725657969303161,-0.47761090685656726,-0.11789680983261652,0.07542406306019855,-0.04084342064548574,-0.33911725217144184,0.14999006698432216,-0.23104022989412876,0.12621791604401666,0.2440879062051815,-0.23875437376367814,-0.1715390023736465,0.0820615477416955,-0.4207445201622082,0.05105849822113151,0.400923236257432,0.519379844740163,0.502502080086606,0.2056951735982353,0.19362452005266428,0.13530223850094147,0.03844451943601723,0.36832739487338717,0.34110786229735224,0.22112570590730485,-0.5573597698497841,0.5552717294800376],[-0.34460986998268295,0.5351982675972788,-0.5952853873535897,-0.05789957999098383,0.3604373638162337,-0.5628109717339265,0.07558138908242018,-0.2847190733678846,-0.3296135649555174,-0.16776235547733753,-0.20081409891722202,-0.4776089903258238,0.27661435719448235,-0.1432285674084679,-0.02457106855227864,-0.5429335547431375,0.04848852124296288,0.49100563392226526,0.5949720321022167,0.06366571671714039,-0.09404927478050662,0.43658139743441593,-0.4019384304203486,-0.03770591318501104,-0.27402078513020034,0.27549839192119663,0.530556953333809,0.3078593468522448,-0.14949418613965149,-0.18692563287580932],[-0.29122066323691675,0.15583035793587108,0.21542662432845017,-0.24105605989116863,0.19731994381419726,0.4625406651240156,0.49144122462181583,-0.06897838810702095,0.1492683467841669,0.09493171924277788,-0.42721464688076005,0.4901719354590175,-0.3551718207010708,-0.14480244671222775,-0.042058548768000525,-0.37985565511214614,0.19515099140727665,0.09826011821618486,-0.32574256735896534,0.24853252879328291,0.16439203060153096,0.08641126858394266,0.1981475527757781,-0.1611286335466957,0.2057617326608816,-0.528988957131838,-0.26364594545754083,0.4394768381677081,-0.08695358244991591,-0.2560122007622012]],"inactivated_output":[[[-265548.8409606417,142742.42204375996,196409.43454614384,-218511.15124897705,178452.25023479311,419366.3809036193,445617.9003253967,-63671.91044466153,136496.63817933283,87048.37846421661,-388578.4794625452,445497.3492340533,-323800.8812827325,-130651.17822252277,-37659.40580087103,-346178.73076011013,176698.8510066999,89733.28651342887,-295819.3727851058,225576.84470394874,148317.42935362415,77557.6433691599,180860.87845135352,-147218.83812538147,188000.53662302464,-479465.1172090964,-238833.8000570039,398170.9684530324,-78112.6789027877,-232100.99651697226]],[[-195157.31200832006,105076.3545663647,144338.2343264655,-160245.0089005629,130757.65197557585,307564.7516551632,326830.6590396084,-46999.00629853728,100416.68754143828,64102.2427426063,-285315.5727357029,327016.9103703833,-237951.59015743525,-95650.68922281679,-27493.349861060084,-254363.06065164309,129528.51457166426,65982.6368191584,-217083.48534363552,165503.55010426673,108581.90285286687,56671.00281719795,132966.23717481463,-108272.11385354256,138265.45669809764,-351602.1384028456,-175107.41128857076,291944.1429458393,-57094.95458165362,-170219.77544633907]],[[-195708.01028250105,105371.02977322144,144745.60607307058,-160700.84590981712,131130.78398932848,308439.4160529127,327759.9743953682,-47129.44443044766,100698.95398520715,64281.75862369439,-286123.43563295447,327943.8255003363,-238623.22007038095,-95924.5106495496,-27572.882576780372,-255081.36769546015,129897.54509641542,66168.44670270522,-217699.46453851133,165973.52511621485,108892.76818273436,56834.406526090184,133340.93419711365,-108576.80809957936,138654.55213455934,-352602.45652078185,-175605.965771431,292775.19364681444,-57259.38380606641,-170703.8945179804]],[[-195214.39125831448,105106.89731652013,144380.45794483388,-160292.2558883016,130796.32668456344,307655.4096255275,326926.98151963425,-47012.52606260626,100445.94413740798,64120.849359577885,-285399.3068064916,327112.98406973324,-238021.20383429265,-95679.07050237239,-27501.59333661861,-254437.51236004508,129566.76416598009,66001.89580232877,-217147.33088683785,165552.26247991022,108614.12369086477,56687.9394258404,133005.0740951587,-108303.69506571771,138305.78599769916,-351705.82023844344,-175159.08589388046,292030.2804061202,-57111.99748381381,-170269.95383768846]],[[-195709.175165154,105371.65309465317,144746.4677795679,-160701.81013405666,131131.57326910377,308441.26621557324,327761.9401602667,-47129.72034400009,100699.55105859428,64282.13835057136,-286125.14449154196,327945.7861880781,-238624.64075766376,-95925.08985933645,-27573.050810975445,-255082.8871180806,129898.32570038104,66168.83974317808,-217700.76750878076,165974.51924633002,108893.42575085677,56834.75217116452,133341.72678732473,-108577.45261411354,138655.37518149,-352604.5724766104,-175607.02035521282,292776.9515541671,-57259.73162039621,-170704.91856678342]],[[-19995773.23779746,10700262.261949092,14791581.328635085,-16550079.457584683,13546895.018521938,31756535.296471544,33740802.149516284,-4736963.498879932,10249439.67134777,6518680.331426835,-29332406.691664375,33654687.151025064,-24386721.568213217,-9941029.106381478,-2887129.6177510032,-26081431.27248304,13398194.91153297,6746864.549509883,-22364905.673730668,17063676.547181286,11285891.311537916,5931928.348477836,13605374.223404754,-11063697.295719234,14128375.208383296,-36318511.39796352,-18100868.75106481,30172763.670369662,-5969225.193985516,-17576949.103180967]],[[-22348691.46008212,11959294.106383037,16532121.386176672,-18497692.61664356,15141142.096528577,35493633.98796302,37711402.998171926,-5294274.592525772,11455453.726995487,7285681.441844016,-32784088.712781418,37615032.774082005,-27256333.359082982,-11110960.909000263,-3226941.78869771,-29150476.17752859,14974917.932061037,7540757.469417903,-24996743.723935127,19071695.8591642,12614097.215959078,6630088.4522356065,15206307.97049931,-12365536.573845662,15790827.744702088,-40592479.264077075,-20230996.95832685,33723518.10277618,-6671766.92425036,-19645400.447275773]],[[-192329.26814762637,103563.08596044946,142246.22637761192,-157904.11350295978,128841.47800119617,303073.0192561439,322058.2733073059,-46329.15717163,98967.14262581724,63180.360817039684,-281166.89129984385,322256.85070514074,-234502.51660660713,-94244.51266279434,-27084.919293974028,-250674.28238484904,127633.4032941082,65028.43281116103,-213920.1992720126,163090.05071715516,106985.4918436954,55831.86298797928,131042.02628980904,-106707.3936931706,136267.3045122278,-346465.1266401383,-172547.1455122326,287676.38337039266,-56250.548342482485,-167733.64096473734]],[[-19468190.89498155,10417956.245583877,14401309.285762683,-16113376.514140403,13189425.472629488,30918585.526556917,32850495.432402015,-4612000.595503938,9979021.55187325,6346699.750485356,-28558454.384223666,32766679.908621058,-23743283.77370746,-9678701.518658884,-2810935.341397723,-25393275.65114615,13044654.691875754,6568854.161106605,-21774782.620881546,16613429.053238682,10988074.763491448,5775383.62044072,13246405.361254888,-10771792.796098834,13755612.31521326,-35360182.30748851,-17623241.428771242,29376596.882900927,-5811697.99713327,-17113151.255987346]],[[-19177328.141939748,10262317.40315791,14186147.420755532,-15872616.712146841,12992348.035026237,30456613.323910337,32359658.189045258,-4543106.981835901,9829936.655887282,6251884.702325528,-28131764.78414392,32277110.39447072,-23388548.459174033,-9534077.034153666,-2768928.4825861584,-25013886.838634137,12849743.541036917,6470714.804575708,-21449440.39113787,16365201.970923286,10823884.770695526,5689078.551305866,13048501.33182147,-10610862.189642768,13550103.463721817,-34831843.477784984,-17359919.504180666,28937660.161767326,-5724851.280636185,-16857453.69421988]],[[-201153.5454643682,108284.90163626429,148773.86852138827,-165208.35317372208,134820.46961871017,317088.4639500667,336949.43385457154,-48419.27130966084,103490.12280172428,66056.8868418151,-294111.9223149778,337109.55052148446,-245264.5779456703,-98632.17160062156,-28359.335380193213,-262184.28859040217,133546.67348474008,68005.81265322964,-223790.5248055566,170620.83487212044,111966.7347629524,58450.21083734133,137046.0952864679,-111589.75241826902,142502.09077358517,-362494.0210301901,-180535.88130554152,300992.9710437124,-58885.328844297386,-175491.06666003278]],[[-20036193.792192757,10721891.048139518,14821481.897812001,-16583537.315529397,13574282.434763517,31820734.553168762,33809012.71717012,-4746537.492214022,10270157.670076372,6531856.569262574,-29391702.803007483,33722721.54515097,-24436018.351411067,-9961127.251577795,-2892967.2181443553,-26134154.09784564,13425281.283687327,6760502.759137934,-22410117.76485239,17098172.116580207,11308708.432209317,5943921.973323481,13632876.509287372,-11086061.466669613,14156934.31959143,-36391933.47824655,-18137462.01735648,30233761.737076826,-5981294.090368818,-17612482.82861016]],[[-204446.08628292475,110046.71966308725,151209.48193604575,-167933.73298685162,137051.36890347349,322317.9487099588,342505.6683401458,-49199.14096559882,105177.75073046607,67130.18485957393,-298942.0111126116,342651.4344237841,-249280.15055051658,-100269.30806315,-28834.849332564227,-266478.9366271001,135753.05059359074,69116.74154978184,-227473.37027211706,173430.7436426573,113825.3510609333,59427.17663995138,139286.35151815086,-113411.47274914797,144828.4329230491,-368474.7701795227,-183516.66236488448,305961.6961760365,-59868.42604747614,-178385.54060185023]],[[-21492674.530356895,11501244.793962758,15898894.212359382,-17789130.02363886,14561137.880481686,34134037.331490844,36266855.74810631,-5091518.828740113,11016692.85577464,7006638.196984602,-31528329.707593642,36174216.48527441,-26212337.75759605,-10685327.149109872,-3103314.4698635614,-28033924.666335396,14401289.156408573,7251930.695332067,-24039252.764014512,18341156.858703937,12130881.637288632,6376090.305247279,14623871.07239466,-11891913.457112169,15186009.650101366,-39037563.83359418,-19456033.4297895,32431715.48989763,-6416174.694461252,-18892875.624233354]],[[-259342.63740639974,139421.52128578862,191818.47775508024,-213374.00555663637,174247.16491216875,409509.17678916134,435144.7963874812,-62201.912015712805,133315.58044101545,85025.28859543378,-379474.10812286934,435051.2951174862,-316231.81461177196,-127565.29328063849,-36763.096068076164,-338083.6268940152,172539.98822881945,87639.26513412377,-288877.47293211886,220280.36798283507,144814.0707894749,75716.1328243675,176638.1559541489,-143785.02581586785,183615.5483382886,-468191.8335436598,-233215.24131335822,388805.2775548403,-76259.61110719753,-226645.12050652897]],[[-201391.76396689596,108412.37086905583,148950.08750008896,-165405.53703071305,134981.87733275018,317466.8222141381,337351.43277631217,-48475.69563113239,103612.22430939373,66134.54098815568,-294461.38389612624,337510.5111646899,-245555.10849500375,-98750.62000203216,-28393.739273085437,-262495.0105162839,133706.30699571123,68086.18942993048,-224056.98222565625,170824.13448067333,112101.20744398444,58520.89525504299,137208.1799846385,-111721.55564051023,142670.4038709018,-362926.73399712396,-180751.5436889258,301352.4630973336,-58956.45687474142,-175700.48464025627]],[[-259546.4918706656,139530.6025363437,191969.27639211016,-213542.7447985602,174385.28887283866,409832.9552547482,435488.80524471647,-62250.19688738772,133420.06828376435,85091.74079890372,-379773.15837568586,435394.4154723075,-316480.4348862627,-127666.65499333706,-36792.53705221377,-338349.5258525937,172676.59392280452,87708.04721687509,-289105.49272927013,220454.3407529904,144929.14521089598,75776.62071237626,176776.85924109197,-143897.81585935052,183759.5815511512,-468562.1258136521,-233399.7934751785,389112.91134155774,-76320.47861491248,-226824.32904706252]],[[-248075.60116642667,133392.6005676077,183483.83708643683,-204047.78765550695,166613.05360594124,391613.9409961783,416131.42684808775,-59533.20715824027,127540.53737228282,81352.47530964995,-362945.60064969957,416087.0331065123,-302490.5720406682,-121963.03141978911,-35135.892874790996,-323387.39145338134,164989.79152226332,83837.67942045779,-276274.81874356786,210664.89297635175,138453.90751753227,72372.96725412333,168972.02528480682,-137551.12011257972,175654.83266337175,-447725.77978118614,-223015.04332955144,371802.3581629699,-72895.46395579274,-216740.26447124017]],[[-259722.09793059746,139624.56824217906,192099.1786465802,-213688.10160267455,174504.27279895864,410111.86727581796,435785.1443031634,-62291.79085541625,133510.0770968752,85148.98462560712,-380030.76880775497,435689.98914938926,-316694.60349414544,-127753.97086870452,-36817.898357120874,-338578.5788126263,172794.2699706231,87767.29806815945,-289301.9154973876,220604.20586785272,145028.27360534872,75828.72670733237,176896.34221541576,-143994.9764253792,183883.65587594573,-468881.1061548026,-233558.7719802894,389377.9158749729,-76372.91162512978,-226978.7044041221]],[[-265283.2477157696,142600.30475732245,196212.9654647563,-218291.3081223563,178272.29444603453,418944.54381702613,445169.7059285416,-63609.00215470792,136360.50544706566,86961.8007362672,-388188.85970458994,445050.3124289147,-323476.9645822531,-130519.11839112123,-37621.04840439461,-345832.30240264785,176520.87330253646,89643.67328561572,-295522.2955636744,225350.18303768928,148167.50382171554,77478.83629221134,180680.16788322202,-147071.8888115869,187812.88192283793,-478982.6792801922,-238593.3549547466,397770.1655766234,-78033.37723559338,-231867.51338987713]],[[-265548.8409606417,142742.42204375996,196409.43454614384,-218511.15124897705,178452.25023479311,419366.3809036193,445617.9003253967,-63671.91044466153,136496.63817933283,87048.37846421661,-388578.4794625452,445497.3492340533,-323800.8812827325,-130651.17822252277,-37659.40580087103,-346178.73076011013,176698.8510066999,89733.28651342887,-295819.3727851058,225576.84470394874,148317.42935362415,77557.6433691599,180860.87845135352,-147218.83812538147,188000.53662302464,-479465.1172090964,-238833.8000570039,398170.9684530324,-78112.6789027877,-232100.99651697226]],[[-195157.31200832006,105076.3545663647,144338.2343264655,-160245.0089005629,130757.65197557585,307564.7516551632,326830.6590396084,-46999.00629853728,100416.68754143828,64102.2427426063,-285315.5727357029,327016.9103703833,-237951.59015743525,-95650.68922281679,-27493.349861060084,-254363.06065164309,129528.51457166426,65982.6368191584,-217083.48534363552,165503.55010426673,108581.90285286687,56671.00281719795,132966.23717481463,-108272.11385354256,138265.45669809764,-351602.1384028456,-175107.41128857076,291944.1429458393,-57094.95458165362,-170219.77544633907]],[[-195708.01028250105,105371.02977322144,144745.60607307058,-160700.84590981712,131130.78398932848,308439.4160529127,327759.9743953682,-47129.44443044766,100698.95398520715,64281.75862369439,-286123.43563295447,327943.8255003363,-238623.22007038095,-95924.5106495496,-27572.882576780372,-255081.36769546015,129897.54509641542,66168.44670270522,-217699.46453851133,165973.52511621485,108892.76818273436,56834.406526090184,133340.93419711365,-108576.80809957936,138654.55213455934,-352602.45652078185,-175605.965771431,292775.19364681444,-57259.38380606641,-170703.8945179804]],[[-195214.39125831448,105106.89731652013,144380.45794483388,-160292.2558883016,130796.32668456344,307655.4096255275,326926.98151963425,-47012.52606260626,100445.94413740798,64120.849359577885,-285399.3068064916,327112.98406973324,-238021.20383429265,-95679.07050237239,-27501.59333661861,-254437.51236004508,129566.76416598009,66001.89580232877,-217147.33088683785,165552.26247991022,108614.12369086477,56687.9394258404,133005.0740951587,-108303.69506571771,138305.78599769916,-351705.82023844344,-175159.08589388046,292030.2804061202,-57111.99748381381,-170269.95383768846]],[[-195709.175165154,105371.65309465317,144746.4677795679,-160701.81013405666,131131.57326910377,308441.26621557324,327761.9401602667,-47129.72034400009,100699.55105859428,64282.13835057136,-286125.14449154196,327945.7861880781,-238624.64075766376,-95925.08985933645,-27573.050810975445,-255082.8871180806,129898.32570038104,66168.83974317808,-217700.76750878076,165974.51924633002,108893.42575085677,56834.75217116452,133341.72678732473,-108577.45261411354,138655.37518149,-352604.5724766104,-175607.02035521282,292776.9515541671,-57259.73162039621,-170704.91856678342]],[[-19995773.23779746,10700262.261949092,14791581.328635085,-16550079.457584683,13546895.018521938,31756535.296471544,33740802.149516284,-4736963.498879932,10249439.67134777,6518680.331426835,-29332406.691664375,33654687.151025064,-24386721.568213217,-9941029.106381478,-2887129.6177510032,-26081431.27248304,13398194.91153297,6746864.549509883,-22364905.673730668,17063676.547181286,11285891.311537916,5931928.348477836,13605374.223404754,-11063697.295719234,14128375.208383296,-36318511.39796352,-18100868.75106481,30172763.670369662,-5969225.193985516,-17576949.103180967]],[[-22348691.46008212,11959294.106383037,16532121.386176672,-18497692.61664356,15141142.096528577,35493633.98796302,37711402.998171926,-5294274.592525772,11455453.726995487,7285681.441844016,-32784088.712781418,37615032.774082005,-27256333.359082982,-11110960.909000263,-3226941.78869771,-29150476.17752859,14974917.932061037,7540757.469417903,-24996743.723935127,19071695.8591642,12614097.215959078,6630088.4522356065,15206307.97049931,-12365536.573845662,15790827.744702088,-40592479.264077075,-20230996.95832685,33723518.10277618,-6671766.92425036,-19645400.447275773]],[[-192329.26814762637,103563.08596044946,142246.22637761192,-157904.11350295978,128841.47800119617,303073.0192561439,322058.2733073059,-46329.15717163,98967.14262581724,63180.360817039684,-281166.89129984385,322256.85070514074,-234502.51660660713,-94244.51266279434,-27084.919293974028,-250674.28238484904,127633.4032941082,65028.43281116103,-213920.1992720126,163090.05071715516,106985.4918436954,55831.86298797928,131042.02628980904,-106707.3936931706,136267.3045122278,-346465.1266401383,-172547.1455122326,287676.38337039266,-56250.548342482485,-167733.64096473734]],[[-19468190.89498155,10417956.245583877,14401309.285762683,-16113376.514140403,13189425.472629488,30918585.526556917,32850495.432402015,-4612000.595503938,9979021.55187325,6346699.750485356,-28558454.384223666,32766679.908621058,-23743283.77370746,-9678701.518658884,-2810935.341397723,-25393275.65114615,13044654.691875754,6568854.161106605,-21774782.620881546,16613429.053238682,10988074.763491448,5775383.62044072,13246405.361254888,-10771792.796098834,13755612.31521326,-35360182.30748851,-17623241.428771242,29376596.882900927,-5811697.99713327,-17113151.255987346]],[[-19177328.141939748,10262317.40315791,14186147.420755532,-15872616.712146841,12992348.035026237,30456613.323910337,32359658.189045258,-4543106.981835901,9829936.655887282,6251884.702325528,-28131764.78414392,32277110.39447072,-23388548.459174033,-9534077.034153666,-2768928.4825861584,-25013886.838634137,12849743.541036917,6470714.804575708,-21449440.39113787,16365201.970923286,10823884.770695526,5689078.551305866,13048501.33182147,-10610862.189642768,13550103.463721817,-34831843.477784984,-17359919.504180666,28937660.161767326,-5724851.280636185,-16857453.69421988]],[[-201153.5454643682,108284.90163626429,148773.86852138827,-165208.35317372208,134820.46961871017,317088.4639500667,336949.43385457154,-48419.27130966084,103490.12280172428,66056.8868418151,-294111.9223149778,337109.55052148446,-245264.5779456703,-98632.17160062156,-28359.335380193213,-262184.28859040217,133546.67348474008,68005.81265322964,-223790.5248055566,170620.83487212044,111966.7347629524,58450.21083734133,137046.0952864679,-111589.75241826902,142502.09077358517,-362494.0210301901,-180535.88130554152,300992.9710437124,-58885.328844297386,-175491.06666003278]],[[-20036193.792192757,10721891.048139518,14821481.897812001,-16583537.315529397,13574282.434763517,31820734.553168762,33809012.71717012,-4746537.492214022,10270157.670076372,6531856.569262574,-29391702.803007483,33722721.54515097,-24436018.351411067,-9961127.251577795,-2892967.2181443553,-26134154.09784564,13425281.283687327,6760502.759137934,-22410117.76485239,17098172.116580207,11308708.432209317,5943921.973323481,13632876.509287372,-11086061.466669613,14156934.31959143,-36391933.47824655,-18137462.01735648,30233761.737076826,-5981294.090368818,-17612482.82861016]],[[-204446.08628292475,110046.71966308725,151209.48193604575,-167933.73298685162,137051.36890347349,322317.9487099588,342505.6683401458,-49199.14096559882,105177.75073046607,67130.18485957393,-298942.0111126116,342651.4344237841,-249280.15055051658,-100269.30806315,-28834.849332564227,-266478.9366271001,135753.05059359074,69116.74154978184,-227473.37027211706,173430.7436426573,113825.3510609333,59427.17663995138,139286.35151815086,-113411.47274914797,144828.4329230491,-368474.7701795227,-183516.66236488448,305961.6961760365,-59868.42604747614,-178385.54060185023]],[[-21492674.530356895,11501244.793962758,15898894.212359382,-17789130.02363886,14561137.880481686,34134037.331490844,36266855.74810631,-5091518.828740113,11016692.85577464,7006638.196984602,-31528329.707593642,36174216.48527441,-26212337.75759605,-10685327.149109872,-3103314.4698635614,-28033924.666335396,14401289.156408573,7251930.695332067,-24039252.764014512,18341156.858703937,12130881.637288632,6376090.305247279,14623871.07239466,-11891913.457112169,15186009.650101366,-39037563.83359418,-19456033.4297895,32431715.48989763,-6416174.694461252,-18892875.624233354]],[[-259342.63740639974,139421.52128578862,191818.47775508024,-213374.00555663637,174247.16491216875,409509.17678916134,435144.7963874812,-62201.912015712805,133315.58044101545,85025.28859543378,-379474.10812286934,435051.2951174862,-316231.81461177196,-127565.29328063849,-36763.096068076164,-338083.6268940152,172539.98822881945,87639.26513412377,-288877.47293211886,220280.36798283507,144814.0707894749,75716.1328243675,176638.1559541489,-143785.02581586785,183615.5483382886,-468191.8335436598,-233215.24131335822,388805.2775548403,-76259.61110719753,-226645.12050652897]],[[-201391.76396689596,108412.37086905583,148950.08750008896,-165405.53703071305,134981.87733275018,317466.8222141381,337351.43277631217,-48475.69563113239,103612.22430939373,66134.54098815568,-294461.38389612624,337510.5111646899,-245555.10849500375,-98750.62000203216,-28393.739273085437,-262495.0105162839,133706.30699571123,68086.18942993048,-224056.98222565625,170824.13448067333,112101.20744398444,58520.89525504299,137208.1799846385,-111721.55564051023,142670.4038709018,-362926.73399712396,-180751.5436889258,301352.4630973336,-58956.45687474142,-175700.48464025627]],[[-259546.4918706656,139530.6025363437,191969.27639211016,-213542.7447985602,174385.28887283866,409832.9552547482,435488.80524471647,-62250.19688738772,133420.06828376435,85091.74079890372,-379773.15837568586,435394.4154723075,-316480.4348862627,-127666.65499333706,-36792.53705221377,-338349.5258525937,172676.59392280452,87708.04721687509,-289105.49272927013,220454.3407529904,144929.14521089598,75776.62071237626,176776.85924109197,-143897.81585935052,183759.5815511512,-468562.1258136521,-233399.7934751785,389112.91134155774,-76320.47861491248,-226824.32904706252]],[[-248075.60116642667,133392.6005676077,183483.83708643683,-204047.78765550695,166613.05360594124,391613.9409961783,416131.42684808775,-59533.20715824027,127540.53737228282,81352.47530964995,-362945.60064969957,416087.0331065123,-302490.5720406682,-121963.03141978911,-35135.892874790996,-323387.39145338134,164989.79152226332,83837.67942045779,-276274.81874356786,210664.89297635175,138453.90751753227,72372.96725412333,168972.02528480682,-137551.12011257972,175654.83266337175,-447725.77978118614,-223015.04332955144,371802.3581629699,-72895.46395579274,-216740.26447124017]],[[-259722.09793059746,139624.56824217906,192099.1786465802,-213688.10160267455,174504.27279895864,410111.86727581796,435785.1443031634,-62291.79085541625,133510.0770968752,85148.98462560712,-380030.76880775497,435689.98914938926,-316694.60349414544,-127753.97086870452,-36817.898357120874,-338578.5788126263,172794.2699706231,87767.29806815945,-289301.9154973876,220604.20586785272,145028.27360534872,75828.72670733237,176896.34221541576,-143994.9764253792,183883.65587594573,-468881.1061548026,-233558.7719802894,389377.9158749729,-76372.91162512978,-226978.7044041221]],[[-265283.2477157696,142600.30475732245,196212.9654647563,-218291.3081223563,178272.29444603453,418944.54381702613,445169.7059285416,-63609.00215470792,136360.50544706566,86961.8007362672,-388188.85970458994,445050.3124289147,-323476.9645822531,-130519.11839112123,-37621.04840439461,-345832.30240264785,176520.87330253646,89643.67328561572,-295522.2955636744,225350.18303768928,148167.50382171554,77478.83629221134,180680.16788322202,-147071.8888115869,187812.88192283793,-478982.6792801922,-238593.3549547466,397770.1655766234,-78033.37723559338,-231867.51338987713]],[[-265549.1855705117,142742.95724202757,196408.8392607565,-218511.20914855704,178452.6106721569,419365.81809264753,445617.9759067858,-63672.1951637349,136496.3085657679,87048.21070186114,-388578.6802766441,445496.87162506295,-323800.6046683753,-130651.32145109017,-37659.43037193958,-346179.27369366493,176698.89949522115,89733.77751906279,-295818.77781307366,225576.90836966547,148317.33530434934,77558.07995055732,180860.47651292308,-147218.87583129466,188000.2626022395,-479464.84171070444,-238833.26950005055,398171.2763123792,-78112.82839697383,-232101.18344260514]],[[-195157.65661819006,105076.88976463229,144337.63904107816,-160245.0668001429,130758.01241293967,307564.18884419143,326830.7346209975,-46999.291017610645,100416.35792787332,64102.07498025082,-285315.77354980184,327016.43276139296,-237951.31354307805,-95650.8324513842,-27493.374432128636,-254363.60358519782,129528.56306018551,65983.12782479232,-217082.89037160343,165503.61376998347,108581.8088035921,56671.43939859538,132965.83523638418,-108272.15155945574,138265.1826773125,-351601.86290445365,-175106.88073161742,291944.4508051862,-57095.10407583976,-170219.96237197195]],[[-195708.35489237105,105371.56497148903,144745.01078768325,-160700.9038093971,131131.1444266923,308438.85324194096,327760.0499767573,-47129.72914952102,100698.62437164219,64281.59086133891,-286123.6364470534,327943.34789134597,-238622.94345602376,-95924.65387811701,-27572.907147848928,-255081.9106290149,129897.59358493667,66168.93770833913,-217698.86956647923,165973.58878193158,108892.67413345959,56834.84310748761,133340.5322586832,-108576.84580549254,138654.2781137742,-352602.1810223899,-175605.43521447765,292775.5015061613,-57259.53330025255,-170704.08144361328]],[[-195214.73586818448,105107.43251478772,144379.86265944655,-160292.31378788158,130796.68712192726,307654.84681455576,326927.0571010234,-47012.810781679626,100445.61452384302,64120.68159722241,-285399.5076205905,327112.5064607429,-238020.92721993546,-95679.2137309398,-27501.617907687163,-254438.0552935998,129566.81265450134,66002.3868079627,-217146.73591480576,165552.32614562695,108614.02964159,56688.37600723783,133004.67215672825,-108303.7327716309,138305.51197691401,-351705.5447400515,-175158.55533692712,292030.588265467,-57112.146977999946,-170270.14076332134]],[[-195709.519775024,105372.18829292076,144745.87249418057,-160701.86803363665,131131.93370646756,308440.7034046015,327762.01574165584,-47130.005063073455,100699.22144502932,64281.97058821588,-286125.3453056409,327945.3085790878,-238624.36414330656,-95925.23308790386,-27573.075382044,-255083.43005163534,129898.3741889023,66169.33074881199,-217700.17253674867,165974.58291204675,108893.33170158199,56835.188752561946,133341.3248488943,-108577.49032002673,138655.10116070486,-352604.2969782185,-175606.48979825948,292777.25941351394,-57259.88111458235,-170705.1054924163]],[[-19995773.582407333,10700262.79714736,14791580.733349698,-16550079.515484262,13546895.378959302,31756534.73366057,33740802.22509767,-4736963.783599005,10249439.341734204,6518680.163664479,-29332406.892478473,33654686.67341608,-24386721.291598856,-9941029.249610044,-2887129.642322072,-26081431.815416597,13398194.960021492,6746865.040515517,-22364905.078758635,17063676.610847004,11285891.21748864,5931928.785059233,13605373.821466325,-11063697.333425147,14128374.93436251,-36318511.122465126,-18100868.22050786,30172763.97822901,-5969225.343479702,-17576949.290106602]],[[-22348691.804691993,11959294.641581304,16532120.790891284,-18497692.67454314,15141142.45696594,35493633.42515205,37711403.07375331,-5294274.877244845,11455453.39738192,7285681.27408166,-32784088.913595516,37615032.29647302,-27256333.08246862,-11110961.052228829,-3226941.8132687784,-29150476.720462147,14974917.980549559,7540757.960423537,-24996743.128963094,19071695.92282992,12614097.121909803,6630088.888817004,15206307.568560882,-12365536.611551575,15790827.470681302,-40592478.988578685,-20230996.4277699,33723518.41063552,-6671767.073744546,-19645400.634201407]],[[-192329.61275749636,103563.62115871705,142245.6310922246,-157904.17140253977,128841.83843856,303072.45644517214,322058.348888695,-46329.44189070337,98966.81301225229,63180.193054684205,-281167.0921139428,322256.3730961504,-234502.23999224993,-94244.65589136175,-27084.94386504258,-250674.82531840377,127633.45178262945,65028.92381679495,-213919.6042999805,163090.1143828719,106985.39779442063,55832.29956937671,131041.62435137863,-106707.43139908378,136267.03049144265,-346464.85114174633,-172546.61495527925,287676.6912297395,-56250.69783666862,-167733.82789037022]],[[-19468191.23959142,10417956.780782145,14401308.690477295,-16113376.572039982,13189425.83306685,30918584.963745944,32850495.507983405,-4612000.880223012,9979021.222259684,6346699.582723,-28558454.585037764,32766679.431012068,-23743283.4970931,-9678701.66188745,-2810935.365968792,-25393276.19407971,13044654.740364276,6568854.652112239,-21774782.025909513,16613429.116904398,10988074.669442173,5775384.057022117,13246404.959316459,-10771792.833804747,13755612.041192474,-35360182.03199012,-17623240.89821429,29376597.190760273,-5811698.146627456,-17113151.44291298]],[[-19177328.48654962,10262317.938356178,14186146.825470144,-15872616.77004642,12992348.3954636,30456612.761099365,32359658.26462665,-4543107.266554974,9829936.326273715,6251884.534563172,-28131764.98495802,32277109.91686173,-23388548.182559673,-9534077.177382233,-2768928.507157227,-25013887.381567694,12849743.589525439,6470715.295581342,-21449439.796165835,16365202.034589002,10823884.676646251,5689078.987887263,13048500.92988304,-10610862.227348682,13550103.189701032,-34831843.20228659,-17359918.973623715,28937660.469626673,-5724851.430130371,-16857453.881145515]]],"activated_output":[[[0.0,1.0,1.0,0.0,1.0,1.0,1.0,0.0,1.0,1.0,0.0,1.0,0.0,0.0,0.0,0.0,1.0,1.0,0.0,1.0,1.0,1.0,1.0,0.0,1.0,0.0,0.0,1.0,0.0,0.0]],[[0.0,1.0,1.0,0.0,1.0,1.0,1.0,0.0,1.0,1.0,0.0,1.0,0.0,0.0,0.0,0.0,1.0,1.0,0.0,1.0,1.0,1.0,1.0,0.0,1.0,0.0,0.0,1.0,0.0,0.0]],[[0.0,1.0,1.0,0.0,1.0,1.0,1.0,0.0,1.0,1.0,0.0,1.0,0.0,0.0,0.0,0.0,1.0,1.0,0.0,1.0,1.0,1.0,1.0,0.0,1.0,0.0,0.0,1.0,0.0,0.0]],[[0.0,1.0,1.0,0.0,1.0,1.0,1.0,0.0,1.0,1.0,0.0,1.0,0.0,0.0,0.0,0.0,1.0,1.0,0.0,1.0,1.0,1.0,1.0,0.0,1.0,0.0,0.0,1.0,0.0,0.0]],[[0.0,1.0,1.0,0.0,1.0,1.0,1.0,0.0,1.0,1.0,0.0,1.0,0.0,0.0,0.0,0.0,1.0,1.0,0.0,1.0,1.0,1.0,1.0,0.0,1.0,0.0,0.0,1.0,0.0,0.0]],[[0.0,1.0,1.0,0.0,1.0,1.0,1.0,0.0,1.0,1.0,0.0,1.0,0.0,0.0,0.0,0.0,1.0,1.0,0.0,1.0,1.0,1.0,1.0,0.0,1.0,0.0,0.0,1.0,0.0,0.0]],[[0.0,1.0,1.0,0.0,1.0,1.0,1.0,0.0,1.0,1.0,0.0,1.0,0.0,0.0,0.0,0.0,1.0,1.0,0.0,1.0,1.0,1.0,1.0,0.0,1.0,0.0,0.0,1.0,0.0,0.0]],[[0.0,1.0,1.0,0.0,1.0,1.0,1.0,0.0,1.0,1.0,0.0,1.0,0.0,0.0,0.0,0.0,1.0,1.0,0.0,1.0,1.0,1.0,1.0,0.0,1.0,0.0,0.0,1.0,0.0,0.0]],[[0.0,1.0,1.0,0.0,1.0,1.0,1.0,0.0,1.0,1.0,0.0,1.0,0.0,0.0,0.0,0.0,1.0,1.0,0.0,1.0,1.0,1.0,1.0,0.0,1.0,0.0,0.0,1.0,0.0,0.0]],[[0.0,1.0,1.0,0.0,1.0,1.0,1.0,0.0,1.0,1.0,0.0,1.0,0.0,0.0,0.0,0.0,1.0,1.0,0.0,1.0,1.0,1.0,1.0,0.0,1.0,0.0,0.0,1.0,0.0,0.0]],[[0.0,1.0,1.0,0.0,1.0,1.0,1.0,0.0,1.0,1.0,0.0,1.0,0.0,0.0,0.0,0.0,1.0,1.0,0.0,1.0,1.0,1.0,1.0,0.0,1.0,0.0,0.0,1.0,0.0,0.0]],[[0.0,1.0,1.0,0.0,1.0,1.0,1.0,0.0,1.0,1.0,0.0,1.0,0.0,0.0,0.0,0.0,1.0,1.0,0.0,1.0,1.0,1.0,1.0,0.0,1.0,0.0,0.0,1.0,0.0,0.0]],[[0.0,1.0,1.0,0.0,1.0,1.0,1.0,0.0,1.0,1.0,0.0,1.0,0.0,0.0,0.0,0.0,1.0,1.0,0.0,1.0,1.0,1.0,1.0,0.0,1.0,0.0,0.0,1.0,0.0,0.0]],[[0.0,1.0,1.0,0.0,1.0,1.0,1.0,0.0,1.0,1.0,0.0,1.0,0.0,0.0,0.0,0.0,1.0,1.0,0.0,1.0,1.0,1.0,1.0,0.0,1.0,0.0,0.0,1.0,0.0,0.0]],[[0.0,1.0,1.0,0.0,1.0,1.0,1.0,0.0,1.0,1.0,0.0,1.0,0.0,0.0,0.0,0.0,1.0,1.0,0.0,1.0,1.0,1.0,1.0,0.0,1.0,0.0,0.0,1.0,0.0,0.0]],[[0.0,1.0,1.0,0.0,1.0,1.0,1.0,0.0,1.0,1.0,0.0,1.0,0.0,0.0,0.0,0.0,1.0,1.0,0.0,1.0,1.0,1.0,1.0,0.0,1.0,0.0,0.0,1.0,0.0,0.0]],[[0.0,1.0,1.0,0.0,1.0,1.0,1.0,0.0,1.0,1.0,0.0,1.0,0.0,0.0,0.0,0.0,1.0,1.0,0.0,1.0,1.0,1.0,1.0,0.0,1.0,0.0,0.0,1.0,0.0,0.0]],[[0.0,1.0,1.0,0.0,1.0,1.0,1.0,0.0,1.0,1.0,0.0,1.0,0.0,0.0,0.0,0.0,1.0,1.0,0.0,1.0,1.0,1.0,1.0,0.0,1.0,0.0,0.0,1.0,0.0,0.0]],[[0.0,1.0,1.0,0.0,1.0,1.0,1.0,0.0,1.0,1.0,0.0,1.0,0.0,0.0,0.0,0.0,1.0,1.0,0.0,1.0,1.0,1.0,1.0,0.0,1.0,0.0,0.0,1.0,0.0,0.0]],[[0.0,1.0,1.0,0.0,1.0,1.0,1.0,0.0,1.0,1.0,0.0,1.0,0.0,0.0,0.0,0.0,1.0,1.0,0.0,1.0,1.0,1.0,1.0,0.0,1.0,0.0,0.0,1.0,0.0,0.0]],[[0.0,1.0,1.0,0.0,1.0,1.0,1.0,0.0,1.0,1.0,0.0,1.0,0.0,0.0,0.0,0.0,1.0,1.0,0.0,1.0,1.0,1.0,1.0,0.0,1.0,0.0,0.0,1.0,0.0,0.0]],[[0.0,1.0,1.0,0.0,1.0,1.0,1.0,0.0,1.0,1.0,0.0,1.0,0.0,0.0,0.0,0.0,1.0,1.0,0.0,1.0,1.0,1.0,1.0,0.0,1.0,0.0,0.0,1.0,0.0,0.0]],[[0.0,1.0,1.0,0.0,1.0,1.0,1.0,0.0,1.0,1.0,0.0,1.0,0.0,0.0,0.0,0.0,1.0,1.0,0.0,1.0,1.0,1.0,1.0,0.0,1.0,0.0,0.0,1.0,0.0,0.0]],[[0.0,1.0,1.0,0.0,1.0,1.0,1.0,0.0,1.0,1.0,0.0,1.0,0.0,0.0,0.0,0.0,1.0,1.0,0.0,1.0,1.0,1.0,1.0,0.0,1.0,0.0,0.0,1.0,0.0,0.0]],[[0.0,1.0,1.0,0.0,1.0,1.0,1.0,0.0,1.0,1.0,0.0,1.0,0.0,0.0,0.0,0.0,1.0,1.0,0.0,1.0,1.0,1.0,1.0,0.0,1.0,0.0,0.0,1.0,0.0,0.0]],[[0.0,1.0,1.0,0.0,1.0,1.0,1.0,0.0,1.0,1.0,0.0,1.0,0.0,0.0,0.0,0.0,1.0,1.0,0.0,1.0,1.0,1.0,1.0,0.0,1.0,0.0,0.0,1.0,0.0,0.0]],[[0.0,1.0,1.0,0.0,1.0,1.0,1.0,0.0,1.0,1.0,0.0,1.0,0.0,0.0,0.0,0.0,1.0,1.0,0.0,1.0,1.0,1.0,1.0,0.0,1.0,0.0,0.0,1.0,0.0,0.0]],[[0.0,1.0,1.0,0.0,1.0,1.0,1.0,0.0,1.0,1.0,0.0,1.0,0.0,0.0,0.0,0.0,1.0,1.0,0.0,1.0,1.0,1.0,1.0,0.0,1.0,0.0,0.0,1.0,0.0,0.0]],[[0.0,1.0,1.0,0.0,1.0,1.0,1.0,0.0,1.0,1.0,0.0,1.0,0.0,0.0,0.0,0.0,1.0,1.0,0.0,1.0,1.0,1.0,1.0,0.0,1.0,0.0,0.0,1.0,0.0,0.0]],[[0.0,1.0,1.0,0.0,1.0,1.0,1.0,0.0,1.0,1.0,0.0,1.0,0.0,0.0,0.0,0.0,1.0,1.0,0.0,1.0,1.0,1.0,1.0,0.0,1.0,0.0,0.0,1.0,0.0,0.0]],[[0.0,1.0,1.0,0.0,1.0,1.0,1.0,0.0,1.0,1.0,0.0,1.0,0.0,0.0,0.0,0.0,1.0,1.0,0.0,1.0,1.0,1.0,1.0,0.0,1.0,0.0,0.0,1.0,0.0,0.0]],[[0.0,1.0,1.0,0.0,1.0,1.0,1.0,0.0,1.0,1.0,0.0,1.0,0.0,0.0,0.0,0.0,1.0,1.0,0.0,1.0,1.0,1.0,1.0,0.0,1.0,0.0,0.0,1.0,0.0,0.0]],[[0.0,1.0,1.0,0.0,1.0,1.0,1.0,0.0,1.0,1.0,0.0,1.0,0.0,0.0,0.0,0.0,1.0,1.0,0.0,1.0,1.0,1.0,1.0,0.0,1.0,0.0,0.0,1.0,0.0,0.0]],[[0.0,1.0,1.0,0.0,1.0,1.0,1.0,0.0,1.0,1.0,0.0,1.0,0.0,0.0,0.0,0.0,1.0,1.0,0.0,1.0,1.0,1.0,1.0,0.0,1.0,0.0,0.0,1.0,0.0,0.0]],[[0.0,1.0,1.0,0.0,1.0,1.0,1.0,0.0,1.0,1.0,0.0,1.0,0.0,0.0,0.0,0.0,1.0,1.0,0.0,1.0,1.0,1.0,1.0,0.0,1.0,0.0,0.0,1.0,0.0,0.0]],[[0.0,1.0,1.0,0.0,1.0,1.0,1.0,0.0,1.0,1.0,0.0,1.0,0.0,0.0,0.0,0.0,1.0,1.0,0.0,1.0,1.0,1.0,1.0,0.0,1.0,0.0,0.0,1.0,0.0,0.0]],[[0.0,1.0,1.0,0.0,1.0,1.0,1.0,0.0,1.0,1.0,0.0,1.0,0.0,0.0,0.0,0.0,1.0,1.0,0.0,1.0,1.0,1.0,1.0,0.0,1.0,0.0,0.0,1.0,0.0,0.0]],[[0.0,1.0,1.0,0.0,1.0,1.0,1.0,0.0,1.0,1.0,0.0,1.0,0.0,0.0,0.0,0.0,1.0,1.0,0.0,1.0,1.0,1.0,1.0,0.0,1.0,0.0,0.0,1.0,0.0,0.0]],[[0.0,1.0,1.0,0.0,1.0,1.0,1.0,0.0,1.0,1.0,0.0,1.0,0.0,0.0,0.0,0.0,1.0,1.0,0.0,1.0,1.0,1.0,1.0,0.0,1.0,0.0,0.0,1.0,0.0,0.0]],[[0.0,1.0,1.0,0.0,1.0,1.0,1.0,0.0,1.0,1.0,0.0,1.0,0.0,0.0,0.0,0.0,1.0,1.0,0.0,1.0,1.0,1.0,1.0,0.0,1.0,0.0,0.0,1.0,0.0,0.0]],[[0.0,1.0,1.0,0.0,1.0,1.0,1.0,0.0,1.0,1.0,0.0,1.0,0.0,0.0,0.0,0.0,1.0,1.0,0.0,1.0,1.0,1.0,1.0,0.0,1.0,0.0,0.0,1.0,0.0,0.0]],[[0.0,1.0,1.0,0.0,1.0,1.0,1.0,0.0,1.0,1.0,0.0,1.0,0.0,0.0,0.0,0.0,1.0,1.0,0.0,1.0,1.0,1.0,1.0,0.0,1.0,0.0,0.0,1.0,0.0,0.0]],[[0.0,1.0,1.0,0.0,1.0,1.0,1.0,0.0,1.0,1.0,0.0,1.0,0.0,0.0,0.0,0.0,1.0,1.0,0.0,1.0,1.0,1.0,1.0,0.0,1.0,0.0,0.0,1.0,0.0,0.0]],[[0.0,1.0,1.0,0.0,1.0,1.0,1.0,0.0,1.0,1.0,0.0,1.0,0.0,0.0,0.0,0.0,1.0,1.0,0.0,1.0,1.0,1.0,1.0,0.0,1.0,0.0,0.0,1.0,0.0,0.0]],[[0.0,1.0,1.0,0.0,1.0,1.0,1.0,0.0,1.0,1.0,0.0,1.0,0.0,0.0,0.0,0.0,1.0,1.0,0.0,1.0,1.0,1.0,1.0,0.0,1.0,0.0,0.0,1.0,0.0,0.0]],[[0.0,1.0,1.0,0.0,1.0,1.0,1.0,0.0,1.0,1.0,0.0,1.0,0.0,0.0,0.0,0.0,1.0,1.0,0.0,1.0,1.0,1.0,1.0,0.0,1.0,0.0,0.0,1.0,0.0,0.0]],[[0.0,1.0,1.0,0.0,1.0,1.0,1.0,0.0,1.0,1.0,0.0,1.0,0.0,0.0,0.0,0.0,1.0,1.0,0.0,1.0,1.0,1.0,1.0,0.0,1.0,0.0,0.0,1.0,0.0,0.0]],[[0.0,1.0,1.0,0.0,1.0,1.0,1.0,0.0,1.0,1.0,0.0,1.0,0.0,0.0,0.0,0.0,1.0,1.0,0.0,1.0,1.0,1.0,1.0,0.0,1.0,0.0,0.0,1.0,0.0,0.0]],[[0.0,1.0,1.0,0.0,1.0,1.0,1.0,0.0,1.0,1.0,0.0,1.0,0.0,0.0,0.0,0.0,1.0,1.0,0.0,1.0,1.0,1.0,1.0,0.0,1.0,0.0,0.0,1.0,0.0,0.0]],[[0.0,1.0,1.0,0.0,1.0,1.0,1.0,0.0,1.0,1.0,0.0,1.0,0.0,0.0,0.0,0.0,1.0,1.0,0.0,1.0,1.0,1.0,1.0,0.0,1.0,0.0,0.0,1.0,0.0,0.0]]],"gradient":[[0.0,0.0,0.0,0.0,0.0,0.0,0.0,0.0,0.0,0.0,0.0,0.0,0.0,0.0,0.0,0.0,0.0,0.0,0.0,0.0,0.0,0.0,0.0,0.0,0.0,0.0,0.0,0.0,0.0,0.0],[0.0,0.0,0.0,0.0,0.0,0.0,0.0,0.0,0.0,0.0,0.0,0.0,0.0,0.0,0.0,0.0,0.0,0.0,0.0,0.0,0.0,0.0,0.0,0.0,0.0,0.0,0.0,0.0,0.0,0.0],[0.0,0.0,0.0,0.0,0.0,0.0,0.0,0.0,0.0,0.0,0.0,0.0,0.0,0.0,0.0,0.0,0.0,0.0,0.0,0.0,0.0,0.0,0.0,0.0,0.0,0.0,0.0,0.0,0.0,0.0],[0.0,0.0,0.0,0.0,0.0,0.0,0.0,0.0,0.0,0.0,0.0,0.0,0.0,0.0,0.0,0.0,0.0,0.0,0.0,0.0,0.0,0.0,0.0,0.0,0.0,0.0,0.0,0.0,0.0,0.0],[0.0,0.0,0.0,0.0,0.0,0.0,0.0,0.0,0.0,0.0,0.0,0.0,0.0,0.0,0.0,0.0,0.0,0.0,0.0,0.0,0.0,0.0,0.0,0.0,0.0,0.0,0.0,0.0,0.0,0.0],[0.0,0.0,0.0,0.0,0.0,0.0,0.0,0.0,0.0,0.0,0.0,0.0,0.0,0.0,0.0,0.0,0.0,0.0,0.0,0.0,0.0,0.0,0.0,0.0,0.0,0.0,0.0,0.0,0.0,0.0]],"errors":[[0.0,0.0,0.0,0.0,0.0,0.0,0.0,0.0,0.0,0.0,0.0,0.0,0.0,0.0,0.0,0.0,0.0,0.0,0.0,0.0,0.0,0.0,0.0,0.0,0.0,0.0,0.0,0.0,0.0,0.0],[0.0,0.0,0.0,0.0,0.0,0.0,0.0,0.0,0.0,0.0,0.0,0.0,0.0,0.0,0.0,0.0,0.0,0.0,0.0,0.0,0.0,0.0,0.0,0.0,0.0,0.0,0.0,0.0,0.0,0.0],[0.0,0.0,0.0,0.0,0.0,0.0,0.0,0.0,0.0,0.0,0.0,0.0,0.0,0.0,0.0,0.0,0.0,0.0,0.0,0.0,0.0,0.0,0.0,0.0,0.0,0.0,0.0,0.0,0.0,0.0],[0.0,0.0,0.0,0.0,0.0,0.0,0.0,0.0,0.0,0.0,0.0,0.0,0.0,0.0,0.0,0.0,0.0,0.0,0.0,0.0,0.0,0.0,0.0,0.0,0.0,0.0,0.0,0.0,0.0,0.0],[0.0,0.0,0.0,0.0,0.0,0.0,0.0,0.0,0.0,0.0,0.0,0.0,0.0,0.0,0.0,0.0,0.0,0.0,0.0,0.0,0.0,0.0,0.0,0.0,0.0,0.0,0.0,0.0,0.0,0.0],[0.0,0.0,0.0,0.0,0.0,0.0,0.0,0.0,0.0,0.0,0.0,0.0,0.0,0.0,0.0,0.0,0.0,0.0,0.0,0.0,0.0,0.0,0.0,0.0,0.0,0.0,0.0,0.0,0.0,0.0],[0.0,0.0,0.0,0.0,0.0,0.0,0.0,0.0,0.0,0.0,0.0,0.0,0.0,0.0,0.0,0.0,0.0,0.0,0.0,0.0,0.0,0.0,0.0,0.0,0.0,0.0,0.0,0.0,0.0,0.0],[0.0,0.0,0.0,0.0,0.0,0.0,0.0,0.0,0.0,0.0,0.0,0.0,0.0,0.0,0.0,0.0,0.0,0.0,0.0,0.0,0.0,0.0,0.0,0.0,0.0,0.0,0.0,0.0,0.0,0.0],[0.0,0.0,0.0,0.0,0.0,0.0,0.0,0.0,0.0,0.0,0.0,0.0,0.0,0.0,0.0,0.0,0.0,0.0,0.0,0.0,0.0,0.0,0.0,0.0,0.0,0.0,0.0,0.0,0.0,0.0],[0.0,0.0,0.0,0.0,0.0,0.0,0.0,0.0,0.0,0.0,0.0,0.0,0.0,0.0,0.0,0.0,0.0,0.0,0.0,0.0,0.0,0.0,0.0,0.0,0.0,0.0,0.0,0.0,0.0,0.0],[0.0,0.0,0.0,0.0,0.0,0.0,0.0,0.0,0.0,0.0,0.0,0.0,0.0,0.0,0.0,0.0,0.0,0.0,0.0,0.0,0.0,0.0,0.0,0.0,0.0,0.0,0.0,0.0,0.0,0.0],[0.0,0.0,0.0,0.0,0.0,0.0,0.0,0.0,0.0,0.0,0.0,0.0,0.0,0.0,0.0,0.0,0.0,0.0,0.0,0.0,0.0,0.0,0.0,0.0,0.0,0.0,0.0,0.0,0.0,0.0],[0.0,0.0,0.0,0.0,0.0,0.0,0.0,0.0,0.0,0.0,0.0,0.0,0.0,0.0,0.0,0.0,0.0,0.0,0.0,0.0,0.0,0.0,0.0,0.0,0.0,0.0,0.0,0.0,0.0,0.0],[0.0,0.0,0.0,0.0,0.0,0.0,0.0,0.0,0.0,0.0,0.0,0.0,0.0,0.0,0.0,0.0,0.0,0.0,0.0,0.0,0.0,0.0,0.0,0.0,0.0,0.0,0.0,0.0,0.0,0.0],[0.0,0.0,0.0,0.0,0.0,0.0,0.0,0.0,0.0,0.0,0.0,0.0,0.0,0.0,0.0,0.0,0.0,0.0,0.0,0.0,0.0,0.0,0.0,0.0,0.0,0.0,0.0,0.0,0.0,0.0],[0.0,0.0,0.0,0.0,0.0,0.0,0.0,0.0,0.0,0.0,0.0,0.0,0.0,0.0,0.0,0.0,0.0,0.0,0.0,0.0,0.0,0.0,0.0,0.0,0.0,0.0,0.0,0.0,0.0,0.0],[0.0,0.0,0.0,0.0,0.0,0.0,0.0,0.0,0.0,0.0,0.0,0.0,0.0,0.0,0.0,0.0,0.0,0.0,0.0,0.0,0.0,0.0,0.0,0.0,0.0,0.0,0.0,0.0,0.0,0.0],[0.0,0.0,0.0,0.0,0.0,0.0,0.0,0.0,0.0,0.0,0.0,0.0,0.0,0.0,0.0,0.0,0.0,0.0,0.0,0.0,0.0,0.0,0.0,0.0,0.0,0.0,0.0,0.0,0.0,0.0],[0.0,0.0,0.0,0.0,0.0,0.0,0.0,0.0,0.0,0.0,0.0,0.0,0.0,0.0,0.0,0.0,0.0,0.0,0.0,0.0,0.0,0.0,0.0,0.0,0.0,0.0,0.0,0.0,0.0,0.0],[0.0,0.0,0.0,0.0,0.0,0.0,0.0,0.0,0.0,0.0,0.0,0.0,0.0,0.0,0.0,0.0,0.0,0.0,0.0,0.0,0.0,0.0,0.0,0.0,0.0,0.0,0.0,0.0,0.0,0.0],[0.0,0.0,0.0,0.0,0.0,0.0,0.0,0.0,0.0,0.0,0.0,0.0,0.0,0.0,0.0,0.0,0.0,0.0,0.0,0.0,0.0,0.0,0.0,0.0,0.0,0.0,0.0,0.0,0.0,0.0],[0.0,0.0,0.0,0.0,0.0,0.0,0.0,0.0,0.0,0.0,0.0,0.0,0.0,0.0,0.0,0.0,0.0,0.0,0.0,0.0,0.0,0.0,0.0,0.0,0.0,0.0,0.0,0.0,0.0,0.0],[0.0,0.0,0.0,0.0,0.0,0.0,0.0,0.0,0.0,0.0,0.0,0.0,0.0,0.0,0.0,0.0,0.0,0.0,0.0,0.0,0.0,0.0,0.0,0.0,0.0,0.0,0.0,0.0,0.0,0.0],[0.0,0.0,0.0,0.0,0.0,0.0,0.0,0.0,0.0,0.0,0.0,0.0,0.0,0.0,0.0,0.0,0.0,0.0,0.0,0.0,0.0,0.0,0.0,0.0,0.0,0.0,0.0,0.0,0.0,0.0],[0.0,0.0,0.0,0.0,0.0,0.0,0.0,0.0,0.0,0.0,0.0,0.0,0.0,0.0,0.0,0.0,0.0,0.0,0.0,0.0,0.0,0.0,0.0,0.0,0.0,0.0,0.0,0.0,0.0,0.0],[0.0,0.0,0.0,0.0,0.0,0.0,0.0,0.0,0.0,0.0,0.0,0.0,0.0,0.0,0.0,0.0,0.0,0.0,0.0,0.0,0.0,0.0,0.0,0.0,0.0,0.0,0.0,0.0,0.0,0.0],[0.0,0.0,0.0,0.0,0.0,0.0,0.0,0.0,0.0,0.0,0.0,0.0,0.0,0.0,0.0,0.0,0.0,0.0,0.0,0.0,0.0,0.0,0.0,0.0,0.0,0.0,0.0,0.0,0.0,0.0],[0.0,0.0,0.0,0.0,0.0,0.0,0.0,0.0,0.0,0.0,0.0,0.0,0.0,0.0,0.0,0.0,0.0,0.0,0.0,0.0,0.0,0.0,0.0,0.0,0.0,0.0,0.0,0.0,0.0,0.0],[0.0,0.0,0.0,0.0,0.0,0.0,0.0,0.0,0.0,0.0,0.0,0.0,0.0,0.0,0.0,0.0,0.0,0.0,0.0,0.0,0.0,0.0,0.0,0.0,0.0,0.0,0.0,0.0,0.0,0.0],[0.0,0.0,0.0,0.0,0.0,0.0,0.0,0.0,0.0,0.0,0.0,0.0,0.0,0.0,0.0,0.0,0.0,0.0,0.0,0.0,0.0,0.0,0.0,0.0,0.0,0.0,0.0,0.0,0.0,0.0],[0.0,0.0,0.0,0.0,0.0,0.0,0.0,0.0,0.0,0.0,0.0,0.0,0.0,0.0,0.0,0.0,0.0,0.0,0.0,0.0,0.0,0.0,0.0,0.0,0.0,0.0,0.0,0.0,0.0,0.0],[0.0,0.0,0.0,0.0,0.0,0.0,0.0,0.0,0.0,0.0,0.0,0.0,0.0,0.0,0.0,0.0,0.0,0.0,0.0,0.0,0.0,0.0,0.0,0.0,0.0,0.0,0.0,0.0,0.0,0.0],[0.0,0.0,0.0,0.0,0.0,0.0,0.0,0.0,0.0,0.0,0.0,0.0,0.0,0.0,0.0,0.0,0.0,0.0,0.0,0.0,0.0,0.0,0.0,0.0,0.0,0.0,0.0,0.0,0.0,0.0],[0.0,0.0,0.0,0.0,0.0,0.0,0.0,0.0,0.0,0.0,0.0,0.0,0.0,0.0,0.0,0.0,0.0,0.0,0.0,0.0,0.0,0.0,0.0,0.0,0.0,0.0,0.0,0.0,0.0,0.0],[0.0,0.0,0.0,0.0,0.0,0.0,0.0,0.0,0.0,0.0,0.0,0.0,0.0,0.0,0.0,0.0,0.0,0.0,0.0,0.0,0.0,0.0,0.0,0.0,0.0,0.0,0.0,0.0,0.0,0.0],[0.0,0.0,0.0,0.0,0.0,0.0,0.0,0.0,0.0,0.0,0.0,0.0,0.0,0.0,0.0,0.0,0.0,0.0,0.0,0.0,0.0,0.0,0.0,0.0,0.0,0.0,0.0,0.0,0.0,0.0],[0.0,0.0,0.0,0.0,0.0,0.0,0.0,0.0,0.0,0.0,0.0,0.0,0.0,0.0,0.0,0.0,0.0,0.0,0.0,0.0,0.0,0.0,0.0,0.0,0.0,0.0,0.0,0.0,0.0,0.0],[0.0,0.0,0.0,0.0,0.0,0.0,0.0,0.0,0.0,0.0,0.0,0.0,0.0,0.0,0.0,0.0,0.0,0.0,0.0,0.0,0.0,0.0,0.0,0.0,0.0,0.0,0.0,0.0,0.0,0.0],[0.0,0.0,0.0,0.0,0.0,0.0,0.0,0.0,0.0,0.0,0.0,0.0,0.0,0.0,0.0,0.0,0.0,0.0,0.0,0.0,0.0,0.0,0.0,0.0,0.0,0.0,0.0,0.0,0.0,0.0],[0.0,0.0,0.0,0.0,0.0,0.0,0.0,0.0,0.0,0.0,0.0,0.0,0.0,0.0,0.0,0.0,0.0,0.0,0.0,0.0,0.0,0.0,0.0,0.0,0.0,0.0,0.0,0.0,0.0,0.0],[0.0,0.0,0.0,0.0,0.0,0.0,0.0,0.0,0.0,0.0,0.0,0.0,0.0,0.0,0.0,0.0,0.0,0.0,0.0,0.0,0.0,0.0,0.0,0.0,0.0,0.0,0.0,0.0,0.0,0.0],[0.0,0.0,0.0,0.0,0.0,0.0,0.0,0.0,0.0,0.0,0.0,0.0,0.0,0.0,0.0,0.0,0.0,0.0,0.0,0.0,0.0,0.0,0.0,0.0,0.0,0.0,0.0,0.0,0.0,0.0],[0.0,0.0,0.0,0.0,0.0,0.0,0.0,0.0,0.0,0.0,0.0,0.0,0.0,0.0,0.0,0.0,0.0,0.0,0.0,0.0,0.0,0.0,0.0,0.0,0.0,0.0,0.0,0.0,0.0,0.0],[0.0,0.0,0.0,0.0,0.0,0.0,0.0,0.0,0.0,0.0,0.0,0.0,0.0,0.0,0.0,0.0,0.0,0.0,0.0,0.0,0.0,0.0,0.0,0.0,0.0,0.0,0.0,0.0,0.0,0.0],[0.0,0.0,0.0,0.0,0.0,0.0,0.0,0.0,0.0,0.0,0.0,0.0,0.0,0.0,0.0,0.0,0.0,0.0,0.0,0.0,0.0,0.0,0.0,0.0,0.0,0.0,0.0,0.0,0.0,0.0],[0.0,0.0,0.0,0.0,0.0,0.0,0.0,0.0,0.0,0.0,0.0,0.0,0.0,0.0,0.0,0.0,0.0,0.0,0.0,0.0,0.0,0.0,0.0,0.0,0.0,0.0,0.0,0.0,0.0,0.0],[0.0,0.0,0.0,0.0,0.0,0.0,0.0,0.0,0.0,0.0,0.0,0.0,0.0,0.0,0.0,0.0,0.0,0.0,0.0,0.0,0.0,0.0,0.0,0.0,0.0,0.0,0.0,0.0,0.0,0.0],[0.0,0.0,0.0,0.0,0.0,0.0,0.0,0.0,0.0,0.0,0.0,0.0,0.0,0.0,0.0,0.0,0.0,0.0,0.0,0.0,0.0,0.0,0.0,0.0,0.0,0.0,0.0,0.0,0.0,0.0],[0.0,0.0,0.0,0.0,0.0,0.0,0.0,0.0,0.0,0.0,0.0,0.0,0.0,0.0,0.0,0.0,0.0,0.0,0.0,0.0,0.0,0.0,0.0,0.0,0.0,0.0,0.0,0.0,0.0,0.0],[0.0,0.0,0.0,0.0,0.0,0.0,0.0,0.0,0.0,0.0,0.0,0.0,0.0,0.0,0.0,0.0,0.0,0.0,0.0,0.0,0.0,0.0,0.0,0.0,0.0,0.0,0.0,0.0,0.0,0.0]],"layer_bias":[0.0,0.0,0.0,0.0,0.0,0.0,0.0,0.0,0.0,0.0,0.0,0.0,0.0,0.0,0.0,0.0,0.0,0.0,0.0,0.0,0.0,0.0,0.0,0.0,0.0,0.0,0.0,0.0,0.0,0.0],"activation_type":"SIGMOID","layer_type":"InputLayer","previous_layer":null,"next_layer":null,"input_data":[],"previous_gradient":[[0.0,0.0,0.0,0.0,0.0,0.0,0.0,0.0,0.0,0.0,0.0,0.0,0.0,0.0,0.0,0.0,0.0,0.0,0.0,0.0,0.0,0.0,0.0,0.0,0.0,0.0,0.0,0.0,0.0,0.0],[0.0,0.0,0.0,0.0,0.0,0.0,0.0,0.0,0.0,0.0,0.0,0.0,0.0,0.0,0.0,0.0,0.0,0.0,0.0,0.0,0.0,0.0,0.0,0.0,0.0,0.0,0.0,0.0,0.0,0.0],[0.0,0.0,0.0,0.0,0.0,0.0,0.0,0.0,0.0,0.0,0.0,0.0,0.0,0.0,0.0,0.0,0.0,0.0,0.0,0.0,0.0,0.0,0.0,0.0,0.0,0.0,0.0,0.0,0.0,0.0],[0.0,0.0,0.0,0.0,0.0,0.0,0.0,0.0,0.0,0.0,0.0,0.0,0.0,0.0,0.0,0.0,0.0,0.0,0.0,0.0,0.0,0.0,0.0,0.0,0.0,0.0,0.0,0.0,0.0,0.0],[0.0,0.0,0.0,0.0,0.0,0.0,0.0,0.0,0.0,0.0,0.0,0.0,0.0,0.0,0.0,0.0,0.0,0.0,0.0,0.0,0.0,0.0,0.0,0.0,0.0,0.0,0.0,0.0,0.0,0.0],[0.0,0.0,0.0,0.0,0.0,0.0,0.0,0.0,0.0,0.0,0.0,0.0,0.0,0.0,0.0,0.0,0.0,0.0,0.0,0.0,0.0,0.0,0.0,0.0,0.0,0.0,0.0,0.0,0.0,0.0]]},{"input_weights":[[-0.24744255934148351,-0.3606025637279293,-0.2176820293784787,-0.25823394367366137,-0.1905766226313923,-0.13989527652068312,-0.09283987603088995,0.46083684385166546,0.25677768089538766,0.014950668920102661,0.3970962535489315,-0.5327113145940414,0.40690318459642505,0.1804845607749921,-0.07578585517656089,-0.18767228660545165,0.20826973345325284,0.4131860558889464,-0.13440447306073655,0.09633754635032776,-0.4401784448507282,0.47799441394016595,0.3020233949559592,-0.18319243241792393,-0.3974356611586314,0.2845733039108569,0.5400069116742148,-0.11889923458612106,-0.08341669592686429,0.4123710908262068],[0.12213877659438309,0.7755941822077926,0.6704427487631273,-0.6860651230258182,0.9238643247341258,0.3070059798024694,0.8730985549874564,-0.1360176234107252,0.3426510110289995,0.6058701383897528,0.9495654593339302,-0.583307565586166,0.7210629468545461,-0.19880902537744274,0.7122523399503868,0.9092632266875866,0.8979246041136786,0.7741381007861512,0.24017871807058008,-0.10308046349982213,0.8502797543005761,0.8422867737655196,0.2338507218688434,0.6573744803441316,0.4715432149260408,0.0356045025538128,0.29820817647427594,0.3475217922223425,-0.004644787752703613,-0.4600733468962064],[-0.10186694474126612,0.6393665535962201,0.982205271416051,-0.669071605029513,0.4913501668318991,0.5441040511826212,0.859446360789148,0.25070085218730687,-0.5862734714135726,0.9661254082327492,0.4130014432884427,-0.04624675456620201,0.05616313178044275,-0.34665164644498936,0.2644527089372479,0.45448085004930305,0.8297536622801265,0.23196521675346812,0.778474254340571,0.5732348631404587,0.7512550169526704,0.606645806746023,0.8233904534716938,0.47022270553691714,0.3665689050199815,0.028778393890809734,0.8958462359703679,0.6364020491682488,0.5415047612120187,0.4262908792158903],[0.4558089527747815,0.3053238355458783,0.28636946170382194,0.5557336682373926,-0.2850752139652235,0.5134540836232939,0.11300010119218395,-0.2733810196361617,0.11297713788151698,0.05103629716064151,-0.08799048852153368,-0.504945194176192,-0.11910793880549764,-0.05904562855443962,-0.05875350703619575,-0.29870898413897495,0.18029819286718474,0.42512262279100144,-0.25867574486369826,0.07127592820350293,-0.506081786427319,-0.40746352314916234,0.17992940558655102,0.13836318683750304,0.07308743311264032,0.27741460744345003,-0.18429484371809668,-0.3831580600109492,-0.20771812706087234,-0.3989262246746015],[0.6433339899201417,0.20699084590535713,0.35298932218596607,-0.4245482200313224,0.8893759018939147,0.3221316723461185,0.20838933528050754,-0.30112782530008236,-0.5628784123025943,0.21819994098720646,0.41918637698818056,-0.05629910478371923,0.920188613314191,-0.2699341159370102,0.9656492039079567,0.7219418226945655,0.31664687229423666,0.7095887129674597,0.7407524245162015,0.3019471691036032,0.3149116308003894,0.2906784762706707,0.43734688648904724,-0.01740206463157058,0.8277969156838894,0.7978276337119269,0.01742330172967724,1.0143443193414183,0.8458282690860843,-0.527441637824103],[0.28436435646099395,0.7919054211929887,0.3668962892657148,-0.3277291899300681,0.39988707799331147,0.4495059213380391,0.28470831232776284,-0.3425619527975954,0.40334683242484426,1.0156901972287524,0.14668548746137502,-0.2101644408030504,0.30594786439346633,-0.5320555445896713,-0.07602003766662159,0.4329793335574909,0.6800150856009196,0.6079215253001469,0.383842745704351,0.6638466314476816,0.857991555594349,0.027646111051380064,0.856386293927533,-0.0702894454618036,0.4104260789326055,0.500102503874873,0.5541757833028859,0.37200474507004844,0.13487762308790965,0.2048041949945461],[0.724123721743213,0.47390257344434805,0.21624386312866645,-0.11365040551108155,0.7467647548483954,0.5782054417100665,0.24428742013442725,-0.2759770463414163,-0.1349957641703717,0.08284012834810267,0.581451276359949,-0.21094224310916296,0.007872163467105921,0.4305732923006382,0.3772584292380305,0.09791905271932762,0.00630057253034033,0.23956085003832875,0.28369611628385244,0.05204592609374401,0.3150139210788074,0.5356554710501986,0.7571580947141449,0.9829090826770626,0.7514172439556167,1.0596083101270273,0.008560663630934058,0.8901767348866532,0.28914929763972524,-0.6527855257925135],[0.011231475287333037,-0.08136433546290789,-0.17142455991538053,0.3082418909458089,0.23243412259721064,-0.41767682714930343,0.3793247465958274,-0.006625549388695751,0.3898525079409949,-0.36207930762639196,0.4412796569921644,-0.5662493704357088,0.03170873257021545,-0.10573546981949389,-0.0806175887679288,0.4546272090175134,-0.1925320543383091,0.5920867088138624,0.25049547068990474,0.057000318887590495,0.38630798297879476,0.04317582097243822,0.30351702099389444,-0.4382653732290247,-0.051151392746539015,-0.3742090330099639,-0.4458138161150835,0.12185855287303649,-0.5000806116089478,-0.17252132481819915],[0.9076367066227655,0.3559437496857267,0.1628833563266222,-0.7769470549531305,-0.14128405829265583,0.744045214606349,-0.03844606119059396,-0.48974989062555574,-0.29100128975021416,1.0479254505367623,0.15121465675857618,-0.38306131360483453,0.17460987949672738,0.4821778057396257,0.09128598054401958,0.8484906529834787,0.1269157626707453,0.07999752514384627,0.5426135182948778,0.7793371632311618,0.7764402228494587,0.7552860235116581,0.5835176504398086,0.6162440743976616,-0.05989577536070209,0.32458534351382107,0.3775426776565217,0.9160224673618819,-0.054408016918051146,0.4024600659787646],[-0.21791375969533197,-0.15751779336466495,-0.051572844668193306,0.298991354445928,0.8072345736719957,-0.09923562420138624,0.7310672494776052,-0.3695220751201671,-0.4414635481112146,0.6370829772478918,0.5088104057508585,-0.5061197613869927,0.38743608219744635,-0.6690745825479134,0.7276721099211241,0.3828573749146076,0.7344369939627932,0.19878662571028566,0.4705961023335157,0.2518445984027046,0.02976564089331914,0.9809191093714309,0.008312444345767462,0.27555774945593875,0.6762991771159839,0.014229698091751508,-0.12013908140354358,0.4444516035119909,0.8440863752526013,-0.6212296898022228],[-0.35706449414600505,0.18463357871706476,0.14288778764641852,-0.4676992713064121,-0.3457307001936456,-0.24102311275229793,0.11874922893302275,0.31333514259620143,0.3764774820068788,0.19209971492372957,-0.5284521149209425,0.48346152903516515,-0.21546669212117164,0.1638100536770022,-0.2806952696675762,0.05830986475397304,-0.12086714934292297,0.22164736144860164,-0.3464435872463427,-0.09227358744793213,0.08544077476582412,-0.027870747402521934,0.1303632668063912,-0.5584465382967618,0.051416903464183594,0.46181650094832394,-0.2557291288181829,0.5751002908560512,-0.24422885514175552,-0.3465220452373996],[0.35632395249504395,0.45594887495587566,0.6302637028326006,-0.6778059255179085,0.2844939689104383,0.6279402191883389,0.4512267292900616,-0.29538820079924033,-0.6614635264979027,0.25532404691913146,0.2620123708870089,-0.6333360582345727,0.2824376420672941,-0.1988238415668286,-0.1854190017251999,0.8827126586376685,0.41749911637336845,-0.01522101150944452,0.6060106503005414,1.0269887955790913,0.8726884791582762,0.04080644986803001,0.3052775378276002,0.9261004662876862,-0.036000301620413656,0.7089559604800613,0.9806187090609982,0.17360188411204971,0.34664802878710654,-0.5426508427218327],[-0.11104859598430816,-0.5527723828641353,-0.5877886382137838,0.05607571231945263,-0.21643128369444198,-0.00146748807459951,-0.38578925110781626,0.15642370599070743,0.28886971757169766,-0.009184617213180646,0.37178506753256846,0.5812047116158499,0.5377227359670336,-0.5679890595701382,-0.1716749845962322,0.5202427451056963,-0.3672171675504923,-0.1403553365357193,-0.13151571060476797,-0.36860654680918103,-0.2923668258434968,0.061417654788501475,0.16428093730709015,0.20102707985169532,-0.30388651882652407,0.5187002604950104,0.5282134177657074,0.149295462667294,-0.14368746285043654,0.43556859643693935],[-0.5594612608436091,-0.2501866332134659,-0.21966441097475697,0.4115906791103954,0.1234231374526571,0.1721026649483366,-0.43161052971910485,0.41175195095563,0.1819668795608691,0.3956897286577461,-0.4764540028013011,-0.3673472386344667,0.5418693180722425,-0.3861504754767273,0.5208238403673109,0.37730066282465247,-0.057563085691108684,-0.5415564563993505,-0.17738495433867407,-0.48285456048202424,-0.05272708107018875,0.1589703451363662,0.179133744829735,0.3304590667389431,-0.3023076656105095,-0.26714124825778085,-0.12019951935572148,-0.1964012825498309,-0.1780671183180551,0.07636489456670814],[0.1077161801286135,0.23690520059815245,0.39198952794402864,0.31904244795058245,0.015465232256510753,-0.10301878654352858,0.09799077250875388,0.19782221062957372,-0.33724767237404607,-0.14522234682095458,0.23387516547070852,-0.5965381843941067,0.24497970151836856,0.4873358589784109,-0.44052728714756784,0.1463384714754159,0.14974600280337325,0.3384587293466943,0.5971045981167507,-0.46047235114936647,0.42738403104995104,0.5570942505684662,-0.10569367378223604,-0.31110634732253617,0.4431173416768117,-0.3913364508870192,0.3561396209121126,-0.07551259004263056,0.4381173639039879,-0.07189417576111579],[0.10673714393807465,0.37190916065583624,0.24985555347585509,0.10823731089637656,-0.07672801314526212,0.24999618246984978,0.3650347359484254,-0.23226248976374753,0.06191034743031154,0.34304164123026704,0.2865440681965974,-0.20781119096679057,-0.41066223171959915,0.2153724252180771,0.007802363101748089,-0.2604088492704697,-0.1163812760349312,0.25428715394713164,0.11666052027671281,-0.4697508536397279,0.13553713243358034,-0.34844287687057207,0.4163085618256641,-0.3733987417106479,-0.44315005128995555,0.31069268165190733,0.024704927871334048,-0.16551050787893695,-0.5010945600759424,0.403735848211757],[-0.1136069952673698,0.5444241418877827,0.041732708667484034,-0.786509031601132,-0.12968075783839195,0.9271560290002917,0.9776329065353517,-0.12748636652331483,-0.5952092085554214,0.8745891598187896,0.9938717829214064,-0.7146364883031329,0.6579348483927978,-0.19378551174553407,0.638756587638271,0.6560210034007472,0.4116818640512674,0.8977213908463932,0.6186773828887793,0.6739628814505437,0.09932406430221577,0.04318471682712624,0.940397511953208,0.811214636602946,-0.10593608279803784,0.35630476307585685,0.8813685867312953,-0.11253783656178377,0.3195722493567919,-0.7165143008019086],[0.814236765479617,0.46502998783979416,0.8421252568016526,-0.1422043474840925,0.14386408311717885,-0.24020996903547961,0.5192566656913975,-0.48827214022977955,0.2009252890549728,0.2642183880849237,0.39911713191064724,0.34164775003246545,0.7262255071414196,-0.4132983634829388,0.8698568937990155,0.15162328971818284,0.3769044511066957,0.6317518698809003,0.00805184201117014,0.4276598050249115,0.31896297547391195,0.5488697272290488,0.7919870786947614,0.5614346965444211,0.999279018984398,0.4206326644826837,0.25751399496558985,0.18096547837922525,0.11341699462084277,-0.35239043589324287],[0.026400088860307314,-0.4030130039194819,-0.2887487609296966,0.541249516441825,-0.19847673590624915,0.08018641689233608,0.49884390248344346,-0.3226874082779325,-0.31315281119384575,0.36186709092156955,-0.2125019220139408,0.38766559112375765,0.02283367333431352,0.28491754406845393,-0.4213694370993082,-0.5305539802689501,0.5120662394212783,-0.27370578827115644,0.1400283799976232,0.5239992508070772,0.2375475152359776,0.1853768335427497,0.028807825957647415,-0.23640265808375327,-0.40562011140719334,0.5947613936598937,-0.47956085047510544,0.11249927173851226,0.3948297396672964,-0.5732511728272074],[0.05569214746173097,0.29869851427692884,0.676360486114047,-0.36533831825474333,0.8973236222855002,0.48247831410944503,0.7394560616354736,-0.17574654806263726,-0.5484186833895198,0.8276601677106813,0.5918892850276499,-0.7548328874042004,0.6390159639079376,-0.009440378213069608,0.9449011551091969,-0.019706239905894478,0.3117730804147265,0.8182441052301855,0.6951426834456915,0.8278722095970736,0.9053391360935976,0.8290528946809843,-0.2245596231889488,0.43421418206772827,0.6747878863416891,0.03345174129897911,0.9657671070258951,0.22958914443761674,0.8031902804716724,-0.7135472669349578],[0.21481690245101595,0.2085636439842571,0.2143194334278687,-0.11490631072223015,0.23815457910240795,0.5425309564889769,0.06271747115020848,-0.163545947462504,-0.5204891353908767,-0.06711412365615936,0.2935870025965973,-0.6802912823762047,0.23918961973779992,-0.3975301695916787,0.18102956512778523,0.2005669200206406,0.22407062257800137,0.8270428582058039,-0.008413776800276258,0.38561982834233777,0.003851149438358805,0.47147977586445694,-0.18200683316771823,0.7739988549791221,1.0503522250764588,0.3229731240807349,0.004002250106427918,0.9843706671427981,0.5994245535529161,-0.27812809983820397],[0.8961489542021407,0.7495999192534307,0.7205630451442819,-0.0327337996791871,0.6750959072540926,0.08674314188258474,0.29089353444112703,0.2396135038160318,0.4094592574355956,-0.0439838101279338,0.10320432971356698,0.22439021184880617,1.0931640153277848,-0.08736493290222556,0.028539308764917393,0.11039963635761059,0.9186835955608322,0.400537259035072,0.3564797063599704,0.25384234044834025,0.600666178640573,0.4820758227347043,-0.04492794124130172,0.4886104992999624,0.8991116641724303,0.7930904852049504,0.9054105033869072,0.5756362904858626,0.14524250712236397,-0.48078008651465903],[0.7625162156507688,0.7493998427693543,0.5772461966138142,0.2379674084887006,0.5589968975542633,0.5263582086787512,-0.08739330550610903,0.23438971116028925,-0.19000477749849362,0.450560161305663,0.7022278881679388,-0.7959644799890888,0.7866468867545541,0.02215522099532629,1.0094087310132498,0.46540407557898417,0.36914553347028245,0.01661172743793797,0.5146178683986599,0.005067335362225104,0.2423582804966611,0.10364967407578647,0.30007281646578965,0.5496986398911848,-0.031787844935569645,0.45183499787246234,0.43066858450358647,0.3268226651509507,0.9527439852856098,0.36712240519468425],[0.42096577693793913,0.0020970593436844265,0.5969515403160663,0.07156984114029985,0.056195193484044115,0.23765918339851266,-0.3666533759216546,-0.16533705194502568,-0.46142164237565875,-0.37945557691994014,0.02174555747308138,-0.2559911181328798,0.1959858796373144,-0.13900784189443494,0.020596847304304777,-0.4017518029066305,-0.25026742528215706,-0.15462105375619695,-0.5509537199968879,0.046863003034567585,0.10067509885610804,-0.15785464595096044,0.4599851408702538,-0.23290290763936716,0.17309772843930293,0.2521404077369849,-0.4922737038236835,0.36457886024535524,-0.344485542235903,-0.018844981826749096],[0.950615082629065,0.20749284756552544,0.10652380026942285,-0.24843930256098,0.14785395155901365,0.6806812360656004,0.36468816689904116,-0.190267975039176,-0.6320863868126669,0.23077589099643558,0.35511253992621866,0.16686814425344,0.028404062323871892,-0.6540019016170568,0.43832144683353436,0.5175967145532557,0.17053965341526908,0.535592047140434,-0.02477609632893432,0.5965056446818271,-0.012376600765673249,0.08510522314464224,0.6533719166038089,-0.11284093675097427,-0.010788263163939386,0.48980523923734504,0.9026563420123963,0.124767174217653,0.34452756126478606,-0.561067561966992],[0.503378309818344,-0.3982979391118444,0.5815205646719837,-0.4320863687126717,-0.5604520726096176,0.5301119575918736,-0.47469803284782164,0.3230628999260392,-0.3957819472013091,0.13349080519038004,-0.3161358330427164,0.36324796038995855,0.49724137494009524,-0.2729189294859713,-0.20157106941178182,-0.45047705740130795,-0.12756268340321886,0.5138247510195213,0.4016952319231324,-0.22663782726705994,-0.4134520914399922,-0.06152508552196134,0.16352710619475896,0.06074216198900606,0.0024491345579731316,-0.12622878381443958,0.17063780663988792,-0.4983504758551638,0.044142751484167686,0.051824102956955276],[0.33832314264408314,-0.2052830812025528,-0.36969210500830685,-0.04616292265592703,-0.33654370140185397,0.2772858404183358,0.2573630871559356,0.25347257213314167,0.03662746889951762,0.3722915573725363,-0.48218239049388933,-0.4714899267335535,-0.11471548883998639,0.2805592389186904,-0.2519055085188222,-0.43396926450593587,0.436457092418681,0.40337788592381774,-0.04518491117562662,-0.183853477366402,-0.15582977343007332,-0.13755362053108033,0.22446344967013987,0.2896829539792751,-0.5564529911506031,0.5915970602971714,0.5816420787426382,0.3458474280782231,-0.4908540171526161,-0.2160820558460137],[0.8502910226152339,0.302919548934979,0.5591909232195263,-0.552199076436727,0.3948254438293698,0.6555786083868265,0.6348192737787812,-0.2108704312886897,-0.683647202250299,0.1594578080199238,0.3362887178147706,-0.7413704671053021,0.171628981430414,-0.24129974572355978,0.08306724057650548,0.5214143865560505,0.787088978386414,0.3005543259598463,0.8518889132418719,0.3859825879790949,0.15832765992237613,0.6725677468198134,0.9273687264503339,0.18216835927492916,0.20297484075122116,0.8140958115817243,0.12183686953538096,-0.040857735588181975,0.9054784604777167,-0.11496787047815434],[-0.45309351336683945,0.42343166399715226,-0.5801268529932266,-0.2715821523905879,0.367844662537713,0.5334298173506271,-0.5535027165934177,0.3582077064204121,-0.28936999775248684,-0.04722389205574151,0.1856909117941623,-0.5091527858073794,0.45844914074036414,-0.24515549745557075,0.5890850032501729,-0.31805546594787004,-0.3318141689592593,0.14133853655063833,-0.07612173010574685,0.02129801057506131,0.2452362182965735,-0.28986656322750814,-0.16213501083454251,0.5459945582736645,0.15637044355293117,-0.4426574079691117,0.36699011290177364,-0.17727866946108928,-0.37742697482879506,-0.06750976985400681],[-0.17462712191394503,0.5033360450008817,-0.36061994007234977,-0.551437238035823,-0.5366498925620846,0.3988187814876758,0.26942568512348375,0.5374227365731468,0.20324354718234172,0.0037693921032675437,-0.13947852029684094,0.29784389997019467,0.5471821515749893,0.16233513641834896,-0.5297419338154046,-0.01376102306769611,-0.413186166670912,0.5906282856077074,-0.5505418453445834,-0.09113051049373921,-0.04583538178210822,-0.47804846844061877,-0.13478438849228813,0.33584622910377293,0.20091896827525346,-0.15432722098314122,-0.23315862230893192,0.3286404603074726,-0.23933677259875386,0.056308308571997756]],"inactivated_output":[[[7.152877306329023,7.071743440746012,7.07320717273929,-5.3834035620899305,7.332935532865397,7.138602205583791,7.120920043390441,-2.8420023681171998,-4.492707563930275,7.530281620856517,7.21293726853067,-5.585842041909403,7.204187678882401,-3.2783031490113483,7.0752953115746955,7.339165598959437,7.584537873869576,7.259052792247293,7.063570771976135,7.107195172888451,7.090342370206443,7.32046677217897,7.170900432303534,7.533744915359956,7.091149899510207,7.156677820786132,7.485669323419495,7.068041790095873,7.13131173955733,-4.6223567266140195]],[[7.152877306329023,7.071743440746012,7.07320717273929,-5.3834035620899305,7.332935532865397,7.138602205583791,7.120920043390441,-2.8420023681171998,-4.492707563930275,7.530281620856517,7.21293726853067,-5.585842041909403,7.204187678882401,-3.2783031490113483,7.0752953115746955,7.339165598959437,7.584537873869576,7.259052792247293,7.063570771976135,7.107195172888451,7.090342370206443,7.32046677217897,7.170900432303534,7.533744915359956,7.091149899510207,7.156677820786132,7.485669323419495,7.068041790095873,7.13131173955733,-4.6223567266140195]],[[7.152877306329023,7.071743440746012,7.07320717273929,-5.3834035620899305,7.332935532865397,7.138602205583791,7.120920043390441,-2.8420023681171998,-4.492707563930275,7.530281620856517,7.21293726853067,-5.585842041909403,7.204187678882401,-3.2783031490113483,7.0752953115746955,7.339165598959437,7.584537873869576,7.259052792247293,7.063570771976135,7.107195172888451,7.090342370206443,7.32046677217897,7.170900432303534,7.533744915359956,7.091149899510207,7.156677820786132,7.485669323419495,7.068041790095873,7.13131173955733,-4.6223567266140195]],[[7.152877306329023,7.071743440746012,7.07320717273929,-5.3834035620899305,7.332935532865397,7.138602205583791,7.120920043390441,-2.8420023681171998,-4.492707563930275,7.530281620856517,7.21293726853067,-5.585842041909403,7.204187678882401,-3.2783031490113483,7.0752953115746955,7.339165598959437,7.584537873869576,7.259052792247293,7.063570771976135,7.107195172888451,7.090342370206443,7.32046677217897,7.170900432303534,7.533744915359956,7.091149899510207,7.156677820786132,7.485669323419495,7.068041790095873,7.13131173955733,-4.6223567266140195]],[[7.152877306329023,7.071743440746012,7.07320717273929,-5.3834035620899305,7.332935532865397,7.138602205583791,7.120920043390441,-2.8420023681171998,-4.492707563930275,7.530281620856517,7.21293726853067,-5.585842041909403,7.204187678882401,-3.2783031490113483,7.0752953115746955,7.339165598959437,7.584537873869576,7.259052792247293,7.063570771976135,7.107195172888451,7.090342370206443,7.32046677217897,7.170900432303534,7.533744915359956,7.091149899510207,7.156677820786132,7.485669323419495,7.068041790095873,7.13131173955733,-4.6223567266140195]],[[7.152877306329023,7.071743440746012,7.07320717273929,-5.3834035620899305,7.332935532865397,7.138602205583791,7.120920043390441,-2.8420023681171998,-4.492707563930275,7.530281620856517,7.21293726853067,-5.585842041909403,7.204187678882401,-3.2783031490113483,7.0752953115746955,7.339165598959437,7.584537873869576,7.259052792247293,7.063570771976135,7.107195172888451,7.090342370206443,7.32046677217897,7.170900432303534,7.533744915359956,7.091149899510207,7.156677820786132,7.485669323419495,7.068041790095873,7.13131173955733,-4.6223567266140195]],[[7.152877306329023,7.071743440746012,7.07320717273929,-5.3834035620899305,7.332935532865397,7.138602205583791,7.120920043390441,-2.8420023681171998,-4.492707563930275,7.530281620856517,7.21293726853067,-5.585842041909403,7.204187678882401,-3.2783031490113483,7.0752953115746955,7.339165598959437,7.584537873869576,7.259052792247293,7.063570771976135,7.107195172888451,7.090342370206443,7.32046677217897,7.170900432303534,7.533744915359956,7.091149899510207,7.156677820786132,7.485669323419495,7.068041790095873,7.13131173955733,-4.6223567266140195]],[[7.152877306329023,7.071743440746012,7.07320717273929,-5.3834035620899305,7.332935532865397,7.138602205583791,7.120920043390441,-2.8420023681171998,-4.492707563930275,7.530281620856517,7.21293726853067,-5.585842041909403,7.204187678882401,-3.2783031490113483,7.0752953115746955,7.339165598959437,7.584537873869576,7.259052792247293,7.063570771976135,7.107195172888451,7.090342370206443,7.32046677217897,7.170900432303534,7.533744915359956,7.091149899510207,7.156677820786132,7.485669323419495,7.068041790095873,7.13131173955733,-4.6223567266140195]],[[7.152877306329023,7.071743440746012,7.07320717273929,-5.3834035620899305,7.332935532865397,7.138602205583791,7.120920043390441,-2.8420023681171998,-4.492707563930275,7.530281620856517,7.21293726853067,-5.585842041909403,7.204187678882401,-3.2783031490113483,7.0752953115746955,7.339165598959437,7.584537873869576,7.259052792247293,7.063570771976135,7.107195172888451,7.090342370206443,7.32046677217897,7.170900432303534,7.533744915359956,7.091149899510207,7.156677820786132,7.485669323419495,7.068041790095873,7.13131173955733,-4.6223567266140195]],[[7.152877306329023,7.071743440746012,7.07320717273929,-5.3834035620899305,7.332935532865397,7.138602205583791,7.120920043390441,-2.8420023681171998,-4.492707563930275,7.530281620856517,7.21293726853067,-5.585842041909403,7.204187678882401,-3.2783031490113483,7.0752953115746955,7.339165598959437,7.584537873869576,7.259052792247293,7.063570771976135,7.107195172888451,7.090342370206443,7.32046677217897,7.170900432303534,7.533744915359956,7.091149899510207,7.156677820786132,7.485669323419495,7.068041790095873,7.13131173955733,-4.6223567266140195]],[[7.152877306329023,7.071743440746012,7.07320717273929,-5.3834035620899305,7.332935532865397,7.138602205583791,7.120920043390441,-2.8420023681171998,-4.492707563930275,7.530281620856517,7.21293726853067,-5.585842041909403,7.204187678882401,-3.2783031490113483,7.0752953115746955,7.339165598959437,7.584537873869576,7.259052792247293,7.063570771976135,7.107195172888451,7.090342370206443,7.32046677217897,7.170900432303534,7.533744915359956,7.091149899510207,7.156677820786132,7.485669323419495,7.068041790095873,7.13131173955733,-4.6223567266140195]],[[7.152877306329023,7.071743440746012,7.07320717273929,-5.3834035620899305,7.332935532865397,7.138602205583791,7.120920043390441,-2.8420023681171998,-4.492707563930275,7.530281620856517,7.21293726853067,-5.585842041909403,7.204187678882401,-3.2783031490113483,7.0752953115746955,7.339165598959437,7.584537873869576,7.259052792247293,7.063570771976135,7.107195172888451,7.090342370206443,7.32046677217897,7.170900432303534,7.533744915359956,7.091149899510207,7.156677820786132,7.485669323419495,7.068041790095873,7.13131173955733,-4.6223567266140195]],[[7.152877306329023,7.071743440746012,7.07320717273929,-5.3834035620899305,7.332935532865397,7.138602205583791,7.120920043390441,-2.8420023681171998,-4.492707563930275,7.530281620856517,7.21293726853067,-5.585842041909403,7.204187678882401,-3.2783031490113483,7.0752953115746955,7.339165598959437,7.584537873869576,7.259052792247293,7.063570771976135,7.107195172888451,7.090342370206443,7.32046677217897,7.170900432303534,7.533744915359956,7.091149899510207,7.156677820786132,7.485669323419495,7.068041790095873,7.13131173955733,-4.6223567266140195]],[[7.152877306329023,7.071743440746012,7.07320717273929,-5.3834035620899305,7.332935532865397,7.138602205583791,7.120920043390441,-2.8420023681171998,-4.492707563930275,7.530281620856517,7.21293726853067,-5.585842041909403,7.204187678882401,-3.2783031490113483,7.0752953115746955,7.339165598959437,7.584537873869576,7.259052792247293,7.063570771976135,7.107195172888451,7.090342370206443,7.32046677217897,7.170900432303534,7.533744915359956,7.091149899510207,7.156677820786132,7.485669323419495,7.068041790095873,7.13131173955733,-4.6223567266140195]],[[7.152877306329023,7.071743440746012,7.07320717273929,-5.3834035620899305,7.332935532865397,7.138602205583791,7.120920043390441,-2.8420023681171998,-4.492707563930275,7.530281620856517,7.21293726853067,-5.585842041909403,7.204187678882401,-3.2783031490113483,7.0752953115746955,7.339165598959437,7.584537873869576,7.259052792247293,7.063570771976135,7.107195172888451,7.090342370206443,7.32046677217897,7.170900432303534,7.533744915359956,7.091149899510207,7.156677820786132,7.485669323419495,7.068041790095873,7.13131173955733,-4.6223567266140195]],[[7.152877306329023,7.071743440746012,7.07320717273929,-5.3834035620899305,7.332935532865397,7.138602205583791,7.120920043390441,-2.8420023681171998,-4.492707563930275,7.530281620856517,7.21293726853067,-5.585842041909403,7.204187678882401,-3.2783031490113483,7.0752953115746955,7.339165598959437,7.584537873869576,7.259052792247293,7.063570771976135,7.107195172888451,7.090342370206443,7.32046677217897,7.170900432303534,7.533744915359956,7.091149899510207,7.156677820786132,7.485669323419495,7.068041790095873,7.13131173955733,-4.6223567266140195]],[[7.152877306329023,7.071743440746012,7.07320717273929,-5.3834035620899305,7.332935532865397,7.138602205583791,7.120920043390441,-2.8420023681171998,-4.492707563930275,7.530281620856517,7.21293726853067,-5.585842041909403,7.204187678882401,-3.2783031490113483,7.0752953115746955,7.339165598959437,7.584537873869576,7.259052792247293,7.063570771976135,7.107195172888451,7.090342370206443,7.32046677217897,7.170900432303534,7.533744915359956,7.091149899510207,7.156677820786132,7.485669323419495,7.068041790095873,7.13131173955733,-4.6223567266140195]],[[7.152877306329023,7.071743440746012,7.07320717273929,-5.3834035620899305,7.332935532865397,7.138602205583791,7.120920043390441,-2.8420023681171998,-4.492707563930275,7.530281620856517,7.21293726853067,-5.585842041909403,7.204187678882401,-3.2783031490113483,7.0752953115746955,7.339165598959437,7.584537873869576,7.259052792247293,7.063570771976135,7.107195172888451,7.090342370206443,7.32046677217897,7.170900432303534,7.533744915359956,7.091149899510207,7.156677820786132,7.485669323419495,7.068041790095873,7.13131173955733,-4.6223567266140195]],[[7.152877306329023,7.071743440746012,7.07320717273929,-5.3834035620899305,7.332935532865397,7.138602205583791,7.120920043390441,-2.8420023681171998,-4.492707563930275,7.530281620856517,7.21293726853067,-5.585842041909403,7.204187678882401,-3.2783031490113483,7.0752953115746955,7.339165598959437,7.584537873869576,7.259052792247293,7.063570771976135,7.107195172888451,7.090342370206443,7.32046677217897,7.170900432303534,7.533744915359956,7.091149899510207,7.156677820786132,7.485669323419495,7.068041790095873,7.13131173955733,-4.6223567266140195]],[[7.152877306329023,7.071743440746012,7.07320717273929,-5.3834035620899305,7.332935532865397,7.138602205583791,7.120920043390441,-2.8420023681171998,-4.492707563930275,7.530281620856517,7.21293726853067,-5.585842041909403,7.204187678882401,-3.2783031490113483,7.0752953115746955,7.339165598959437,7.584537873869576,7.259052792247293,7.063570771976135,7.107195172888451,7.090342370206443,7.32046677217897,7.170900432303534,7.533744915359956,7.091149899510207,7.156677820786132,7.485669323419495,7.068041790095873,7.13131173955733,-4.6223567266140195]],[[7.152877306329023,7.071743440746012,7.07320717273929,-5.3834035620899305,7.332935532865397,7.138602205583791,7.120920043390441,-2.8420023681171998,-4.492707563930275,7.530281620856517,7.21293726853067,-5.585842041909403,7.204187678882401,-3.2783031490113483,7.0752953115746955,7.339165598959437,7.584537873869576,7.259052792247293,7.063570771976135,7.107195172888451,7.090342370206443,7.32046677217897,7.170900432303534,7.533744915359956,7.091149899510207,7.156677820786132,7.485669323419495,7.068041790095873,7.13131173955733,-4.6223567266140195]],[[7.152877306329023,7.071743440746012,7.07320717273929,-5.3834035620899305,7.332935532865397,7.138602205583791,7.120920043390441,-2.8420023681171998,-4.492707563930275,7.530281620856517,7.21293726853067,-5.585842041909403,7.204187678882401,-3.2783031490113483,7.0752953115746955,7.339165598959437,7.584537873869576,7.259052792247293,7.063570771976135,7.107195172888451,7.090342370206443,7.32046677217897,7.170900432303534,7.533744915359956,7.091149899510207,7.156677820786132,7.485669323419495,7.068041790095873,7.13131173955733,-4.6223567266140195]],[[7.152877306329023,7.071743440746012,7.07320717273929,-5.3834035620899305,7.332935532865397,7.138602205583791,7.120920043390441,-2.8420023681171998,-4.492707563930275,7.530281620856517,7.21293726853067,-5.585842041909403,7.204187678882401,-3.2783031490113483,7.0752953115746955,7.339165598959437,7.584537873869576,7.259052792247293,7.063570771976135,7.107195172888451,7.090342370206443,7.32046677217897,7.170900432303534,7.533744915359956,7.091149899510207,7.156677820786132,7.485669323419495,7.068041790095873,7.13131173955733,-4.6223567266140195]],[[7.152877306329023,7.071743440746012,7.07320717273929,-5.3834035620899305,7.332935532865397,7.138602205583791,7.120920043390441,-2.8420023681171998,-4.492707563930275,7.530281620856517,7.21293726853067,-5.585842041909403,7.204187678882401,-3.2783031490113483,7.0752953115746955,7.339165598959437,7.584537873869576,7.259052792247293,7.063570771976135,7.107195172888451,7.090342370206443,7.32046677217897,7.170900432303534,7.533744915359956,7.091149899510207,7.156677820786132,7.485669323419495,7.068041790095873,7.13131173955733,-4.6223567266140195]],[[7.152877306329023,7.071743440746012,7.07320717273929,-5.3834035620899305,7.332935532865397,7.138602205583791,7.120920043390441,-2.8420023681171998,-4.492707563930275,7.530281620856517,7.21293726853067,-5.585842041909403,7.204187678882401,-3.2783031490113483,7.0752953115746955,7.339165598959437,7.584537873869576,7.259052792247293,7.063570771976135,7.107195172888451,7.090342370206443,7.32046677217897,7.170900432303534,7.533744915359956,7.091149899510207,7.156677820786132,7.485669323419495,7.068041790095873,7.13131173955733,-4.6223567266140195]],[[7.152877306329023,7.071743440746012,7.07320717273929,-5.3834035620899305,7.332935532865397,7.138602205583791,7.120920043390441,-2.8420023681171998,-4.492707563930275,7.530281620856517,7.21293726853067,-5.585842041909403,7.204187678882401,-3.2783031490113483,7.0752953115746955,7.339165598959437,7.584537873869576,7.259052792247293,7.063570771976135,7.107195172888451,7.090342370206443,7.32046677217897,7.170900432303534,7.533744915359956,7.091149899510207,7.156677820786132,7.485669323419495,7.068041790095873,7.13131173955733,-4.6223567266140195]],[[7.152877306329023,7.071743440746012,7.07320717273929,-5.3834035620899305,7.332935532865397,7.138602205583791,7.120920043390441,-2.8420023681171998,-4.492707563930275,7.530281620856517,7.21293726853067,-5.585842041909403,7.204187678882401,-3.2783031490113483,7.0752953115746955,7.339165598959437,7.584537873869576,7.259052792247293,7.063570771976135,7.107195172888451,7.090342370206443,7.32046677217897,7.170900432303534,7.533744915359956,7.091149899510207,7.156677820786132,7.485669323419495,7.068041790095873,7.13131173955733,-4.6223567266140195]],[[7.152877306329023,7.071743440746012,7.07320717273929,-5.3834035620899305,7.332935532865397,7.138602205583791,7.120920043390441,-2.8420023681171998,-4.492707563930275,7.530281620856517,7.21293726853067,-5.585842041909403,7.204187678882401,-3.2783031490113483,7.0752953115746955,7.339165598959437,7.584537873869576,7.259052792247293,7.063570771976135,7.107195172888451,7.090342370206443,7.32046677217897,7.170900432303534,7.533744915359956,7.091149899510207,7.156677820786132,7.485669323419495,7.068041790095873,7.13131173955733,-4.6223567266140195]],[[7.152877306329023,7.071743440746012,7.07320717273929,-5.3834035620899305,7.332935532865397,7.138602205583791,7.120920043390441,-2.8420023681171998,-4.492707563930275,7.530281620856517,7.21293726853067,-5.585842041909403,7.204187678882401,-3.2783031490113483,7.0752953115746955,7.339165598959437,7.584537873869576,7.259052792247293,7.063570771976135,7.107195172888451,7.090342370206443,7.32046677217897,7.170900432303534,7.533744915359956,7.091149899510207,7.156677820786132,7.485669323419495,7.068041790095873,7.13131173955733,-4.6223567266140195]],[[7.152877306329023,7.071743440746012,7.07320717273929,-5.3834035620899305,7.332935532865397,7.138602205583791,7.120920043390441,-2.8420023681171998,-4.492707563930275,7.530281620856517,7.21293726853067,-5.585842041909403,7.204187678882401,-3.2783031490113483,7.0752953115746955,7.339165598959437,7.584537873869576,7.259052792247293,7.063570771976135,7.107195172888451,7.090342370206443,7.32046677217897,7.170900432303534,7.533744915359956,7.091149899510207,7.156677820786132,7.485669323419495,7.068041790095873,7.13131173955733,-4.6223567266140195]],[[7.152877306329023,7.071743440746012,7.07320717273929,-5.3834035620899305,7.332935532865397,7.138602205583791,7.120920043390441,-2.8420023681171998,-4.492707563930275,7.530281620856517,7.21293726853067,-5.585842041909403,7.204187678882401,-3.2783031490113483,7.0752953115746955,7.339165598959437,7.584537873869576,7.259052792247293,7.063570771976135,7.107195172888451,7.090342370206443,7.32046677217897,7.170900432303534,7.533744915359956,7.091149899510207,7.156677820786132,7.485669323419495,7.068041790095873,7.13131173955733,-4.6223567266140195]],[[7.152877306329023,7.071743440746012,7.07320717273929,-5.3834035620899305,7.332935532865397,7.138602205583791,7.120920043390441,-2.8420023681171998,-4.492707563930275,7.530281620856517,7.21293726853067,-5.585842041909403,7.204187678882401,-3.2783031490113483,7.0752953115746955,7.339165598959437,7.584537873869576,7.259052792247293,7.063570771976135,7.107195172888451,7.090342370206443,7.32046677217897,7.170900432303534,7.533744915359956,7.091149899510207,7.156677820786132,7.485669323419495,7.068041790095873,7.13131173955733,-4.6223567266140195]],[[7.152877306329023,7.071743440746012,7.07320717273929,-5.3834035620899305,7.332935532865397,7.138602205583791,7.120920043390441,-2.8420023681171998,-4.492707563930275,7.530281620856517,7.21293726853067,-5.585842041909403,7.204187678882401,-3.2783031490113483,7.0752953115746955,7.339165598959437,7.584537873869576,7.259052792247293,7.063570771976135,7.107195172888451,7.090342370206443,7.32046677217897,7.170900432303534,7.533744915359956,7.091149899510207,7.156677820786132,7.485669323419495,7.068041790095873,7.13131173955733,-4.6223567266140195]],[[7.152877306329023,7.071743440746012,7.07320717273929,-5.3834035620899305,7.332935532865397,7.138602205583791,7.120920043390441,-2.8420023681171998,-4.492707563930275,7.530281620856517,7.21293726853067,-5.585842041909403,7.204187678882401,-3.2783031490113483,7.0752953115746955,7.339165598959437,7.584537873869576,7.259052792247293,7.063570771976135,7.107195172888451,7.090342370206443,7.32046677217897,7.170900432303534,7.533744915359956,7.091149899510207,7.156677820786132,7.485669323419495,7.068041790095873,7.13131173955733,-4.6223567266140195]],[[7.152877306329023,7.071743440746012,7.07320717273929,-5.3834035620899305,7.332935532865397,7.138602205583791,7.120920043390441,-2.8420023681171998,-4.492707563930275,7.530281620856517,7.21293726853067,-5.585842041909403,7.204187678882401,-3.2783031490113483,7.0752953115746955,7.339165598959437,7.584537873869576,7.259052792247293,7.063570771976135,7.107195172888451,7.090342370206443,7.32046677217897,7.170900432303534,7.533744915359956,7.091149899510207,7.156677820786132,7.485669323419495,7.068041790095873,7.13131173955733,-4.6223567266140195]],[[7.152877306329023,7.071743440746012,7.07320717273929,-5.3834035620899305,7.332935532865397,7.138602205583791,7.120920043390441,-2.8420023681171998,-4.492707563930275,7.530281620856517,7.21293726853067,-5.585842041909403,7.204187678882401,-3.2783031490113483,7.0752953115746955,7.339165598959437,7.584537873869576,7.259052792247293,7.063570771976135,7.107195172888451,7.090342370206443,7.32046677217897,7.170900432303534,7.533744915359956,7.091149899510207,7.156677820786132,7.485669323419495,7.068041790095873,7.13131173955733,-4.6223567266140195]],[[7.152877306329023,7.071743440746012,7.07320717273929,-5.3834035620899305,7.332935532865397,7.138602205583791,7.120920043390441,-2.8420023681171998,-4.492707563930275,7.530281620856517,7.21293726853067,-5.585842041909403,7.204187678882401,-3.2783031490113483,7.0752953115746955,7.339165598959437,7.584537873869576,7.259052792247293,7.063570771976135,7.107195172888451,7.090342370206443,7.32046677217897,7.170900432303534,7.533744915359956,7.091149899510207,7.156677820786132,7.485669323419495,7.068041790095873,7.13131173955733,-4.6223567266140195]],[[7.152877306329023,7.071743440746012,7.07320717273929,-5.3834035620899305,7.332935532865397,7.138602205583791,7.120920043390441,-2.8420023681171998,-4.492707563930275,7.530281620856517,7.21293726853067,-5.585842041909403,7.204187678882401,-3.2783031490113483,7.0752953115746955,7.339165598959437,7.584537873869576,7.259052792247293,7.063570771976135,7.107195172888451,7.090342370206443,7.32046677217897,7.170900432303534,7.533744915359956,7.091149899510207,7.156677820786132,7.485669323419495,7.068041790095873,7.13131173955733,-4.6223567266140195]],[[7.152877306329023,7.071743440746012,7.07320717273929,-5.3834035620899305,7.332935532865397,7.138602205583791,7.120920043390441,-2.8420023681171998,-4.492707563930275,7.530281620856517,7.21293726853067,-5.585842041909403,7.204187678882401,-3.2783031490113483,7.0752953115746955,7.339165598959437,7.584537873869576,7.259052792247293,7.063570771976135,7.107195172888451,7.090342370206443,7.32046677217897,7.170900432303534,7.533744915359956,7.091149899510207,7.156677820786132,7.485669323419495,7.068041790095873,7.13131173955733,-4.6223567266140195]],[[7.152877306329023,7.071743440746012,7.07320717273929,-5.3834035620899305,7.332935532865397,7.138602205583791,7.120920043390441,-2.8420023681171998,-4.492707563930275,7.530281620856517,7.21293726853067,-5.585842041909403,7.204187678882401,-3.2783031490113483,7.0752953115746955,7.339165598959437,7.584537873869576,7.259052792247293,7.063570771976135,7.107195172888451,7.090342370206443,7.32046677217897,7.170900432303534,7.533744915359956,7.091149899510207,7.156677820786132,7.485669323419495,7.068041790095873,7.13131173955733,-4.6223567266140195]],[[7.152877306329023,7.071743440746012,7.07320717273929,-5.3834035620899305,7.332935532865397,7.138602205583791,7.120920043390441,-2.8420023681171998,-4.492707563930275,7.530281620856517,7.21293726853067,-5.585842041909403,7.204187678882401,-3.2783031490113483,7.0752953115746955,7.339165598959437,7.584537873869576,7.259052792247293,7.063570771976135,7.107195172888451,7.090342370206443,7.32046677217897,7.170900432303534,7.533744915359956,7.091149899510207,7.156677820786132,7.485669323419495,7.068041790095873,7.13131173955733,-4.6223567266140195]],[[7.152877306329023,7.071743440746012,7.07320717273929,-5.3834035620899305,7.332935532865397,7.138602205583791,7.120920043390441,-2.8420023681171998,-4.492707563930275,7.530281620856517,7.21293726853067,-5.585842041909403,7.204187678882401,-3.2783031490113483,7.0752953115746955,7.339165598959437,7.584537873869576,7.259052792247293,7.063570771976135,7.107195172888451,7.090342370206443,7.32046677217897,7.170900432303534,7.533744915359956,7.091149899510207,7.156677820786132,7.485669323419495,7.068041790095873,7.13131173955733,-4.6223567266140195]],[[7.152877306329023,7.071743440746012,7.07320717273929,-5.3834035620899305,7.332935532865397,7.138602205583791,7.120920043390441,-2.8420023681171998,-4.492707563930275,7.530281620856517,7.21293726853067,-5.585842041909403,7.204187678882401,-3.2783031490113483,7.0752953115746955,7.339165598959437,7.584537873869576,7.259052792247293,7.063570771976135,7.107195172888451,7.090342370206443,7.32046677217897,7.170900432303534,7.533744915359956,7.091149899510207,7.156677820786132,7.485669323419495,7.068041790095873,7.13131173955733,-4.6223567266140195]],[[7.152877306329023,7.071743440746012,7.07320717273929,-5.3834035620899305,7.332935532865397,7.138602205583791,7.120920043390441,-2.8420023681171998,-4.492707563930275,7.530281620856517,7.21293726853067,-5.585842041909403,7.204187678882401,-3.2783031490113483,7.0752953115746955,7.339165598959437,7.584537873869576,7.259052792247293,7.063570771976135,7.107195172888451,7.090342370206443,7.32046677217897,7.170900432303534,7.533744915359956,7.091149899510207,7.156677820786132,7.485669323419495,7.068041790095873,7.13131173955733,-4.6223567266140195]],[[7.152877306329023,7.071743440746012,7.07320717273929,-5.3834035620899305,7.332935532865397,7.138602205583791,7.120920043390441,-2.8420023681171998,-4.492707563930275,7.530281620856517,7.21293726853067,-5.585842041909403,7.204187678882401,-3.2783031490113483,7.0752953115746955,7.339165598959437,7.584537873869576,7.259052792247293,7.063570771976135,7.107195172888451,7.090342370206443,7.32046677217897,7.170900432303534,7.533744915359956,7.091149899510207,7.156677820786132,7.485669323419495,7.068041790095873,7.13131173955733,-4.6223567266140195]],[[7.152877306329023,7.071743440746012,7.07320717273929,-5.3834035620899305,7.332935532865397,7.138602205583791,7.120920043390441,-2.8420023681171998,-4.492707563930275,7.530281620856517,7.21293726853067,-5.585842041909403,7.204187678882401,-3.2783031490113483,7.0752953115746955,7.339165598959437,7.584537873869576,7.259052792247293,7.063570771976135,7.107195172888451,7.090342370206443,7.32046677217897,7.170900432303534,7.533744915359956,7.091149899510207,7.156677820786132,7.485669323419495,7.068041790095873,7.13131173955733,-4.6223567266140195]],[[7.152877306329023,7.071743440746012,7.07320717273929,-5.3834035620899305,7.332935532865397,7.138602205583791,7.120920043390441,-2.8420023681171998,-4.492707563930275,7.530281620856517,7.21293726853067,-5.585842041909403,7.204187678882401,-3.2783031490113483,7.0752953115746955,7.339165598959437,7.584537873869576,7.259052792247293,7.063570771976135,7.107195172888451,7.090342370206443,7.32046677217897,7.170900432303534,7.533744915359956,7.091149899510207,7.156677820786132,7.485669323419495,7.068041790095873,7.13131173955733,-4.6223567266140195]],[[7.152877306329023,7.071743440746012,7.07320717273929,-5.3834035620899305,7.332935532865397,7.138602205583791,7.120920043390441,-2.8420023681171998,-4.492707563930275,7.530281620856517,7.21293726853067,-5.585842041909403,7.204187678882401,-3.2783031490113483,7.0752953115746955,7.339165598959437,7.584537873869576,7.259052792247293,7.063570771976135,7.107195172888451,7.090342370206443,7.32046677217897,7.170900432303534,7.533744915359956,7.091149899510207,7.156677820786132,7.485669323419495,7.068041790095873,7.13131173955733,-4.6223567266140195]],[[7.152877306329023,7.071743440746012,7.07320717273929,-5.3834035620899305,7.332935532865397,7.138602205583791,7.120920043390441,-2.8420023681171998,-4.492707563930275,7.530281620856517,7.21293726853067,-5.585842041909403,7.204187678882401,-3.2783031490113483,7.0752953115746955,7.339165598959437,7.584537873869576,7.259052792247293,7.063570771976135,7.107195172888451,7.090342370206443,7.32046677217897,7.170900432303534,7.533744915359956,7.091149899510207,7.156677820786132,7.485669323419495,7.068041790095873,7.13131173955733,-4.6223567266140195]],[[7.152877306329023,7.071743440746012,7.07320717273929,-5.3834035620899305,7.332935532865397,7.138602205583791,7.120920043390441,-2.8420023681171998,-4.492707563930275,7.530281620856517,7.21293726853067,-5.585842041909403,7.204187678882401,-3.2783031490113483,7.0752953115746955,7.339165598959437,7.584537873869576,7.259052792247293,7.063570771976135,7.107195172888451,7.090342370206443,7.32046677217897,7.170900432303534,7.533744915359956,7.091149899510207,7.156677820786132,7.485669323419495,7.068041790095873,7.13131173955733,-4.6223567266140195]]],"activated_output":[[[0.999218002837619,0.9991519675557723,0.9991532070218277,0.004571173802464553,0.9993467747407014,0.9992067686067214,0.9991926293413558,0.055096205662460075,0.011066467106870113,0.9994637005075542,0.9992635534395087,0.003736576382415239,0.99925708642537,0.03632306807325996,0.9991549718571189,0.9993508292646688,0.9994920085073984,0.9992967204412061,0.9991450145742988,0.999181481048123,0.9991675813337162,0.9993385845828878,0.9992319598065951,0.9994655536580673,0.9991682525138489,0.9992209667379567,0.9994392469023797,0.9991488252645169,0.9992009691930499,0.00973392198885937]],[[0.999218002837619,0.9991519675557723,0.9991532070218277,0.004571173802464553,0.9993467747407014,0.9992067686067214,0.9991926293413558,0.055096205662460075,0.011066467106870113,0.9994637005075542,0.9992635534395087,0.003736576382415239,0.99925708642537,0.03632306807325996,0.9991549718571189,0.9993508292646688,0.9994920085073984,0.9992967204412061,0.9991450145742988,0.999181481048123,0.9991675813337162,0.9993385845828878,0.9992319598065951,0.9994655536580673,0.9991682525138489,0.9992209667379567,0.9994392469023797,0.9991488252645169,0.9992009691930499,0.00973392198885937]],[[0.999218002837619,0.9991519675557723,0.9991532070218277,0.004571173802464553,0.9993467747407014,0.9992067686067214,0.9991926293413558,0.055096205662460075,0.011066467106870113,0.9994637005075542,0.9992635534395087,0.003736576382415239,0.99925708642537,0.03632306807325996,0.9991549718571189,0.9993508292646688,0.9994920085073984,0.9992967204412061,0.9991450145742988,0.999181481048123,0.9991675813337162,0.9993385845828878,0.9992319598065951,0.9994655536580673,0.9991682525138489,0.9992209667379567,0.9994392469023797,0.9991488252645169,0.9992009691930499,0.00973392198885937]],[[0.999218002837619,0.9991519675557723,0.9991532070218277,0.004571173802464553,0.9993467747407014,0.9992067686067214,0.9991926293413558,0.055096205662460075,0.011066467106870113,0.9994637005075542,0.9992635534395087,0.003736576382415239,0.99925708642537,0.03632306807325996,0.9991549718571189,0.9993508292646688,0.9994920085073984,0.9992967204412061,0.9991450145742988,0.999181481048123,0.9991675813337162,0.9993385845828878,0.9992319598065951,0.9994655536580673,0.9991682525138489,0.9992209667379567,0.9994392469023797,0.9991488252645169,0.9992009691930499,0.00973392198885937]],[[0.999218002837619,0.9991519675557723,0.9991532070218277,0.004571173802464553,0.9993467747407014,0.9992067686067214,0.9991926293413558,0.055096205662460075,0.011066467106870113,0.9994637005075542,0.9992635534395087,0.003736576382415239,0.99925708642537,0.03632306807325996,0.9991549718571189,0.9993508292646688,0.9994920085073984,0.9992967204412061,0.9991450145742988,0.999181481048123,0.9991675813337162,0.9993385845828878,0.9992319598065951,0.9994655536580673,0.9991682525138489,0.9992209667379567,0.9994392469023797,0.9991488252645169,0.9992009691930499,0.00973392198885937]],[[0.999218002837619,0.9991519675557723,0.9991532070218277,0.004571173802464553,0.9993467747407014,0.9992067686067214,0.9991926293413558,0.055096205662460075,0.011066467106870113,0.9994637005075542,0.9992635534395087,0.003736576382415239,0.99925708642537,0.03632306807325996,0.9991549718571189,0.9993508292646688,0.9994920085073984,0.9992967204412061,0.9991450145742988,0.999181481048123,0.9991675813337162,0.9993385845828878,0.9992319598065951,0.9994655536580673,0.9991682525138489,0.9992209667379567,0.9994392469023797,0.9991488252645169,0.9992009691930499,0.00973392198885937]],[[0.999218002837619,0.9991519675557723,0.9991532070218277,0.004571173802464553,0.9993467747407014,0.9992067686067214,0.9991926293413558,0.055096205662460075,0.011066467106870113,0.9994637005075542,0.9992635534395087,0.003736576382415239,0.99925708642537,0.03632306807325996,0.9991549718571189,0.9993508292646688,0.9994920085073984,0.9992967204412061,0.9991450145742988,0.999181481048123,0.9991675813337162,0.9993385845828878,0.9992319598065951,0.9994655536580673,0.9991682525138489,0.9992209667379567,0.9994392469023797,0.9991488252645169,0.9992009691930499,0.00973392198885937]],[[0.999218002837619,0.9991519675557723,0.9991532070218277,0.004571173802464553,0.9993467747407014,0.9992067686067214,0.9991926293413558,0.055096205662460075,0.011066467106870113,0.9994637005075542,0.9992635534395087,0.003736576382415239,0.99925708642537,0.03632306807325996,0.9991549718571189,0.9993508292646688,0.9994920085073984,0.9992967204412061,0.9991450145742988,0.999181481048123,0.9991675813337162,0.9993385845828878,0.9992319598065951,0.9994655536580673,0.9991682525138489,0.9992209667379567,0.9994392469023797,0.9991488252645169,0.9992009691930499,0.00973392198885937]],[[0.999218002837619,0.9991519675557723,0.9991532070218277,0.004571173802464553,0.9993467747407014,0.9992067686067214,0.9991926293413558,0.055096205662460075,0.011066467106870113,0.9994637005075542,0.9992635534395087,0.003736576382415239,0.99925708642537,0.03632306807325996,0.9991549718571189,0.9993508292646688,0.9994920085073984,0.9992967204412061,0.9991450145742988,0.999181481048123,0.9991675813337162,0.9993385845828878,0.9992319598065951,0.9994655536580673,0.9991682525138489,0.9992209667379567,0.9994392469023797,0.9991488252645169,0.9992009691930499,0.00973392198885937]],[[0.999218002837619,0.9991519675557723,0.9991532070218277,0.004571173802464553,0.9993467747407014,0.9992067686067214,0.9991926293413558,0.055096205662460075,0.011066467106870113,0.9994637005075542,0.9992635534395087,0.003736576382415239,0.99925708642537,0.03632306807325996,0.9991549718571189,0.9993508292646688,0.9994920085073984,0.9992967204412061,0.9991450145742988,0.999181481048123,0.9991675813337162,0.9993385845828878,0.9992319598065951,0.9994655536580673,0.9991682525138489,0.9992209667379567,0.9994392469023797,0.9991488252645169,0.9992009691930499,0.00973392198885937]],[[0.999218002837619,0.9991519675557723,0.9991532070218277,0.004571173802464553,0.9993467747407014,0.9992067686067214,0.9991926293413558,0.055096205662460075,0.011066467106870113,0.9994637005075542,0.9992635534395087,0.003736576382415239,0.99925708642537,0.03632306807325996,0.9991549718571189,0.9993508292646688,0.9994920085073984,0.9992967204412061,0.9991450145742988,0.999181481048123,0.9991675813337162,0.9993385845828878,0.9992319598065951,0.9994655536580673,0.9991682525138489,0.9992209667379567,0.9994392469023797,0.9991488252645169,0.9992009691930499,0.00973392198885937]],[[0.999218002837619,0.9991519675557723,0.9991532070218277,0.004571173802464553,0.9993467747407014,0.9992067686067214,0.9991926293413558,0.055096205662460075,0.011066467106870113,0.9994637005075542,0.9992635534395087,0.003736576382415239,0.99925708642537,0.03632306807325996,0.9991549718571189,0.9993508292646688,0.9994920085073984,0.9992967204412061,0.9991450145742988,0.999181481048123,0.9991675813337162,0.9993385845828878,0.9992319598065951,0.9994655536580673,0.9991682525138489,0.9992209667379567,0.9994392469023797,0.9991488252645169,0.9992009691930499,0.00973392198885937]],[[0.999218002837619,0.9991519675557723,0.9991532070218277,0.004571173802464553,0.9993467747407014,0.9992067686067214,0.9991926293413558,0.055096205662460075,0.011066467106870113,0.9994637005075542,0.9992635534395087,0.003736576382415239,0.99925708642537,0.03632306807325996,0.9991549718571189,0.9993508292646688,0.9994920085073984,0.9992967204412061,0.9991450145742988,0.999181481048123,0.9991675813337162,0.9993385845828878,0.9992319598065951,0.9994655536580673,0.9991682525138489,0.9992209667379567,0.9994392469023797,0.9991488252645169,0.9992009691930499,0.00973392198885937]],[[0.999218002837619,0.9991519675557723,0.9991532070218277,0.004571173802464553,0.9993467747407014,0.9992067686067214,0.9991926293413558,0.055096205662460075,0.011066467106870113,0.9994637005075542,0.9992635534395087,0.003736576382415239,0.99925708642537,0.03632306807325996,0.9991549718571189,0.9993508292646688,0.9994920085073984,0.9992967204412061,0.9991450145742988,0.999181481048123,0.9991675813337162,0.9993385845828878,0.9992319598065951,0.9994655536580673,0.9991682525138489,0.9992209667379567,0.9994392469023797,0.9991488252645169,0.9992009691930499,