{"layers":[{"input_weights":[[0.03512854959212393,-0.08769372685333286,-0.3128782349930281,-0.4675778542186158,0.028105009396623217,0.1952804892679973,0.11884948560821582,-0.3050960038251335,-0.08205863858251392,0.6630249533157593,-0.0347936152036911,0.5136988207508234,0.0020248982935072695,0.08527032235290931,0.380147210419569,0.30875169204130676,-0.09009342145580441,0.17543005043352355,0.09316755484231606,0.1251040610369523,-0.11693527841245142,0.2000236624933921,-0.37621016431499854,-0.05048334085981283,0.21361911751972115,0.19944371807616784,-0.2750197215314707,-0.39232332048689983,0.33535869048100936,-0.38212522869592414,-0.02591046506457598,-0.6905251021104756,0.4426561775196823,0.2904286018092756,0.5194766235184425,-0.482594643836282,0.17543315542887544,0.5113575640407116,0.35091730403097043,0.4245360753090536]],"inactivated_output":[[[0.03669920724379483,-0.06317233619609249,-0.2720613444045833,-0.35471342074301315,0.05109542128776547,0.13015500413717684,0.09038704406567367,-0.21971757053951352,-0.04985689369012871,0.5212615397188297,-0.026149488193889608,0.3986128660173883,0.010015787736573311,0.10192236717134998,0.2672850402369272,0.23354744837902397,-0.07544268552789123,0.07661557401842789,0.07693465591142279,0.11299830428038656,-0.11122147672298613,0.15466087343010987,-0.30385806098962703,-0.034704053361617346,0.14559188744392051,0.1539391958559871,-0.20269604536180266,-0.31810315805820516,0.26702384553726116,-0.3143085917099326,-0.016216822874764773,-0.4867880905033236,0.34655568017550376,0.21269874802272917,0.40087114029650245,-0.3835972766229083,0.14924420567585736,0.404191710983156,0.2645835133973906,0.3520805636568374]],[[0.03669920724379483,-0.06317233619609249,-0.2720613444045833,-0.35471342074301315,0.05109542128776547,0.13015500413717684,0.09038704406567367,-0.21971757053951352,-0.04985689369012871,0.5212615397188297,-0.026149488193889608,0.3986128660173883,0.010015787736573311,0.10192236717134998,0.2672850402369272,0.23354744837902397,-0.07544268552789123,0.07661557401842789,0.07693465591142279,0.11299830428038656,-0.11122147672298613,0.15466087343010987,-0.30385806098962703,-0.034704053361617346,0.14559188744392051,0.1539391958559871,-0.20269604536180266,-0.31810315805820516,0.26702384553726116,-0.3143085917099326,-0.016216822874764773,-0.4867880905033236,0.34655568017550376,0.21269874802272917,0.40087114029650245,-0.3835972766229083,0.14924420567585736,0.404191710983156,0.2645835133973906,0.3520805636568374]],[[0.03671511691299416,-0.063212052557892,-0.2722030465037649,-0.3549251860755397,0.051108150005789305,0.13024344638775112,0.09044087082546,-0.2198557480774778,-0.049894057928617154,0.5215618227592806,-0.02616524617178983,0.39884551946881536,0.010016704810075806,0.10196098597676342,0.26745720835758824,0.23368728157288324,-0.0754834887078984,0.07669502603402278,0.07697685136198543,0.11305496372831995,-0.1112744365411077,0.15475146385696376,-0.30402844602781315,-0.034726917193528495,0.14568863523265227,0.1540295236268549,-0.20282060139510494,-0.3182808407214691,0.2671757290021529,-0.31448165567220426,-0.01622855768684112,-0.4871008283213084,0.3467561585167717,0.21283028271557758,0.40110641050642926,-0.3838158430376893,0.14932365909770015,0.40442330408281213,0.26474244333581043,0.35227283543007515]],[[0.03671511691299416,-0.063212052557892,-0.2722030465037649,-0.3549251860755397,0.051108150005789305,0.13024344638775112,0.09044087082546,-0.2198557480774778,-0.049894057928617154,0.5215618227592806,-0.02616524617178983,0.39884551946881536,0.010016704810075806,0.10196098597676342,0.26745720835758824,0.23368728157288324,-0.0754834887078984,0.07669502603402278,0.07697685136198543,0.11305496372831995,-0.1112744365411077,0.15475146385696376,-0.30402844602781315,-0.034726917193528495,0.14568863523265227,0.1540295236268549,-0.20282060139510494,-0.3182808407214691,0.2671757290021529,-0.31448165567220426,-0.01622855768684112,-0.4871008283213084,0.3467561585167717,0.21283028271557758,0.40110641050642926,-0.3838158430376893,0.14932365909770015,0.40442330408281213,0.26474244333581043,0.35227283543007515]],[[0.03716058765057544,-0.06432411068827848,-0.2761707052808504,-0.360854615386283,0.05146455411045663,0.1327198294038308,0.09194802009947724,-0.2237247191404777,-0.050934656606293975,0.5299697478919081,-0.02660646955299606,0.4053598161087715,0.010042382868145645,0.10304231252834017,0.2722779157360973,0.23760261100094332,-0.07662597774809882,0.07891968247067979,0.07815832397773945,0.11464142827045522,-0.11275731144851199,0.15728799580887273,-0.3087992270970251,-0.03536710448704061,0.1483975733171415,0.15655870121115414,-0.20630817032756926,-0.323255955292861,0.27142846601912224,-0.319327446615812,-0.016557132424978863,-0.4958574872248833,0.352369552072275,0.2165132541153329,0.40769397638438054,-0.3899357026515552,0.15154835490929822,0.41090791087318346,0.2691924816115655,0.35765644508073346]],[[0.03716058765057544,-0.06432411068827848,-0.2761707052808504,-0.360854615386283,0.05146455411045663,0.1327198294038308,0.09194802009947724,-0.2237247191404777,-0.050934656606293975,0.5299697478919081,-0.02660646955299606,0.4053598161087715,0.010042382868145645,0.10304231252834017,0.2722779157360973,0.23760261100094332,-0.07662597774809882,0.07891968247067979,0.07815832397773945,0.11464142827045522,-0.11275731144851199,0.15728799580887273,-0.3087992270970251,-0.03536710448704061,0.1483975733171415,0.15655870121115414,-0.20630817032756926,-0.323255955292861,0.27142846601912224,-0.319327446615812,-0.016557132424978863,-0.4958574872248833,0.352369552072275,0.2165132541153329,0.40769397638438054,-0.3899357026515552,0.15154835490929822,0.41090791087318346,0.2691924816115655,0.35765644508073346]],[[0.037637877726555385,-0.06551560154226398,-0.28042176825629916,-0.36720757536207943,0.05184641565117162,0.13537309692105903,0.09356282289306712,-0.22787004527940613,-0.0520495837609477,0.5389782391054374,-0.02707920889000273,0.41233941965158155,0.010069895073220472,0.10420087669074385,0.2774429593559284,0.24179760681672194,-0.07785007314831355,0.08130324293852659,0.07942418749461874,0.11634121170845729,-0.11434610599215943,0.16000570861448946,-0.3139107782426093,-0.03605301944437503,0.15130000697909424,0.15926853433718904,-0.21004485132663817,-0.32858643519078085,0.27598496996587507,-0.3245193654839632,-0.016909176787269296,-0.5052396217644278,0.35838390231031414,0.220459294900785,0.4147520826821855,-0.3964926950949829,0.15393195756458186,0.4178557038628671,0.2739603797641602,0.36342459827786733]],[[0.037765155080150034,-0.0658333324366601,-0.28155538504975214,-0.3689016980222918,0.05194824539536228,0.1360806349256532,0.09399343697135774,-0.22897546558312035,-0.05234689766885534,0.5413805034290452,-0.027205272713204505,0.41420064726299755,0.010077231661240426,0.10450982713405146,0.2788203043212166,0.24291627236759622,-0.0781764985883708,0.08193885906328571,0.07976175109911987,0.1167944872919245,-0.11476978453713207,0.16073043202932058,-0.3152738585480984,-0.0362359300996642,0.15207398928894827,0.15999115650413165,-0.2110412995930565,-0.33000789649689277,0.27720003768500917,-0.32590387718213676,-0.017003055283880075,-0.5077415243083063,0.35998772904045784,0.22151157244357222,0.41663424436160007,-0.3982412264132303,0.15456758493932415,0.419708448660116,0.2752318192715188,0.3649627724637697]],[[0.03824244515612998,-0.0670248232906456,-0.2858064480252009,-0.37525465799808816,0.05233010693607727,0.13873390244288145,0.09560823976494763,-0.23312079172204883,-0.053461824823509065,0.5503889946425745,-0.02767801205021118,0.4211802508058076,0.010104743866315252,0.10566839129645514,0.28398534794104774,0.24711126818337484,-0.07940059398858554,0.08432241953113251,0.08102761461599917,0.11849427072992656,-0.11635857908077951,0.16344814483493733,-0.3203854096936827,-0.036921845056998616,0.15497642295090103,0.16270098963016655,-0.2147779805921254,-0.33533837639481257,0.281756541631762,-0.33109579605028794,-0.017355099646170512,-0.5171236588478508,0.36600207927849704,0.22545761322902433,0.42369235065940497,-0.404798218856658,0.15695118759460777,0.42665624164979954,0.2799997174241135,0.37073092566090354]],[[0.03871973523210993,-0.0682163141446311,-0.2900575110006497,-0.3816076179738846,0.052711968476792256,0.14138716996010967,0.09722304255853753,-0.23726611786097726,-0.05457675197816279,0.5593974858561039,-0.028150751387217853,0.42815985434861775,0.010132256071390079,0.10682695545885879,0.28915039156087885,0.25130626399915346,-0.08062468938880027,0.08670597999897928,0.08229347813287846,0.12019405416792864,-0.11794737362442695,0.16616585764055405,-0.3254969608392669,-0.037607760014333025,0.15787885661285375,0.16541082275620145,-0.2185146615911943,-0.3406688562927324,0.28631304557851484,-0.33628771491843906,-0.017707144008460945,-0.5265057933873953,0.3720164295165362,0.22940365401447643,0.4307504569572099,-0.4113552113000858,0.15933479024989142,0.43360403463948316,0.2847676155767082,0.37649907885803746]],[[0.03919702530808987,-0.06940780499861661,-0.29430857397609844,-0.387960577949681,0.053093830017507254,0.14404043747733788,0.09883784535212742,-0.2414114439999057,-0.05569167913281651,0.5684059770696333,-0.028623490724224526,0.4351394578914278,0.010159768276464906,0.10798551962126246,0.2943154351807099,0.25550125981493205,-0.081848784789015,0.08908954046682607,0.08355934164975776,0.1218938376059307,-0.11953616816807439,0.1688835704461708,-0.3306085119848511,-0.03829367497166744,0.16078129027480648,0.16812065588223632,-0.2222513425902632,-0.34599933619065226,0.29086954952526767,-0.34147963378659024,-0.01805918837075138,-0.5358879279269398,0.37803077975457533,0.23334969479992856,0.4378085632550148,-0.4179122037435135,0.16171839290517506,0.4405518276291667,0.2895355137293029,0.3822672320551713]],[[0.03967431538406981,-0.0705992958526021,-0.2985596369515472,-0.3943135379254774,0.05347569155822224,0.1466937049945661,0.1004526481457173,-0.24555677013883412,-0.05680660628747023,0.5774144682831626,-0.029096230061231198,0.44211906143423796,0.010187280481539733,0.10914408378366611,0.299480478800541,0.2596962556307107,-0.08307288018922973,0.09147310093467287,0.08482520516663705,0.12359362104393277,-0.12112496271172182,0.17160128325178753,-0.33572006313043534,-0.03897958992900186,0.16368372393675923,0.17083048900827122,-0.2259880235893321,-0.3513298160885721,0.29542605347202056,-0.34667155265474137,-0.018411232733041814,-0.5452700624664844,0.38404512999261453,0.2372957355853807,0.4448666695528198,-0.4244691961869413,0.16410199556045868,0.4474996206188503,0.2943034118818976,0.3880353852523052]],[[0.040151605460049755,-0.0717907867065876,-0.30281069992699594,-0.40066649790127384,0.05385755309893723,0.14934697251179432,0.10206745093930719,-0.2497020962777626,-0.05792153344212395,0.5864229594966919,-0.02956896939823787,0.44909866497704803,0.01021479268661456,0.11030264794606975,0.30464552242037213,0.26389125144648934,-0.08429697558944448,0.09385666140251966,0.08609106868351635,0.12529340448193485,-0.12271375725536926,0.17431899605740428,-0.34083161427601955,-0.039665504886336266,0.16658615759871195,0.17354032213430612,-0.229724704588401,-0.3566602959864919,0.2999825574187734,-0.3518634715228925,-0.01876327709533225,-0.5546521970060289,0.3900594802306537,0.24124177637083277,0.4519247758506247,-0.431026188630369,0.16648559821574233,0.4544474136085339,0.29907131003449233,0.3938035384494391]],[[0.0406288955360297,-0.07298227756057311,-0.3070617629024447,-0.4070194578770702,0.05423941463965222,0.15200024002902257,0.10368225373289708,-0.25384742241669106,-0.059036460596777675,0.5954314507102213,-0.030041708735244543,0.45607826851985817,0.010242304891689388,0.11146121210847343,0.30981056604020324,0.26808624726226793,-0.0855210709896592,0.09624022187036643,0.08735693220039564,0.1269931879199369,-0.1243025517990167,0.17703670886302103,-0.34594316542160375,-0.04035141984367068,0.16948859126066468,0.176250155260341,-0.23346138558746987,-0.36199077588441175,0.3045390613655262,-0.35705539039104367,-0.019115321457622684,-0.5640343315455734,0.3960738304686928,0.2451878171562849,0.45898288214842964,-0.43758318107379673,0.16886920087102594,0.4613952065982175,0.30383920818708704,0.39957169164657297]],[[0.04112209528120898,-0.07421348477635813,-0.31145452797707507,-0.4135841831853932,0.05463400489839104,0.15474194979682507,0.1053508832862733,-0.2581309260935838,-0.060188551989919854,0.6047402249642015,-0.03053020605015144,0.4632905255140953,0.010270734170266709,0.11265839507629055,0.31514777778069536,0.27242107627190587,-0.08678596956988109,0.09870323435380812,0.08866499116783758,0.1287496308058724,-0.1259443061607857,0.17984501209549164,-0.3512251016053741,-0.04106019863291624,0.17248777271134919,0.1790503161572437,-0.23732262261984108,-0.3674989384455956,0.3092474487771708,-0.3624203732214665,-0.019479100631989467,-0.5737292039031027,0.402288659048,0.24926539263458541,0.4662762586561614,-0.4443587399320054,0.17133225694815238,0.4685745926875572,0.30876603627810156,0.40553211661694466]],[[0.04159938535718892,-0.07540497563034362,-0.3157055909525238,-0.4199371431611896,0.055015866439106026,0.1573952173140533,0.10696568607986319,-0.2622762522325122,-0.061303479144573576,0.6137487161777309,-0.03100294538715811,0.47027012905690535,0.010298246375341536,0.1138169592386942,0.32031282140052647,0.27661607208768446,-0.08801006497009582,0.10108679482165492,0.08993085468471687,0.13044941424387446,-0.12753310070443313,0.1825627249011084,-0.3563366527509583,-0.041746113590250655,0.1753902063733019,0.1817601492832786,-0.24105930361890998,-0.3728294183435154,0.3138039527239237,-0.36761229208961765,-0.0198311449942799,-0.5831113384426472,0.40830300928603913,0.25321143342003755,0.4733343649539663,-0.45091573237543314,0.173715859603436,0.47552238567724076,0.31353393443069627,0.4113002698140785]],[[0.04207667543316887,-0.07659646648432912,-0.31995665392797257,-0.426290103136986,0.055397727979821024,0.1600484848312815,0.10858048887345308,-0.26642157837144065,-0.0624184062992273,0.6227572073912603,-0.03147568472416479,0.4772497325997155,0.010325758580416363,0.11497552340109785,0.3254778650203576,0.2808110679034631,-0.08923416037031057,0.10347035528950169,0.09119671820159617,0.13214919768187652,-0.1291218952480806,0.18528043770672514,-0.36144820389654253,-0.04243202854758507,0.17829264003525463,0.1844699824093135,-0.24479598461797886,-0.37815989824143525,0.31836045667067653,-0.3728042109577688,-0.020183189356570336,-0.5924934729821917,0.4143173595240783,0.2571574742054896,0.48039247125177126,-0.4574727248188609,0.17609946225871964,0.4824701786669243,0.318301832583291,0.4170684230112124]],[[0.04255396550914881,-0.07778795733831463,-0.3242077169034213,-0.43264306311278244,0.05577958952053601,0.16270175234850973,0.11019529166704296,-0.27056690451036913,-0.06353333345388103,0.6317656986047896,-0.03194842406117146,0.48422933614252556,0.01035327078549119,0.11613408756350152,0.3306429086401887,0.2850060637192417,-0.0904582557705253,0.10585391575734848,0.09246258171847546,0.1338489811198786,-0.13071068979172804,0.18799815051234187,-0.3665597550421268,-0.04311794350491948,0.1811950736972074,0.18717981553534838,-0.24853266561704773,-0.3834903781393551,0.32291696061742936,-0.3779961298259199,-0.02053523371886077,-0.6018756075217362,0.4203317097621175,0.26110351499094175,0.48745057754957616,-0.46402971726228864,0.1784830649140033,0.48941797165660794,0.3230697307358857,0.4228365762083463]],[[0.043031255585128755,-0.07897944819230013,-0.32845877987887007,-0.4389960230885788,0.056161451061251,0.16535501986573795,0.11181009446063285,-0.27471223064929756,-0.06464826060853475,0.6407741898183189,-0.03242116339817813,0.4912089396853357,0.010380782990566016,0.11729265172590517,0.33580795226001975,0.28920105953502034,-0.09168235117074003,0.10823747622519528,0.09372844523535476,0.13554876455788067,-0.13229948433537547,0.19071586331795862,-0.371671306187711,-0.043803858462253896,0.1840975073591601,0.18988964866138328,-0.25226934661611666,-0.38882085803727495,0.3274734645641822,-0.3831880486940711,-0.020887278081151206,-0.6112577420612807,0.4263460600001566,0.2650495557763939,0.4945086838473811,-0.4705867097057164,0.1808666675692869,0.4963657646462915,0.3278376288884804,0.42860472940548017]],[[0.0435085456611087,-0.08017093904628562,-0.3327098428543188,-0.44534898306437526,0.05654331260196599,0.1680082873829662,0.11342489725422275,-0.278857556788226,-0.06576318776318847,0.6497826810318482,-0.032893902735184805,0.49818854322814576,0.010408295195640844,0.11845121588830884,0.34097299587985086,0.293396055350799,-0.09290644657095476,0.11062103669304207,0.09499430875223405,0.13724854799588274,-0.1338882788790229,0.19343357612357537,-0.3767828573332952,-0.04448977341958831,0.18699994102111284,0.19259948178741818,-0.25600602761518554,-0.39415133793519475,0.3320299685109351,-0.3883799675622222,-0.02123932244344164,-0.6206398766008252,0.43236041023819577,0.268995596561846,0.501566790145186,-0.47714370214914414,0.18325027022457055,0.5033135576359751,0.3326055270410751,0.43437288260261403]],[[0.04398583573708865,-0.08136242990027114,-0.33696090582976757,-0.45170194304017164,0.05692517414268097,0.1706615549001944,0.11503970004781264,-0.2830028829271545,-0.0668781149178422,0.6587911722453776,-0.03336664207219148,0.5051681467709558,0.01043580740071567,0.11960978005071249,0.34613803949968197,0.2975910511665776,-0.0941305419711695,0.11300459716088884,0.09626017226911335,0.1389483314338848,-0.13547707342267035,0.1961512889291921,-0.38189440847887945,-0.04517568837692272,0.1899023746830656,0.19530931491345305,-0.25974270861425447,-0.3994818178331146,0.3365864724576879,-0.3935718864303734,-0.021591366805732076,-0.6300220111403697,0.43837476047623497,0.2729416373472981,0.5086248964429909,-0.4837006945925719,0.18563387287985417,0.5102613506256587,0.3373734251936698,0.44014103579974795]],[[0.04446312581306859,-0.08255392075425663,-0.3412119688052163,-0.4580549030159681,0.05730703568339597,0.17331482241742263,0.11665450284140252,-0.2871482090660829,-0.06799304207249592,0.667799663458907,-0.03383938140919815,0.5121477503137659,0.010463319605790498,0.12076834421311616,0.3513030831195131,0.3017860469823562,-0.09535463737138423,0.11538815762873564,0.09752603578599264,0.1406481148718869,-0.13706586796631778,0.19886900173480884,-0.38700595962446366,-0.04586160333425714,0.1928048083450183,0.19801914803948795,-0.26347938961332334,-0.40481229773103444,0.34114297640444075,-0.3987638052985245,-0.02194341116802251,-0.6394041456799142,0.4443891107142741,0.2768876781327502,0.5156830027407958,-0.49025768703599965,0.1880174755351378,0.5172091436153423,0.3421413233462645,0.4459091889968818]],[[0.009334576220944664,0.005139806099076224,-0.028333733812188216,0.009522951202647751,0.02920202628677275,-0.021965666850574658,-0.00219498276681329,0.017947794759050634,0.014065596510018005,0.004774710143147729,0.0009542337944929518,-0.0015510704370574608,0.008438421312283229,0.03549802186020685,-0.028844127300055936,-0.006965645058950514,-0.005261215915579824,-0.06004189280478791,0.004358480943676573,0.015544053834934584,-0.020130589553866356,-0.0011546607585832575,-0.010795795309465143,0.004621737525555689,-0.020814309174702835,-0.001424570036679901,0.011540331918147354,-0.012488977244134595,0.0057842859234314105,-0.016638576602600368,0.003967053896553473,0.05112095643056136,0.0017329331945918594,-0.013540923676525365,-0.003793620777646612,-0.007663043199717645,0.012584320106262368,0.005851579574630642,-0.008775980684705897,0.02137311368782825]],[[0.015889359931069238,-0.011223334962324655,-0.08671499867501772,-0.07772436579828962,0.034446258112591936,0.014472540386026283,0.019981642265154517,-0.03898135088223334,-0.0012460697472264394,0.12849132280895062,-0.005538053100398684,0.09430215155086792,0.008816255595310853,0.051408969690550435,0.04208913841229117,0.050645630811075926,-0.022072126078528834,-0.02730766237969203,0.021743006575485547,0.03888774638349633,-0.04195003461995783,0.036168595105219976,-0.08099443104215509,-0.004798161221836922,0.019045779782781363,0.03579047156086591,-0.03977675380239881,-0.08569423450890033,0.06836027345883715,-0.08794092905854273,-0.0008676886789018281,-0.07772702457918318,0.08433000979699634,0.040651369777017,0.0931377057122077,-0.09771240608945866,0.04531912990549094,0.10126793663295183,0.056703153944261404,0.1005890842618002]],[[0.016366650007049184,-0.012414825816310156,-0.09096606165046649,-0.08407732577408604,0.03482811965330693,0.01712580790325451,0.021596445058744404,-0.04312667702116178,-0.0023609969018801597,0.13749981402248,-0.006010792437405357,0.10128175509367802,0.00884376780038568,0.052567533852954096,0.04725418203212228,0.05484062662685456,-0.023296221478743568,-0.024924101911845242,0.023008870092364842,0.0405875298214984,-0.04353882916360527,0.038886307910836714,-0.08610598218773931,-0.005484076179171336,0.0219482134447341,0.0385003046869008,-0.0435134348014677,-0.09102471440682017,0.07291677740559,-0.09313284792669388,-0.001219733041192262,-0.08710915911872769,0.09034436003503551,0.04459741056246912,0.10019581201001261,-0.1042693985328864,0.04770273256077457,0.10821572962263543,0.06147105209685611,0.10635723745893408]],[[0.016843940083029127,-0.013606316670295656,-0.09521712462591524,-0.09043028574988245,0.03520998119402192,0.019779075420482736,0.023211247852334298,-0.047272003160090226,-0.0034759240565338818,0.14650830523600933,-0.006483531774412029,0.10826135863648813,0.008871280005460508,0.05372609801535775,0.05241922565195338,0.059035622442633176,-0.024520316878958302,-0.022540541443998453,0.024274733609244138,0.04228731325950047,-0.04512762370725271,0.04160402071645346,-0.09121753333332352,-0.006169991136505748,0.024850647106686833,0.041210137812935685,-0.047250115800536605,-0.09635519430474,0.07747328135234284,-0.09832476679484503,-0.0015717774034826968,-0.09649129365827219,0.09635871027307467,0.04854345134792123,0.10725391830781754,-0.11082639097631415,0.05008633521605821,0.115163522612319,0.06623895024945084,0.11212539065606797]],[[0.01732123015900907,-0.01479780752428116,-0.09946818760136399,-0.09678324572567885,0.03559184273473691,0.022432342937710962,0.024826050645924184,-0.05141732929901868,-0.004590851211187604,0.15551679644953867,-0.0069562711114187015,0.11524096217929823,0.008898792210535335,0.05488466217776141,0.05758426927178449,0.0632306182584118,-0.025744412279173037,-0.020156980976151664,0.025540597126123433,0.043987096697502545,-0.04671641825090015,0.0443217335220702,-0.09632908447890776,-0.006855906093840162,0.027753080768639565,0.04391997093897058,-0.050986796799605494,-0.10168567420265984,0.08202978529909569,-0.10351668566299616,-0.0019238217657731316,-0.1058734281978167,0.10237306051111383,0.052489492133373346,0.11431202460562247,-0.1173833834197419,0.05246993787134184,0.12211131560200258,0.07100684840204555,0.11789354385320185]],[[0.017798520234989016,-0.015989298378266657,-0.10371925057681274,-0.10313620570147526,0.03597370427545189,0.02508561045493918,0.02644085343951407,-0.05556265543794711,-0.005705778365841326,0.16452528766306798,-0.007429010448425374,0.12222056572210832,0.00892630441561016,0.056043226340165064,0.06274931289161557,0.06742561407419041,-0.02696850767938777,-0.017773420508304882,0.026806460643002725,0.04568688013550461,-0.04830521279454758,0.04703944632768693,-0.10144063562449196,-0.007541821051174575,0.030655514430592296,0.04662980406500546,-0.05472347779867438,-0.10701615410057966,0.08658628924584852,-0.10870860453114731,-0.0022758661280635655,-0.11525556273736118,0.108387410749153,0.05643553291882545,0.12137013090342738,-0.12394037586316964,0.05485354052662547,0.12905910859168615,0.07577474655464024,0.12366169705033572]],[[0.018275810310968962,-0.01718078923225216,-0.1079703135522615,-0.10948916567727168,0.036355565816166883,0.027738877972167408,0.028055656233103965,-0.05970798157687557,-0.006820705520495048,0.17353377887659735,-0.007901749785432049,0.12920016926491842,0.008953816620684988,0.057201790502568725,0.06791435651144669,0.07162060988996906,-0.028192603079602505,-0.015389860040458087,0.02807232415988202,0.04738666357350668,-0.04989400733819503,0.04975715913330368,-0.10655218677007619,-0.008227736008508988,0.03355794809254503,0.049339637191040356,-0.0584601587977433,-0.1123466339984995,0.09114279319260138,-0.11390052339929846,-0.002627910490354001,-0.12463769727690571,0.11440176098719217,0.06038157370427758,0.12842823720123234,-0.1304973683065974,0.05723714318190911,0.13600690158136977,0.08054264470723496,0.1294298502474696]],[[0.018753100386948905,-0.018372280086237664,-0.11222137652771025,-0.1158421256530681,0.036737427356881874,0.030392145489395634,0.02967045902669385,-0.06385330771580401,-0.00793563267514877,0.1825422700901267,-0.008374489122438721,0.13617977280772853,0.008981328825759815,0.058360354664972386,0.0730794001312778,0.07581560570574768,-0.02941669847981724,-0.013006299572611298,0.029338187676761315,0.04908644701150875,-0.05148280188184247,0.05247487193892042,-0.11166373791566042,-0.008913650965843404,0.03646038175449777,0.05204947031707525,-0.06219683979681219,-0.11767711389641934,0.09569929713935423,-0.11909244226744961,-0.002979954852644436,-0.13401983181645022,0.12041611122523133,0.06432761448972969,0.13548634349903727,-0.13705436075002514,0.05962074583719275,0.14295469457105334,0.08531054285982967,0.13519800344460348]],[[0.019230390462928848,-0.019563770940223157,-0.11647243950315898,-0.12219508562886448,0.03711928889759686,0.03304541300662385,0.03128526182028373,-0.06799863385473244,-0.009050559829802489,0.191550761303656,-0.008847228459445392,0.1431593763505386,0.009008841030834642,0.05951891882737605,0.07824444375110888,0.08001060152152628,-0.03064079388003197,-0.010622739104764523,0.030604051193640607,0.05078623044951081,-0.05307159642548989,0.05519258474453715,-0.11677528906124461,-0.009599565923177813,0.039362815416450495,0.05475930344311013,-0.06593352079588108,-0.12300759379433916,0.10025580108610704,-0.12428436113560073,-0.003331999214934869,-0.1434019663559947,0.12643046146327047,0.0682736552751818,0.14254444979684217,-0.14361135319345286,0.06200434849247637,0.1499024875607369,0.09007844101242436,0.14096615664173734]],[[0.019707680538908794,-0.02075526179420866,-0.12072350247860773,-0.12854804560466088,0.037501150438311856,0.03569868052385207,0.032900064613873625,-0.0721439599936609,-0.01016548698445621,0.20055925251718534,-0.009319967796452064,0.1501389798933487,0.00903635323590947,0.06067748298977971,0.08340948737093998,0.08420559733730491,-0.03186488928024671,-0.008239178636917734,0.0318699147105199,0.05248601388751288,-0.05466039096913733,0.057910297550153894,-0.12188684020682884,-0.010285480880512229,0.04226524907840322,0.05746913656914502,-0.06967020179494997,-0.128338073692259,0.10481230503285989,-0.12947628000375186,-0.0036840435772253037,-0.1527841008955392,0.13244481170130962,0.07221969606063391,0.1496025560946471,-0.1501683456368806,0.06438795114776,0.1568502805504205,0.09484633916501907,0.14673430983887123]],[[0.02018497061488874,-0.02194675264819416,-0.12497456545405648,-0.13490100558045728,0.03788301197902684,0.0383519480410803,0.03451486740746351,-0.07628928613258934,-0.011280414139109933,0.20956774373071468,-0.009792707133458737,0.1571185834361588,0.009063865440984297,0.06183604715218336,0.08857453099077107,0.08840059315308355,-0.03308898468046144,-0.005855618169070945,0.033135778227399194,0.05418579732551495,-0.05624918551278478,0.06062801035577064,-0.12699839135241306,-0.010971395837846641,0.04516768274035596,0.060178969695179906,-0.07340688279401887,-0.13366855359017882,0.10936880897961274,-0.134668198871903,-0.004036087939515738,-0.1621662354350837,0.1384591619393488,0.07616573684608603,0.15666066239245202,-0.15672533808030836,0.06677155380304364,0.16379807354010406,0.09961423731761378,0.1525024630360051]],[[0.020662260690868683,-0.023138243502179662,-0.12922562842950525,-0.14125396555625372,0.03826487351974183,0.04100521555830852,0.0361296702010534,-0.08043461227151778,-0.012395341293763655,0.21857623494424402,-0.01026544647046541,0.1640981869789689,0.009091377646059124,0.06299461131458703,0.09373957461060219,0.09259558896886216,-0.03431308008067618,-0.0034720577012241557,0.03440164174427849,0.055885580763517025,-0.05783798005643222,0.06334572316138738,-0.13210994249799726,-0.011657310795181054,0.048070116402308696,0.06288880282121481,-0.07714356379308776,-0.13899903348809867,0.11392531292636558,-0.13986011774005416,-0.004388132301806172,-0.17154836997462822,0.14447351217738796,0.08011177763153815,0.16371876869025695,-0.16328233052373609,0.06915515645832727,0.17074586652978765,0.10438213547020848,0.15827061623313898]],[[0.02113955076684863,-0.024329734356165165,-0.133476691404954,-0.14760692553205013,0.03864673506045682,0.04365848307553674,0.03774447299464329,-0.08457993841044623,-0.013510268448417377,0.22758472615777336,-0.010738185807472083,0.17107779052177902,0.00911888985113395,0.06415317547699068,0.0989046182304333,0.0967905847846408,-0.03553717548089091,-0.0010884972333773668,0.035667505261157785,0.05758536420151909,-0.059426774600079654,0.06606343596700412,-0.1372214936435815,-0.01234322575251547,0.05097255006426142,0.0655986359472497,-0.08088024479215666,-0.1443295133860185,0.11848181687311843,-0.14505203660820531,-0.004740176664096607,-0.18093050451417272,0.1504878624154271,0.08405781841699025,0.17077687498806188,-0.16983932296716384,0.0715387591136109,0.17769365951947125,0.10915003362280319,0.16403876943027287]],[[0.021616840842828576,-0.025521225210150666,-0.13772775438040274,-0.15395988550784653,0.03902859660117181,0.046311750592764975,0.03935927578823318,-0.08872526454937468,-0.014625195603071099,0.2365932173713027,-0.011210925144478755,0.17805739406458912,0.009146402056208777,0.06531173963939434,0.10406966185026438,0.10098558060041941,-0.036761270881105645,0.0012950632344694221,0.03693336877803708,0.05928514763952116,-0.06101556914372709,0.06878114877262087,-0.14233304478916572,-0.013029140709849882,0.05387498372621416,0.06830846907328458,-0.08461692579122555,-0.14965999328393834,0.12303832081987127,-0.15024395547635647,-0.005092221026387042,-0.19031263905371723,0.15650221265346628,0.08800385920244237,0.1778349812858668,-0.1763963154105916,0.07392236176889454,0.1846414525091548,0.1139179317753979,0.16980692262740676]],[[0.02209413091880852,-0.026712716064136166,-0.1419788173558515,-0.16031284548364294,0.0394104581418868,0.048965018109993194,0.04097407858182307,-0.09287059068830313,-0.015740122757724823,0.24560170858483205,-0.011683664481485428,0.18503699760739922,0.009173914261283604,0.066470303801798,0.10923470547009549,0.10518057641619805,-0.03798536628132038,0.003678623702316204,0.038199232294916376,0.06098493107752323,-0.06260436368737453,0.07149886157823761,-0.14744459593474996,-0.013715055667184294,0.0567774173881669,0.07101830219931947,-0.08835360679029446,-0.15499047318185816,0.12759482476662412,-0.1554358743445076,-0.005444265388677477,-0.19969477359326177,0.16251656289150546,0.09194989998789449,0.1848930875836717,-0.18295330785401934,0.07630596442417818,0.1915892454988384,0.11868582992799262,0.17557507582454063]],[[0.022587330663987795,-0.02794392327992118,-0.14637158243048187,-0.16687757079196588,0.03980504840062562,0.05170672787779569,0.042642708135199284,-0.09715409436519584,-0.016892214150867002,0.25491048283881235,-0.012172161796392323,0.19224925460163633,0.009202343539860925,0.06766748676961512,0.11457191721058761,0.10951540542583595,-0.03925026486154227,0.00614163618575788,0.03950729126235831,0.0627413739634587,-0.06424611804914354,0.07430716481070823,-0.1527265321185203,-0.014423834456429856,0.05977659883885138,0.07381846309622218,-0.09221484382266563,-0.160498635743042,0.13230321217826874,-0.16080085717493045,-0.005808044563044258,-0.20938964595079107,0.16873139147081256,0.096027475466195,0.19218646409140347,-0.189728866712228,0.07876902050130459,0.1987686315881781,0.12361265801900714,0.1815355007949123]],[[0.02306462073996774,-0.029135414133906683,-0.15062264540593062,-0.1732305307677623,0.04018690994134061,0.05435999539502391,0.04425751092878918,-0.10129942050412429,-0.018007141305520717,0.26391897405234166,-0.012644901133398995,0.19922885814444644,0.009229855744935752,0.06882605093201877,0.11973696083041872,0.11371040124161458,-0.040474360261757006,0.008525196653604676,0.040773154779237604,0.06444115740146078,-0.06583491259279098,0.07702487761632498,-0.1578380832641045,-0.015109749413764268,0.06267903250080412,0.07652829622225708,-0.09595152482173454,-0.1658291156409618,0.13685971612502157,-0.16599277604308157,-0.006160088925334693,-0.21877178049033558,0.17474574170885174,0.09997351625164712,0.1992445703892084,-0.19628585915565575,0.08115262315658824,0.20571642457786168,0.12838055617160185,0.18730365399204618]],[[0.023541910815947684,-0.030326904987892186,-0.15487370838137937,-0.17958349074355873,0.0405687714820556,0.057013262912252144,0.045872313722379064,-0.10544474664305273,-0.01912206846017444,0.272927465265871,-0.013117640470405667,0.20620846168725654,0.00925736795001058,0.06998461509442244,0.12490200445024983,0.1179053970573932,-0.04169845566197174,0.010908757121451458,0.0420390182961169,0.06614094083946284,-0.06742370713643842,0.07974259042194172,-0.16294963440968874,-0.01579566437109868,0.06558146616275684,0.07923812934829197,-0.09968820582080343,-0.17115959553888166,0.14141622007177443,-0.17118469491123273,-0.0065121332876251275,-0.22815391502988008,0.1807600919468909,0.10391955703709924,0.20630267668701333,-0.2028428515990835,0.08353622581187187,0.21266421756754528,0.13314845432419656,0.19307180718918007]],[[0.024019200891927626,-0.03151839584187768,-0.15912477135682812,-0.18593645071935513,0.04095063302277059,0.05966653042948036,0.04748711651596895,-0.10959007278198117,-0.02023699561482816,0.28193595647940034,-0.01359037980741234,0.21318806523006664,0.009284880155085407,0.07114317925682609,0.1300670480700809,0.12210039287317183,-0.042922551062186474,0.013292317589298254,0.043304881812996195,0.06784072427746492,-0.06901250168008587,0.08246030322755846,-0.16806118555527297,-0.016481579328433096,0.06848389982470958,0.08194796247432685,-0.10342488681987233,-0.1764900754368015,0.14597272401852726,-0.17637661377938388,-0.006864177649915562,-0.2375360495694246,0.18677444218493006,0.10786559782255135,0.21336078298481825,-0.20939984404251125,0.0859198284671555,0.21961201055722884,0.13791635247679127,0.19883996038631394]],[[0.024496490967907573,-0.03270988669586319,-0.16337583433227687,-0.19228941069515154,0.041332494563485575,0.0623197979467086,0.049101919309558845,-0.11373539892090963,-0.021351922769481883,0.2909444476929297,-0.014063119144419014,0.22016766877287675,0.009312392360160234,0.07230174341922975,0.13523209168991202,0.12629538868895046,-0.044146646462401205,0.015675878057145036,0.04457074532987549,0.06954050771546698,-0.0706012962237333,0.08517801603317521,-0.17317273670085717,-0.01716749428576751,0.07138633348666232,0.08465779560036175,-0.10716156781894122,-0.18182055533472133,0.15052922796528012,-0.18156853264753503,-0.007216222012205997,-0.2469181841089691,0.19278879242296923,0.11181163860800346,0.22041888928262318,-0.215956836485939,0.08830343112243913,0.22655980354691244,0.14268425062938597,0.20460811358344783]],[[0.02497378104388752,-0.03390137754984869,-0.16762689730772562,-0.19864237067094795,0.04171435610420057,0.06497306546393682,0.05071672210314873,-0.11788072505983808,-0.022466849924135605,0.299952938906459,-0.014535858481425686,0.22714727231568685,0.009339904565235061,0.07346030758163341,0.14039713530974313,0.13049038450472908,-0.04537074186261594,0.018059438524991832,0.045836608846754785,0.07124029115346905,-0.07219009076738074,0.08789572883879194,-0.1782842878464414,-0.01785340924310192,0.07428876714861504,0.08736762872639664,-0.11089824881801012,-0.18715103523264118,0.15508573191203295,-0.18676045151568615,-0.007568266374496432,-0.2563003186485136,0.19880314266100838,0.11575767939345559,0.2274769955804281,-0.22251382892936672,0.09068703377772278,0.23350759653659603,0.14745214878198068,0.21037626678058172]],[[0.025451071119867462,-0.03509286840383419,-0.17187796028317437,-0.20499533064674436,0.04209621764491556,0.06762633298116504,0.052331524896738625,-0.12202605119876651,-0.023581777078789327,0.3089614301199884,-0.015008597818432357,0.23412687585849695,0.009367416770309889,0.07461887174403707,0.14556217892957424,0.13468538032050772,-0.046594837262830674,0.020442998992838614,0.04710247236363408,0.07294007459147112,-0.07377888531102818,0.09061344164440868,-0.18339583899202563,-0.018539324200436337,0.07719120081056778,0.09007746185243153,-0.11463492981707901,-0.192481515130561,0.1596422358587858,-0.1919523703838373,-0.007920310736786867,-0.2656824531880581,0.20481749289904755,0.1197037201789077,0.23453510187823304,-0.22907082137279447,0.0930706364330064,0.2404553895262796,0.1522200469345754,0.21614441997771558]],[[0.025928361195847405,-0.03628435925781969,-0.17612902325862312,-0.2113482906225408,0.04247807918563055,0.07027960049839327,0.05394632769032851,-0.12617137733769496,-0.02469670423344305,0.3179699213335177,-0.015481337155439033,0.24110647940130706,0.009394928975384714,0.07577743590644073,0.15072722254940535,0.13888037613628634,-0.04781893266304541,0.02282655946068541,0.048368335880513376,0.07463985802947319,-0.07536767985467561,0.09333115445002542,-0.18850739013760984,-0.01922523915777075,0.08009363447252052,0.09278729497846643,-0.11837161081614792,-0.19781199502848085,0.16419873980553865,-0.19714428925198846,-0.0082723550990773,-0.2750645877276026,0.21083184313708672,0.12364976096435983,0.24159320817603797,-0.23562781381622222,0.09545423908829004,0.2474031825159632,0.1569879450871701,0.22191257317484947]],[[0.026405651271827354,-0.037475850111805195,-0.18038008623407187,-0.2177012505983372,0.04285994072634554,0.07293286801562149,0.0555611304839184,-0.13031670347662339,-0.02581163138809677,0.32697841254704707,-0.015954076492445703,0.24808608294411716,0.009422441180459542,0.07693600006884439,0.15589226616923646,0.14307537195206496,-0.04904302806326014,0.02521011992853219,0.04963419939739267,0.07633964146747527,-0.07695647439832305,0.09604886725564217,-0.19361894128319407,-0.019911154115105165,0.08299606813447324,0.09549712810450131,-0.12210829181521682,-0.20314247492640067,0.1687552437522915,-0.2023362081201396,-0.008624399461367737,-0.2844467222671471,0.21684619337512587,0.12759580174981192,0.24865131447384287,-0.24218480625964997,0.09783784174357367,0.2543509755056468,0.1617558432397648,0.22768072637198336]],[[0.026882941347807297,-0.03866734096579069,-0.18463114920952062,-0.2240542105741336,0.04324180226706053,0.07558613553284972,0.05717593327750829,-0.13446202961555184,-0.026926558542750494,0.3359869037605764,-0.016426815829452376,0.2550656864869273,0.009449953385534369,0.07809456423124805,0.16105730978906752,0.1472703677678436,-0.05026712346347488,0.027593680396378974,0.05090006291427197,0.07803942490547733,-0.07854526894197049,0.09876658006125891,-0.19873049242877827,-0.020597069072439578,0.08589850179642598,0.0982069612305362,-0.1258449728142857,-0.20847295482432052,0.17331174769904434,-0.20752812698829073,-0.00897644382365817,-0.29382885680669163,0.22286054361316504,0.13154184253526402,0.2557094207716478,-0.24874179870307772,0.1002214443988573,0.26129876849533035,0.1665237413923595,0.23344887956911725]],[[0.02736023142378724,-0.039858831819776196,-0.1888822121849694,-0.23040717054993,0.04362366380777552,0.07823940305007794,0.05879073607109818,-0.1386073557544803,-0.028041485697404216,0.34499539497410575,-0.016899555166459048,0.26204529002973737,0.009477465590609196,0.0792531283936517,0.16622235340889863,0.15146536358362223,-0.05149121886368961,0.02997724086422577,0.052165926431151255,0.0797392083434794,-0.08013406348561793,0.10148429286687564,-0.2038420435743625,-0.02128298402977399,0.08880093545837872,0.1009167943565711,-0.1295816538133546,-0.21380343472224037,0.1778682516457972,-0.2127200458564419,-0.009328488185948607,-0.30321099134623614,0.22887489385120421,0.13548788332071615,0.2627675270694527,-0.2552987911465055,0.10260504705414095,0.2682465614850139,0.17129163954495422,0.23921703276625111]],[[0.02783752149976719,-0.0410503226737617,-0.19313327516041814,-0.23676013052572642,0.044005525348490504,0.08089267056730616,0.060405538864688066,-0.14275268189340873,-0.029156412852057938,0.3540038861876351,-0.01737229450346572,0.2690248935725475,0.009504977795684023,0.08041169255605538,0.17138739702872974,0.15566035939940084,-0.05271531426390435,0.03236080133207255,0.05343178994803055,0.08143899178148147,-0.08172285802926536,0.1042020056724924,-0.20895359471994673,-0.021968898987108406,0.09170336912033146,0.10362662748260598,-0.1333183348124235,-0.2191339146201602,0.18242475559255003,-0.21791196472459304,-0.00968053254823904,-0.31259312588578064,0.23488924408924336,0.13943392410616826,0.2698256333672577,-0.2618557835899332,0.10498864970942458,0.2751943544746975,0.17605953769754892,0.244985185963385]],[[0.028314811575747133,-0.042241813527747196,-0.1973843381358669,-0.24311309050152283,0.044387386889205495,0.0835459380845344,0.06202034165827795,-0.14689800803233719,-0.03027134000671166,0.36301237740116443,-0.017845033840472393,0.27600449711535757,0.00953249000075885,0.08157025671845902,0.17655244064856085,0.15985535521517946,-0.05393940966411908,0.03474436179991935,0.054697653464909846,0.08313877521948354,-0.08331165257291281,0.10691971847810913,-0.21406514586553094,-0.02265481394444282,0.09460580278228418,0.10633646060864087,-0.1370550158114924,-0.22446439451808003,0.1869812595393029,-0.2231038835927442,-0.010032576910529473,-0.32197526042532515,0.24090359432728253,0.1433799648916204,0.2768837396650626,-0.268412776033361,0.10737225236470821,0.2821421474643811,0.18082743585014363,0.2507533391605189]]],"activated_output":[[[0.03668272407162134,-0.0630884048639486,-0.2655418717824741,-0.34054900650063474,0.05105103111936445,0.12942497673102388,0.09014168876317866,-0.21624884906226288,-0.04981559788528112,0.47867299917513556,-0.026143523499322408,0.378761437792761,0.010015461860961502,0.10157091545438168,0.2610967805337672,0.22939182862392737,-0.07529986358382272,0.07646599288740129,0.0767832526648415,0.11251978152666005,-0.11076510927136704,0.15343940773242412,-0.2948392706293394,-0.03469011134594444,0.14457179400193826,0.1527346558126943,-0.1999649244690548,-0.3077907755796184,0.2608533336402189,-0.30435167211063335,-0.01621542744440184,-0.4516634949192659,0.33331739236474434,0.20954818804538203,0.38069405529152317,-0.36582742656704603,0.1481459125309987,0.38352981295719635,0.25857763954055446,0.3382193936905495]],[[0.03668272407162134,-0.0630884048639486,-0.2655418717824741,-0.34054900650063474,0.05105103111936445,0.12942497673102388,0.09014168876317866,-0.21624884906226288,-0.04981559788528112,0.47867299917513556,-0.026143523499322408,0.378761437792761,0.010015461860961502,0.10157091545438168,0.2610967805337672,0.22939182862392737,-0.07529986358382272,0.07646599288740129,0.0767832526648415,0.11251978152666005,-0.11076510927136704,0.15343940773242412,-0.2948392706293394,-0.03469011134594444,0.14457179400193826,0.1527346558126943,-0.1999649244690548,-0.3077907755796184,0.2608533336402189,-0.30435167211063335,-0.01621542744440184,-0.4516634949192659,0.33331739236474434,0.20954818804538203,0.38069405529152317,-0.36582742656704603,0.1481459125309987,0.38352981295719635,0.25857763954055446,0.3382193936905495]],[[0.036698610312615926,-0.0631279837313585,-0.2656736241663033,-0.3407361657697997,0.05106370972024031,0.1295119551652049,0.09019512072923715,-0.216380529980573,-0.04985270956769883,0.4789045142831429,-0.026159300862303194,0.3789607125206294,0.010016357079747499,0.10160909010050698,0.26125717656908737,0.22952432396432781,-0.0753404421054959,0.0765450075903701,0.07682516163953201,0.11257577046184476,-0.11081744109065284,0.15352786004518182,-0.2949948327297732,-0.03471298658857922,0.14466656404558265,0.1528228806306081,-0.20008449219072108,-0.30795164419688514,0.26099490839542244,-0.30450868409348225,-0.016227164147331382,-0.451912307738771,0.33349557945804476,0.20967393197171708,0.38089525390437706,-0.36601671179405004,0.14822358406395245,0.3837273566708667,0.2587259171779148,0.3383896591063334]],[[0.036698610312615926,-0.0631279837313585,-0.2656736241663033,-0.3407361657697997,0.05106370972024031,0.1295119551652049,0.09019512072923715,-0.216380529980573,-0.04985270956769883,0.4789045142831429,-0.026159300862303194,0.3789607125206294,0.010016357079747499,0.10160909010050698,0.26125717656908737,0.22952432396432781,-0.0753404421054959,0.0765450075903701,0.07682516163953201,0.11257577046184476,-0.11081744109065284,0.15352786004518182,-0.2949948327297732,-0.03471298658857922,0.14466656404558265,0.1528228806306081,-0.20008449219072108,-0.30795164419688514,0.26099490839542244,-0.30450868409348225,-0.016227164147331382,-0.451912307738771,0.33349557945804476,0.20967393197171708,0.38089525390437706,-0.36601671179405004,0.14822358406395245,0.3837273566708667,0.2587259171779148,0.3383896591063334]],[[0.037143478135009275,-0.06423552290467915,-0.26935725161691915,-0.3459666194892898,0.05141915444800541,0.13194599128376314,0.09168977103057017,-0.22006528462029193,-0.050890637195678025,0.48535794413582967,-0.02660018175365825,0.38452562485343544,0.01004204180435142,0.10267913732670982,0.26574312645664877,0.23323004518395263,-0.07647638896136058,0.078756248703912,0.0779995597940302,0.11414183175736307,-0.11228182282096454,0.15600367120171982,-0.29934431165206754,-0.03535237980641791,0.14731774392699853,0.15529198599608107,-0.20343014816934735,-0.31244802942999317,0.2649535008721173,-0.3088986465679843,-0.016555602676501514,-0.4588530994785083,0.3384752964788225,0.21319225208298442,0.38651289894576113,-0.37130477892844443,0.1503987214326441,0.3892433272788945,0.2628732782280428,0.3431480820644866]],[[0.037143478135009275,-0.06423552290467915,-0.26935725161691915,-0.3459666194892898,0.05141915444800541,0.13194599128376314,0.09168977103057017,-0.22006528462029193,-0.050890637195678025,0.48535794413582967,-0.02660018175365825,0.38452562485343544,0.01004204180435142,0.10267913732670982,0.26574312645664877,0.23323004518395263,-0.07647638896136058,0.078756248703912,0.0779995597940302,0.11414183175736307,-0.11228182282096454,0.15600367120171982,-0.29934431165206754,-0.03535237980641791,0.14731774392699853,0.15529198599608107,-0.20343014816934735,-0.31244802942999317,0.2649535008721173,-0.3088986465679843,-0.016555602676501514,-0.4588530994785083,0.3384752964788225,0.21319225208298442,0.38651289894576113,-0.37130477892844443,0.1503987214326441,0.3892433272788945,0.2628732782280428,0.3431480820644866]],[[0.03762009279830366,-0.06542205795481608,-0.2732953581175607,-0.3515467730915865,0.0517999948808823,0.13455213989810516,0.0932907313546069,-0.2240062260814607,-0.0520026014366235,0.4922141377254295,-0.027072575659426643,0.3904572437738294,0.010069545560257064,0.10382535252347884,0.27053680485047465,0.23719295126942233,-0.07769319759673146,0.081124556636679,0.07925756499046949,0.11581914649119057,-0.11385036882774316,0.1586540730647362,-0.3039906840410116,-0.03603741383342342,0.15015596703094922,0.1579353726586267,-0.20700944574490132,-0.3172500427333421,0.2691850001469556,-0.31358764652693416,-0.01690754030456243,-0.4662278325198482,0.34378975028968073,0.21695575081389104,0.3925001688501698,-0.3769439969224868,0.15272754294231666,0.3951224508211317,0.2673061044305695,0.348226922219472]],[[0.0377471934010841,-0.06573838561268251,-0.27434400738160425,-0.3530306526712802,0.05190156346540983,0.1352468015323636,0.09371762505888241,-0.22505594706856177,-0.05229914415345334,0.4940322332062533,-0.027198562105086543,0.39203355384014915,0.010076875358950745,0.10413098714903063,0.2718128935936768,0.23824838844799884,-0.07801763198286717,0.08175598898581692,0.07959303559490291,0.11626626664552817,-0.11426848632790758,0.1593604738879805,-0.3052272761328899,-0.03622004389741576,0.1509123954694163,0.15863989195169606,-0.20796296339482587,-0.31852791949873155,0.27031168261186833,-0.31483541176928503,-0.017001377860311664,-0.46818368168997704,0.3452032255812455,0.2179582767420253,0.3940911927066871,-0.3784430893582294,0.1533482863852033,0.3966847847853763,0.2684862846546785,0.3495778861673116]],[[0.03822380268222625,-0.06692463607009824,-0.27827051626141003,-0.35857930223430445,0.05228240221511728,0.13785063308595844,0.09531801854923776,-0.2289876407340666,-0.053410953195123345,0.5008117355477641,-0.027670960808148792,0.39792422377257725,0.010104379096716238,0.10527688749098452,0.27658959385268755,0.24220130961764555,-0.0792341567455696,0.08412316617029647,0.08085075843962586,0.11794276175107439,-0.11583628955675594,0.16200797914576204,-0.30985536395047625,-0.03690510709257658,0.15374751444335016,0.1612803774733867,-0.2115352283406623,-0.3233093735130634,0.2745300235941057,-0.31950502913148215,-0.01735336367467823,-0.47547694368019144,0.35048984198091143,0.22171363595256102,0.40003647485420163,-0.38404697462832943,0.15567496465261235,0.40252306555389356,0.27290479087618175,0.3546308664388692]],[[0.03870041526417775,-0.06811065332688561,-0.28218772479777493,-0.364102778896371,0.05266321955319267,0.14045248603349647,0.09691790797297434,-0.23291180322558844,-0.05452265559383624,0.5075302253623726,-0.02814334053231127,0.403782310157885,0.010131941215197593,0.10642244745729844,0.2813526147841361,0.2461461697517798,-0.08045043261631246,0.08648933036901911,0.08210821775712071,0.11961857674179145,-0.11740346453337122,0.16465323696918074,-0.31446880560828566,-0.03759002427887362,0.15658003676278398,0.16391857523417355,-0.21510189728859483,-0.3280743865078172,0.2787378337114381,-0.3241592035839938,-0.017705287640899684,-0.4827055883584878,0.3557541999835335,0.22546237602650218,0.40594830433801155,-0.3896227319297651,0.1579999496192961,0.4083288463878057,0.27731186662757246,0.35966324049683357]],[[0.03917697124723334,-0.0692965376125217,-0.28609559407932206,-0.3696007583188273,0.053044015344921466,0.1430524978232092,0.09851728103833923,-0.2368284859846942,-0.05563415150887567,0.5141876689440307,-0.028615700940593146,0.4096074448134093,0.010159444923442382,0.10756771741227682,0.2861018921007407,0.25008293024348827,-0.08166647300457351,0.08885456048027053,0.08336540780312453,0.12129369480833284,-0.11897005910202281,0.16729605533088535,-0.3190674588716051,-0.03827495226485954,0.15941004913697546,0.1665544021596161,-0.21866282570998935,-0.33282277174743924,0.28293497489588354,-0.3287977049176637,-0.01805723282164335,-0.48986896362936844,0.3609961050234037,0.22920448222825737,0.41182630760956435,-0.39517011796818374,0.16032318492352804,0.4141017196881699,0.28170722877633786,0.36467481347015335]],[[0.039653529851721415,-0.0704822164684271,-0.2899939465599667,-0.37507292044805945,0.053424812855740744,0.14565040894432815,0.10011612546935601,-0.2407374239105659,-0.0567455623837053,0.5207835944079913,-0.029087985582732644,0.41539934035342796,0.01018694861857306,0.10871277324662723,0.2908371027950722,0.2540114093342222,-0.08288232233292982,0.09121881665694809,0.08462231278667222,0.12296813383653787,-0.12053604764562907,0.16993649632695562,-0.3236511137860605,-0.03895985125399912,0.16223739844857835,0.16918787110184813,-0.22221791207461603,-0.3375543627125289,0.28712124784880527,-0.333420387147182,-0.018409141564452093,-0.496966802670815,0.36621520887156445,0.23293983025067772,0.41767025350101405,-0.40068875462442743,0.16264462211114525,0.4198414946444489,0.28609081748115206,0.3696653032959043]],[[0.04013003596029716,-0.07166774432197724,-0.2938826535553745,-0.380519091023241,0.05380549918180187,0.14824643193724746,0.10171445865388982,-0.24463858186723697,-0.0578568476283111,0.5273181173297523,-0.02956033619485346,0.4211578279292497,0.010214421282229231,0.10985748767342311,0.29555810186590276,0.25793154121583084,-0.08409786622921377,0.09358201088280775,0.0858790156055182,0.12464187871649521,-0.12210146230741489,0.172574533980619,-0.32821960953000817,-0.0396447294694783,0.16506211322527645,0.17181892775331575,-0.22576710927076293,-0.34226893967862965,0.2912966749497371,-0.33802711819986275,-0.018761103135427115,-0.5039987702269304,0.3714115216480824,0.23666832408837174,0.4234798861544625,-0.40617855376591233,0.16496425334727316,0.42554792770875344,0.2904625083527575,0.3746345682063453]],[[0.04060653928780213,-0.07285299724478472,-0.2977617255021029,-0.385939006292902,0.054186312262303665,0.15084032548876344,0.10331229797656721,-0.24853187006464067,-0.05896798016953005,0.5337906603436172,-0.030032699847028155,0.42688250529684196,0.010241924947860592,0.11100192873398991,0.300264753165019,0.26184320187246374,-0.08531320823113267,0.09594421159524917,0.08713537196002773,0.12631484157097714,-0.12366629175283415,0.17521002510442574,-0.3327728030303541,-0.04032952181887354,0.1678840971332355,0.17444752687975146,-0.22931031281854622,-0.3469663625083657,0.2954609697265113,-0.34261772179514505,-0.019112970701323218,-0.5109646107058778,0.3765845531987357,0.2403898080345308,0.4292548502211067,-0.4116391583970929,0.16728207087030617,0.4312206291003099,0.2948220640913965,0.3795824143634795]],[[0.041098915850038505,-0.07407753705544169,-0.30175975124710586,-0.39151173234510006,0.054579704804031744,0.15351856502618255,0.10496285625846823,-0.2525465313653307,-0.06011596886982293,0.5404140291258728,-0.030520756702577225,0.43276226015393954,0.010270352423695174,0.11218422089440076,0.30511294708671194,0.265876177958818,-0.08656872066732714,0.09838394386952588,0.08843337188893849,0.12804287917887322,-0.1252825471489467,0.17793079376057816,-0.3374615967450064,-0.04103714648485888,0.1707972415303042,0.17716112744712137,-0.2329652675937143,-0.35180211942764783,0.29975231245364886,-0.34734416326275097,-0.019476623856001508,-0.5180927566164562,0.3819055027421055,0.2442279788397661,0.43518571884872925,-0.41725088862912235,0.16967523148409216,0.4370468821503305,0.2993140662206761,0.3846724702854666]],[[0.04157542633774451,-0.07526236652549526,-0.3056187655630366,-0.3968774167880851,0.054960443054925034,0.15610821327278898,0.10655958103719915,-0.25642336308057795,-0.061226823978365555,0.5467605211496978,-0.030993018883211956,0.43841756330158216,0.010297854835343154,0.11332803940210359,0.3097897204656612,0.2697702934469046,-0.08778351494225765,0.10074388863481533,0.08968917615468566,0.12971446264599737,-0.1268461212829257,0.1805611933228512,-0.34198317277263335,-0.04172188199074836,0.17361366209268578,0.17978465928573203,-0.2364960352208601,-0.35646405799335473,0.30389368740654493,-0.35190144694729303,-0.019828532090431547,-0.524923087038351,0.3870308742490064,0.24793506040556787,0.4408894918563548,-0.42265143021855206,0.17198924572711477,0.44265049406004486,0.30364862694552397,0.38957615048139543]],[[0.042051873294954106,-0.07644699513670615,-0.3094677206023716,-0.402216204163462,0.05534115227037893,0.1586957734546555,0.10815575793904461,-0.2602919664593598,-0.06233746193019022,0.553044854827807,-0.031465259835734685,0.44403828414762164,0.010325358458133841,0.11447155800222995,0.31445159554195196,0.2736555738856769,-0.0889980418018083,0.1031026899338867,0.09094474326397671,0.1313852803876926,-0.12840904590397859,0.18318901920378353,-0.34648899353697665,-0.042406553423642065,0.176427177856283,0.18240565642983578,-0.2400205816083627,-0.36110836902857796,0.30802365299743073,-0.35644209033129554,-0.02018043537568366,-0.5316865619819007,0.3921323614238297,0.25163489879272116,0.44655787565537797,-0.4280221708840719,0.1743013921564162,0.448219710201391,0.3079706352092137,0.39445786468974986]],[[0.04252832589584531,-0.07763141787497028,-0.3133066235693846,-0.4075277976751629,0.05572180905656631,0.1612811127775391,0.10975140856944371,-0.26415228404918356,-0.06344800526890347,0.5592668437443733,-0.03193756858483788,0.44962427519164244,0.010352920435166857,0.11561477234513169,0.31909830735271555,0.2775319565665787,-0.09021231511232641,0.10546029119988279,0.09219998072287326,0.1330553338286154,-0.12997133931833485,0.18581414515104683,-0.3509788838981086,-0.04309125915406435,0.17923776058027668,0.18502396910024496,-0.24353883445754548,-0.3657348131152197,0.3121420354110587,-0.36096594198773907,-0.02053236106077236,-0.5383828298493597,0.3972098139438356,0.2553273714950457,0.4521906629787377,-0.4333628006170564,0.1766116426273834,0.45375431668020044,0.31227992441851576,0.39931741304407226]],[[0.043004684401937214,-0.07881562972977084,-0.31713524316142755,-0.41281189369498705,0.05610249586965523,0.1638642887113526,0.11134647411983607,-0.2680041159352779,-0.06455837539780428,0.5654264872757864,-0.0324097997180275,0.45517547806536124,0.010380424028437037,0.11675768003752614,0.3237297779123235,0.2813992960308218,-0.09142632933553611,0.10781674688905654,0.09345495011442669,0.13472466834164326,-0.13153297473957204,0.18843673594776078,-0.3554527066507345,-0.04377584436282202,0.18204551946786154,0.18763976379289632,-0.24705069371421878,-0.370343224402787,0.31624875571590355,-0.36547286054084954,-0.020884249427741437,-0.5450117829223686,0.4022631222981963,0.25901244353477815,0.45778752692931085,-0.43867325526486517,0.1789199220284793,0.45925424222747174,0.31657642665144486,0.4041545514556899]],[[0.0434810777618281,-0.07999961618811582,-0.3209535905147429,-0.4180683748725408,0.0564831298942088,0.1664451896364501,0.11294098542325574,-0.27184737616042065,-0.06566853865356355,0.5715236538573093,-0.032882064379427645,0.4606913221553414,0.010407927608593189,0.11790031779718702,0.3283457611881377,0.28525750960666596,-0.09264006025991242,0.1101719836976033,0.09470961560963846,0.1363931950682006,-0.13309395612523198,0.19105663515965418,-0.3599103105048742,-0.04446045165175007,0.18485026311824704,0.19025279601005352,-0.2505560586007808,-0.3749335125120252,0.32034363612710537,-0.369962754443468,-0.021236130147190276,-0.5515733249648321,0.40729203264074115,0.2626899657416388,0.4633484723124861,-0.44395313746426424,0.18122625251323293,0.4647190847803847,0.3208600196773093,0.40896925866819833]],[[0.04395747079456226,-0.08118339111939812,-0.32476153307046596,-0.42329697824029744,0.05686374751954934,0.1690237744602145,0.11453487415055369,-0.2756820385067574,-0.06677858032722227,0.5775584222164849,-0.033354280651731065,0.46617186585431447,0.010435400131003872,0.11904263799632724,0.3329460693880469,0.28910656140207125,-0.09385350279540255,0.11252602541959604,0.09596396417348818,0.13806100464289475,-0.13465427227114377,0.19367372305465538,-0.36435152240449653,-0.0451449470648977,0.18765202881109166,0.19286318859783333,-0.25405485833563163,-0.37950544992846513,0.3244265295458446,-0.3744354590001028,-0.02158800052058479,-0.5580673927677091,0.4122963590622905,0.2663599320051807,0.4688731472825969,-0.4492024201805113,0.18353054686795978,0.4701487684971623,0.3251304907371615,0.413761315504906]],[[0.04443382809517129,-0.08236688075584199,-0.32855893175273304,-0.4284975659534207,0.05724439462790688,0.17160009991882477,0.11612823017494006,-0.279507934687509,-0.0678884803364793,0.5835306619651144,-0.03382647009344948,0.47161692847649095,0.010462903681660904,0.12018462208113369,0.3375306300593531,0.29294620477480454,-0.09506665896106861,0.11487874081578398,0.09721798562098528,0.13972797836943543,-0.13621389590588992,0.19628812155648692,-0.36877623637570023,-0.04582946260588506,0.19045074259714148,0.19547086604709987,-0.25754702169712945,-0.3840589644086394,0.3284974408001723,-0.378890725737056,-0.021939865526156087,-0.5644936415031475,0.41727596077709567,0.27002210799712406,0.47436129253519704,-0.4544209804446689,0.18583284840340922,0.4755431665080021,0.329387739458944,0.4185305775687807]],[[0.009334335760249108,0.005139759717782894,-0.028326165375115467,0.009522662328280836,0.029193708193992387,-0.021962141826742013,-0.0021949656129703213,0.01794585646962041,0.014064648907352316,0.004774664834997158,0.0009542699078226529,-0.001551030217373112,0.00843822782136312,0.035483084489749336,-0.02883611464022465,-0.006965527419138729,-0.005261199438675059,-0.05996986696269384,0.0043584288746941115,0.015542833753415827,-0.020127896377582326,-0.0011546901550124966,-0.010795351394792551,0.004621724372483072,-0.02081131170351919,-0.0014245792840464643,0.011539824101704508,-0.01248831542035521,0.005784236217371174,-0.016637019445946605,0.003967015525934135,0.05107647151545341,0.0017329725588985366,-0.01354009958069592,-0.003793629691865264,-0.007662876240306483,0.012583660417733506,0.005851555749889852,-0.008775730781430912,0.021369821479564326]],[[0.01588799650808548,-0.011222848217027355,-0.08649831410707175,-0.07756824106226332,0.034432660843648946,0.014471506359269208,0.019978974487511326,-0.038961608255979586,-0.0012460640100974965,0.12778884034679322,-0.00553796185742405,0.09402360094161658,0.008816018817170335,0.05136370411500607,0.042064294596023837,0.05060240239475132,-0.022068547235661783,-0.027300906510881656,0.021739589022990155,0.03886814957369619,-0.041925460844998624,0.03615285076558571,-0.08081779909027158,-0.004798148224308758,0.019043477276275814,0.03577521371859029,-0.039755808198569546,-0.0854850531413773,0.06825395541693981,-0.0877149045025891,-0.0008676943060060838,-0.0775708670387229,0.08413067886336374,0.040629012547138126,0.09286932680737299,-0.09740260818827513,0.0452880916359978,0.10092318141936023,0.05664246001415361,0.10025115993415792]],[[0.01636518305948271,-0.012414184860775463,-0.0907159559884744,-0.08387977346903018,0.0348140735618731,0.017124138749758936,0.02159312532506754,-0.043099937949671346,-0.0023609928293433302,0.13663976312793374,-0.006010721489230828,0.10093685473933396,0.008843552984550127,0.052519189719388855,0.04721905611542591,0.05478572413121609,-0.02329200356005398,-0.024918950940829302,0.023004821455045916,0.04056527542433951,-0.04351136060481912,0.03886669499321676,-0.08589380888330676,-0.005484021784455199,0.021944662544925123,0.038481321709348114,-0.0434859801363679,-0.09077411762303607,0.07278783362291726,-0.09286450443880569,-0.0012197187759503537,-0.08688951487775898,0.09009932011265524,0.044567868197888945,0.09986183318662833,-0.103893144025847,0.047666546719671965,0.1077952550044597,0.06139372752235658,0.10595799147899894]],[[0.01684236020938764,-0.013605468530228202,-0.09493039000961709,-0.09018455095975499,0.03519543811342837,0.019776528682283447,0.023207044849233714,-0.04723684841943595,-0.0034759131346261663,0.1454689809252466,-0.006483418812547802,0.10784037599302948,0.008871057337651082,0.053674489490065015,0.05237123541809323,0.05896714715651006,-0.02451541091605064,-0.022536721735713625,0.024269968824036953,0.0422621309153882,-0.04509705136897026,0.04158000202242317,-0.09096534565310609,-0.006169946528500967,0.02484552861224345,0.041186849461130964,-0.047214988996155505,-0.09605812107390259,0.07731866805422903,-0.09800915034540686,-0.0015717428067412297,-0.09619293661726998,0.09606156902418748,0.04850536298531618,0.10684453762239533,-0.11037486413201238,0.05004451650480073,0.11465705789362927,0.06614226947057804,0.11165783163302175]],[[0.01731952572305684,-0.014796723915034055,-0.09914147333258996,-0.09648215943044587,0.03557681379455277,0.022428590446182263,0.0248209611170949,-0.05137207892806635,-0.004590790988253717,0.15427503700124873,-0.00695617054669607,0.11473348758202505,0.008898591478780395,0.054829634794648315,0.057520719974483846,0.06314646816212896,-0.02573873952676244,-0.020154256480569496,0.025535063274726908,0.043958751055768894,-0.04668248595697617,0.0442927162320056,-0.09603220766917296,-0.006855803657374322,0.027745947907955325,0.043891767003703834,-0.050942679540744856,-0.1013366142418644,0.08184627590905191,-0.10314853348981863,-0.0019238256476866765,-0.1054795792057201,0.10201691553403908,0.05244136812994313,0.1138166911352623,-0.11684719776919747,0.052421871112424315,0.12150796310311354,0.07088777996623924,0.11735036531433986]],[[0.017796619664321636,-0.01598794590496896,-0.10334890011808481,-0.10277203530496266,0.03595820889974739,0.025080357534421577,0.02643468898438189,-0.055505525164374236,-0.0057056813272642485,0.1630567047084834,-0.007428857863542516,0.12161562545111189,0.008926036203373441,0.05598462112515376,0.06266707062640807,0.06732363125488913,-0.02696195435991314,-0.017771536435392272,0.026800033414279147,0.04565513058621729,-0.04826766346006268,0.04700475357500515,-0.1010941014409133,-0.007541709844034585,0.030645900232944695,0.046596020185933604,-0.05466894976081908,-0.10660947677459724,0.08637051008940184,-0.1082823658488286,-0.002275848380486444,-0.11474792246588443,0.10796495704515206,0.0563756773709023,0.12077767517992197,-0.12330961822380375,0.05479857001925432,0.12834730161740163,0.07563006206209823,0.12303515509007043]],[[0.01827375870514561,-0.017179099592531256,-0.10755268323711466,-0.10905375663931212,0.03633955520462341,0.027731774071847924,0.028048263148675333,-0.05963712309750408,-0.006820609567300603,0.17181255308134882,-0.007901570771748757,0.12848604753437873,0.008953570318266518,0.05713949668282725,0.0678101385103951,0.07149840216538814,-0.028185132833377542,-0.015388632261697278,0.028064932505266378,0.04735123531381415,-0.049852626207413195,0.04971616243564408,-0.10615073814594883,-0.008227546617598605,0.033545348855496246,0.04929960399198935,-0.058393627663440896,-0.11187635215728577,0.09089124035997499,-0.11341049552882414,-0.002627929900888547,-0.12399630038341115,0.1139052452033869,0.06030830310433066,0.1277267609400603,-0.12976159603108034,0.05717472831717496,0.13517446907827893,0.08036891064365353,0.12871191764481965]],[[0.018750917005231058,-0.018370179870760797,-0.11175261224772655,-0.11532671099766535,0.03672094178528925,0.0303828140015297,0.02966173996857358,-0.06376664566904779,-0.007935482863488679,0.18054141060163742,-0.008374278302452454,0.13534415179995632,0.008981074618909218,0.05829420397581882,0.07294955259874607,0.07567066830164959,-0.029408246048312738,-0.013005558140191865,0.029329761214496573,0.04904702099701907,-0.051437356237887255,0.05242673949067637,-0.1112019248995375,-0.008913401584300092,0.03644422137994593,0.052002482388635966,-0.06211674607925268,-0.11713687868610403,0.0954082092784545,-0.11853259038707337,-0.002979950874068458,-0.13322315565965065,0.11983748977306229,0.06423904677271035,0.13466336999846085,-0.1362026199652153,0.05955021001908486,0.14198880779432907,0.08510417676269534,0.134380237132579]],[[0.019228002711271622,-0.019561300820217457,-0.11594860004745682,-0.12159047102024609,0.037102228298239254,0.033033395653713465,0.031275044044155445,-0.06789404602207252,-0.009050296151414384,0.18924189172975456,-0.00884698011762159,0.14218933708221018,0.009008578906437375,0.05944871582810434,0.07808514411004411,0.07984031319451682,-0.030631199400039034,-0.010622349456394568,0.03059447339940235,0.05074259223366163,-0.053021817708249014,0.05513660361835449,-0.11624734722351805,-0.009599272618472177,0.03934249565342102,0.054704644152707926,-0.06583811197728329,-0.12239090115748037,0.09992122931142604,-0.12364835235291884,-0.00333197077862551,-0.1424270041986981,0.12576108045869897,0.06816774906680007,0.1415867828750046,-0.14263215610705085,0.061925011820713506,0.14878969010380014,0.08983559120962203,0.14003977529519565]],[[0.019705134670212534,-0.020752281025431994,-0.12014043864413063,-0.1278445954150224,0.037483559189360374,0.03568354079614923,0.03288819641926962,-0.07201902324347051,-0.010165136873213517,0.19791274971412331,-0.009319705680266903,0.1490209390577972,0.00903611298195841,0.060603125515004366,0.08321658674678256,0.08400709828962058,-0.031854073226705484,-0.008239019141142938,0.031859133254568045,0.05243786877995849,-0.05460605181937744,0.057845635641399086,-0.12128679949989339,-0.010285101343989762,0.042240107373636,0.05740595853787651,-0.06955770471430822,-0.12763804262723127,0.10443017302160461,-0.12875758657622277,-0.0036840188516289543,-0.15160625924828786,0.13167576388897095,0.0720943977844821,0.1484963553868034,-0.14904964064988324,0.0642991162743002,0.15557651382335014,0.09456295405090306,0.14569019178736178]],[[0.020182223150805863,-0.0219432323778387,-0.12432793775213793,-0.13408858751386435,0.03786490002892326,0.03833314591523445,0.034501147004177585,-0.07614164264936145,-0.011279967605745617,0.20655270414350468,-0.009792424851084931,0.15583832860634061,0.00906361616282747,0.06175735316076777,0.08834362282604978,0.08817104433974038,-0.033076921427236165,-0.005855578994348623,0.03312366395042471,0.05413284202241515,-0.05618991078427429,0.060553835481310755,-0.12631999964050672,-0.010970915518720514,0.04513698431113545,0.06010642563925233,-0.07327531835754128,-0.13287810676727246,0.10893479521089895,-0.13385995209094995,-0.004036095803437873,-0.16075946879870706,0.1375811091224546,0.0760187684418026,0.1553915278791506,-0.15545459330795447,0.06667250483656197,0.16234870712937363,0.0992860601485458,0.15133109734887012]],[[0.02065932740504951,-0.023134147012926216,-0.12851108444312143,-0.14032190863665522,0.038246195538878466,0.04098221093014594,0.03611394644132701,-0.08026159613173334,-0.012394728397716506,0.21516059410984573,-0.01026507769056091,0.16264091417752888,0.009091150208816234,0.06291145375906367,0.09346595865641048,0.09233184594252354,-0.03429959348532867,-0.0034720094680221795,0.03438807101434288,0.05582743800637751,-0.05777360766130371,0.06326114361121198,-0.1313466994125918,-0.011656803562875887,0.04803310240570058,0.06280601584590115,-0.07699087938893083,-0.13811067730716844,0.11343495668951174,-0.1389552575168349,-0.004388081379581482,-0.1698851103761784,0.143476621773683,0.07994082020395361,0.16227153595521993,-0.16184653323657247,0.06904512304257211,0.1691056723345404,0.10400467777655395,0.1569621844777183]],[[0.02113639001907161,-0.024324965609358783,-0.132689613981068,-0.1465441862587718,0.03862747536502339,0.04363076429470772,0.03772655678947283,-0.08437880220667707,-0.013509410833275523,0.22373521676081132,-0.010737783064007404,0.1694280731208289,0.009118654440593748,0.06406530384221704,0.09858335515110851,0.09648944723331893,-0.03552222886460725,-0.0010884993740919982,0.03565239586392334,0.05752181398892071,-0.05935689912148916,0.06596750058285317,-0.13636665048755803,-0.012342585693328615,0.050928459143083145,0.06550467765866194,-0.0807043319558083,-0.14333560402315584,0.11793049966167729,-0.14404319517811173,-0.004740155270743913,-0.17898174785812393,0.14936203510371682,0.08386040180982747,0.1691357865859827,-0.16822492313350884,0.07141696121393347,0.17584673959371896,0.10871860434167786,0.16258308314878253]],[[0.021613465262423234,-0.025515680451513107,-0.13686344181443844,-0.15275481623071963,0.039008764504768194,0.04627864135071845,0.03933896129483058,-0.08849316072103702,-0.014624162614580645,0.23227535156583806,-0.01121045256751739,0.17619918145379607,0.009146188460332206,0.06521903987221327,0.1036955915502777,0.10064368769286496,-0.03674470713797031,0.0012950588386759913,0.036916585361785874,0.0592157607545749,-0.06093995189088159,0.06867289832774352,-0.14137960863006835,-0.013028380130928371,0.053822946307993835,0.06820243391380733,-0.0844155724600729,-0.14855256469381076,0.12242119906523569,-0.14912358924095284,-0.00509219705468667,-0.1880478294059932,0.15523688966958674,0.08777738168339505,0.1759836821800215,-0.174589219615574,0.07378802188137294,0.18257133226183891,0.11342770745998684,0.1681934288063499]],[[0.022090555255751158,-0.02670634602383979,-0.14103243612670815,-0.15895344556444352,0.0393900673772061,0.04892595443133469,0.040951147320338506,-0.0926044919707388,-0.015738802836400625,0.24077975592406423,-0.011683114440267105,0.18295370030281416,0.009173633063736975,0.06637260535589541,0.10880232808233017,0.10479443398807738,-0.0379671376842972,0.003678595304329748,0.03818065478945181,0.060909428510370754,-0.06252272442811775,0.07137729354811899,-0.14638529417071336,-0.013714215693928895,0.05671646116527791,0.07089916598204636,-0.08812441725647555,-0.15376124645240993,0.12690685546836664,-0.15419604581686916,-0.005444177975884794,-0.19708195887885419,0.16110074791490925,0.09169162978337732,0.18281463212992452,-0.18093898134826022,0.07615821364020291,0.1892789778062558,0.11813167040730324,0.17379291630416013]],[[0.022583475275386653,-0.027936664758473784,-0.1453351543822528,-0.16534556954450336,0.03978405063336373,0.05166069550981068,0.042616864271085284,-0.09684955759982317,-0.016890619031074024,0.24952895367804004,-0.012171529707914757,0.18991525387029914,0.009202061089076206,0.06756438439876396,0.11407321838723805,0.1090796345475149,-0.039230107670335086,0.006141546921203905,0.039486758792808614,0.06265915886547302,-0.06415789289603549,0.0741706747372553,-0.1515500200786366,-0.014422852855856042,0.05970551311342758,0.0736846478988106,-0.09195434635518678,-0.15913454273354796,0.13153660548705629,-0.15942913708764225,-0.005807957085382208,-0.20638220888034958,0.1671481276235396,0.09573340924522333,0.18985472150996183,-0.18748463122672435,0.07860649498582531,0.1961916240194032,0.12298688987373264,0.1795672489437345]],[[0.02306056366227934,-0.029127183925871845,-0.149493808599655,-0.17151825488570532,0.040165320629207746,0.05430653186058908,0.044228651901165025,-0.10095431696037031,-0.018005193821954982,0.25795742770419516,-0.012644262993279875,0.19663412088400167,0.009229595069236788,0.06871758928244379,0.11916802760718842,0.1132228396904902,-0.04045227312792121,0.008524972186503782,0.040750599541520764,0.06435210029560919,-0.06573995389919153,0.07687290574771224,-0.15654025394318852,-0.015108588453800828,0.06259708400574318,0.07637925784102666,-0.09565814676999175,-0.16432561131759046,0.13601157843617534,-0.16448480688092176,-0.006159993476991314,-0.21534712881748103,0.1729885140469451,0.09964176180858125,0.19664922091988854,-0.19380328056354512,0.08097493823255641,0.20286278294621965,0.12767982386029894,0.1851435758311733]],[[0.023537579194113454,-0.030317578885633852,-0.15364722507904846,-0.17767753227003608,0.04054654439181315,0.05695153497666398,0.04584015833406272,-0.10505568513029671,-0.019119730035558398,0.26634674957462867,-0.013116899680904195,0.20333454876639187,0.009257098131736825,0.06987057207504341,0.12425654644844422,0.1173620667447695,-0.04167428943310677,0.010908312410367396,0.042014241982691325,0.06604465845751908,-0.06732173624073794,0.0795739875517124,-0.16152253752371704,-0.015794362223476414,0.06548755902169877,0.07907272480093776,-0.09935925950177003,-0.16950752268942945,0.14048099951986562,-0.1695319179131981,-0.006512026889230456,-0.22427583281752736,0.17881678652905977,0.10354710678657578,0.20342484699900965,-0.20010588340549904,0.08334246071523352,0.20951517050440283,0.13236713431769556,0.1907080252354354]],[[0.024014578428292695,-0.031507933907438244,-0.15779520037292372,-0.18382290647341062,0.04092772178708906,0.05959583128310731,0.04745147931643325,-0.10915342541656436,-0.02023425549853486,0.2746959068771657,-0.013589557181976315,0.21001600474034954,0.009284602281328935,0.07102341707565156,0.12933848444353294,0.12149720566872203,-0.04289623558463649,0.013291496157806762,0.0432778338528966,0.06773682643707676,-0.06890315287030219,0.08227392806871309,-0.1664965981196974,-0.016480085752287883,0.06837703684472235,0.08176498997836468,-0.1030576933885448,-0.1746801344430105,0.1449446629737965,-0.17457012362100452,-0.006864057888571985,-0.23316704109951103,0.18463247732870036,0.10744921217959537,0.21018106073585097,-0.20639201095880952,0.08570901314672093,0.2161482154136702,0.13704851287959138,0.1962602276613895]],[[0.024491590817679394,-0.03269821410359181,-0.16193759771127691,-0.1899539534082413,0.04130896686833162,0.06223926677083602,0.049062524036395064,-0.11324750918609586,-0.021348676840052823,0.28300381927524326,-0.01406217723549268,0.2166778737967755,0.009312136218835872,0.07217600906671436,0.13441371370547198,0.12562813416626475,-0.0441179920788721,0.015674601731969634,0.04454124489605859,0.06942864108266242,-0.07048422960493717,0.08497262995456262,-0.1714621939339061,-0.017165843608057552,0.07126532596764967,0.08445614315583216,-0.1067532553734701,-0.17984311971564496,0.14940246299252247,-0.17959923712910428,-0.007216087209342523,-0.24201955207428494,0.1904352892878442,0.11134803062966091,0.21691726365912262,-0.21266107053702274,0.08807461501942566,0.22276137411806707,0.14172378354675116,0.20179985811717568]],[[0.02496858622770647,-0.033888414377485056,-0.16607433236167232,-0.19607020972792005,0.04169016521979103,0.06488180144441308,0.050673268408846874,-0.11733773065549388,-0.022463074113014774,0.2912694873822746,-0.014534815806531359,0.2233196187892817,0.009339640342192024,0.07332846247758806,0.13948186962752407,0.12975475905863848,-0.04533961325163509,0.01805750099881096,0.045804533820022385,0.07111998543621902,-0.07206491642090174,0.08767007416668171,-0.17641903650420268,-0.01785151750100865,0.07415241341711122,0.08714597719604344,-0.11044582952815109,-0.18499618378515795,0.1538542337823878,-0.1846189233010233,-0.007568113047226509,-0.25083184825407645,0.19622477695596396,0.11524340090805381,0.22363288659390143,-0.21891272861101652,0.09043922648194981,0.22935410351892305,0.14639274497091145,0.2073265996697814]],[[0.025445564317911652,-0.035078499850007876,-0.17020516228343552,-0.2021712374922421,0.04207137124850019,0.06752344668604074,0.052283801008488354,-0.12142394398862165,-0.02357739418944719,0.29949194050758066,-0.01500747417651453,0.22994070935308622,0.009367144452433765,0.07448069251775921,0.14454271214286624,0.13387684044339812,-0.04656114233917889,0.020440151502420456,0.0470676891743142,0.07281097709374215,-0.073645307722843,0.09036622039232726,-0.18136698680843955,-0.01853722564227865,0.07703825657755552,0.08983462237536988,-0.11413538310895137,-0.19013910026632386,0.15829969878986266,-0.18962908016210916,-0.00792013609459485,-0.2596027787288155,0.2020006652519458,0.11913521833921584,0.23032732192146474,-0.22514641109023792,0.09280286709762389,0.23592583449486393,0.1510551460043163,0.21284018667672724]],[[0.025922554540180765,-0.03626846543138295,-0.17433007264418202,-0.20825667177121904,0.04245253524312315,0.07016415570652274,0.053894043876922926,-0.12550609274521357,-0.024691651911069333,0.3076701589268372,-0.015480094254645596,0.23654060477093258,0.009394678350569044,0.07563272759864129,0.14959604331784784,0.1379943010537879,-0.04778252509079028,0.022822571975905974,0.048330650885291204,0.07450155052564282,-0.07522531502141351,0.09306105989552733,-0.1863058078301785,-0.019222850153715818,0.07992279272316603,0.0925219211408679,-0.11782182448991091,-0.19527163019034252,0.16273877180589008,-0.19462928745887584,-0.008272156225581558,-0.26833110797400583,0.2077625806388419,0.12302341065429304,0.23700002235190445,-0.2313617642655189,0.0951653487766609,0.24247607106848135,0.1557108649241244,0.21834020939492133]],[[0.026399496969147354,-0.03745831049595694,-0.1784488920699534,-0.214325989750096,0.04283370655266108,0.07280382735412787,0.05550403734544537,-0.12958398749494382,-0.02580587844558037,0.3158031494219409,-0.015952731666872475,0.24311870380477515,0.009422182434574882,0.07678458068375542,0.15464159450771464,0.14210706233935846,-0.04900375629651167,0.02520478416030748,0.049593502420483146,0.07619172113652305,-0.076804905472897,0.0957546231713667,-0.1912352332935151,-0.019908534539587578,0.08280599050836375,0.0952078928781301,-0.12150501850323474,-0.20039349870186599,0.16717131863222656,-0.19961945629839073,-0.008624203115538114,-0.27701559506282913,0.21351006707188683,0.12690784554830226,0.24365047570488607,-0.23755833694136622,0.09752685112891069,0.24900426281042534,0.16035968075653,0.2238264054645906]],[[0.026876450848701803,-0.038648080734924144,-0.182561448421254,-0.22037876309033697,0.04321489005117876,0.07544253357649293,0.05711369939003773,-0.13365748303868508,-0.026920066604311024,0.32388999817516645,-0.016425330224774545,0.24967453410298504,0.009449685379026278,0.07793618788046541,0.1596789920873334,0.14621484311843957,-0.05022482476919252,0.02758668519586139,0.050856142590782735,0.07788140593867603,-0.0783841472182892,0.09844667382244095,-0.19615495529236618,-0.020594133500635905,0.08568784647681148,0.09789241262375442,-0.125184799269555,-0.20550435521756955,0.17159706834178362,-0.20459930848643806,-0.008976217036085343,-0.2856550552486377,0.21924279378770592,0.13078836224461335,0.25027803553868955,-0.24373556340678337,0.09988723452609084,0.2555098957934752,0.16500135917074593,0.22929847784307475]],[[0.027353419096950958,-0.039837720564622564,-0.1866675758614523,-0.22641466932024812,0.043596026053906875,0.07808018044528027,0.05872311664646978,-0.13772646746762846,-0.028034125978055522,0.33192971544485517,-0.016897917544219734,0.2562075426758296,0.009477189433525032,0.0790876041566894,0.16470817587744654,0.15031758333542525,-0.05144578439476217,0.029968237842508745,0.0521186308515309,0.07957062922720082,-0.07996298759107538,0.10113730190864582,-0.2010648810088221,-0.021279760414983216,0.08856826955684978,0.10057558922878397,-0.12886119561870096,-0.21060415083482023,0.1760159471389005,-0.20956856160937792,-0.009328197861645281,-0.2942483703767337,0.22496045547119958,0.1346648737892496,0.2568822364174997,-0.24989311442181944,0.10224647697254674,0.2619925236659692,0.1696357977597206,0.2347560300832942]],[[0.02783033532856069,-0.04102730488559767,-0.1907672290962401,-0.23243323166553467,0.04397713896311089,0.08071666237527282,0.06033219390434246,-0.14179085499961885,-0.029148138491885415,0.3399216008977835,-0.017370582680979477,0.26271721292053696,0.009504723275885396,0.08023878580892976,0.16972876414220114,0.15441519416774768,-0.05266651675077908,0.032349483813954034,0.053380978422219595,0.08125940644032317,-0.08154139611122543,0.10382648391215187,-0.2059646913555764,-0.021965389496285858,0.09144716731729524,0.10325730531443594,-0.13253404388636209,-0.2156924353240155,0.18042766688979886,-0.21452702348680794,-0.009680264670370167,-0.3027943147992456,0.23066267405289775,0.13853725110784348,0.2634625656995562,-0.2560304957955033,0.10460460501996353,0.2684515333717643,0.17426271766900986,0.24019892376436683]],[[0.028307265361141025,-0.04221671410539234,-0.19486023002257105,-0.23843399962328068,0.04435826884603352,0.08335210285794523,0.06194097811629547,-0.14585038470247474,-0.030262103375747636,0.34786461396366464,-0.01784314650967873,0.2692031555803185,0.00953222730414833,0.08138982675879172,0.1747405832232354,0.15850748062297898,-0.05388715903006542,0.03473035996641279,0.054643168324374256,0.0829477431614842,-0.08311940014281748,0.1065141510764642,-0.2108542380844841,-0.022650927925479934,0.0943245192125111,0.10593745625189142,-0.13620325342089618,-0.2207690216658311,0.18483220487373175,-0.21947444991119122,-0.010032238530557168,-0.31129185121476327,0.2363490394409861,0.1424054351973845,0.27001845797776963,-0.2621472764154643,0.10696150057899659,0.2748865206225122,0.17888191946404758,0.2456266490742304]]],"gradient":[[0.0,0.0,0.0,0.0,0.0,0.0,0.0,0.0,0.0,0.0,0.0,0.0,0.0,0.0,0.0,0.0,0.0,0.0,0.0,0.0,0.0,0.0,0.0,0.0,0.0,0.0,0.0,0.0,0.0,0.0,0.0,0.0,0.0,0.0,0.0,0.0,0.0,0.0,0.0,0.0]],"errors":[[0.0,0.0,0.0,0.0,0.0,0.0,0.0,0.0,0.0,0.0,0.0,0.0,0.0,0.0,0.0,0.0,0.0,0.0,0.0,0.0,0.0,0.0,0.0,0.0,0.0,0.0,0.0,0.0,0.0,0.0,0.0,0.0,0.0,0.0,0.0,0.0,0.0,0.0,0.0,0.0],[0.0,0.0,0.0,0.0,0.0,0.0,0.0,0.0,0.0,0.0,0.0,0.0,0.0,0.0,0.0,0.0,0.0,0.0,0.0,0.0,0.0,0.0,0.0,0.0,0.0,0.0,0.0,0.0,0.0,0.0,0.0,0.0,0.0,0.0,0.0,0.0,0.0,0.0,0.0,0.0],[0.0,0.0,0.0,0.0,0.0,0.0,0.0,0.0,0.0,0.0,0.0,0.0,0.0,0.0,0.0,0.0,0.0,0.0,0.0,0.0,0.0,0.0,0.0,0.0,0.0,0.0,0.0,0.0,0.0,0.0,0.0,0.0,0.0,0.0,0.0,0.0,0.0,0.0,0.0,0.0],[0.0,0.0,0.0,0.0,0.0,0.0,0.0,0.0,0.0,0.0,0.0,0.0,0.0,0.0,0.0,0.0,0.0,0.0,0.0,0.0,0.0,0.0,0.0,0.0,0.0,0.0,0.0,0.0,0.0,0.0,0.0,0.0,0.0,0.0,0.0,0.0,0.0,0.0,0.0,0.0],[0.0,0.0,0.0,0.0,0.0,0.0,0.0,0.0,0.0,0.0,0.0,0.0,0.0,0.0,0.0,0.0,0.0,0.0,0.0,0.0,0.0,0.0,0.0,0.0,0.0,0.0,0.0,0.0,0.0,0.0,0.0,0.0,0.0,0.0,0.0,0.0,0.0,0.0,0.0,0.0],[0.0,0.0,0.0,0.0,0.0,0.0,0.0,0.0,0.0,0.0,0.0,0.0,0.0,0.0,0.0,0.0,0.0,0.0,0.0,0.0,0.0,0.0,0.0,0.0,0.0,0.0,0.0,0.0,0.0,0.0,0.0,0.0,0.0,0.0,0.0,0.0,0.0,0.0,0.0,0.0],[0.0,0.0,0.0,0.0,0.0,0.0,0.0,0.0,0.0,0.0,0.0,0.0,0.0,0.0,0.0,0.0,0.0,0.0,0.0,0.0,0.0,0.0,0.0,0.0,0.0,0.0,0.0,0.0,0.0,0.0,0.0,0.0,0.0,0.0,0.0,0.0,0.0,0.0,0.0,0.0],[0.0,0.0,0.0,0.0,0.0,0.0,0.0,0.0,0.0,0.0,0.0,0.0,0.0,0.0,0.0,0.0,0.0,0.0,0.0,0.0,0.0,0.0,0.0,0.0,0.0,0.0,0.0,0.0,0.0,0.0,0.0,0.0,0.0,0.0,0.0,0.0,0.0,0.0,0.0,0.0],[0.0,0.0,0.0,0.0,0.0,0.0,0.0,0.0,0.0,0.0,0.0,0.0,0.0,0.0,0.0,0.0,0.0,0.0,0.0,0.0,0.0,0.0,0.0,0.0,0.0,0.0,0.0,0.0,0.0,0.0,0.0,0.0,0.0,0.0,0.0,0.0,0.0,0.0,0.0,0.0],[0.0,0.0,0.0,0.0,0.0,0.0,0.0,0.0,0.0,0.0,0.0,0.0,0.0,0.0,0.0,0.0,0.0,0.0,0.0,0.0,0.0,0.0,0.0,0.0,0.0,0.0,0.0,0.0,0.0,0.0,0.0,0.0,0.0,0.0,0.0,0.0,0.0,0.0,0.0,0.0],[0.0,0.0,0.0,0.0,0.0,0.0,0.0,0.0,0.0,0.0,0.0,0.0,0.0,0.0,0.0,0.0,0.0,0.0,0.0,0.0,0.0,0.0,0.0,0.0,0.0,0.0,0.0,0.0,0.0,0.0,0.0,0.0,0.0,0.0,0.0,0.0,0.0,0.0,0.0,0.0],[0.0,0.0,0.0,0.0,0.0,0.0,0.0,0.0,0.0,0.0,0.0,0.0,0.0,0.0,0.0,0.0,0.0,0.0,0.0,0.0,0.0,0.0,0.0,0.0,0.0,0.0,0.0,0.0,0.0,0.0,0.0,0.0,0.0,0.0,0.0,0.0,0.0,0.0,0.0,0.0],[0.0,0.0,0.0,0.0,0.0,0.0,0.0,0.0,0.0,0.0,0.0,0.0,0.0,0.0,0.0,0.0,0.0,0.0,0.0,0.0,0.0,0.0,0.0,0.0,0.0,0.0,0.0,0.0,0.0,0.0,0.0,0.0,0.0,0.0,0.0,0.0,0.0,0.0,0.0,0.0],[0.0,0.0,0.0,0.0,0.0,0.0,0.0,0.0,0.0,0.0,0.0,0.0,0.0,0.0,0.0,0.0,0.0,0.0,0.0,0.0,0.0,0.0,0.0,0.0,0.0,0.0,0.0,0.0,0.0,0.0,0.0,0.0,0.0,0.0,0.0,0.0,0.0,0.0,0.0,0.0],[0.0,0.0,0.0,0.0,0.0,0.0,0.0,0.0,0.0,0.0,0.0,0.0,0.0,0.0,0.0,0.0,0.0,0.0,0.0,0.0,0.0,0.0,0.0,0.0,0.0,0.0,0.0,0.0,0.0,0.0,0.0,0.0,0.0,0.0,0.0,0.0,0.0,0.0,0.0,0.0],[0.0,0.0,0.0,0.0,0.0,0.0,0.0,0.0,0.0,0.0,0.0,0.0,0.0,0.0,0.0,0.0,0.0,0.0,0.0,0.0,0.0,0.0,0.0,0.0,0.0,0.0,0.0,0.0,0.0,0.0,0.0,0.0,0.0,0.0,0.0,0.0,0.0,0.0,0.0,0.0],[0.0,0.0,0.0,0.0,0.0,0.0,0.0,0.0,0.0,0.0,0.0,0.0,0.0,0.0,0.0,0.0,0.0,0.0,0.0,0.0,0.0,0.0,0.0,0.0,0.0,0.0,0.0,0.0,0.0,0.0,0.0,0.0,0.0,0.0,0.0,0.0,0.0,0.0,0.0,0.0],[0.0,0.0,0.0,0.0,0.0,0.0,0.0,0.0,0.0,0.0,0.0,0.0,0.0,0.0,0.0,0.0,0.0,0.0,0.0,0.0,0.0,0.0,0.0,0.0,0.0,0.0,0.0,0.0,0.0,0.0,0.0,0.0,0.0,0.0,0.0,0.0,0.0,0.0,0.0,0.0],[0.0,0.0,0.0,0.0,0.0,0.0,0.0,0.0,0.0,0.0,0.0,0.0,0.0,0.0,0.0,0.0,0.0,0.0,0.0,0.0,0.0,0.0,0.0,0.0,0.0,0.0,0.0,0.0,0.0,0.0,0.0,0.0,0.0,0.0,0.0,0.0,0.0,0.0,0.0,0.0],[0.0,0.0,0.0,0.0,0.0,0.0,0.0,0.0,0.0,0.0,0.0,0.0,0.0,0.0,0.0,0.0,0.0,0.0,0.0,0.0,0.0,0.0,0.0,0.0,0.0,0.0,0.0,0.0,0.0,0.0,0.0,0.0,0.0,0.0,0.0,0.0,0.0,0.0,0.0,0.0],[0.0,0.0,0.0,0.0,0.0,0.0,0.0,0.0,0.0,0.0,0.0,0.0,0.0,0.0,0.0,0.0,0.0,0.0,0.0,0.0,0.0,0.0,0.0,0.0,0.0,0.0,0.0,0.0,0.0,0.0,0.0,0.0,0.0,0.0,0.0,0.0,0.0,0.0,0.0,0.0],[0.0,0.0,0.0,0.0,0.0,0.0,0.0,0.0,0.0,0.0,0.0,0.0,0.0,0.0,0.0,0.0,0.0,0.0,0.0,0.0,0.0,0.0,0.0,0.0,0.0,0.0,0.0,0.0,0.0,0.0,0.0,0.0,0.0,0.0,0.0,0.0,0.0,0.0,0.0,0.0],[0.0,0.0,0.0,0.0,0.0,0.0,0.0,0.0,0.0,0.0,0.0,0.0,0.0,0.0,0.0,0.0,0.0,0.0,0.0,0.0,0.0,0.0,0.0,0.0,0.0,0.0,0.0,0.0,0.0,0.0,0.0,0.0,0.0,0.0,0.0,0.0,0.0,0.0,0.0,0.0],[0.0,0.0,0.0,0.0,0.0,0.0,0.0,0.0,0.0,0.0,0.0,0.0,0.0,0.0,0.0,0.0,0.0,0.0,0.0,0.0,0.0,0.0,0.0,0.0,0.0,0.0,0.0,0.0,0.0,0.0,0.0,0.0,0.0,0.0,0.0,0.0,0.0,0.0,0.0,0.0],[0.0,0.0,0.0,0.0,0.0,0.0,0.0,0.0,0.0,0.0,0.0,0.0,0.0,0.0,0.0,0.0,0.0,0.0,0.0,0.0,0.0,0.0,0.0,0.0,0.0,0.0,0.0,0.0,0.0,0.0,0.0,0.0,0.0,0.0,0.0,0.0,0.0,0.0,0.0,0.0],[0.0,0.0,0.0,0.0,0.0,0.0,0.0,0.0,0.0,0.0,0.0,0.0,0.0,0.0,0.0,0.0,0.0,0.0,0.0,0.0,0.0,0.0,0.0,0.0,0.0,0.0,0.0,0.0,0.0,0.0,0.0,0.0,0.0,0.0,0.0,0.0,0.0,0.0,0.0,0.0],[0.0,0.0,0.0,0.0,0.0,0.0,0.0,0.0,0.0,0.0,0.0,0.0,0.0,0.0,0.0,0.0,0.0,0.0,0.0,0.0,0.0,0.0,0.0,0.0,0.0,0.0,0.0,0.0,0.0,0.0,0.0,0.0,0.0,0.0,0.0,0.0,0.0,0.0,0.0,0.0],[0.0,0.0,0.0,0.0,0.0,0.0,0.0,0.0,0.0,0.0,0.0,0.0,0.0,0.0,0.0,0.0,0.0,0.0,0.0,0.0,0.0,0.0,0.0,0.0,0.0,0.0,0.0,0.0,0.0,0.0,0.0,0.0,0.0,0.0,0.0,0.0,0.0,0.0,0.0,0.0],[0.0,0.0,0.0,0.0,0.0,0.0,0.0,0.0,0.0,0.0,0.0,0.0,0.0,0.0,0.0,0.0,0.0,0.0,0.0,0.0,0.0,0.0,0.0,0.0,0.0,0.0,0.0,0.0,0.0,0.0,0.0,0.0,0.0,0.0,0.0,0.0,0.0,0.0,0.0,0.0],[0.0,0.0,0.0,0.0,0.0,0.0,0.0,0.0,0.0,0.0,0.0,0.0,0.0,0.0,0.0,0.0,0.0,0.0,0.0,0.0,0.0,0.0,0.0,0.0,0.0,0.0,0.0,0.0,0.0,0.0,0.0,0.0,0.0,0.0,0.0,0.0,0.0,0.0,0.0,0.0],[0.0,0.0,0.0,0.0,0.0,0.0,0.0,0.0,0.0,0.0,0.0,0.0,0.0,0.0,0.0,0.0,0.0,0.0,0.0,0.0,0.0,0.0,0.0,0.0,0.0,0.0,0.0,0.0,0.0,0.0,0.0,0.0,0.0,0.0,0.0,0.0,0.0,0.0,0.0,0.0],[0.0,0.0,0.0,0.0,0.0,0.0,0.0,0.0,0.0,0.0,0.0,0.0,0.0,0.0,0.0,0.0,0.0,0.0,0.0,0.0,0.0,0.0,0.0,0.0,0.0,0.0,0.0,0.0,0.0,0.0,0.0,0.0,0.0,0.0,0.0,0.0,0.0,0.0,0.0,0.0],[0.0,0.0,0.0,0.0,0.0,0.0,0.0,0.0,0.0,0.0,0.0,0.0,0.0,0.0,0.0,0.0,0.0,0.0,0.0,0.0,0.0,0.0,0.0,0.0,0.0,0.0,0.0,0.0,0.0,0.0,0.0,0.0,0.0,0.0,0.0,0.0,0.0,0.0,0.0,0.0],[0.0,0.0,0.0,0.0,0.0,0.0,0.0,0.0,0.0,0.0,0.0,0.0,0.0,0.0,0.0,0.0,0.0,0.0,0.0,0.0,0.0,0.0,0.0,0.0,0.0,0.0,0.0,0.0,0.0,0.0,0.0,0.0,0.0,0.0,0.0,0.0,0.0,0.0,0.0,0.0],[0.0,0.0,0.0,0.0,0.0,0.0,0.0,0.0,0.0,0.0,0.0,0.0,0.0,0.0,0.0,0.0,0.0,0.0,0.0,0.0,0.0,0.0,0.0,0.0,0.0,0.0,0.0,0.0,0.0,0.0,0.0,0.0,0.0,0.0,0.0,0.0,0.0,0.0,0.0,0.0],[0.0,0.0,0.0,0.0,0.0,0.0,0.0,0.0,0.0,0.0,0.0,0.0,0.0,0.0,0.0,0.0,0.0,0.0,0.0,0.0,0.0,0.0,0.0,0.0,0.0,0.0,0.0,0.0,0.0,0.0,0.0,0.0,0.0,0.0,0.0,0.0,0.0,0.0,0.0,0.0],[0.0,0.0,0.0,0.0,0.0,0.0,0.0,0.0,0.0,0.0,0.0,0.0,0.0,0.0,0.0,0.0,0.0,0.0,0.0,0.0,0.0,0.0,0.0,0.0,0.0,0.0,0.0,0.0,0.0,0.0,0.0,0.0,0.0,0.0,0.0,0.0,0.0,0.0,0.0,0.0],[0.0,0.0,0.0,0.0,0.0,0.0,0.0,0.0,0.0,0.0,0.0,0.0,0.0,0.0,0.0,0.0,0.0,0.0,0.0,0.0,0.0,0.0,0.0,0.0,0.0,0.0,0.0,0.0,0.0,0.0,0.0,0.0,0.0,0.0,0.0,0.0,0.0,0.0,0.0,0.0],[0.0,0.0,0.0,0.0,0.0,0.0,0.0,0.0,0.0,0.0,0.0,0.0,0.0,0.0,0.0,0.0,0.0,0.0,0.0,0.0,0.0,0.0,0.0,0.0,0.0,0.0,0.0,0.0,0.0,0.0,0.0,0.0,0.0,0.0,0.0,0.0,0.0,0.0,0.0,0.0],[0.0,0.0,0.0,0.0,0.0,0.0,0.0,0.0,0.0,0.0,0.0,0.0,0.0,0.0,0.0,0.0,0.0,0.0,0.0,0.0,0.0,0.0,0.0,0.0,0.0,0.0,0.0,0.0,0.0,0.0,0.0,0.0,0.0,0.0,0.0,0.0,0.0,0.0,0.0,0.0],[0.0,0.0,0.0,0.0,0.0,0.0,0.0,0.0,0.0,0.0,0.0,0.0,0.0,0.0,0.0,0.0,0.0,0.0,0.0,0.0,0.0,0.0,0.0,0.0,0.0,0.0,0.0,0.0,0.0,0.0,0.0,0.0,0.0,0.0,0.0,0.0,0.0,0.0,0.0,0.0],[0.0,0.0,0.0,0.0,0.0,0.0,0.0,0.0,0.0,0.0,0.0,0.0,0.0,0.0,0.0,0.0,0.0,0.0,0.0,0.0,0.0,0.0,0.0,0.0,0.0,0.0,0.0,0.0,0.0,0.0,0.0,0.0,0.0,0.0,0.0,0.0,0.0,0.0,0.0,0.0],[0.0,0.0,0.0,0.0,0.0,0.0,0.0,0.0,0.0,0.0,0.0,0.0,0.0,0.0,0.0,0.0,0.0,0.0,0.0,0.0,0.0,0.0,0.0,0.0,0.0,0.0,0.0,0.0,0.0,0.0,0.0,0.0,0.0,0.0,0.0,0.0,0.0,0.0,0.0,0.0],[0.0,0.0,0.0,0.0,0.0,0.0,0.0,0.0,0.0,0.0,0.0,0.0,0.0,0.0,0.0,0.0,0.0,0.0,0.0,0.0,0.0,0.0,0.0,0.0,0.0,0.0,0.0,0.0,0.0,0.0,0.0,0.0,0.0,0.0,0.0,0.0,0.0,0.0,0.0,0.0],[0.0,0.0,0.0,0.0,0.0,0.0,0.0,0.0,0.0,0.0,0.0,0.0,0.0,0.0,0.0,0.0,0.0,0.0,0.0,0.0,0.0,0.0,0.0,0.0,0.0,0.0,0.0,0.0,0.0,0.0,0.0,0.0,0.0,0.0,0.0,0.0,0.0,0.0,0.0,0.0],[0.0,0.0,0.0,0.0,0.0,0.0,0.0,0.0,0.0,0.0,0.0,0.0,0.0,0.0,0.0,0.0,0.0,0.0,0.0,0.0,0.0,0.0,0.0,0.0,0.0,0.0,0.0,0.0,0.0,0.0,0.0,0.0,0.0,0.0,0.0,0.0,0.0,0.0,0.0,0.0],[0.0,0.0,0.0,0.0,0.0,0.0,0.0,0.0,0.0,0.0,0.0,0.0,0.0,0.0,0.0,0.0,0.0,0.0,0.0,0.0,0.0,0.0,0.0,0.0,0.0,0.0,0.0,0.0,0.0,0.0,0.0,0.0,0.0,0.0,0.0,0.0,0.0,0.0,0.0,0.0],[0.0,0.0,0.0,0.0,0.0,0.0,0.0,0.0,0.0,0.0,0.0,0.0,0.0,0.0,0.0,0.0,0.0,0.0,0.0,0.0,0.0,0.0,0.0,0.0,0.0,0.0,0.0,0.0,0.0,0.0,0.0,0.0,0.0,0.0,0.0,0.0,0.0,0.0,0.0,0.0],[0.0,0.0,0.0,0.0,0.0,0.0,0.0,0.0,0.0,0.0,0.0,0.0,0.0,0.0,0.0,0.0,0.0,0.0,0.0,0.0,0.0,0.0,0.0,0.0,0.0,0.0,0.0,0.0,0.0,0.0,0.0,0.0,0.0,0.0,0.0,0.0,0.0,0.0,0.0,0.0],[0.0,0.0,0.0,0.0,0.0,0.0,0.0,0.0,0.0,0.0,0.0,0.0,0.0,0.0,0.0,0.0,0.0,0.0,0.0,0.0,0.0,0.0,0.0,0.0,0.0,0.0,0.0,0.0,0.0,0.0,0.0,0.0,0.0,0.0,0.0,0.0,0.0,0.0,0.0,0.0]],"layer_bias":[0.009334576220944664,0.005139806099076224,-0.028333733812188216,0.009522951202647751,0.02920202628677275,-0.021965666850574658,-0.00219498276681329,0.017947794759050634,0.014065596510018005,0.004774710143147729,0.0009542337944929518,-0.0015510704370574608,0.008438421312283229,0.03549802186020685,-0.028844127300055936,-0.006965645058950514,-0.005261215915579824,-0.06004189280478791,0.004358480943676573,0.015544053834934584,-0.020130589553866356,-0.0011546607585832575,-0.010795795309465143,0.004621737525555689,-0.020814309174702835,-0.001424570036679901,0.011540331918147354,-0.012488977244134595,0.0057842859234314105,-0.016638576602600368,0.003967053896553473,0.05112095643056136,0.0017329331945918594,-0.013540923676525365,-0.003793620777646612,-0.007663043199717645,0.012584320106262368,0.005851579574630642,-0.008775980684705897,0.02137311368782825],"activation_type":"TANH","layer_type":"InputLayer","previous_layer":null,"next_layer":null,"input_data":[],"previous_gradient":[[-0.000027230988242328738,0.00002268937916726639,9.507953268603596e-6,-3.18749662552332e-6,-0.00007490641309971827,0.000025404677638938685,-5.634205067082795e-6,-0.000028738304128981705,-3.2372759944196636e-6,-0.000021308260574353673,-0.000023630578730145176,-0.000032465162119794635,-0.000028528831889481843,0.00016849740198788917,-0.00001821692823530633,-0.000030468820905932315,-0.00001208690815872613,0.000039018432132274955,-0.00004121460332042232,3.979683876964261e-6,4.2470832885575034e-6,-0.000014907214316005609,-9.404840468561126e-6,-4.362880975718418e-6,0.000027526387044330004,-8.108889819205109e-6,-0.00026199685271658215,0.000032622962053932247,-2.629512622918938e-6,-1.7965838254458137e-6,-0.000014465664083037263,0.000021237580315498645,-1.845273065546847e-6,-4.587542059039124e-6,0.000027268996598338804,0.000029890411807956577,5.903779279822137e-6,-0.000032854608319059324,0.00002196176253968249,0.00002074391770368407]],"m1":[[-0.00013521463797552734,-0.00003417072853123615,0.000026989070687472293,0.000021566842330228042,0.00013191246303996478,-0.00005625033605489495,0.00001729710729398774,0.00005441917414811144,0.000025451863381933334,0.00002191000050731754,-0.00007111420376458813,0.00005669036895613576,0.00005619880075644982,0.00009149529923958909,0.000039542293175505684,0.00004734023138795874,0.000043998164184560114,-0.000041072420491667645,0.00008481830782548503,-0.000013197287014433802,0.00003127505158554443,0.000037762837058724155,0.0000196735118916322,0.00003318038609956256,-6.5166879326320565e-6,0.00002474058581835105,-2.3495355276107475e-6,-0.00005662210697391691,0.00001070122782608143,0.0000656232790417689,0.0001638699929905507,-0.00005508002589994632,-5.737045940236995e-7,8.891591525159074e-6,-0.000059903584312775776,-0.000020675267233904792,-0.00005655886734222186,0.00003793762098196131,-0.000042382465685219467,-0.000047920748559102896]],"v1":[[0.0005421068349987571,0.0005365025673576493,0.0005384171871166316,0.00053270840520131,0.0005926378376416448,0.0005215456591411165,0.000504500680349663,0.0005367030859834384,0.0005310111014565478,0.0005236226076323515,0.0005232826267659583,0.0005520550662742946,0.0005524005949802799,0.0005371674321914026,0.0005214787055314689,0.0005371970245208791,0.0005290414706519227,0.000531220340902712,0.0005737703766873071,0.0005132524068068696,0.0005309739490770109,0.0005180819187033547,0.0005137165605715675,0.0005407349446580223,0.0005268636123068227,0.0005044696469229124,0.0005130535454923122,0.0005444724310233011,0.0005224325552146704,0.0005432671358640994,0.0005274764522030216,0.0005660383845621156,0.0005335419361827032,0.0005117670570298873,0.000545482460075015,0.0005305909420932478,0.0005600583729645244,0.0005137467493478192,0.0005442144900062229,0.0005759234736665912]]},{"input_weights":[[-0.029912221137114205,0.1626527009425873,-0.5447667883570663,0.273936783570111,-0.20538152338031854,0.32076395437126504,0.02424757708277033,-0.499873384409183,-0.027925134623355944,0.03818713392046943,-0.03409294426428071,0.002759793995581201,0.023761467680403915,0.1917005905477456,-0.3678707421010311,-0.22829788552096256,0.5474987083839192,0.1113883057317778,0.1921412528499113,0.5301381355310867,0.38818752887840335,0.20306046525286806,0.39318692152844853,0.33894717786134815,0.20107430192485712,0.14787119088982592,0.32541054509211553,0.5636056318930239,-0.29308829196140695,0.0957629593886724,-0.31174358171300326,-0.3851256679631254,-0.14602039579144618,-0.462037655904389,-0.35422647752661085,0.3006501426919117,0.23598395701500974,0.32543812860668064,-0.061166303730946725,0.5766693752370187],[-0.2390357520544188,-0.18818474195318793,0.4370971192312341,-0.124225232057527,-0.13185295715717787,-0.32716093030555227,0.0047491659433422035,0.46855442144100834,-0.2289826537135672,-0.6537818750701061,-0.5528035758639591,0.3569720379920565,0.24090306290431832,-0.3333762664461943,-0.3052685595364232,0.5498987783918434,0.4089778871242474,0.20137490595549745,0.17135702474823197,0.25708371721001744,0.13570701703499022,0.22365046304016425,-0.2668842558614989,-0.06756093663218292,0.5161439228964573,0.027513830724961465,-0.48223542072146475,-0.2603108386320751,0.18926733780632782,0.20390629271541322,0.09790403853478648,0.05623286602407485,0.4551442280697414,-0.5184548627098204,0.5359690144490548,0.33030448474494684,0.18945821619519188,-0.31212368422810344,0.1716911837286952,-0.10769476864857137],[-0.2794779935467968,0.37705946839584426,0.5073518377148702,-0.5466061963662618,-0.2572696558163234,0.3407377929189965,-0.41495487364313227,0.23732962212564102,-0.13459379347915126,0.29801810833044223,-0.36264355004675836,0.5381188730309832,-0.1525168845118802,0.570216214553222,0.020237077218684684,0.12212312590825411,-0.150056753315272,-0.37337697990986557,-0.21353772752469932,-0.2146050149685509,0.1989922533653237,0.16592337949710925,0.30820006841573344,-0.42267715251296245,0.5510727021867541,-0.5241351606263892,0.2895890143961423,0.021692978531837964,-0.041932271184010765,0.4863643747116043,0.31690277618633084,0.7502596413186614,-0.30059181211713887,0.5116843954195918,-0.1965930369940959,0.28196106095730705,-0.3138282696016944,0.1354011976732986,0.12215100881868014,-0.09995061168349764],[0.15876966918325142,0.38008347570886697,0.22648578918316195,-0.4014573190835206,0.5638390374195666,0.24367995173132967,-0.3243595098132829,-0.4805521743302966,0.19503591303706158,-0.5068306036283613,-0.2888909629041889,-0.35109191680291374,-0.29765923369645,0.3566177802519756,-0.3751748224397104,-0.5953162870967756,-0.5357651423938027,-0.6267974152055601,0.21582156122118132,0.0786527764926672,-0.4220249664018368,-0.4938148384630649,-0.10566923187786259,0.4539260403113353,0.027866901638783595,-0.30120006766388147,0.4089601936735033,0.45971817633123047,0.3791923317286823,0.04056834396101283,0.48592814374349125,0.08247503905393691,0.4263154685424233,0.502463567763307,-0.18066059375720295,-0.15253085454271953,0.5003246543500279,-0.18048300121366148,0.37934847532932664,-0.3847309264777606],[-0.5386544583172781,0.2723466429448207,-0.2730873095667689,0.22391703237272145,-0.3949829030007332,0.3249848962723802,0.45746706120550695,0.1379109600017045,0.4773617503272978,-0.22533531824420575,0.63351705491396,-0.5802456324025348,0.19248259189113925,0.3520295089831669,-0.4864091961698977,-0.4208604607849601,-0.009623617357084413,-0.5032339745325877,0.21427717404843086,0.033354977258491014,0.5557310708241682,-0.27290986041084,-0.5563039705571323,0.08746452824875561,-0.40026123490085586,0.2150362615119608,0.16729311868970653,-0.44231622594085873,0.5696163833574367,-0.5570218796963065,0.41420085673358364,0.24176800799374906,0.11636364226118957,-0.6484583014330685,-0.40000799002343096,0.11747584603831446,0.5288556705806972,0.05609269655760604,-0.0873126825512811,-0.31855613453898324],[-0.1477845551184384,0.5288331675686755,0.5463570755442122,-0.4652524447937071,0.1830933528345421,0.022345137766819494,-0.5225075851191947,-0.37968283433272465,0.49034755146039954,0.047052126134843955,-0.21001136955207142,0.10855588922135762,0.38760029195717893,0.4130239851012192,0.21547005071136274,0.1856978935264416,-0.7147685015675054,-0.007993388253822686,-0.013437261955647714,0.14480023694019645,-0.4680605253412577,0.18294547253553387,-0.47499572182109245,-0.34168620784322534,0.5367509655166208,-0.4928922255207954,0.009167184642505337,-0.013803817879347828,-0.48619915037593825,-0.4333636574458267,0.16413692770232513,-0.14624143389712177,0.14169090062324144,0.021808499484503297,0.22937062423082402,-0.26961312231019274,-0.4881109810025435,-0.6052067776189276,0.26220310148506687,0.639018596551072],[-0.01786592051573454,-0.16968296209252615,-0.010610672469488106,-0.5167423228912278,0.4609949558327902,0.06826296701539844,-0.533627507748377,-0.2477955720542068,-0.03246960096109936,0.5429178607536944,0.20677355746148135,-0.5160199759313877,0.05987283250671518,-0.07232804401422586,0.5802066173537297,0.2159644019115674,-0.1795940328634232,0.34091142300589966,-0.17114753024167603,0.46724239833250325,0.23548474478513146,0.34571322857719006,0.42980268939211536,-0.36709597874218364,-0.4042235577397558,