{"layers":[{"input_weights":[[0.19995243202287072,0.13759318951213384,-0.474303008072821,0.3772659134261489,-0.1438712047071995,0.4417476017502078,0.3794008315369646,-0.10128611707259227,-0.5876685972679503,0.15668369685432526,0.4485414618504393,-0.2754883206897738,-0.42490209839555937,0.3160650171019599,-0.23959915627906558,-0.03733121629655867,-0.4211537702892485,-0.5924952766922527,-0.3823374018340273,-0.5636957110920886,0.2308334399418155,0.062172925224399433,-0.12434929129682426,-0.4756959975324664,-0.4774889664555426,-0.0005928144586011541,-0.2763935021325925,-0.006850611772619031,-0.5774068117149567,0.2706567553201431,-0.11810213855888074,0.47377732138616846,0.050631303119572646,-0.007299775255120711,0.1508764300064089,0.18416506115072573,0.5621912463429926,0.019190565394306303,-0.3640646139154669,-0.23585990605111595],[-0.24455076801573505,0.261243455970801,-0.04944577367530978,0.36215534787846027,-0.40333983855858224,-0.4945738120608707,0.15134772454431422,-0.34507996663476015,0.35749516325428177,-0.12095560086615809,0.42899574873844903,0.06003688366024118,0.22340012021693356,-0.04892584747461082,-0.18042426523267818,-0.15653594630902057,-0.5928208709549194,-0.20465105392201233,-0.059097158644152215,0.13955717107008314,0.46167851995034725,0.288301104458065,0.35270551816430773,-0.2054291724102386,-0.07458354329509187,0.3748146998613837,0.2751035278819276,-0.23683266145470627,-0.5574671059858538,-0.10366149058206652,0.426834352262508,0.012481443038768523,0.05523227337357728,0.32148550683139154,-0.14476314140105062,0.1036668108474097,0.5511662926158984,-0.18624823197216656,0.12554719591219166,0.5984022045140356],[0.07895818192606097,-0.4041393630486039,-0.020146723206128758,0.5318052254612122,-0.19275041008366922,0.37496871843818713,-0.2433493895284491,0.49735654757753434,0.2999459444906085,-0.41798860824664485,0.2753565860135261,-0.4968670092068923,-0.5725363278029116,-0.4472291205429646,-0.5954327445751888,-0.5122639242636773,0.2635944125485987,0.009273377883345146,-0.15740015353889802,-0.25701942002222444],[-0.3160730703777592,-0.3526177069582279,0.5820488977106875,0.16675093015285403,-0.30978475832347585,0.08815682889013088,-0.5993466823924745,-0.014616235645257047,-0.15018588914005981,0.21344949621678166,-0.14987081192221807,0.23015092506878387,0.5333157162873126,-0.08991353499477017,0.19274753179993098,0.588127609728125,-0.4798146545589397,0.0591668485718706,0.31222331923483404,0.031013762039767467],[-0.43184201499021757,0.483087508035819,0.08774400889665723,0.028974585681723397,0.16577931965213266,0.38455862428478094,-0.4275193163763167,0.490731851180521,0.3072022277362465,-0.31323617650628455,-0.40055749686630815,-0.37270705270713744,0.4687666494004028,0.3957596415755389,0.3004401337892171,0.1449169136994537,0.3554583765291146,-0.2357907095652425,0.2382046548127641,0.2323010141333981],[-0.21175248516109813,0.5655661304092705,-0.5815731459772682,0.48722113897285757,-0.272356589246036,-0.1187138399378096,0.2635787771912259,0.3979702444459594,-0.2773451460301506,-0.5513290771319797,-0.38741019699454804,0.536452818209483,0.12870440795513005,0.37798676060904945,0.5137173733248419,-0.37486416049786286,0.36196237497692874,0.5221963392643953,-0.5908981421559678,0.031569122976159436],[-0.5210742398891552,0.4687229903458592,0.3827609952292099,0.47333812840617595,0.48526481522434617,0.4457068270310067,0.47868779203180445,-0.01169459276627971,0.0865784621180985,0.14728699687027125,0.005807482701624345,-0.12454297001842529,0.4427966969643222,0.5408221272890534,-0.3491715861796325,0.5329544559886839,0.5796930739988495,0.29967462423290314,0.2418344774237302,-0.11491853105204997],[0.46975286138443106,-0.0578960777287143,-0.3523183739856819,0.14592664899461893,0.057644962885528894,0.511111707072144,-0.5384123703265276,-0.5677685447353518,-0.4719914725586334,0.39291048352503166,0.25618789056628044,0.36524266031114916,-0.10547111985546498,-0.4348711012162296,-0.2124226512951357,0.1989702486399223,-0.34004487279417783,0.11196038551977017,0.16235625421415345,0.02797827596859781],[0.590235669804609,-0.5484764017807862,-0.34843237017324835,0.2884193107507085,-0.5301624769205695,-0.1645996747909193,0.462021767022712,-0.1202180200205647,0.1930110144822874,0.19053584698600812,-0.1737795393494066,-0.3645185125744308,0.4200730777385946,-0.21156619255124998,-0.22098905635847088,0.377033300312807,0.139577980344461,-0.3947472356535533,0.1866329335398933,0.016373999354768465],[-0.25667381912160114,-0.26616260230428335,0.16596813681415035,0.5952493335316014,0.4284350984935599,0.2445852624219671,0.5894019260857641,-0.5009610487877769,0.11705317421951711,0.5293510463649023,-0.042474021597769696,-0.4721075660838061,0.5261395334230445,-0.5934094743046405,-0.4583611613605354,0.4509908222239858,-0.3985774537042168,-0.440747041107858,0.5906707378078817,-0.16327112222189766],[],[],[],[],[],[],[],[],[],[],[],[],[],[],[],[],[],[],[],[],[],[],[],[],[],[],[],[],[],[],[],[],[],[],[],[],[],[],[],[],[],[],[],[],[],[],[],[],[],[],[],[],[],[],[],[],[],[],[],[],[],[],[],[],[],[],[],[],[],[],[],[],[],[],[],[],[],[],[],[],[],[],[],[],[],[],[],[],[],[],[],[]],"inactivated_output":[[[]],[[]],[[]],[[]],[[]],[[]]],"activated_output":[[[]],[[]],[[]],[[]],[[]],[[]]],"gradient":[[],[]],"errors":[[],[],[],[],[],[]],"layer_bias":[],"activation_type":"TANH","layer_type":"InputLayer","previous_layer":null,"next_layer":null,"input_data":[],"previous_gradient":[[],[]],"m1":[[-0.2504926534045524,0.3464921620660646,0.49334856208861977,-0.00911019995210638,-0.30551619331261026,0.42291415858062154,0.22306827359786885,0.3087916928363761,0.06048268821832048,-0.505367902520758,-0.49903669426495045,0.5306036319548251,-0.022934198698259634,0.2102511516532526,-0.10829657252053028,-0.34567165033846914,0.034176748807148494,0.1749697714217291,0.3208237406722927,-0.465823812144704,-0.5083019606378723,-0.3476443466566794,-0.24746023551492957,0.5978028952788219,-0.468754146570725,-0.19221778944959267,-0.1339650491521449,0.24208927712339,-0.33809646183387754,-0.12915939351408845,0.416588482925734,0.42735114421648257,0.4856247805072118,0.15120276110291808,-0.07755768487641634,0.4774222749741557,0.07767078986833531,0.2080833483529223,0.2133559262857387,-0.13329521121465393],[0.5537656040651879,-0.06782808636689874,-0.19287932905942903,-0.5202405995702801,-0.13559350143710547,-0.5276550392037986,-0.02398886514066101,-0.21956825163490845,0.2815097923798566,0.12061027382700185,-0.49354735083041446,-0.35417869225701404,0.2842213338998887,0.45403725313757715,-0.21379606876193713,-0.15127131560323126,0.47882490719749216,0.001305021723746247,-0.4743663936119422,0.42283570074605725,0.16665288624088936,-0.5633617454753455,-0.2554601042543083,-0.4906728006965575,-0.22167072297038137,-0.3233995795227891,0.14483081192897584,0.5641626033545859,0.34299782871891393,0.08643488077014583,-0.3728311374418989,0.08908528001691485,-0.10575287755433972,0.10124492261620444,-0.1955328261233551,-0.11059413093626835,-0.5700705335062892,-0.4725568943362573,-0.3458251087808981,0.5438913491310751]],"v1":[[-0.3785333853826436,0.5580606560808761,-0.10776017969931372,0.44723032358125936,-0.5194378957041546,0.28231027868238323,0.1633556974412571,-0.3693423069152546,0.4188764174508868,-0.25495257080053757,-0.494551741203894,0.3642306551784822,-0.3675094979443186,-0.26043682639070465,-0.18414773582528077,-0.3484230653114906,0.5249633716608768,-0.40060474591947504,0.4040056622737387,-0.5986466721451145,-0.33345094331036784,-0.39079477412567853,-0.4641753585044304,-0.4735747629807314,0.059597518062472155,0.11151642358588942,0.020157856959809095,0.31953447307772187,0.2932730232502436,0.21889832801900733,0.29054798806472126,-0.43794475374176534,0.07849835740423527,0.45514636692823407,-0.49942374157117575,-0.41441862503112703,-0.28932968978551465,-0.015064014276470196,0.5642148129576792,-0.08717982893156395],[0.5054754010107905,0.34394059345049754,0.3986986804327506,0.11599866623225452,-0.28789258694298914,0.3544203794862302,-0.2881354941509269,-0.02939212199332375,-0.2923952302634383,-0.5511357358392859,-0.44650961537307143,-0.2540022026168025,-0.16419438626625849,0.29603677420615426,-0.3439180816049141,-0.5632094816614741,0.16675318438360387,-0.17503959940407587,0.3873164930707196,-0.23361934332613288,-0.3002959756445218,-0.1905113809467458,-0.04914023245304233,0.1750125034166954,-0.14573142435123487,0.274836041913995,0.08354598416649672,0.23894045121555815,-0.005856867569966173,-0.13312606904767943,0.2713711872843687,-0.49717610866446127,-0.5871991506676411,0.35286153197786296,0.5628998514140022,0.2283677118829086,-0.0730482698674515,-0.5728099618899585,-0.32577135642098853,0.4483657224840591]]},{"input_weights":[[0.4521479082493305,0.021371152709749985,0.4146292227332333,0.3307191375027507,-0.04544051715435038,-0.5655245489009617,-0.2437538871011653,-0.10713804253591541,-0.0631741409127391,-0.39797912717642747,0.08272206478960564,-0.5452909884812105,-0.2894770838770617,-0.3778028674942917,0.3039337629316532,0.32357467902384096,-0.40147707433835844,-0.13694304637796129,0.2826908595674924,0.08993349495264447,-0.3333822546056775,-0.4209192672753861,0.005644397022948056,0.18584441206224267,-0.31620158076826765,-0.3874131070399196,-0.29072561909755645,0.2040371420523579,0.5505813804999455,-0.4868832503275946,-0.1259511283778025,-0.2103417257441722,0.09797143107938044,0.5358005236625623,0.33986539424134987,-0.021102653782636427,-0.12460641709394428,0.2599204015535559,-0.3557043240762019,-0.23837735255993797],[0.47822824332624636,-0.12068875321554029,0.13952221328845393,-0.586095728316806,0.2226680092992348,-0.4948823763728354,0.3088709032326937,0.3878954314752603,0.1298097392376254,-0.3369333825135965,-0.3299635791626505,-0.26158865811698484,0.2426507381145382,-0.167596286832848,0.4547152108470711,0.07207527244114931,0.450547363115676,0.5933463264281076,0.3805280609598487,0.3491245598293138,0.5831284621356754,-0.4252428729987787,-0.42414947177321793,0.20588107215808948,-0.3455421437884898,0.3264233010359123,-0.10451320356210704,0.20770977666003487,0.11689225465990316,-0.32872991342305724,-0.230011425267306,0.5600189176034465,0.598431720953069,0.4690733529149851,0.2163243372656121,-0.4509277680948034,-0.04828783598369912,-0.12879136050341344,-0.567489528000483,-0.4969091820460472],[0.5649458155322971,0.270996327588938,0.10474096555258416,-0.400210994414713,-0.516964941530835,0.5760041632290891,-0.01235005599480199,-0.11376557537927834,0.4391447323832116,0.5273416769239967,0.018349233655120756,-0.48835787757104465,0.4857923128899637,-0.5786852957594004,-0.31148578766493906,-0.48332195013307944,0.3296702243496954,-0.31263125797908353,0.24022297745771537,-0.5247497449276082],[0.5993050768989305,-0.25494062510421167,-0.4883334709029137,0.5468022785842672,-0.10633628088329927,0.3032671300285732,0.34946246357148736,0.0183449757727685,0.22388086924602568,-0.48950610955837615,-0.009050856395526496,0.12666349883460826,0.2818850766898655,-0.042473318259264925,0.22793650051248626,0.30076048010757495,-0.5565807486207284,0.5024654471701959,-0.3805987553208603,-0.30098123793248943],[0.4862134921232175,-0.11982145631011298,-0.4696069064561561,0.49961021457739596,-0.36076849086983187,0.5848615436325142,0.5857957288111049,-0.16380504317282907,0.4322740348390144,0.3026083615824722,-0.5781650027050842,-0.19457451058746966,0.23580621746262143,0.1659396729201441,-0.25952832968886375,-0.13349097361826723,0.33147274987098596,0.343789022673608,0.3481313859332307,-0.363513703861863],[0.04386809794297264,-0.2984452141646916,-0.3881578852516736,0.34606904518099313,0.29762358520061083,0.5472727220628122,-0.1822099237029018,-0.2265852178530574,0.3551386127802054,-0.3603409166839229,0.3058793765285688,0.2984733829105486,0.2219887907356295,-0.2976763122368198,-0.19608220493236472,-0.5015147096452,-0.04691606068709886,0.39157034028085835,0.21720285744945134,0.08966329200845413],[-0.211479368485191,0.5154279786379194,-0.24039433561980306,0.11859578096438517,0.463704410293158,0.5231206058542806,-0.053566208667367166,0.4946562541443713,-0.15393923911916096,-0.4019540276036717,0.48106707680448046,-0.5489480707726127,0.2318195311171154,0.30521765636266096,-0.2996966238063201,0.010520607405434923,-0.3759187636850767,0.2454000236646352,0.5411836675691082,-0.36515589561815553],[0.4357236149454393,0.04962637452186813,0.08692525635656967,0.25673356169252326,-0.28456484935504367,-0.24805931649383406,0.1440584334086823,-0.34369443900055496,-0.20224889122990586,0.5571496409172436,0.2251015228709674,0.22085031848147807,0.11734358050286264,0.22044948160069122,-0.5199429004966323,0.06476496403223586,-0.48284938325519167,-0.19889353399982812,-0.4915418009565289,-0.5335778385039824],[0.16790128328359022,-0.038658632927624614,0.05398112140720834,-0.4928834218339133,0.30796894024687527,-0.229283080209701,0.22838355415775125,-0.09299383557757368,-0.48474628943183196,0.3061012086897499,-0.5199273966148572,-0.21675898281698802,-0.5840107919102058,0.1169823918793571,0.48775404616448625,-0.19396509407167262,0.3471111023584714,-0.3545699093035941,-0.4731447267913742,0.2716687837584395],[0.1317610985535964,0.3276640988978894,-0.07735386792464927,-0.09600737888729438,0.3976270167466347,0.4128345276187817,-0.2855104285546275,0.2931433048293832,0.036578574136406417,-0.47326601721631434,0.002827027522750214,-0.030498570984453632,-0.5310361516431608,0.4492122289611298,0.31021365434377524,0.5589165774101303,-0.5802639101302656,0.031305565450376216,0.28121910473787404,-0.2813105954495736],[],[],[],[],[],[],[],[],[],[],[],[],[],[],[],[],[],[],[],[],[],[],[],[],[],[],[],[],[],[],[],[],[],[],[],[],[],[],[],[],[],[],[],[],[],[],[],[],[],[],[],[],[],[],[],[],[],[],[],[],[],[],[],[],[],[],[],[],[],[],[],[],[],[],[],[],[],[],[],[],[],[],[],[],[],[],[],[],[],[],[],[]],"inactivated_output":[[[]],[[]],[[]],[[]],[[]],[[]]],"activated_output":[[[]],[[]],[[]],[[]],[[]],[[]]],"gradient":[[],[]],"errors":[[],[],[],[],[],[]],"layer_bias":[],"activation_type":"TANH","layer_type":"HiddenLayer","previous_layer":null,"next_layer":null,"input_data":[],"previous_gradient":[[],[]],"m1":[[0.2446644339224067,-0.284331989403932,0.21855866254684253,0.1470678641942822,0.11159955247653008,0.4953552190521773,0.0998885117279118,0.19634976621390043,0.09742798775038208,-0.026746209495208673,-0.2164987192018113,0.5002133552125705,-0.5270100402225213,-0.09977667997460692,0.3005003372402788,0.13531793694449767,-0.0428631128905701,-0.4502500285104856,-0.5715367342285409,0.019035609675142066,-0.2113927170384795,-0.43894015955989096,0.1675229320825895,0.09763082143269863,-0.016811839999436806,-0.5385170813769364,0.2630166022708602,-0.4155561931737335,-0.529917787382933,0.04104283264641628,-0.5965607911214892,0.2156430933550446,-0.1227267334395108,-0.030739785868816535,0.1822337495355608,-0.4626945270215408,0.49279293275467095,0.14144095928773082,-0.5578340712200631,0.49068366014189113],[-0.44213588800452697,-0.231953357029123,0.37459834289136307,0.4673229217770425,0.0225542881537919,0.4443001129485693,-0.2595584298248437,0.4311985020462261,0.09653444551944634,0.5708541982697413,0.3896797986304339,0.09279675020378653,-0.0727689880979836,0.12548039111985787,-0.29526208060920656,0.07728497674125734,0.24093733893693603,-0.0749668927112257,0.4626343324546922,0.2816058954185401,-0.4084839106717921,0.4848547852270939,0.20600708327920092,-0.07697282097923264,-0.5553269366879319,-0.5794063874904802,-0.5288471891240536,-0.538669296531723,-0.07332522635981409,-0.15548920695261348,0.5951205720867256,-0.37297100353630097,0.02227922072131472,0.2479967300389729,0.040242989203818746,-0.32029469395373966,-0.5163623725156452,0.2525985588495452,0.419602616808004,-0.2362133664370092]],"v1":[[0.3110806539131916,0.4752475029480614,0.49918847430100977,-0.5385252498331667,-0.17363122079738047,0.2916370998402562,0.2742659711414279,0.26113515176279334,-0.1587368467763408,-0.25536254669130565,0.45578469178260006,0.4222952893392744,0.28585815149929106,0.5727216960489656,0.010697971132666462,-0.2715065298963255,-0.44327723569664457,0.16403105226651404,-0.2703421295096897,-0.525276040038088,0.08936368340952505,-0.06774286779690075,0.4404817935766712,-0.3175938370802256,-0.5972866776529229,-0.4417073295598548,-0.4100482845660271,-0.030020889786393612,0.0243455077993997,-0.1975739051838521,-0.06614582258650326,0.4781795524351993,-0.4490733245433485,0.5679161715707948,-0.18910801643213837,-0.5882329086975324,0.5059146339231129,0.4372875484293677,-0.23985885775234173,-0.115794439539469],[-0.5193813959980449,0.5392026306511921,0.12212391827900436,-0.4603688528109182,0.4779926131461485,0.16349207242850405,-0.2881429947837042,0.3113219145788704,0.05310638829587755,0.35025062916729777,0.2472765327111457,-0.0798153944205553,-0.3502975490383462,0.43784939290949465,0.3101647147951976,-0.11819016045541364,-0.4087190673885992,0.06907321373648556,0.3276020612420898,0.017870167683788463,-0.2765953904412559,0.4858102795645776,0.4787878608057112,0.4164399947970421,-0.16776920256044223,0.04831370768948329,-0.007524437832763464,0.5241324592457492,-0.16938032304651962,0.57341762310518,-0.3333305321374571,-0.4369282452406998,0.5086138159669904,0.5851042419239048,-0.14726112335735486,-0.19024100198417404,0.08988224963419356,-0.5375160512642763,-0.34622045046673344,-0.5480729249350378]]},{"input_weights":[[0.5455486314152664,-0.08597776130411527,0.33248612568530156,-0.1857131153156648,-0.5894817124509508,-0.34032491079539073,0.32749795585857644,-0.2889983244205776,-0.13790350719562183,-0.14651117625852095,0.005579200233205572,-0.28722895617192257,0.4420879012032226,0.06440860476239219,-0.39110950032169334,-0.13720672759447394,0.3203251181076916,0.5478348897747978,0.47859406363296797,0.06654975299733623],[0.5047832179880749,-0.4288210198458877,0.021318032399254117,-0.12920450385874416,0.08412857120290695,0.5917787702640442,0.31896374357766977,-0.33429778498014073,0.1653146449282865,0.561871258812725,0.46723744177793636,-0.04422081261189281,-0.03475269091125344,0.29339481147226687,-0.11934986830899441,-0.37624531871836764,-0.169312922913202,-0.31349466573927653,0.5172692138545738,0.40288123220320005],[0.5839104918912601,-0.025235924154127787,-0.16511204889243047,0.58297799880549,0.5665465831386567,0.34845581894267097,0.5257734237073426,-0.253645383472072,-0.3983720165626592,0.314994411535793,0.09181627755510924,-0.562238975463148,0.18866639659480233,0.20640500681398866,-0.13248857308457507,-0.3202522009831146,-0.15461130735262074,0.26074486865856983,0.4058230780593912,0.4240675240616354],[0.15346663164481855,0.27612158107014784,0.14130861228407232,-0.08077886166267878,0.32179998000626986,-0.14498606996757313,0.1712165020714369,0.46374676094800904,0.04771941306077676,0.3193017024615963,-0.31762873711135864,0.5643988848655548,0.19035751993987415,0.5624446706708741,0.5679753950627644,-0.36066636442950917,-0.320533367338687,0.40640324904941494,-0.5894114417251339,-0.42041080472731207],[-0.24312540797584048,0.1683736882298732,-0.324811792015159,-0.03803326678783692,0.3936434064453578,0.2682582987913298,0.3458494142368891,-0.09972674366956524,0.2690671690637392,0.10015063301703875,-0.5856570021167078,-0.05839248326952773,-0.5831264507401743,-0.5330042197909035,0.0357081322267061,-0.10905587046838017,-0.5826604179175898,0.39924301215422897,0.16214141571896423,0.5676908016232276],[0.4635287506163692,0.2366156301171971,-0.3083037929054584,-0.06652855094924592,0.31979894318626023,0.2722661558722792,-0.4230165188324111,0.3427009097848144,-0.5573181937800127,0.44723370402731977,0.021263224364604483,-0.5833205866926521,-0.011760368464422966,0.29226980276117764,-0.29812326689112845,-0.1285905915909804,0.44753459927451544,0.5791477846719402,0.35775514851078594,0.03973570423005812],[-0.4269125121164694,0.07990644572408612,-0.4925566092751137,-0.2589609853377681,-0.167566131309689,-0.5864763169501956,-0.13724638539771483,-0.08438791084913877,-0.2709944914193685,-0.4715388336823405,-0.22922925473052924,0.5049101367293893,-0.12994587079589692,0.08506691991229398,0.3797393700035565,0.5718539258114261,-0.08829912898220726,0.361248426772816,-0.40006382606507485,-0.46112059910970715],[0.40367973784281386,-0.40370416047954283,0.010253042453666428,0.5450599126654341,0.4752059403231286,0.25275046908447907,-0.486986146917997,-0.30656384005975834,0.40645046655696815,-0.17264177917906842,-0.38008330458354767,-0.19675649841005383,-0.016715529349652813,-0.5792531056036283,-0.13271556420505526,0.5219754387888682,0.1402216537406944,0.16049413346123553,-0.33455073832937443,-0.027518569206098853],[-0.35891053384007976,0.15549061519996488,-0.17408997904086765,0.14963543450841987,0.23737827144826706,-0.08601856659008278,-0.47850587193511696,-0.36078921067045466,-0.43543435265192154,0.405016499358267,0.2156737901192498,-0.469766829267388,-0.5869665751666666,-0.12833673580928484,0.3742583982372456,-0.5403220195609475,0.08638179302832794,-0.3636986404290823,0.5675484833622906,-0.13363446413041302],[0.32785119441093036,0.04743757998961473,0.3541121102381428,0.19751365562708645,0.104506527009951,-0.25429768732153013,0.2740025221174496,-0.517431637854159,0.5757442969536242,0.11739521180153112,-0.30625773355678665,0.57903844132399,-0.4044812609290671,0.48389128251332325,-0.4185198623231343,-0.4622218938383178,0.4269561423123944,0.48484346633833253,0.5738301003501705,0.025217943634174178],[0.27879503010912554],[-0.252113069146088],[-0.41952851234900934],[0.555167384836095],[-0.1358146235132658],[0.5039340204106084],[0.3310198713285635],[0.11757974673011053],[-0.029451264042065217],[0.3359968722718345],[0.4684859078825281],[0.05288830717091497],[-0.5522418922499306],[-0.426062676227146],[0.2896096602726659],[-0.4209044075505662],[0.03651276884713828],[-0.2537753287062703],[0.271687280260708],[0.5749466208704921],[0.585075630801509],[0.4389811153655008],[0.3542425599001522],[-0.5364018553964149],[0.47377937178918383],[-0.5190530836303293],[-0.5743242962788726],[0.02087104050815891],[-0.5301992404666616],[-0.46850128672466873],[],[],[],[],[],[],[],[],[],[],[],[],[],[],[],[],[],[],[],[],[],[],[],[],[],[],[],[],[],[],[],[],[],[],[],[],[],[],[],[],[],[],[],[],[],[],[],[],[],[],[],[],[],[],[],[],[],[],[],[],[],[],[],[],[],[],[],[],[],[],[],[],[],[],[],[],[],[],[],[],[],[],[],[],[],[],[],[],[],[],[],[],[],[],[],[],[],[],[],[]],"inactivated_output":[[[]],[[]],[[]],[[]],[[]],[[]]],"activated_output":[[[]],[[]],[[]],[[]],[[]],[[]]],"gradient":[[],[],[],[],[],[],[],[],[],[],[],[],[],[],[],[],[],[],[],[],[],[],[],[],[],[],[],[],[],[],[],[],[],[],[],[],[],[],[],[]],"errors":[[],[],[],[],[],[]],"layer_bias":[],"activation_type":"TANH","layer_type":"OutputLayer","previous_layer":null,"next_layer":null,"input_data":[],"previous_gradient":[[],[],[],[],[],[],[],[],[],[],[],[],[],[],[],[],[],[],[],[],[],[],[],[],[],[],[],[],[],[],[],[],[],[],[],[],[],[],[],[]],"m1":[[0.20839510504392456],[0.5655310133955918],[-0.376618374988537],[0.310621923425467],[-0.10038620019142595],[-0.30778378342370405],[-0.4983207491108357],[0.31363175451861514],[-0.532527940603982],[0.04779631926194683],[-0.13356484957554526],[-0.35633659016600716],[-0.4191170693899273],[-0.15723847857657902],[-0.5729676071251721],[0.3172818582238106],[-0.3831090636930561],[-0.2109395592115806],[0.2777857342920025],[-0.2510979003193332],[0.0511229887111635],[-0.5850198097056125],[0.5537642166093044],[-0.3409421735836582],[0.43076000625938304],[0.23984262539334633],[-0.05490694525945905],[0.1913783360373955],[0.3899255815120002],[-0.3978323172395683],[-0.36598797536165506],[-0.014345330922609811],[-0.03640163148057285],[-0.2442559370502726],[-0.4389827498778882],[0.3501264718705408],[0.24813391159852083],[-0.21038797691973857],[-0.07924566460794913],[-0.527567488203069]],"v1":[[-0.38545926194386015],[-0.3843886717097389],[-0.4892258126807141],[-0.48704526214545374],[0.5963316913497132],[-0.2912489339936257],[0.32344706976100923],[-0.06355888198954696],[-0.06635789365189071],[0.004089154064818024],[0.33321313739982683],[-0.443320762590017],[0.518866879616489],[-0.5402715445578274],[-0.5725358358271799],[-0.33101649430127034],[-0.598057215729497],[0.5130187323761861],[0.2193953785531937],[0.2833878115984172],[0.3891674437726085],[-0.4874038670163477],[-0.026300931770006697],[-0.20696551605931224],[0.09844929413681291],[0.3106907612751506],[-0.5972491700669964],[-0.5894014136189858],[-0.44037022174946694],[-0.2875849555397554],[0.24963854385949835],[-0.10510854328907791],[0.4738600202348855],[0.28563425727659375],[-0.3062915238626476],[0.4828625682445957],[0.1910071546178949],[-0.027420076646269997],[0.3668656510710986],[0.03184671857781263]]}],"learning_rate":0.001,"number_of_hidden_neurons":40,"input_dimensions":[1,2,6],"number_of_output_neurons":1,"number_of_hidden_layers":1,"number_data_sets":6,"number_rows_in_data":1,"number_columns_in_data":2,"minibatch_size":50,"data_type_value":0.0}