{"layers":[{"input_weights":[[-0.06798034231320424,-0.34661771535449354,1.0419142356401168,0.4894733141422315,0.2884585816861791,-1.3542450096072085,0.23602851653889895,0.49819221060932584,-0.4584421771512057,-0.6084026513978644,-0.053033861456965106,0.34714110080267063,0.29482126488797067,0.9792660459207106,-0.5177488401129908,0.22162667863789215,-0.520072150929495,-0.2560277448423898,-0.8821709347801443,0.24977747685104515,-0.22973314383637028,-0.3942102218517786,0.4088856641031257,-0.671041464354548,0.8647238380189074,-0.4792183300529397,0.3951657813105866,-0.8282397689194659,-0.64233621968002,-0.4013279946358478,-0.31212049214324067,0.28595761061548386,-1.291831675694428,-0.4703846243243328,0.9039617008914224,-0.0794032606147382,0.6301318658536224,-1.3440464956191065,-0.003688814616660991,0.4090472237577343]],"inactivated_output":[[[-0.005489947272674316,0.010591071952883111,-0.037730722566922,-0.026865532561077776,-0.030319598016931848,0.10673384026554732,0.04906981730211038,-0.06218431508574679,0.08067422799065548,0.008829720494614408,0.0038561250945828014,0.002652058550767861,-0.06652555589950719,-0.07184335484016471,0.08833927044617042,0.016382170620233238,0.08933028230362369,-0.0004427325738893695,0.06864248866950001,0.02218012876934612,-0.023101321052511427,0.07195556619789326,-0.0162248116351607,0.05977151065528882,-0.011918758559566336,0.029775075693064777,-0.04465917321595863,0.029658788507480896,0.07715448263795667,-0.010335987711268904,0.02600532287895433,-0.012308217054327842,0.10437747113568362,0.03053926812403391,-0.06798726527267626,0.08339792878959316,-0.02533074098613332,0.12619870038817643,0.02875209871908458,-0.057684450779148765]],[[-0.005489947272674316,0.010591071952883111,-0.037730722566922,-0.026865532561077776,-0.030319598016931848,0.10673384026554732,0.04906981730211038,-0.06218431508574679,0.08067422799065548,0.008829720494614408,0.0038561250945828014,0.002652058550767861,-0.06652555589950719,-0.07184335484016471,0.08833927044617042,0.016382170620233238,0.08933028230362369,-0.0004427325738893695,0.06864248866950001,0.02218012876934612,-0.023101321052511427,0.07195556619789326,-0.0162248116351607,0.05977151065528882,-0.011918758559566336,0.029775075693064777,-0.04465917321595863,0.029658788507480896,0.07715448263795667,-0.010335987711268904,0.02600532287895433,-0.012308217054327842,0.10437747113568362,0.03053926812403391,-0.06798726527267626,0.08339792878959316,-0.02533074098613332,0.12619870038817643,0.02875209871908458,-0.057684450779148765]],[[-0.005648779848172456,0.00978121747775579,-0.03529634351168808,-0.025721903322427703,-0.029645629368132365,0.10356971641132487,0.04962128579869659,-0.061020314593668926,0.07960310140852649,0.007408218972656781,0.00373221420332821,0.003463135889091858,-0.06583672116846052,-0.06955535005997614,0.08712957689450455,0.016899989962845134,0.08811516045565758,-0.0010409282394089718,0.06658134162562117,0.022763721004979403,-0.023638080734372104,0.07103451427767882,-0.015269471298471154,0.05820365676660997,-0.00989837576045674,0.028655406697613985,-0.04373588868018623,0.027723648860472797,0.07565369707795662,-0.011273669941726492,0.025276069392638347,-0.01164009179588045,0.10135917282798636,0.02944023862794902,-0.06587520522386453,0.08321240715264284,-0.023858470271522055,0.1230584048376645,0.028743479993344718,-0.056728732966630696]],[[-0.005648779848172456,0.00978121747775579,-0.03529634351168808,-0.025721903322427703,-0.029645629368132365,0.10356971641132487,0.04962128579869659,-0.061020314593668926,0.07960310140852649,0.007408218972656781,0.00373221420332821,0.003463135889091858,-0.06583672116846052,-0.06955535005997614,0.08712957689450455,0.016899989962845134,0.08811516045565758,-0.0010409282394089718,0.06658134162562117,0.022763721004979403,-0.023638080734372104,0.07103451427767882,-0.015269471298471154,0.05820365676660997,-0.00989837576045674,0.028655406697613985,-0.04373588868018623,0.027723648860472797,0.07565369707795662,-0.011273669941726492,0.025276069392638347,-0.01164009179588045,0.10135917282798636,0.02944023862794902,-0.06587520522386453,0.08321240715264284,-0.023858470271522055,0.1230584048376645,0.028743479993344718,-0.056728732966630696]],[[-0.010096091962120397,-0.012894707825809206,0.03286627003486161,0.006299715359774357,-0.010774507201746816,0.014974248493096282,0.06506240370311053,-0.028428300815488736,0.049611557108914905,-0.032393823642156774,0.0002627092481996521,0.026173301362163767,-0.046549348699154044,-0.005491216214696004,0.0532581574478603,0.03139893155597827,0.05409174871260651,-0.017790406873957835,0.008869224397013604,0.039104303602711325,-0.038667351826471096,0.04524506051167461,0.011480058128836134,0.014303747883602162,0.046672342614611964,-0.0026953251750082355,-0.01788392167855907,-0.026460261255753938,0.03363170139795532,-0.03752877239453896,0.004856971775790829,0.0070674154406465284,0.016846820212463046,-0.0013325872624278881,-0.006737523857135969,0.0780178013180338,0.017365109737593424,0.035130129423330436,0.02850215567262858,-0.029968634216124716]],[[-0.010096091962120397,-0.012894707825809206,0.03286627003486161,0.006299715359774357,-0.010774507201746816,0.014974248493096282,0.06506240370311053,-0.028428300815488736,0.049611557108914905,-0.032393823642156774,0.0002627092481996521,0.026173301362163767,-0.046549348699154044,-0.005491216214696004,0.0532581574478603,0.03139893155597827,0.05409174871260651,-0.017790406873957835,0.008869224397013604,0.039104303602711325,-0.038667351826471096,0.04524506051167461,0.011480058128836134,0.014303747883602162,0.046672342614611964,-0.0026953251750082355,-0.01788392167855907,-0.026460261255753938,0.03363170139795532,-0.03752877239453896,0.004856971775790829,0.0070674154406465284,0.016846820212463046,-0.0013325872624278881,-0.006737523857135969,0.0780178013180338,0.017365109737593424,0.035130129423330436,0.02850215567262858,-0.029968634216124716]],[[-0.014861069227064618,-0.03719034207962884,0.10589764169187912,0.04060859251927655,0.009444552262237699,-0.07994946713357722,0.08160645860069692,0.006491713946847194,0.017477759645045346,-0.07503886930088559,-0.0034546174894380887,0.05050562151188367,-0.02588430676775423,0.06314892719096127,0.0169673508978843,0.046933511834335195,0.017638093273623215,-0.03573627683954591,-0.05296518691935165,0.05661207067170981,-0.05477014228229144,0.017613502905241538,0.04014026822952251,-0.032731868776763345,0.10728382658789985,-0.036285395038532044,0.009814614394612883,-0.08451445066599687,-0.011391865402046078,-0.06565923930826661,-0.017020632813688652,0.02711117319406829,-0.07370212901845478,-0.03430347214497458,0.056624277607216056,0.07245215220952411,0.061533231175931444,-0.05907873709202749,0.028243593900432715,-0.0012970998405825926]],[[-0.016131729831049747,-0.04366917788064741,0.12537267413375047,0.04975762642847714,0.014836301452633573,-0.1052624579673568,0.08601820657338662,0.015803717883470098,0.008908746988013458,-0.0864108814765466,-0.004445904619474819,0.05699424021847564,-0.020373628919380944,0.08145296543246988,0.007289802484557378,0.05107606657523037,0.007917118489894348,-0.04052184216370273,-0.06945436327038237,0.061280808556776076,-0.05906421973717686,0.010245087543526044,0.047782990923038886,-0.04527469988619416,0.12344688898077663,-0.04524274700213839,0.017200890680792072,-0.09999556784206166,-0.023398149882046443,-0.07316069715192731,-0.022854660704216517,0.03245617526164743,-0.09784851548003289,-0.0430957081136537,0.07352075799770993,0.07096797911392153,0.07331139689282158,-0.08420110149612295,0.02817464409451382,0.006348642659561969]],[[-0.02089670709599397,-0.06796481213446706,0.198404045790768,0.08406650358797936,0.035055360916618095,-0.2001861735940303,0.102562261470973,0.05072373264580603,-0.0232250504758561,-0.12905592713527542,-0.008163231357112562,0.08132656036819555,0.00029141301201887626,0.15009310883812718,-0.029001004065418626,0.0666106468535873,-0.02853653694908896,-0.0584677121292908,-0.13128877458674765,0.07878857562577457,-0.07516701019299721,-0.017386470062907042,0.07644320102372526,-0.09231031654655969,0.18405837295406455,-0.07883281686566221,0.04489942675396403,-0.15804975725230458,-0.06842171668204784,-0.10129116406565497,-0.04473226529369601,0.052499933015069195,-0.18839746471095076,-0.07606659299620039,0.136882559462062,0.06540233000541185,0.11747951833115959,-0.1784099680114809,0.027916082322317955,0.03502017703510409]],[[-0.02566168436093819,-0.0922604463882867,0.27143541744778554,0.11837538074748157,0.05527442038060261,-0.2951098892207038,0.11910631636855937,0.08564374740814196,-0.05535884793972566,-0.17170097279400423,-0.0118805580947503,0.10565888051791546,0.02095645494341869,0.21873325224378445,-0.06529181061539462,0.08214522713194423,-0.06499019238807224,-0.07641358209487888,-0.1931231859031129,0.09629634269477307,-0.09126980064881757,-0.04501802766934013,0.10510341112441166,-0.1393459332069252,0.24466985692735246,-0.11242288672918602,0.07259796282713599,-0.21610394666254756,-0.11344528348204926,-0.1294216309793826,-0.0666098698831755,0.07254369076849096,-0.2789464139418686,-0.1090374778787471,0.20024436092641404,0.05983668089690215,0.16164763976949761,-0.2726188345268388,0.02765752055012209,0.06369171141064622]],[[-0.030426661625882413,-0.11655608064210635,0.3444667891048031,0.15268425790698378,0.07549347984458712,-0.3900336048473773,0.13565037126614576,0.12056376217047787,-0.08749264540359523,-0.21434601845273304,-0.015597884832388043,0.12999120066763536,0.0416214968748185,0.28737339564944175,-0.1015826171653706,0.09767980741030116,-0.10144384782705554,-0.09435945206046695,-0.25495759721947814,0.11380410976377156,-0.1073725911046379,-0.0726495852757732,0.13376362122509802,-0.18638154986729072,0.3052813409006404,-0.14601295659270982,0.10029649890030795,-0.2741581360727905,-0.15846885028205066,-0.15755209789311025,-0.08848747447265498,0.09258744852191274,-0.3694953631727864,-0.1420083627612938,0.26360616239076606,0.054271031788392474,0.20581576120783562,-0.36682770104219675,0.027398958777926224,0.09236324578618835]],[[-0.03519163889082663,-0.140851714895926,0.4174981607618206,0.18699313506648602,0.09571253930857165,-0.4849573204740508,0.15219442616373213,0.15548377693281382,-0.11962644286746478,-0.2569910641114619,-0.019315211570025786,0.15432352081735526,0.06228653880621833,0.356013539055099,-0.1378734237153466,0.11321438768865809,-0.13789750326603886,-0.11230532202605502,-0.31679200853584344,0.13131187683277004,-0.12347538156045826,-0.1002811428822063,0.16242383132578442,-0.23341716652765623,0.36589282487392827,-0.17960302645623363,0.12799503497347992,-0.3322123254830335,-0.20349241708205207,-0.18568256480683792,-0.11036507906213447,0.1126312062753345,-0.46004431240370425,-0.17497924764384049,0.32696796385511806,0.04870538267988278,0.24998388264617363,-0.4610365675575547,0.02714039700573036,0.12103478016173047]],[[-0.039956616155770855,-0.1651473491497456,0.4905295324188381,0.2213020122259882,0.11593159877255615,-0.5798810361007243,0.1687384810613185,0.1904037916951497,-0.15176024033133434,-0.2996361097701907,-0.023032538307663525,0.17865584096707515,0.08295158073761812,0.4246536824607563,-0.17416423026532257,0.128748967967015,-0.17435115870502213,-0.1302511919916431,-0.37862641985220863,0.14881964390176852,-0.1395781720162786,-0.12791270048863934,0.19108404142647079,-0.2804527831880217,0.42650430884721613,-0.2131930963197574,0.15569357104665185,-0.39026651489327635,-0.24851598388205343,-0.21381303172056554,-0.13224268365161396,0.13267496402875628,-0.5505932616346221,-0.20795013252638717,0.39032976531947006,0.0431397335713731,0.29415200408451164,-0.5552454340729125,0.026881835233534497,0.14970631453727257]],[[-0.044721593420715085,-0.18944298340356527,0.5635609040758557,0.2556108893854904,0.13615065823654068,-0.6748047517273978,0.18528253595890487,0.22532380645748568,-0.1838940377952039,-0.3422811554289195,-0.026749865045301267,0.20298816111679507,0.10361662266901796,0.4932938258664137,-0.21045503681529865,0.14428354824537193,-0.21080481414400545,-0.14819706195723117,-0.440460831168574,0.16632741097076703,-0.15568096247209895,-0.15554425809507247,0.21974425152715718,-0.3274883998483873,0.4871157928205041,-0.24678316618328125,0.18339210711982384,-0.44832070430351934,-0.2935395506820549,-0.2419434986342932,-0.15412028824109344,0.15271872178217805,-0.64114221086554,-0.2409210174089339,0.45369156678382216,0.03757408446286341,0.33832012552284974,-0.6494543005882707,0.026623273461338633,0.17837784891281472]],[[-0.04964540326115745,-0.21454847213251224,0.6390266547881072,0.2910633957836427,0.15704368634932467,-0.7728925912082937,0.20237805935307746,0.2614078217118994,-0.21709896184120242,-0.386347702609606,-0.0305911026741936,0.22813155860483897,0.12497049933146441,0.5642219740522595,-0.24795553691694044,0.16033594786634076,-0.24847359143095485,-0.16674112758833884,-0.5043563895288181,0.1844187702753988,-0.17232051260977996,-0.18409686762171998,0.2493598019645331,-0.37609187039743164,0.5497476595929015,-0.2814929050422559,0.2120139277287682,-0.5083100333607703,-0.3400639030420563,-0.27101164777847847,-0.17672714631688893,0.1734306047940472,-0.7347094584041551,-0.27499093178756545,0.5191654282969859,0.0318229137174034,0.383960517675799,-0.7468034626541404,0.026356092963402907,0.20800510110087492]],[[-0.054410380526101663,-0.23884410638633186,0.7120580264451246,0.3253722729431449,0.17726274581330917,-0.8678163068349671,0.21892211425066382,0.29632783647423533,-0.249232759305072,-0.4289927482683348,-0.03430842941183134,0.2524638787545589,0.1456355412628642,0.6328621174579168,-0.28424634346691646,0.17587052814469767,-0.2849272468699381,-0.18468699755392692,-0.5661908008451833,0.20192653734439728,-0.18842330306560032,-0.21172842522815302,0.2780200120652195,-0.4231274870577971,0.6103591435661894,-0.3150829749057797,0.2397124638019401,-0.5663642227710132,-0.3850874698420577,-0.2991421146922061,-0.1986047509063684,0.19347436254746897,-0.8252584076350729,-0.30796181667011213,0.5825272297613379,0.026257264608893723,0.42812863911413696,-0.8410123291694982,0.026097531191207043,0.236676635476417]],[[-0.05917535779104589,-0.2631397406401515,0.7850893981021422,0.3596811501026471,0.19748180527729373,-0.9627400224616407,0.23546616914825022,0.3312478512365713,-0.28136655676894157,-0.4716377939270636,-0.038025756149469084,0.2767961989042788,0.16630058319426405,0.7015022608635741,-0.3205371500168925,0.1914051084230546,-0.32138090230892147,-0.202632867519515,-0.6280252121615486,0.2194343044133958,-0.20452609352142068,-0.23935998283458612,0.30668022216590585,-0.4701631037181626,0.6709706275394773,-0.3486730447693035,0.26741099987511213,-0.6244184121812562,-0.4301110366420592,-0.32727258160593375,-0.2204823554958479,0.21351812030089073,-0.9158073568659907,-0.34093270155265887,0.64588903122569,0.020691615500384022,0.47229676055247505,-0.9352211956848564,0.02583896941901118,0.2653481698519592]],[[-0.06394033505599012,-0.28743537489397114,0.8581207697591596,0.3939900272621493,0.21770086474127823,-1.0576637380883143,0.25201022404583656,0.3661678659989072,-0.3135003542328111,-0.5142828395857924,-0.04174308288710682,0.30112851905399873,0.18696562512566384,0.7701424042692314,-0.35682795656686844,0.20693968870141152,-0.35783455774790474,-0.22057873748510307,-0.6898596234779137,0.23694207148239427,-0.220628883977241,-0.26699154044101925,0.3353404322665922,-0.5171987203785281,0.7315821115127652,-0.3822631146328273,0.29510953594828404,-0.6824726015914991,-0.4751346034420605,-0.3554030485196614,-0.24235996008532737,0.2335618780543125,-1.0063563060969087,-0.3739035864352055,0.709250832690042,0.015125966391874343,0.516464881990813,-1.0294300622002142,0.025580407646815316,0.2940197042275013]],[[-0.06870531232093433,-0.3117310091477908,0.9311521414161773,0.4282989044216515,0.23791992420526276,-1.1525874537149878,0.268554278943423,0.40108788076124313,-0.3456341516966807,-0.5569278852445213,-0.04546040962474457,0.32546083920371865,0.20763066705706368,0.8387825476748887,-0.39311876311684446,0.22247426897976846,-0.394288213186888,-0.23852460745069115,-0.7516940347942791,0.2544498385513928,-0.23673167443306137,-0.29462309804745235,0.36400064236727864,-0.5642343370388937,0.7921935954860532,-0.4158531844963511,0.322808072021456,-0.7405267910017421,-0.5201581702420619,-0.3835335154333891,-0.26423756467480686,0.25360563580773426,-1.0969052553278267,-0.40687447131775223,0.7726126341543941,0.00956031728336465,0.560633003429151,-1.1236389287155724,0.025321845874619452,0.32269123860304344]],[[-0.07347028958587856,-0.3360266434016104,1.0041835130731949,0.46260778158115373,0.25813898366924726,-1.2475111693416612,0.28509833384100935,0.43600789552357905,-0.37776794916055023,-0.59957293090325,-0.049177736362382304,0.3497931593534385,0.22829570898846346,0.907422691080546,-0.4294095696668204,0.23800884925812538,-0.43074186862587127,-0.2564704774162792,-0.8135284461106442,0.2719576056203913,-0.2528344648888817,-0.32225465565388534,0.392660852467965,-0.6112699536992592,0.852805079459341,-0.4494432543598749,0.35050660809462797,-0.798580980411985,-0.5651817370420633,-0.4116639823471167,-0.2861151692642863,0.27364939356115603,-1.1874542045587444,-0.4398453562002989,0.8359744356187461,0.003994668174854971,0.604801124867489,-1.2178477952309301,0.02506328410242359,0.35136277297858554]]],"activated_output":[[[-0.005489922555656193,0.010590645360550944,-0.037712815888347004,-0.02685906538367489,-0.030310287896379417,0.10633038643332327,0.049030481946689665,-0.06210427525499617,0.08049968624943128,0.008829487890894374,0.0038560939934459216,0.0026520693824194108,-0.06642758128827533,-0.07171996700223275,0.08811022351375271,0.016380674285978555,0.08909342681753957,-0.00044274324861249344,0.06853491838735128,0.02217647168188674,-0.023097221293631023,0.07183162999234037,-0.016223411483016342,0.05970044021620263,-0.011918204635386146,0.029766267448825576,-0.04462952432274718,0.029650073198068037,0.07700172031242794,-0.010335608678735723,0.02599948518997622,-0.012307604833045743,0.10400004386825533,0.030529775323740665,-0.06788273624545567,0.08320511292919038,-0.02532533695613314,0.1255329669601878,0.02874416890409477,-0.057620539339878]],[[-0.005489922555656193,0.010590645360550944,-0.037712815888347004,-0.02685906538367489,-0.030310287896379417,0.10633038643332327,0.049030481946689665,-0.06210427525499617,0.08049968624943128,0.008829487890894374,0.0038560939934459216,0.0026520693824194108,-0.06642758128827533,-0.07171996700223275,0.08811022351375271,0.016380674285978555,0.08909342681753957,-0.00044274324861249344,0.06853491838735128,0.02217647168188674,-0.023097221293631023,0.07183162999234037,-0.016223411483016342,0.05970044021620263,-0.011918204635386146,0.029766267448825576,-0.04462952432274718,0.029650073198068037,0.07700172031242794,-0.010335608678735723,0.02599948518997622,-0.012307604833045743,0.10400004386825533,0.030529775323740665,-0.06788273624545567,0.08320511292919038,-0.02532533695613314,0.1255329669601878,0.02874416890409477,-0.057620539339878]],[[-0.0056487015573968066,0.009780893070921726,-0.03528170202079288,-0.0257162317582215,-0.029636920489201166,0.1032009729133533,0.04958058387858084,-0.06094466714975673,0.0794353966631809,0.007408058183982096,0.003732207989660336,0.0034630986267410115,-0.06574176790819425,-0.06944338075764415,0.08690973745049117,0.016898364515222402,0.08788779383448549,-0.0010409052176927481,0.06648312971440697,0.02275979759693435,-0.02363370091975261,0.07091528304958239,-0.01526830406172605,0.05813800508186477,-0.009898058402299481,0.0286475524698846,-0.043708001017550846,0.02771656415428717,0.07550969524969911,-0.01127317445254526,0.02527067358431745,-0.011639581765837312,0.10101348049796625,0.029431728867749793,-0.06578007654741105,0.08302083582066147,-0.023853932238795013,0.12244096332743507,0.028735540074544156,-0.056667967927104025]],[[-0.0056487015573968066,0.009780893070921726,-0.03528170202079288,-0.0257162317582215,-0.029636920489201166,0.1032009729133533,0.04958058387858084,-0.06094466714975673,0.0794353966631809,0.007408058183982096,0.003732207989660336,0.0034630986267410115,-0.06574176790819425,-0.06944338075764415,0.08690973745049117,0.016898364515222402,0.08788779383448549,-0.0010409052176927481,0.06648312971440697,0.02275979759693435,-0.02363370091975261,0.07091528304958239,-0.01526830406172605,0.05813800508186477,-0.009898058402299481,0.0286475524698846,-0.043708001017550846,0.02771656415428717,0.07550969524969911,-0.01127317445254526,0.02527067358431745,-0.011639581765837312,0.10101348049796625,0.029431728867749793,-0.06578007654741105,0.08302083582066147,-0.023853932238795013,0.12244096332743507,0.028735540074544156,-0.056667967927104025]],[[-0.01009573686416413,-0.012893974781704232,0.03285445409637562,0.0062996385050260615,-0.01077410614613376,0.01497312489302165,0.0649707382580993,-0.028420645476798255,0.04957087411331009,-0.03238248256584944,0.0002627074718475342,0.026167308706614635,-0.04651572371380824,-0.005491144432521046,0.05320788338038605,0.031388601868471144,0.05403905160921774,-0.01778851471572608,0.008868971257148401,0.03908441216711522,-0.038648080734924144,0.045214200073453094,0.011479574655916128,0.014302787567170544,0.04663846703627378,-0.0026953418784620483,-0.01788201955911537,-0.026454070907570765,0.033619013760055126,-0.03751115609285872,0.0048569165665221115,0.00706732462189548,0.016845191028437158,-0.0013325797723963047,-0.00673740743310305,0.07785990529525795,0.01736334387898363,0.03511565402258933,0.028494404681783256,-0.029959665768033484]],[[-0.01009573686416413,-0.012893974781704232,0.03285445409637562,0.0062996385050260615,-0.01077410614613376,0.01497312489302165,0.0649707382580993,-0.028420645476798255,0.04957087411331009,-0.03238248256584944,0.0002627074718475342,0.026167308706614635,-0.04651572371380824,-0.005491144432521046,0.05320788338038605,0.031388601868471144,0.05403905160921774,-0.01778851471572608,0.008868971257148401,0.03908441216711522,-0.038648080734924144,0.045214200073453094,0.011479574655916128,0.014302787567170544,0.04663846703627378,-0.0026953418784620483,-0.01788201955911537,-0.026454070907570765,0.033619013760055126,-0.03751115609285872,0.0048569165665221115,0.00706732462189548,0.016845191028437158,-0.0013325797723963047,-0.00673740743310305,0.07785990529525795,0.01736334387898363,0.03511565402258933,0.028494404681783256,-0.029959665768033484]],[[-0.014860002951296223,-0.037173190253990455,0.10550354636160085,0.04058628964998739,0.009444262724607109,-0.07977953478799425,0.08142579340053105,0.0064916433071058564,0.01747600594000707,-0.07489833856301702,-0.0034546348176311397,0.05046272258825101,-0.025878522557212617,0.06306508719456917,0.016965717722534083,0.04689906308151052,0.01763629730129502,-0.03572105077874401,-0.0529157203301709,0.05655164796608068,-0.054715443390004254,0.0176116907094355,0.0401187047570404,-0.032720202852294655,0.10687409401286961,-0.03626950782636106,0.009814266566789987,-0.0843137931509622,-0.01139134801705822,-0.06556501917459379,-0.01701895260484041,0.027104549011635438,-0.07356897815607909,-0.03429004482492735,0.05656386648036315,0.07232560323923223,0.061455692633012766,-0.059010071339048266,0.02823609376314503,-0.0012971151972047828]],[[-0.016130314552367783,-0.043641462123752826,0.12471988694467949,0.04971660891768705,0.014835213692492025,-0.10487541678398364,0.08580666133707758,0.01580237616417169,0.008908514197441608,-0.08619642572529562,-0.0044458664647440225,0.05693258318380964,-0.020370785529898697,0.08127333005324928,0.007289692687813118,0.0510317097864267,0.007916947346073148,-0.04049969173947555,-0.06934290293475362,0.06120418511144924,-0.058995639065103904,0.01024475601999178,0.0477466800568599,-0.04524376378955527,0.12282360020093211,-0.045211913025718704,0.01719920704174771,-0.0996635819448764,-0.02339387389010767,-0.0730304403673826,-0.022850654627765483,0.03244479018118255,-0.09753742467194017,-0.043069058533306954,0.07338856465536202,0.07084908193378583,0.07318033422262803,-0.08400265396047354,0.028167182598346174,0.006348571430614975]],[[-0.020893689723065774,-0.06786036258368527,0.19584105268769136,0.08386901365803674,0.035041017955832206,-0.19755423906381195,0.10220412851489061,0.0506802746195503,-0.023220893661801457,-0.12834417028046016,-0.008163031639358118,0.08114772008434996,0.00029140710830688477,0.1489760616007452,-0.02899288691222354,0.06651231530023284,-0.02852878518936552,-0.05840115673662226,-0.13053961773821748,0.07862598218489687,-0.07502575390041127,-0.017384732503793857,0.07629461330087613,-0.0920490056590555,0.18200767028691017,-0.07866991962980917,0.04486927873012773,-0.15674677483596766,-0.06831512879432358,-0.10094612839816701,-0.04470247238240505,0.052451759612988834,-0.18619968329522882,-0.07592024284645178,0.13603399730186141,0.06530924379844062,0.11694201735570046,-0.17654079193961186,0.027908803954109433,0.035005859119973996]],[[-0.025656060929264233,-0.09199954655174562,0.2649599967078696,0.11782555682484064,0.055218215336301245,-0.2868311519562275,0.11854624309614616,0.08543496965101519,-0.05530234905459941,-0.17003332720513734,-0.011880006436847374,0.10526744430308378,0.020953375563885133,0.2153103427883459,-0.06519917815917076,0.08196097957853021,-0.06489886192904633,-0.0762651980064447,-0.19075755178615061,0.09599978380384673,-0.09101718855340568,-0.0449876505130932,0.10471807059740718,-0.13845098015603444,0.23990177350911035,-0.11195164325188506,0.07247072309113936,-0.21280151571608466,-0.11296106102281205,-0.1287038241107654,-0.06651155006694243,0.07241671016289983,-0.27192964443536394,-0.1086073820492778,0.1976101429963214,0.05976536330133526,0.1602542183016091,-0.26606000872416247,0.027650451344500403,0.06360573967754228]],[[-0.030417280161515813,-0.11603109717731747,0.3314593058736279,0.15150871175637579,0.07535039424553201,-0.3713891571724538,0.1348244358016732,0.11998300166077905,-0.0872700735422652,-0.21112260926904303,-0.015596609289470284,0.12926395181227632,0.04159745112927479,0.2797154901944851,-0.10123461116712837,0.09737029342390052,-0.10109729728191154,-0.09408039183572713,-0.2495731427452679,0.11331534957584334,-0.10696182652385146,-0.07252202685727975,0.13297149484384435,-0.1842529443220947,0.2961382903913534,-0.14498405850589083,0.09996155778620293,-0.26748974998627356,-0.15715553056059595,-0.15626129614981293,-0.08825726526873987,0.09232379170069899,-0.35355020100832,-0.14106141691098215,0.25766541530663045,0.05421781902436208,0.20295805125467103,-0.35121379178562045,0.027392118241746036,0.09210146936018702]],[[-0.03517714199392099,-0.1399275704624598,0.3948206514167653,0.18484368468605256,0.09542131592497076,-0.4502049811145301,0.15103013228102125,0.15424283919445583,-0.11905908741958232,-0.2514790335826811,-0.01931283180930834,0.15310995315299863,0.06220610844692004,0.3416978158733459,-0.13700639809061005,0.11273314684665285,-0.13703003439101083,-0.11183552597599213,-0.3066033871518976,0.1305623225246465,-0.1228516760925231,-0.09994630416820566,0.16101039543013335,-0.2292684187637094,0.3503940021151299,-0.1776964394248938,0.12730058448112283,-0.3205072367376538,-0.2007293156014715,-0.18357757274596348,-0.10991912910195897,0.11215732126713127,-0.43012031991610905,-0.1732150211873262,0.31579369443939853,0.048666914328170545,0.24490348339117296,-0.43092866729897955,0.027133751715087934,0.12044718381155692]],[[-0.039935386504719006,-0.1636621334259723,0.4546365785192517,0.21775870281570547,0.11541501328057181,-0.522578910779188,0.1671550321250485,0.18813574016637383,-0.15060579390892162,-0.29097952829868046,-0.02302846451597833,0.17677902595356149,0.08276182461129131,0.4008436608956966,-0.1724243602395259,0.12804227361989448,-0.1726057253325953,-0.1295195598228672,-0.3615139780409536,0.14773065970954782,-0.1386787663708738,-0.12721959905298683,0.18879180381872537,-0.27332408595941093,0.40239578082491373,-0.21002077163924154,0.15444763703750292,-0.37158994057162664,-0.24352314173281606,-0.2106132895067128,-0.13147714163420612,0.1319018966748427,-0.5009646562336602,-0.20500361233317754,0.3716444572232485,0.04311301311333468,0.28595182214233117,-0.5044412577072002,0.026875321972263107,0.1485978486313341]],[[-0.04469180533328697,-0.18720878272084854,0.5106146711553649,0.25018570785857025,0.1353155645121856,-0.5881315260905753,0.1831910349561333,0.22158640918834951,-0.1818487660135037,-0.32951238484002027,-0.026743470769431704,0.20024535667672075,0.10324736651141612,0.4568268026565968,-0.20740201882994252,0.14329058555994373,-0.20773674368750356,-0.14712157704128834,-0.41402635192969117,0.16481038600055734,-0.15443531446849404,-0.15430182596825315,0.21627427255513498,-0.31626218154281677,0.4519242262281261,-0.24189240271183993,0.18136340030034923,-0.42051764998796215,-0.2853893664921855,-0.23733062021500514,-0.15291149732818765,0.15154239224982566,-0.5656767664693263,-0.23636548650691663,0.42492873528438657,0.037556420669173855,0.32597683361306806,-0.571302455944946,0.026617004590672486,0.17650971514073646]],[[-0.049604664774683685,-0.2113160009218847,0.5642364314912213,0.2831132689628805,0.15576523527765976,-0.6486083166649503,0.19965967681270136,0.25561182400357363,-0.21375126469185304,-0.36820735284419664,-0.03058155982228488,0.22425461889706425,0.12432397490572139,0.5111032670228953,-0.24299585351475275,0.15897598163232063,-0.24348324341048846,-0.16521283133448733,-0.4655363357210568,0.18235611654563905,-0.1706348908035554,-0.18204486680712428,0.24431674539766135,-0.3593086160283496,0.500331063659284,-0.2742862447292597,0.2088933611320695,-0.468627344638956,-0.32753444786550284,-0.2645659183319904,-0.17490998771354005,0.17171243917557105,-0.6259380944146636,-0.26826279587748203,0.4770556156003123,0.031812174544636536,0.36614199869322955,-0.6332381057472758,0.02634998752312155,0.20505627055979103]],[[-0.05435677038571946,-0.23440364245386902,0.611965698023093,0.31435641715605295,0.1754291407280206,-0.7002629387802064,0.21549044332112752,0.2879484758118337,-0.2441972987216804,-0.40447920155387634,-0.034294980929395036,0.24723333895860022,0.14461459294799017,0.5600198472955246,-0.276830604761014,0.1740794107157992,-0.2774592031129852,-0.18261540562207573,-0.5125562337440337,0.1992260995933511,-0.1862246442681104,-0.20862026190410124,0.2710715818802761,-0.3995618586499518,0.5443798372482641,-0.3050541501900899,0.23522413043181042,-0.5126841820944534,-0.36711745851442773,-0.29052735188175866,-0.1960340423014914,0.19109591613766325,-0.677921751055627,-0.2985817138347893,0.5244998782047379,0.026251236370136447,0.4037561998225802,-0.6863449052437686,0.02609163000739442,0.23235424864580076]],[[-0.05910636297644973,-0.2572298505007423,0.6556181323219115,0.34493315058953117,0.19495402278154045,-0.7454965203463342,0.231208814328166,0.3196415484739048,-0.2741693803233001,-0.4395216383471417,-0.03800746163579431,0.2699372912079133,0.16478426544405778,0.6053204705100026,-0.30999254809735644,0.18910141828031757,-0.31075497636920757,-0.19990432074503556,-0.5566908737679863,0.21597881458419613,-0.20172118091621022,-0.23489112999522715,0.29741397756207577,-0.43833109860539693,0.5856180095786914,-0.3351982022323506,0.2612141336897756,-0.5541968473051286,-0.40541408055208417,-0.31606796615015464,-0.21697770631667743,0.21033143664150356,-0.7239078970904806,-0.32830980374228935,0.568896017838365,0.020688664097700184,0.4400532214168514,-0.7330189530660306,0.02583323611088436,0.2592910282967428]],[[-0.0638533425048199,-0.2797726302513411,0.6952881630280615,0.3747948751501412,0.2143256113229139,-0.7847680235390672,0.24680733256488438,0.35063527047866166,-0.30361811072006134,-0.47327545496178414,-0.04171887457690749,0.2923450176776253,0.18481713523466045,0.6470122426920015,-0.3424169243945937,0.204035405147495,-0.3433052116543553,-0.21706956761556104,-0.5978917802573556,0.23260536062642592,-0.21711737589956437,-0.2608232155193635,0.3233111852076797,-0.47553507599523687,0.6240323114905337,-0.3646712049427012,0.2868308421116223,-0.593124498941713,-0.44233859828135813,-0.3411584899858763,-0.2377235695445546,0.22940552911229786,-0.7642506963822565,-0.3574014022943153,0.6102067547444907,0.015124795460266845,0.47496692882327457,-0.7736796979110996,0.025574808972998752,0.2858303493962347]],[[-0.0685974192041448,-0.302011044710919,0.7311305632117816,0.40389867549560543,0.2335300803787855,-0.8186094190783696,0.26227905895940723,0.38087939569990276,-0.3324980493958186,-0.5056944883671303,-0.04542915573356033,0.3144362725793792,0.20469754822506261,0.685163672062127,-0.37404579182142655,0.2188750354481566,-0.3750511787891007,-0.2341017227815398,-0.6361584567449071,0.249096995071139,-0.23240630120429961,-0.28638436764090797,0.3487330096121983,-0.511112315609313,0.659649895205808,-0.3934312043520832,0.31204380120061376,-0.6294633155886633,-0.47782209420294103,-0.3657721823435941,-0.25825476369914757,0.24830501614526035,-0.7993846127400633,-0.3858155879389314,0.6484460899921266,0.009559999527952766,0.5084469415847773,-0.8088309146504745,0.02531640516163292,0.31193829606932116]],[[-0.0733383967845955,-0.32392553308590505,0.7633456120115321,0.43220721655291744,0.2525540234939018,-0.8475842162226858,0.2776170855607655,0.41032990751161935,-0.36076746846122065,-0.5367456226401545,-0.04913815192110639,0.3361920778097637,0.2244105071442661,0.7198928862914709,-0.4048277276867448,0.23361411152370165,-0.4059411128978137,-0.25099128641871254,-0.6715320942885689,0.2654454696319474,-0.2475812418386258,-0.31154417328578743,0.37365184381346994,-0.545020431326675,0.6925320262164097,-0.42144123291444563,0.33682469776172846,-0.6632426914979473,-0.5118119396889244,-0.3898846259399528,-0.27855531805030964,0.2670173237113596,-0.8297876445359164,-0.4135162664609912,0.6836709659817736,0.003994671387316829,0.5404570779663594,-0.8390181682207104,0.025058027755840224,0.3375835748865994]]],"gradient":[[0.0,0.0,0.0,0.0,0.0,0.0,0.0,0.0,0.0,0.0,0.0,0.0,0.0,0.0,0.0,0.0,0.0,0.0,0.0,0.0,0.0,0.0,0.0,0.0,0.0,0.0,0.0,0.0,0.0,0.0,0.0,0.0,0.0,0.0,0.0,0.0,0.0,0.0,0.0,0.0]],"errors":[[0.0,0.0,0.0,0.0,0.0,0.0,0.0,0.0,0.0,0.0,0.0,0.0,0.0,0.0,0.0,0.0,0.0,0.0,0.0,0.0,0.0,0.0,0.0,0.0,0.0,0.0,0.0,0.0,0.0,0.0,0.0,0.0,0.0,0.0,0.0,0.0,0.0,0.0,0.0,0.0],[0.0,0.0,0.0,0.0,0.0,0.0,0.0,0.0,0.0,0.0,0.0,0.0,0.0,0.0,0.0,0.0,0.0,0.0,0.0,0.0,0.0,0.0,0.0,0.0,0.0,0.0,0.0,0.0,0.0,0.0,0.0,0.0,0.0,0.0,0.0,0.0,0.0,0.0,0.0,0.0],[0.0,0.0,0.0,0.0,0.0,0.0,0.0,0.0,0.0,0.0,0.0,0.0,0.0,0.0,0.0,0.0,0.0,0.0,0.0,0.0,0.0,0.0,0.0,0.0,0.0,0.0,0.0,0.0,0.0,0.0,0.0,0.0,0.0,0.0,0.0,0.0,0.0,0.0,0.0,0.0],[0.0,0.0,0.0,0.0,0.0,0.0,0.0,0.0,0.0,0.0,0.0,0.0,0.0,0.0,0.0,0.0,0.0,0.0,0.0,0.0,0.0,0.0,0.0,0.0,0.0,0.0,0.0,0.0,0.0,0.0,0.0,0.0,0.0,0.0,0.0,0.0,0.0,0.0,0.0,0.0],[0.0,0.0,0.0,0.0,0.0,0.0,0.0,0.0,0.0,0.0,0.0,0.0,0.0,0.0,0.0,0.0,0.0,0.0,0.0,0.0,0.0,0.0,0.0,0.0,0.0,0.0,0.0,0.0,0.0,0.0,0.0,0.0,0.0,0.0,0.0,0.0,0.0,0.0,0.0,0.0],[0.0,0.0,0.0,0.0,0.0,0.0,0.0,0.0,0.0,0.0,0.0,0.0,0.0,0.0,0.0,0.0,0.0,0.0,0.0,0.0,0.0,0.0,0.0,0.0,0.0,0.0,0.0,0.0,0.0,0.0,0.0,0.0,0.0,0.0,0.0,0.0,0.0,0.0,0.0,0.0],[0.0,0.0,0.0,0.0,0.0,0.0,0.0,0.0,0.0,0.0,0.0,0.0,0.0,0.0,0.0,0.0,0.0,0.0,0.0,0.0,0.0,0.0,0.0,0.0,0.0,0.0,0.0,0.0,0.0,0.0,0.0,0.0,0.0,0.0,0.0,0.0,0.0,0.0,0.0,0.0],[0.0,0.0,0.0,0.0,0.0,0.0,0.0,0.0,0.0,0.0,0.0,0.0,0.0,0.0,0.0,0.0,0.0,0.0,0.0,0.0,0.0,0.0,0.0,0.0,0.0,0.0,0.0,0.0,0.0,0.0,0.0,0.0,0.0,0.0,0.0,0.0,0.0,0.0,0.0,0.0],[0.0,0.0,0.0,0.0,0.0,0.0,0.0,0.0,0.0,0.0,0.0,0.0,0.0,0.0,0.0,0.0,0.0,0.0,0.0,0.0,0.0,0.0,0.0,0.0,0.0,0.0,0.0,0.0,0.0,0.0,0.0,0.0,0.0,0.0,0.0,0.0,0.0,0.0,0.0,0.0],[0.0,0.0,0.0,0.0,0.0,0.0,0.0,0.0,0.0,0.0,0.0,0.0,0.0,0.0,0.0,0.0,0.0,0.0,0.0,0.0,0.0,0.0,0.0,0.0,0.0,0.0,0.0,0.0,0.0,0.0,0.0,0.0,0.0,0.0,0.0,0.0,0.0,0.0,0.0,0.0],[0.0,0.0,0.0,0.0,0.0,0.0,0.0,0.0,0.0,0.0,0.0,0.0,0.0,0.0,0.0,0.0,0.0,0.0,0.0,0.0,0.0,0.0,0.0,0.0,0.0,0.0,0.0,0.0,0.0,0.0,0.0,0.0,0.0,0.0,0.0,0.0,0.0,0.0,0.0,0.0],[0.0,0.0,0.0,0.0,0.0,0.0,0.0,0.0,0.0,0.0,0.0,0.0,0.0,0.0,0.0,0.0,0.0,0.0,0.0,0.0,0.0,0.0,0.0,0.0,0.0,0.0,0.0,0.0,0.0,0.0,0.0,0.0,0.0,0.0,0.0,0.0,0.0,0.0,0.0,0.0],[0.0,0.0,0.0,0.0,0.0,0.0,0.0,0.0,0.0,0.0,0.0,0.0,0.0,0.0,0.0,0.0,0.0,0.0,0.0,0.0,0.0,0.0,0.0,0.0,0.0,0.0,0.0,0.0,0.0,0.0,0.0,0.0,0.0,0.0,0.0,0.0,0.0,0.0,0.0,0.0],[0.0,0.0,0.0,0.0,0.0,0.0,0.0,0.0,0.0,0.0,0.0,0.0,0.0,0.0,0.0,0.0,0.0,0.0,0.0,0.0,0.0,0.0,0.0,0.0,0.0,0.0,0.0,0.0,0.0,0.0,0.0,0.0,0.0,0.0,0.0,0.0,0.0,0.0,0.0,0.0],[0.0,0.0,0.0,0.0,0.0,0.0,0.0,0.0,0.0,0.0,0.0,0.0,0.0,0.0,0.0,0.0,0.0,0.0,0.0,0.0,0.0,0.0,0.0,0.0,0.0,0.0,0.0,0.0,0.0,0.0,0.0,0.0,0.0,0.0,0.0,0.0,0.0,0.0,0.0,0.0],[0.0,0.0,0.0,0.0,0.0,0.0,0.0,0.0,0.0,0.0,0.0,0.0,0.0,0.0,0.0,0.0,0.0,0.0,0.0,0.0,0.0,0.0,0.0,0.0,0.0,0.0,0.0,0.0,0.0,0.0,0.0,0.0,0.0,0.0,0.0,0.0,0.0,0.0,0.0,0.0],[0.0,0.0,0.0,0.0,0.0,0.0,0.0,0.0,0.0,0.0,0.0,0.0,0.0,0.0,0.0,0.0,0.0,0.0,0.0,0.0,0.0,0.0,0.0,0.0,0.0,0.0,0.0,0.0,0.0,0.0,0.0,0.0,0.0,0.0,0.0,0.0,0.0,0.0,0.0,0.0],[0.0,0.0,0.0,0.0,0.0,0.0,0.0,0.0,0.0,0.0,0.0,0.0,0.0,0.0,0.0,0.0,0.0,0.0,0.0,0.0,0.0,0.0,0.0,0.0,0.0,0.0,0.0,0.0,0.0,0.0,0.0,0.0,0.0,0.0,0.0,0.0,0.0,0.0,0.0,0.0],[0.0,0.0,0.0,0.0,0.0,0.0,0.0,0.0,0.0,0.0,0.0,0.0,0.0,0.0,0.0,0.0,0.0,0.0,0.0,0.0,0.0,0.0,0.0,0.0,0.0,0.0,0.0,0.0,0.0,0.0,0.0,0.0,0.0,0.0,0.0,0.0,0.0,0.0,0.0,0.0],[0.0,0.0,0.0,0.0,0.0,0.0,0.0,0.0,0.0,0.0,0.0,0.0,0.0,0.0,0.0,0.0,0.0,0.0,0.0,0.0,0.0,0.0,0.0,0.0,0.0,0.0,0.0,0.0,0.0,0.0,0.0,0.0,0.0,0.0,0.0,0.0,0.0,0.0,0.0,0.0]],"layer_bias":[-0.005489947272674316,0.010591071952883111,-0.037730722566922,-0.026865532561077776,-0.030319598016931848,0.10673384026554732,0.04906981730211038,-0.06218431508574679,0.08067422799065548,0.008829720494614408,0.0038561250945828014,0.002652058550767861,-0.06652555589950719,-0.07184335484016471,0.08833927044617042,0.016382170620233238,0.08933028230362369,-0.0004427325738893695,0.06864248866950001,0.02218012876934612,-0.023101321052511427,0.07195556619789326,-0.0162248116351607,0.05977151065528882,-0.011918758559566336,0.029775075693064777,-0.04465917321595863,0.029658788507480896,0.07715448263795667,-0.010335987711268904,0.02600532287895433,-0.012308217054327842,0.10437747113568362,0.03053926812403391,-0.06798726527267626,0.08339792878959316,-0.02533074098613332,0.12619870038817643,0.02875209871908458,-0.057684450779148765],"activation_type":"TANH","layer_type":"InputLayer","previous_layer":null,"next_layer":null,"input_data":[],"previous_gradient":[[2.853854114107275e-7,6.945945984090929e-6,-0.00009263412041570048,-0.00007879996597662432,0.000014437034295488716,0.00012026864422625716,-0.00001411353750675054,-0.00004601828878726243,-2.0892154044787996e-6,0.00005186991426905246,-0.00004100119070264501,-1.586645250613826e-6,-0.00005087384944212569,-0.000027622154727647294,0.00007458324573775483,1.258356741760773e-6,0.000059743495578309415,-0.00001047208909568274,0.00010131238622785612,-0.00004862353113697991,0.000011862140034155784,0.00001737115185782229,-0.00003160620353187798,0.00006768644602412547,-0.00005129936035904809,0.00007984556141517156,-0.0000548440511948323,0.0001317685618901338,0.000030741120022423026,0.00006212940925149528,6.404550151736452e-7,0.000012452117961069334,0.00007613467173032246,0.000043226692976213246,-0.000041221925747765694,0.000051714715962430726,-0.00004134181997921373,0.00005913748082717052,0.00002505073884453155,-0.0000610982269795004]],"m1":[[6.3060373765967545e-6,0.000010416117696024882,-0.00008843004320532002,-0.00007395963533142099,0.00001884059294752686,0.0001263774451894835,-4.002729200265497e-6,-0.0000392261713100497,1.2316061240830723e-6,0.00005641386799028947,-0.000035955791763765774,6.236172638172352e-6,-0.00004561697325999694,-0.000023921346700368532,0.0000789549885873922,9.647268263058136e-6,0.0000624686560184954,-7.012064731944698e-6,0.00010662418285165534,-0.00004452192174012952,0.00001242922913701726,0.000021206172317392773,-0.000024774345611057395,0.00007310952722605296,-0.000046477572625490945,0.00008459936082565181,-0.000048789197826308574,0.0001370761173280839,0.000036345177335675846,0.00006564371538513303,5.516404861913597e-6,0.00001911437761035724,0.00008231463193387435,0.00004617613224183193,-0.00003712880109522396,0.00005682734815366409,-0.00003638178502461031,0.00006718191776271822,0.00003124205877879491,-0.00005547689082758816]],"v1":[[0.0005000162830277394,0.0005000155461832372,0.0005000210777187124,0.0005000210739700426,0.0005000193526792444,0.0005000341441598513,0.0005000131877494551,0.0005000030062873551,0.0005000161970124227,0.0005000068483136719,0.000500014591640305,0.0005000123611550967,0.0005000125186586177,0.0005000249841179912,0.0005000067013249217,0.0005000061732585808,0.0005000145544080905,0.0005000100054932413,0.0005000277715765802,0.0005000109643649054,0.0005000160392609367,0.0005000045142278867,0.0005000158268277205,0.0005000199826508315,0.0005000028951316104,0.0005000218278907181,0.0005000204954529825,0.0005000310770580213,0.00050000538878858,0.0005000213672415167,0.0005000052729336144,0.0005000185180573476,0.000500013762422738,0.0005000208047802102,0.0005000217074479384,0.0005000043369450337,0.0005000060086157233,0.0005000067145517484,0.000500003909108196,0.0005000037204473245]]},{"input_weights":[[0.021445538663481017,0.2614570502751277,0.038834271730417314,-0.5040965337274098,0.1187415560027916,0.45395777731580333,-0.22353126611088145,-0.2869368793925053,0.4767415839796842,0.4631552183405004,-0.08221915949222544,-0.030209668354828332,0.5233337892405772,0.20035952103825447,0.02871603023419316,0.48376570232642024,-0.08467215021110504,0.14956769451612806,-0.40297734503538607,-0.4682993176910093,-0.3594096461419547,-0.22809019367476505,0.3979022723307635,-0.4140154157401346,-0.028144970139396503,-0.29574198225966936,0.4656830658600903,-0.4109171291562303,0.35130262375540305,-0.029678662716466825,0.4630772252687596,-0.42001899764856226,-0.21022529618125177,0.2737867911968481,0.24645332247880505,-0.5750886948143162,0.38513281987767417,-0.18950322649615137,-0.10366445790348248,-0.3640879083566608],[0.5038266180423581,0.4731615624521448,0.3981834533265577,-0.593317984790294,-0.1033873456830122,0.526977869779323,-0.6552319094487398,-0.35553089129244014,0.06838810249292143,-0.36974927323489937,-0.3038783555438045,-0.4452404484445701,0.2476905679889123,0.16586818984650237,0.4120935074158741,-0.5709093508457914,0.05017853825401341,-0.3882646211686082,0.32427955889991,-0.253671521339259,-0.012409828935204705,0.3373766502663701,0.5373000018604042,0.3978117943768523,-0.3507628571831134,0.28888630545000615,0.4760759996202384,-0.3447478114758914,0.5246753335572769,0.3125674358919165,0.04860849636669281,-0.4844908319179104,-0.17725282407712423,0.02647823048735903,0.35176799596634567,0.3576198580352135,0.4324830307505544,0.3999928306257384,-0.3013261694764635,-0.11484552317516548],[0.15300964382378787,-0.3427327023972873,0.3730146193311456,0.39174715435776913,0.8611759189541682,0.026989057330879956,0.12819958449347166,0.09314771017003486,-0.17066161727069257,-0.0797558049602427,-0.4365309888176602,0.3309434087922663,0.3821755777009307,0.03693961935261168,-0.08133368901905516,0.24216742465559168,-0.6170315305584081,0.14942440893481634,0.3279175454380018,0.38107047774676855,-0.42392346216185933,-0.01721298776367874,0.3735377611788687,0.17410836888841577,-0.6361598626962846,0.1833041324211261,-0.3635277721045038,-0.3295844513406094,-0.2531015157028846,0.4552443315987583,-0.20970018852019948,-0.0606393552434677,-0.11645759139847596,0.42336964205990096,0.027166719947046728,0.4479985117724537,0.3518016686760962,0.034381196576698504,0.04047980310744459,0.08723808921268925],[0.06240601286838016,0.22129537140372244,0.497917093734883,-0.6167229127327714,0.6967258288765875,-0.3852436077623561,0.37883528053367543,-0.1933802330098004,-0.04991334435458554,0.2990828412900002,-0.19087823995356595,0.4826713950533919,-0.31234362377655484,0.514699301590697,0.15628002372763986,-0.021552389312367203,-0.12112659518290256,0.11233921827945365,-0.5079065064523498,0.5535510652415007,0.4295204096786131,0.5270458954040715,0.4946558652329927,-0.3190143745659053,-0.07928101668881334,0.15786928684168366,0.40333923047143005,-0.032487806256159234,-0.274974919381526,-0.4514723494774744,-0.5536677111495849,-0.5075395327599554,0.18375486529982052,-0.2688252497708845,0.30996174295379486,-0.09509311845465895,-0.2065421257472539,-0.5287634721866544,-0.022270697315223017,-0.398685608498429],[-0.03563948488899196,0.14540304597524176,-0.1543894563159086,0.0726885405591671,-0.08956728992090962,-0.09968678112023456,-0.31095077972343216,0.30241749819424985,-0.336856878870999,-0.06864383377948063,0.3515531828923778,-0.0918085728991686,0.3330398868510695,-0.6521875949600657,0.3254311593735488,0.5190114169843015,-0.26780181691088994,-0.08669868649699844,-0.6104138617038647,0.5057991379076846,0.4779539322694832,0.3902452432389756,-0.5581735404971919,0.31083935694037995,-0.4820584025100262,0.13301908606511956,-0.4828704496814089,0.35010785080461665,0.33361187498665634,0.2852736979515319,-0.3396312510643917,-0.07663052972814313,-0.6138000790260038,0.03728273001852107,0.17936299854972196,0.28359682591251134,0.2768081211893854,0.05530857584012664,0.15483471077723,-0.31311153422969956],[0.08426001214714736,-0.37286807236937736,0.2725706153998136,0.31531641480941625,-1.237016422755545,0.3397300855856425,0.4666834571105007,0.21505604971553197,-0.6688547639495426,-0.2067439436323859,-0.5106459800250186,0.263035686572588,-0.2386658885092438,0.6535342269411787,-0.025099232960695567,0.03572453972898846,-0.43571613770283985,-0.036080870730988354,-0.3924633564230038,-0.4594888057580555,0.4754166834081639,0.4788630208090473,-0.603128680953705,-0.023782207226471,0.09228048887145492,-0.15237383543226418,0.1399958053876482,-0.2726673927367467,0.5208475108133281,0.005103242272612565,0.01717794514051465,-0.4670166031359873,0.7169824032211257,-0.2671306211589039,0.4198583268876942,0.10476959240405576,-0.29551136777857895,0.3066145555091475,-0.23946603594718216,-0.15345632918518468],[0.29998650840732327,-0.3270181901856938,0.10978228277116138,-0.030688111685277557,0.09836466874916738,0.6164166913354931,0.2995453859280812,0.11957545661132617,0.11595205616055997,-0.02871966042931252,-0.31743172533990827,-0.10201108062301788,-0.640096226126671,0.5215666207624066,0.3391478090829684,0.3628340397286996,0.17713919070853856,-0.0677591920207776,-0.4251550447531512,0.006837525593491025,-0.4264990972882754,0.2397756154844543,-0.4818833050926023,-0.6162404509032929,-0.4137272341988327,-0.6000185895496782,-0.3481206619373491,-0.5384555837850594,-0.4387839506974705,-0.3510427347670655,0.07258293493088151,-0.27833441461657293,0.1874922108871671,0.12567336395267006,0.09632311945571768,0.404906844529431,-0.5764828269465732,-0.34035115242596137,-0.017007118132709918,0.11274422559644494],[-0.2804770354720454,0.16036884683527802,0.22880211333769063,-0.34303200747255863,0.6418635977657461,-0.5009168870416267,0.3523825218754537,-0.4751126228077977,0.31863738455290835,0.4646815764929872,-0.6931774875977063,-0.001202854121049353,-0.26957367305467267,-0.4174220131826786,0.28842311041571517,0.22472433768970856,0.027467978807249233,0.46328193967431847,-0.3551559638017052,-0.22229999891566107,-0.6179798819477771,-0.3523575470099885,-0.32297911615493907,-0.40438971781471894,-0.12461888961558264,0.3248500386743051,-0.03766298892867406,-0.4210171391728554,0.3067268567256916,-0.6425532325691319,0.22186387918423348,-0.4330983573058419,-0.4256786164004079,-0.35124501398468205,-0.4639700667373437,-0.5230316224465885,-0.0199887803887704,0.4795721133021705,-0.1303139614721968,0.4640989447290453],[-0.11187031454795024,-0.08522795684485432,0.2185641152092388,0.5505746579160101,-0.006595513179612676,0.6713925148363488,0.396857419178696,0.32624342460938316,-0.4203943014031378,-0.07880384278562835,0.4731572841937618,-0.39391146502545155,0.5898163765891872,-0.04949142580612439,0.17954972727059967,0.3755303054095283,0.2495060526327043,0.021192192962356596,0.4506946051333709,0.31254314178644466,-0.1714071892290702,-0.5598428698479894,0.34035904847234866,-0.10457968570593368,-0.28790072820063983,0.3907810113234847,0.2258654155840911,-0.4084614534703158,-0.11921211408801852,-0.4016380731753145,0.5326864577498323,0.5305707264592524,0.6022928965137698,-0.6390042380086233,0.04550570375982411,0.4929260081362914,0.42369226977964675,-0.1316727941789798,0.4725214550100611,0.4052483374211356],[0.4072735609590658,0.5449460824884891,0.10054825404957912,0.058466057310096325,-0.750050042514208,-0.13026988036292925,-0.5133842766004709,0.28211328687804543,0.2686312195748564,0.07721244545967158,0.3360560411953623,-0.08584302665075069,-0.28946850996067414,-0.04834300123138675,-0.26130390462872743,0.09110644379849478,0.0890646411487168,-0.4948098081505885,-0.421984080531944,-0.3174410996597294,0.3964509559807678,0.22734902068109816,0.5519375152028707,-0.038870555781495286,0.17257058978171597,0.31408221716226453,-0.5483410609795921,-0.696768246026408,-0.587206161749625,0.4832682064578445,-0.2514833076544378,0.4487127680065503,0.19285084374613456,-0.3976189844430862,0.3177544282157774,-0.2386734504277439,-0.4955217076573401,-0.20318832954906815,0.06767321037961274,-0.2658120831108217],[-0.5903678295990875,0.2822068751483992,-0.4886561124708027,0.31919378900081696,0.3317999004713103,-0.5453163332088822,0.43873016974323487,0.19441220257085973,0.30798953945469987,0.4340813265298168,0.031421450240857345,0.2202234095949223,0.19097854583380475,0.40252041090135027,-0.3982161866248613,-0.29229019989948685,0.09100096615891556,0.18594231381629703,0.06056556940077445,0.012495171115731174,0.41277049562183266,-0.29493294781365836,-0.07129509379161748,0.126521674671574,-0.12417402402142771,-0.3892044480813411,-0.4636213973599687,0.08348858717526939,-0.5652655441838947,-0.5086354935959251,0.46955202376072136,0.3634647302609416,0.15944648390982957,-0.32906309050895993,0.49652894664604647,-0.03460101984063521,0.37099444101645074,-0.01387468913858244,-0.4275760180710548,-0.3922560237635507],[-0.4715070884530619,0.029616907519686344,-0.4823422281893655,-0.02274391712041236,-0.09575995110651604,0.42453186742845495,0.4104242536576262,-0.23139824396640485,0.11699421405470194,0.3994897261202029,-0.5013726512648812,0.5477391352713978,0.4682457357756375,-0.25365489964395094,-0.16745572218225013,0.5741141949066574,-0.32412002062481676,-0.3821431338076539,-0.5537865086394196,-0.11445276761365714,-0.5319455537669625,0.2141953299679712,-0.7056580161003048,-0.41333282912884056,0.1256564400413633,-0.669755827774149,0.2082443521773689,0.41141247667473835,-0.572003922428427,-0.23757219257757253,-0.04460850188002473,-0.5253996632458893,-0.35475626537366645,-0.5557929361469,-0.43615941771071026,-0.26661221309902583,-0.1930357982611996,-0.2457838034530012,-0.1416168642769802,0.3240867759297505],[-0.4302346619701321,-0.030234008125357596,0.3803515910893992,0.32419077934357815,0.645397730060287,-0.4579673553240101,-0.4214899471009346,0.3689576585242504,0.24471154599588452,0.5388989028153512,-0.43693442956092826,-0.16773925525789787,-0.3987952099827275,0.06889718129574772,-0.49593570597091585,0.15266844280670416,-0.2342852735282296,-0.07277972930859658,-0.2673163414533105,-0.13227878509023544,0.4502122177357334,0.05360661353610972,0.13394611049293365,-0.15139626041503568,0.30476534246681825,-0.6451293751702117,-0.6141645901496534,0.010073314041816928,0.4477212899087949,0.1888492063958754,-0.45895644269954633,-0.044705644381359086,0.04350411848718116,0.3596410963409487,0.4023830277640975,0.22985038187114384,0.21054051586316827,0.5379995908805312,0.10068518879032276,-0.3684883772897011],[0.5504713551013454,-0.030564342407049843,-0.4637411369735624,-0.04877001489317658,0.0675595772666135,-0.43892394627114095,0.26764234453197794,-0.35638910027673826,-0.38585745475211336,-0.3601153718291855,0.3499219205023443,0.27282172490693346,0.456204906295393,-0.6446744757941376,-0.06425354193344379,0.41604190276125175,-0.4617584859477929,0.4118313149754004,-0.27363046935454577,0.32406037481054434,0.023519010409084093,0.3900667904901,-0.134202710282562,0.537441165898137,-0.40105028005465426,-0.33545795456430616,0.05915886966957854,0.15390766813171747,0.2877174743968813,0.4878952280303845,-0.447939563443449,0.05467363441812297,-0.7584980082616527,-0.2779092988236972,-0.5016874330492925,0.39551114954990657,0.39233442538846913,-0.1052654865134985,0.3938691119607599,0.2823681233017157],[0.4044643428264952,0.05505277633289953,-0.07527317873461666,-0.3754153880592518,-0.8557732817654291,0.6620939587721292,-0.13987939297222346,-0.4317626911727023,-0.5192563271368518,0.2588979200734394,-0.24139200552810888,-0.5970509966483176,-0.21037332701598052,-0.3811012262649244,-0.4559867243048584,-0.0445551322702764,0.3279174016130905,0.01206980967039522,0.28792783776622105,0.17730440715952683,0.6202776346454293,0.1530459498909261,0.13107810410676415,-0.23596878465457893,0.27365119174533126,0.02849977809662692,-0.1005106835771314,0.48784513994844314,0.2716611155498605,-0.17896510552229575,0.11743909550809692,-0.320399116267637,0.36911311061183005,-0.11494581978691028,0.3987718657057887,0.6124003134478118,0.026712371262199344,0.14812302034751282,-0.1253706992887989,-0.30541395865236337],[-0.555726408082976,0.03679020976664384,0.08322261373245039,-0.2816341478353724,-0.02170105315274475,-0.4969043739806968,0.18993711277343275,-0.1792367679220538,-0.34694504277929933,-0.3815707963681041,-0.5430422408613402,-0.06592802716668665,-0.606539275158996,0.4718825452947155,0.1525537079581356,0.1401042133152973,0.05705116748560569,-0.3504893690955349,0.14289991491335297,0.2895983088830114,0.24666943198141875,-0.40781166514532025,-0.4067506824217941,-0.4911743149160916,-0.33213497627605754,-0.3602242116413018,-0.4996790736707211,-0.5541155170813975,0.14829935819629664,-0.3308718417389783,0.25715747472805583,-0.4133426078437733,0.11208597979146616,-0.2779638919590078,-0.05467193271973728,-0.16843621532089909,0.413066946287864,0.5481645789809482,-0.6344279978673053,0.21522098858275876],[0.4878667770495051,-0.024555018211133647,-0.23716391263325096,0.2292205023862906,-0.6981063258346926,0.5144115064154818,0.13759527452371306,0.2969744828579866,-0.08862020778075565,-0.4041738916931241,0.22942953041179168,-0.01513912747123056,0.4702430912653569,0.5752340929399076,0.4337468384392259,0.5577937706360707,0.05811274290268858,-0.027272123016044092,0.5856501561528477,0.02843388267239841,0.571234666314657,-0.12690610912313469,0.6450771770117211,0.06597403388165439,0.4807013403328988,-0.2813384983037924,-0.4069211868330473,0.15013456911353312,-0.21309037920036833,-0.34180923211805564,0.3065397506025519,-0.46343247921430153,-0.33639447513280607,0.595676083092745,0.5119506558129562,0.3230312704924947,0.27324539865818487,-0.2714702011104039,0.03932664168501084,-0.5303591735451192],[0.4243566906126513,0.06988706711622414,-0.35915139611685754,-0.26311993146206153,0.31277203817863386,0.3797525649915232,0.19999481039977832,0.5919066197603152,0.4943509724011551,-0.04524888593931998,0.5934065878093023,-0.5923335268064803,0.5220118985903829,0.5323918758555792,0.27484926833541196,-0.29483156313899644,-0.3289350993561254,0.2700800350680719,-0.20531986459291388,0.20158708052827876,-0.4562735235221466,0.061502537797198435,0.5292930426549382,-0.3895176714911552,-0.2342707263165048,-0.021567004591133396,0.1987075041527491,0.09328020067067244,0.4890962430178285,0.2996572969811103,0.24824951665740075,0.16307338558024526,0.06687797941609205,-0.34374094724451687,-0.3416749993379145,0.10157334890391607,-0.218277068363496,-0.06876549057375549,0.4882428703895847,-0.29206806509012784],[-0.3237456593285492,0.3520273416178032,0.14374842782438085,-0.446465107731295,-0.9436343297203256,0.2225659540278386,-0.13787443250610834,0.40833129522036127,0.1661899916292668,0.4687094220378496,-0.5276025500831669,0.2254535046935184,-0.5028523212017117,-0.3956472293914994,-0.3326349897428331,0.3839338785348159,-0.1696884036561509,-0.11822695571935764,0.16755034145875988,0.509096079782921,-0.5209658338953906,-0.29980402642287496,0.005547169027727353,-0.6281309754179174,-0.5359647280717228,0.2722413241393133,-0.029761394437267108,0.35164359255132926,-0.018690520987343112,0.40234686909671463,0.65176660940144,-0.22812787125910133,0.7156355778402774,-0.20415446086651873,-0.17226888875866192,-0.34715836652223286,0.299896819883817,-0.6083171843158225,-0.2139198746735433,-0.031137569557755176],[0.4834436887986284,0.4236741531648846,-0.2470843001901992,-0.1589892091249047,0.21385596908300297,-0.41132749395662105,0.42529368017756014,-0.6212593173666845,0.5259868757652029,-0.44578917192938006,0.0729235619768777,-0.328249174421731,0.5034749836523804,0.19892581867130665,0.5370181974724465,-0.025612461979401164,0.3273294758164727,-0.05290140096796232,-0.4531907128656569,0.3662680237417657,0.4011957481569573,0.3659009300419558,-0.5863451552489656,-0.0768089248052234,0.0856409506203225,-0.38375703934723027,0.47622915570765983,-0.14459694043937538,-0.7495316062471538,-0.3816919444979103,-0.428012447534787,-0.4573964791494248,0.19383517014179036,0.4452064022563276,-0.20937526357420524,0.5203372530749978,0.5007237937821541,-0.10685368654812044,0.009228304793729023,-0.17716432556077746],[0.2876661152922478,0.4728067167342888,-0.46958779318281474,-0.23735888982294132,-0.1092433146467642,-0.48810386122834937,0.4129634201721942,0.2538141057518075,-0.3479522178079142,-0.2283045072431748,0.2736096423831275,-0.11872521315621304,-0.2867208968970851,-0.13903263048703693,0.09583178289874394,-0.2274668496992145,-0.3872627791745694,0.3172341509878917,-0.2245439090783877,0.14882954520891947,0.2985961943926467,0.03853124274759838,-0.3194521895008968,0.4327532283511375,0.21301042147646973,0.7903745394005461,-0.14384055525103182,-0.05922036186631827,0.33043116762700414,0.5264789587476705,0.152880972618263,0.11142443934543414,-0.5335906368714485,-0.21006493825451147,-0.601081624845265,-0.10746763039969658,0.02589843857245216,-0.22061973920340217,0.4512299505003715,-0.18187022458966223],[-0.5937915881052902,0.02460310709822747,0.357492641659201,0.31192802312305973,-0.3649142145599021,0.10947997638417896,-0.13383102352185564,-0.3154606011069763,0.1725567818081439,-0.3350172725042813,-0.4674003880741258,0.43651103412997305,0.477462098714908,0.2684864349192306,0.16286741417055592,0.535895419771881,0.031007552328675907,0.22180294350113408,0.5563049559823449,0.2603230642366243,0.2052026458902986,0.06066393462641005,0.1276536554144555,0.07430311044472736,-0.4941587104077013,0.3023793706139725,0.321247098205478,0.4309047512352064,-0.4044045218675611,0.10076916307312632,0.08499995635719093,0.25753335007417216,0.4570770834087263,-0.0922846200472496,0.4207198916419662,0.2534946027863757,0.37031351376607674,-0.3555056128022204,0.1250976621738838,-0.1731995173458508],[-0.41916319637925387,-0.3416136156840624,-0.27549487612714973,0.2837968933069632,0.29053447658092746,-0.09889717971817429,-0.5991675375503367,-0.4348565758909449,0.30777443058775816,0.47531817303401247,-0.4851482636180766,-0.2790145726725323,-0.4222568758752814,-0.10153997886028326,-0.338267602849371,-0.22337102894415845,-0.02841604493958307,0.4867790902295229,0.05134110727687936,0.2374035201757331,-0.41980719181552256,-0.2386682526655972,-0.6060536936347016,0.04519706014072657,-0.40138596395260656,0.5222788101800548,0.1571224321939224,-0.5715883947174851,0.012678202228678426,-0.05270440248882858,-0.5487169920316642,-0.21609364467459144,0.1579426411037557,-0.29542218481441035,0.08080378194898223,-0.23674829584633036,-0.424016045138774,0.5713217883209742,-0.0035363564620420405,0.4172839099434365],[-0.33585774689015774,0.49817938736763023,-0.3530482611057784,-0.3658830380019861,-0.6108429945143652,0.3936038607651747,-0.5418901150620534,0.3675485414448458,0.397962807598905,0.34889956631905883,-0.31661989412912195,-0.16727518646489362,-0.10995302648620148,0.35907328411323913,-0.2904811634343204,0.08065678060609674,-0.314317680960002,0.4396689963163528,0.4120086363320458,0.3968455844649903,-0.6215241001239084,-0.35366600260447273,-0.27277727834307747,-0.16679904112578028,0.07911127879507493,0.10495577426196394,-0.0004965752107818155,-0.33326994699886997,0.2406771290598251,0.5467606477125525,0.6130083253478836,-0.4000068019105474,-0.35230280505565253,-0.04403156232420791,0.3611903383980284,0.32256232340006835,0.5805136917665258,-0.16030667881527635,0.08023387490901678,-0.399146287407082],[-0.2568882476760253,0.5559409233952574,-0.03166785399537091,-0.6094260633736595,0.5942480513349611,0.053579769072637305,0.5790474064240005,-0.06395294973081185,-0.38939908563397807,-0.2666026878013469,0.024709968556277755,0.004490033735956569,-0.3980855623311646,-0.08595302435417486,0.09202218509276046,-0.1520340325193514,0.3318852571652144,0.3754722177150844,0.513249460645826,-0.04370671223584542,0.58911505985374,0.06903219248104234,0.23170342397963747,-0.6096609370859002,-0.2207580691561256,-0.1490993697182967,0.07905097111444034,0.03836132768264478,0.35406429578726956,0.2167119474914988,-0.46022523595098214,-0.4793066571063861,0.12616363569897113,0.015808102315504058,0.31607876959294917,0.31939219146145176,-0.4816347708313152,0.0630473469467826,-0.3065818941332547,-0.2545872230096326],[-0.06318135446668939,-0.3182854598344911,-0.06233131240068069,0.4082221858432599,-0.7397100422655708,0.27511750630229176,0.5803690836401021,0.10948008743870144,0.49908057170226416,0.47089727848370927,-0.14437796231768169,-0.10738232171677742,-0.35682514184688796,0.3535593645731195,-0.17452211208630627,-0.2416942337330115,0.29526895147900756,-0.25717465304177756,0.3067579466230653,0.123213155776584,0.1914894035853036,-0.28408985140453535,0.17188610580183536,-0.5029051588046307,0.028256054544571047,-0.05626136351515137,-0.0652158068598842,-0.2774458676991357,0.4901894616083619,0.3833427408556977,-0.2280271236798547,0.2459441737780263,-0.41204116953263786,0.5626375670338405,0.5424009719805044,0.5318829236302266,-0.1858691732937053,-0.33483551458418825,0.3821318821733807,-0.4624201816948949],[-0.29828148893941947,-0.2366684744934862,0.2970361756302395,-0.14192846066702586,0.3883693738846517,-0.10659290798704128,-0.03586261282056101,-0.12419557433654169,-0.5793620839448274,-0.1801754735089573,0.1188765395460694,0.07553993781065078,0.3143082651854855,-0.19370593663601,0.35875895496701626,-0.4253934357069652,-0.34922110220616553,0.09234494055490212,-0.10401645177019332,0.26394054623774194,-0.2785667491900445,-0.011262042776046822,-0.2581407491953562,0.3262980777819045,-0.09627907191155044,-0.1958327374029821,-0.5557186995889394,-0.5874965365576279,-0.2993044502777646,0.31925468017442055,-0.5374257119831669,0.15398109421550496,-0.3516719156748158,-0.6098078575092017,-0.5393676610793693,-0.29372643611806154,-0.4934095282274382,0.4221340473468528,0.16920603776012513,-0.08044959392944866],[0.28276313653246876,-0.22109461374307177,-0.35475128685240476,0.5191148695056894,-1.1743459202424038,-0.059468051156385086,0.022865846133711815,-0.22762819487412672,-0.4135285581668842,0.3257262681136501,-0.3611708453047762,0.33850398850257457,-0.36726521394297096,0.4209600772881348,0.369627298356831,-0.18693081216924384,-0.35732661620596107,-0.5586508548243944,0.30303460441708585,0.07725045677565658,-0.5554475777923447,-0.17087273711323142,-0.537498471748838,0.4427687447204087,-0.18271171647473616,0.15762094256137374,-0.44398897246874575,-0.4814545550710806,0.5012279026737809,0.4068866417925406,-0.32490104945164083,-0.6200984305656848,-0.4131174712017271,-0.4385676446483402,-0.3009152344544449,0.12164122140179152,0.563267564391137,-0.30154600251602093,0.060690656564790536,-0.10942703258779957],[0.5431073549316807,-0.5534369277210076,-0.34668397474906343,-0.05529509379965461,-0.3761735492386848,0.12296302453041004,-0.4176330402360576,0.5566706403295028,-0.4168625273976383,-0.12896996067229138,-0.41723079848254474,0.13688142022208413,0.13154334654408306,0.6070595484826163,-0.28780944416451437,-0.08364048021056579,-0.14672888690810254,0.036054236788362386,0.19386356940341531,-0.1264629021986904,0.3483304624329508,0.30871466910871487,-0.3823868165265054,0.08952972901477865,-0.1271896157549738,-0.04526802029734224,-0.5686023628927228,0.11121190754002862,-0.5674516046322977,-0.5648550229511311,-0.06544034566191353,-0.44905314887857745,0.5065798710985969,0.2960283636773226,0.19821502398121243,0.5579920526851658,0.2777962389788849,-0.464783798937215,0.490279214767578,-0.4466801685991488],[0.15971834625288553,-0.4343288536934808,0.5501567781656176,0.31271573182608914,-0.7640553165067,-0.4718488530790746,-0.3626465392865856,-0.5163153255008592,0.1535247297616802,0.09792941412837028,-0.23597410565390636,0.15218664085527375,0.5797549579264791,-0.452773221114916,-0.4845594572268337,0.4276079854256565,0.3020899841622792,-0.17103643115940506,-0.263660209601596,0.3111887018276357,0.1832212363563624,-0.4545606652410752,0.19247938339859097,0.4507203468158261,-0.284729084334841,0.32361919293221897,-0.5511379291168973,0.32712352925026467,0.2049492832277228,-0.4889307126196505,0.2471891395463295,0.02224659826931844,-0.22087966576980936,-0.4581035879129,0.34242448452694685,-0.02528882208784861,0.06921382469156057,0.154469928478778,0.4490308194312745,0.35236219515225814],[0.5614402223873917,0.543724099506421,0.5327619978659733,0.5645305286836672,0.1891281791093939,0.5488897584762021,-0.4379692985649103,0.30280616687141093,0.09022608356922074,-0.02480220397921388,-0.1789719556031389,0.1502213837449516,0.3931640555548831,0.27196653093013723,0.2535068510352864,-0.1872934411687009,-0.11994378430347805,0.2054620322940076,-0.5350697366334637,0.4609538292496205,-0.3940561560188085,-0.4202271068959681,0.35591172157701806,0.2422989971377423,0.4597816119481875,0.31078373050275265,-0.6094198020778525,-0.02819905831518176,0.42760586941238454,-0.0313042266563566,0.09981301117151324,0.5348537536791139,0.18445045139925695,0.05526066152298166,-0.24705210788494789,0.3381300545454187,-0.10370817290486904,0.1600162251686654,0.14195001388868778,-0.10915725446292454],[-0.24586091928680057,-0.5160926037108584,0.43771405267332425,-0.14956329460829196,-0.19145145459957708,-0.3776100067766667,-0.5379328750817347,-0.07410277138944342,-0.2527167241336208,-0.5853092396084043,-0.5542248027708269,-0.4520268533169998,0.18087102556048384,-0.680131546676742,0.4543682143955399,-0.5176821995977051,-0.12802382481983116,-0.2832891928888341,0.19571666373785568,-0.1658656701653178,0.015483967817034396,-0.4487573771864248,0.06720995111411944,-0.5287814597432602,-0.5786903424967691,0.5185277775455861,0.338652797916064,0.10149235236687457,-0.03380494184395977,-0.525482489542881,0.35511909981298745,0.1838956522404944,0.20106197357037944,0.2418054551429235,0.06381951976728432,-0.606411177932678,-0.041631644791965176,-0.4802008096699753,0.2610697690355117,0.19882748463225935],[-0.5312374115307543,-0.24999230088103944,0.3152798793115635,0.08867663875919468,-1.238663016088836,0.1563047517814469,0.22675360115097976,-0.24620599780586516,0.5042763792678577,-0.5486232221676237,0.3250329788859896,-0.3962612680369812,-0.6544136392372856,0.4739525868329474,-0.08610129183337827,0.25392099433304377,-0.37075805623132696,-0.45578320649739235,-0.6030236085315435,-0.22744248539659268,-0.09918348197125498,-0.33134039421935985,-0.28966687993434925,0.29992940669542284,0.29252154680144243,-0.20634218453593908,-0.20965046344678911,0.3156175344515445,-0.3670710118545441,-0.06433502270720265,0.5929064346603541,-0.36161749070116417,0.8181435194601806,0.29818161046735886,-0.22053461439433936,-0.741684166048925,-0.036676178293265985,-0.2321322852817947,-0.2535309398603588,0.2802412306551404],[0.17353973019226482,-0.142888523805147,0.3299611558101517,-0.5316987903742447,-0.6785296671320937,-0.3710404960279364,-0.4843959042231472,0.5898197536804018,0.4289020187500765,0.5581190318069678,0.206285886193058,-0.12574619773434406,0.3690634171431133,0.35004669262934673,-0.4461125115657968,-0.07021171745357535,0.5324814030194256,0.5252520255787639,-0.2808142696847065,0.04439401049564378,0.12144168207895016,-0.6315367049155781,0.6670248076768106,0.4619161866260935,-0.5231844536630446,-0.08955822312769271,0.029984391256682393,0.13120958564506166,-0.39138454226003,0.04096311402994709,0.14599948098438534,0.1428800507671227,0.4638171273070102,-0.39984541069888013,0.49783616336286807,0.5853259951100978,0.22438770406844363,0.28184642620797346,0.24300607309816036,0.3716349266930267],[0.23253911959768545,-0.4198283876064878,-0.2156765097359823,0.1798622159673227,0.22711838404597529,-0.5748231321309578,0.5576828329912961,-0.18532155372336964,0.11610029522196516,-0.3314383531917694,-0.094513976203049,-0.37240986697535006,-0.06472282734717497,-0.42773846082987194,-0.5118218650792388,0.5820903440129064,0.08473997897042496,0.5398517511601548,-0.03797481598838566,0.23517387477924795,-0.2599042019821543,-0.014846225336957735,0.45869158905148366,-0.3308770567939398,0.028653201935386435,0.594980557126994,-0.397168337013138,-0.4601620087280325,0.14160682173962397,0.1966433609287209,-0.2445390339304207,0.29114054077371043,0.013822799905817222,0.02513903392257997,-0.2800847954204628,-0.1112188899448396,0.5375064395877417,-0.1921154744461943,0.244823343699938,0.4032224094881285],[-0.4882244661226752,0.14373907123870672,0.17851083721100594,-0.6168976275972134,-0.6705180654146033,0.04500035646563955,0.0068526998936059265,-0.5092140283515989,-0.07598173358799308,-0.47265515835952826,-0.17412590473584705,0.28717717496203815,-0.12319530143665836,0.5699550450869932,0.3694386223890924,-0.4944771978750919,-0.4544735321509258,-0.06843976382005842,-0.06033827580303016,-0.15558567006376411,0.20900255644411483,-0.18292009952606889,0.2702831493763104,0.49831107965218446,-0.3138419763842702,0.0878657559427564,0.3260385667435612,0.43321248632891374,-0.4874003171123792,-0.30408129545736373,0.5521765261315922,0.3509081004975007,0.3564652482856341,-0.19879882912575456,0.011900271700244562,-0.008875004245013387,0.4479750801152935,0.5158115891753401,0.2649271566885037,-0.399853472921796],[0.1891469749212053,0.2878152205315493,-0.597518608187489,-0.5578477077459739,0.20063909729345583,-0.1441154268404431,0.15216983911827842,-0.14538308231417882,-0.03637100027134478,-0.4306277197583549,-0.04612291080062715,0.35999876515282236,-0.627125071090834,-0.44077309303373585,0.16837347110079234,0.5224452044251633,-0.07162255298552275,-0.2651302666100142,-0.4117881939406373,-0.19342480039830573,-0.061476511449684454,-0.5831760665118215,0.08993645936345852,0.37847070825920825,-0.20725414170759257,0.12122150981509462,-0.44184832435110094,0.4561754801579056,-0.6396847976582085,-0.05594217089419721,0.014388400850269904,-0.4064805400866441,-0.2525902926864761,-0.4019968276489013,0.27206529223185716,-0.2073684201744156,0.5420499132304764,-0.16650322885190655,0.4212971902353931,-0.22986630194955432],[-0.6497993380994999,0.203460060046291,-0.45003571954224103,-0.3124330333485719,-1.0264259908003155,0.6660477397351209,0.5156247461991873,0.6996183195304808,-0.6899198627204164,-0.7028884816902583,-0.4527025106253701,-0.11454483104072644,-0.08251003323988462,0.2853506261588567,-0.07613651027397249,-0.21652476891983535,-0.1273342278219613,-0.1966339267811669,-0.6515791723069508,0.3660435059581215,-0.6338089212128,0.3407152435582621,-0.5245069648893952,-0.46667937067689735,0.15859854651428437,-0.7200858107102025,0.08599930762067927,-0.6088520945798579,0.4179034371127717,-0.40807676485162286,0.2470755137706106,0.355470460117806,0.4214517499431559,-0.28648990315536843,0.2243998223797659,-0.8299360605137674,-0.4674505209570819,0.022282708153163515,0.163764161788995,0.4736206687451503],[0.04918603350687548,-0.36698528716175033,-0.14364469287378462,-0.35062898890065797,-0.2750086174166747,0.563949270440114,-0.3831010185271966,-0.141603379718364,0.2494313498016698,-0.06957285049033177,0.4445647320190169,-0.5946050476749323,-0.505643663230492,0.09554574996259596,-0.08540863921215293,0.4534321089789569,-0.2466621278191442,-0.38138976463783186,-0.46658884492953184,-0.33250214141179585,-0.5420357579402307,0.38832037367886,-0.08206920784410235,0.28849704159844647,0.5141203647667489,-0.0755235196503967,-0.2565492424092212,-0.256359458906762,0.3703900859622408,0.2043043894390544,0.5254528254742162,0.21964229843117947,-0.21849595121471355,-0.3864004383951335,0.048526198324381126,0.36846283279119085,-0.17617576607269309,-0.3609329584499772,-0.4414560255544778,0.45129213497444975],[0.04034176315388536,0.31930853648490887,0.17003483257741547,-0.6431789988648818,0.7661705338158928,-0.6446145622813395,-0.6087212990130016,0.5103557594908198,-0.3817993513991795,0.3446770240746732,-0.4154376256121305,-0.6325360617422083,-0.6794248646212182,0.34955498039496924,-0.12415787695129332,-0.030189164330408996,0.2409356342704836,-0.009543020384444488,0.5155693355326142,0.2288855035036261,-0.045065747738789165,0.4597368042794951,-0.3928368631010777,0.5539293282101844,0.1670068693451726,0.01047507536408606,-0.013901763152779458,-0.4432175813816964,0.3612217188934555,0.32539484513482375,0.3388872699616582,-0.29512483955064,-0.028696210960186527,0.5091485070185933,-0.5656843740741246,-0.43277797694533016,0.053206862611882455,-0.3165099853617398,0.5211824891727409,0.34332493659441476]],"inactivated_output":[[[-0.1028850320129801,-0.020246285170067966,-0.011401461691283556,0.002070714930292282,-1.0773421852317253,0.6600216600664841,0.0717266156255915,0.16174060232322604,-0.08296356459422047,-0.20273277740744558,-0.1321602111971944,-0.04942348843629788,-0.05489534201481684,0.5091093604899024,0.05456211478737037,0.022623305075795498,-0.02363861977117801,-0.15785757069067585,0.03361192990028122,0.012190160447286952,0.03163140430881093,-0.055240705375331246,-0.1064721808357891,-0.1051032700036551,0.04158785966718048,-0.15493623768250908,0.052542654119329436,0.06440910669187298,-0.14327359468980821,-0.23277979353714498,0.4253148989845368,-0.04659382042575335,0.5424894995846751,-0.04643295055570419,0.30273996445877743,0.13778340316092805,0.020533129513126164,-0.1318207315844918,-0.06840781937149049,-0.12222904899745986]],[[-0.1028850320129801,-0.020246285170067966,-0.011401461691283556,0.002070714930292282,-1.0773421852317253,0.6600216600664841,0.0717266156255915,0.16174060232322604,-0.08296356459422047,-0.20273277740744558,-0.1321602111971944,-0.04942348843629788,-0.05489534201481684,0.5091093604899024,0.05456211478737037,0.022623305075795498,-0.02363861977117801,-0.15785757069067585,0.03361192990028122,0.012190160447286952,0.03163140430881093,-0.055240705375331246,-0.1064721808357891,-0.1051032700036551,0.04158785966718048,-0.15493623768250908,0.052542654119329436,0.06440910669187298,-0.14327359468980821,-0.23277979353714498,0.4253148989845368,-0.04659382042575335,0.5424894995846751,-0.04643295055570419,0.30273996445877743,0.13778340316092805,0.020533129513126164,-0.1318207315844918,-0.06840781937149049,-0.12222904899745986]],[[-0.10176973098138811,-0.020404349995602193,-0.012222346106572572,-0.0005939349891996674,-1.047955912004079,0.648458501298832,0.07397947523562796,0.15464260143012948,-0.08277473114592089,-0.2021675301816031,-0.13121226274479064,-0.04756251734086454,-0.05371136986349994,0.4984749826145492,0.056463725841161286,0.024900674322606814,-0.02297372477409044,-0.15187032929712618,0.03464671954305312,0.01374040320397396,0.03184045767215703,-0.05326580888617119,-0.10478218692199448,-0.10543570948003161,0.03746968707947118,-0.15393940878886755,0.053032441491438015,0.06441485724144083,-0.14603625498254036,-0.23180583253272316,0.41519837891742156,-0.04676161769123912,0.5317722003428655,-0.04444140877227202,0.2965483058682792,0.13881388685662027,0.021060299610558886,-0.1290697644116601,-0.06815469562042284,-0.11938701016374652]],[[-0.10176973098138811,-0.020404349995602193,-0.012222346106572572,-0.0005939349891996674,-1.047955912004079,0.648458501298832,0.07397947523562796,0.15464260143012948,-0.08277473114592089,-0.2021675301816031,-0.13121226274479064,-0.04756251734086454,-0.05371136986349994,0.4984749826145492,0.056463725841161286,0.024900674322606814,-0.02297372477409044,-0.15187032929712618,0.03464671954305312,0.01374040320397396,0.03184045767215703,-0.05326580888617119,-0.10478218692199448,-0.10543570948003161,0.03746968707947118,-0.15393940878886755,0.053032441491438015,0.06441485724144083,-0.14603625498254036,-0.23180583253272316,0.41519837891742156,-0.04676161769123912,0.5317722003428655,-0.04444140877227202,0.2965483058682792,0.13881388685662027,0.021060299610558886,-0.1290697644116601,-0.06815469562042284,-0.11938701016374652]],[[-0.06971124443786732,-0.024737417319550394,-0.035228801134536344,-0.0751384581821631,-0.2223054668318195,0.32338415011385596,0.13648030905094777,-0.04488805956140962,-0.07685799031045307,-0.18555860120820852,-0.1040607990072379,0.004705609801542736,-0.01992450701594948,0.19951450246308913,0.10981130000238012,0.08874687170778685,-0.0039208481129160274,0.016368696471726563,0.06436619532624294,0.057254468737376274,0.037850315839794986,0.0018338259563065195,-0.056524302093732375,-0.11432292659288261,-0.07820943658750197,-0.1252691624356831,0.06669078653305692,0.06484751103186386,-0.22368103405819076,-0.20404755428096374,0.13105478753445496,-0.05105071736170542,0.23008784571917013,0.011492111014215536,0.12255243979170387,0.1684633051038787,0.03635435817711482,-0.051931467180560256,-0.060801900809449874,-0.039915538994707386]],[[-0.06971124443786732,-0.024737417319550394,-0.035228801134536344,-0.0751384581821631,-0.2223054668318195,0.32338415011385596,0.13648030905094777,-0.04488805956140962,-0.07685799031045307,-0.18555860120820852,-0.1040607990072379,0.004705609801542736,-0.01992450701594948,0.19951450246308913,0.10981130000238012,0.08874687170778685,-0.0039208481129160274,0.016368696471726563,0.06436619532624294,0.057254468737376274,0.037850315839794986,0.0018338259563065195,-0.056524302093732375,-0.11432292659288261,-0.07820943658750197,-0.1252691624356831,0.06669078653305692,0.06484751103186386,-0.22368103405819076,-0.20404755428096374,0.13105478753445496,-0.05105071736170542,0.23008784571917013,0.011492111014215536,0.12255243979170387,0.1684633051038787,0.03635435817711482,-0.051931467180560256,-0.060801900809449874,-0.039915538994707386]],[[-0.03484980593775558,-0.029397742001891738,-0.05978692147958793,-0.1547381779379765,0.6630631598737617,-0.025877760511704977,0.20271564675684497,-0.25917447608328287,-0.06983343871962754,-0.16692336070316507,-0.07449118939723884,0.060729093194498,0.01637718707869238,-0.12132070801602574,0.1670446811386322,0.1569951868179246,0.01676583516883197,0.1965619462194937,0.09629547596029918,0.10360749624294352,0.0443206607278255,0.06068745249222562,-0.004603583412821705,-0.12330073895574727,-0.20203373505711436,-0.09397820622246078,0.08128920534603853,0.06542131195611153,-0.3068592164913347,-0.17398658905092293,-0.17369246247255266,-0.05535127449414457,-0.09405172909154014,0.0712714215094442,-0.06444122769731193,0.20029016781727588,0.052993729964837914,0.030801198099058447,-0.0528217165557897,0.04517229483676459]],[[-0.025713040052209573,-0.03068515353555355,-0.06629232426063034,-0.1758935129105148,0.898245583329126,-0.11882222674797546,0.2203522382155037,-0.3161721008807945,-0.06797297820495368,-0.16197242753090818,-0.06668603648164698,0.07560934821721715,0.02582765347477973,-0.2065665357422072,0.182290655580514,0.17510294974876295,0.022199260736065964,0.24434032528676253,0.10452898734437817,0.1158251018561277,0.04599171356192499,0.07639850068933457,0.008928120862481757,-0.12567105827586433,-0.23485462622532532,-0.08574175897197074,0.08519231594534453,0.06550093455107989,-0.32891301652352883,-0.16605605346679314,-0.2547017927168188,-0.05656009837944847,-0.18015153302921375,0.087086174162027,-0.11425185481879536,0.20846574386769146,0.05729931753775514,0.05284806117230572,-0.05076714405280955,0.06788525276344877]],[[0.007012299657335846,-0.0358338737039206,-0.09042271124934684,-0.25486946485111567,1.772804822127785,-0.46527299777983505,0.2867716083624382,-0.5284798745663474,-0.06154468083580185,-0.1440989942576418,-0.038337001218559874,0.13094948086749464,0.05947641179184775,-0.5235625863261661,0.23929042606489503,0.2424211945658673,0.04177248908657823,0.42149664038828505,0.13324283320808372,0.16074866108099045,0.05182340517272742,0.13555815449634603,0.057176963590346234,-0.1347453214141609,-0.35651847667812187,-0.056042944345242166,0.09992632059254918,0.06517447441597937,-0.4106700803204297,-0.13717232440273264,-0.5563511587221447,-0.061751598267782974,-0.4998909659696937,0.1455429855673672,-0.30025327817570197,0.2367476142994005,0.07229075813951066,0.13534934125158965,-0.043680122103691446,0.15326915098212124]],[[0.035926973547713875,-0.04170286067283725,-0.11398602901708144,-0.3331516581617905,2.629885375671908,-0.8063803068117438,0.35416198631933055,-0.7371974841778005,-0.05670712770311258,-0.12821185270117882,-0.012356590238003805,0.18520886909882942,0.08893865275810005,-0.8340948743864152,0.2958478483539016,0.3084489536456678,0.059366135283103805,0.5940080854825553,0.15694212576127017,0.20375308683403542,0.05662095656741512,0.19534918933499154,0.09955790691501012,-0.14452080597215697,-0.474968296721484,-0.02936727443333533,0.11489304225326076,0.06335150590440958,-0.4902565509147982,-0.11042115857800136,-0.8528796718219529,-0.06860581720983647,-0.8119228112284583,0.20211359134708967,-0.4841344397756444,0.25951468075741396,0.08449870689671427,0.21738600359930593,-0.03806883198195517,0.2391490693158421]],[[0.05941306171436515,-0.04852361416632567,-0.1368070012959988,-0.4105796942170035,3.462533036179118,-1.1396898411784164,0.4230699776725247,-0.9407242685152842,-0.05428017632745395,-0.11530727024594332,0.010177124475765346,0.23796467946810582,0.11262735041054266,-1.1354994256232775,0.3517572572779973,0.37273768105190225,0.07416501063619947,0.7601141681887071,0.17379996095856315,0.24425364999754326,0.05996352716634408,0.2560245918487478,0.133823685050789,-0.1554847420497595,-0.5890478796811671,-0.007046522723516027,0.1301710935116114,0.0594499793526181,-0.5668938480733856,-0.08671841246219741,-1.1421782362588173,-0.07785274494951688,-1.1129857514849502,0.2561622888143811,-0.6648371607945782,0.2747263250174723,0.09281766953842184,0.2986986886713605,-0.03451838415827363,0.32567647461645227]],[[0.07617990943912915,-0.0564534299107084,-0.15874032391833412,-0.48700873098282316,4.264962277568349,-1.4631336261258072,0.4938117872960321,-1.1377038204532721,-0.05487019479688636,-0.10609441304693265,0.02839336751983864,0.2888625610666251,0.12927619196664414,-1.425567641291194,0.4068416005032641,0.4348927053002517,0.0855491317844376,0.9183318724648589,0.18243336157444845,0.28179730586384694,0.06149723970124361,0.31772455841799524,0.15818965469068239,-0.16803576218964492,-0.6978147945409987,0.009875855701619142,0.14580008256537563,0.053029461546724624,-0.6399839279285422,-0.06679619632867193,-1.422454930582638,-0.09008000844059749,-1.4004130793874512,0.3071837851617441,-0.8414590683680627,0.2807887207791622,0.09639657597218584,0.3790176545184364,-0.03349693825894935,0.4129015129655753]],[[0.08530998011346616,-0.06557096576299747,-0.17967491616633974,-0.5623080514779727,5.032707884683805,-1.775085092969473,0.5664535086646586,-1.3270617030228933,-0.05884596903171918,-0.10096492831433773,0.0416569720452941,0.3376264634611706,0.1379808640385498,-1.7026075081400374,0.4609559351121186,0.49458462949701626,0.09311519398380863,1.0674958017278822,0.18195258661126576,0.3160744503959034,0.06094939082921213,0.3804677022504009,0.17139026236849922,-0.18246975325869538,-0.8005667081341759,0.020681395399089426,0.16177782867306673,0.04380833880127549,-0.7091287363079051,-0.05117819856520957,-1.6922811405605904,-0.10571530034109397,-1.6722101195296517,0.3548175714568668,-1.0132754813475653,0.2766123763006041,0.09467035143754422,0.45806578570367074,-0.035340925162113804,0.5007628762418054]],[[0.08626866271737738,-0.07588172729488181,-0.19953329204259201,-0.6363584513825873,5.762654646957316,-2.074372839358808,0.6408206471481693,-1.5080150052590398,-0.06634373264636068,-0.10000000585655314,0.04957261562197719,0.38406119046248954,0.13820652168145647,-1.9654527150402423,0.5139871646774044,0.5515545268438792,0.09667510730814005,1.2067711392470701,0.17196034220777814,0.34691728486191264,0.058136304611289165,0.44415794945254133,0.17268595707821496,-0.19897483560155332,-0.8968450539268971,0.024978453079485485,0.1780611178303973,0.031662091695438835,-0.7741262397604041,-0.04017562779320284,-1.950606910320727,-0.1250239381462367,-1.9270661781615421,0.39884968002379223,-1.1797431846413438,0.26162167903723255,0.08736122901450485,0.5355658614628633,-0.040252129846641074,0.5890921652499408]],[[0.07849129222813096,-0.08772962232651128,-0.21887495614817093,-0.7114484399735386,6.475274248076526,-2.3695506711144274,0.7190780531946771,-1.6856370092027635,-0.0777185197465549,-0.10317468149609735,0.05195280924009363,0.42947234557826214,0.12933483623448172,-2.221437840436197,0.5675588408344712,0.6073669553292523,0.09615117102842477,1.3397550504230937,0.1516989665176324,0.37514112494974816,0.052750691499327006,0.510762003958969,0.16125504548468905,-0.21829638345026972,-0.9892906634528149,0.02248585013931219,0.19512322481069028,0.01605562846901849,-0.8369069227997272,-0.03377163453827985,-2.204737923572037,-0.1489558540941307,-2.17191127740739,0.4404828684057456,-1.3457465283253245,0.234670670258031,0.07393100600948901,0.6137378321137481,-0.04862806024662014,0.6805807000442811]],[[0.06262470297511645,-0.10024561334560116,-0.23643524951402503,-0.7826281604197414,7.1238632526665135,-2.641212974135647,0.7956346967249603,-1.8482075464096261,-0.09199911704588859,-0.10986861335423743,0.048668186882681055,0.4708805093205713,0.112061227379005,-2.4538103556229554,0.6181516764285847,0.6583041379631022,0.09174689163048189,1.4576406500998658,0.12291435228020052,0.3990015349202059,0.045129396609730726,0.5757140858416495,0.13801639228989399,-0.23918304742841182,-1.0719140079579985,0.013533065782351071,0.21175185730679588,-0.0018699719494292312,-0.8935424916622623,-0.03231280743616307,-2.4379204386794067,-0.17594529272645976,-2.39083677794858,0.4770709971512838,-1.500348974447508,0.1978281303908171,0.055463898709236896,0.6872811723926378,-0.059888918521353154,0.7689902338692036]],[[0.03895450666637507,-0.11366253223645201,-0.2528658563970492,-0.8522465825312127,7.73230664812434,-2.8990777605816156,0.8723771943024846,-2.001564557568105,-0.10915152633024403,-0.11957031134194702,0.040068537871249574,0.5098015276574217,0.08661450866523325,-2.6712086055321578,0.6674705379077303,0.7061692611718364,0.08379597758607386,1.564924158290899,0.08582375212419861,0.41962976397152535,0.035202159225146606,0.6408490834909213,0.10332312740790545,-0.2621430703684557,-1.1479522372800788,-0.0014893928656595466,0.22836460038157708,-0.02235584708458838,-0.9463533262324173,-0.03530644380309223,-2.6584979440790093,-0.20657066918139125,-2.5923839640147297,0.5101517582232122,-1.6489070672068311,0.15106116188212232,0.03200644195044651,0.7585259301267998,-0.07412108145833761,0.8569029136288088]],[[0.008063760206299675,-0.12783690641162138,-0.2681951500477762,-0.9202128121724005,8.30154825522095,-3.1433619874410983,0.9486539001967199,-2.1458285428502455,-0.12876511800417215,-0.13165293156046223,0.026449497513304734,0.5462883845269397,0.05355184699147643,-2.8740372428324803,0.7154832552508783,0.7509741867266626,0.07266092788332107,1.6618387727855806,0.041332872511359496,0.437252313981003,0.023092504184204467,0.7058502680787913,0.057944139932757745,-0.2870432946293476,-1.2176737634658046,-0.022084824478366526,0.24482096134100687,-0.04513464331165579,-0.995634040076713,-0.0424413640708081,-2.866638777004242,-0.24061738565918583,-2.7772361532319514,0.5399274434128417,-1.7914203449670336,0.09526454073965912,0.0040653582971652575,0.8272818947064036,-0.09112284908534922,0.9439388422313882]],[[-0.029338104814479925,-0.14262459505167513,-0.2824672957931428,-0.9864420954324975,8.833051041916862,-3.3744643422864664,1.0238272049602213,-2.281243098374101,-0.15040382179026607,-0.14546977993503837,0.008185951872527172,0.580425930981318,0.013558550460217908,-3.062897836878006,0.7621654340882955,0.7927814298710456,0.05874701303056798,1.7487727832502096,-0.009543738274480526,0.45213658395158424,0.008970219902686462,0.7704083491757211,0.0028169593881980856,-0.3137123453240313,-1.281435541449228,-0.047674383302309796,0.2609762819731015,-0.06991297421421962,-1.0417161375902635,-0.053335893272166306,-3.0626882534859163,-0.2778118685696677,-2.9463103065329346,0.5666464131139395,-1.9279584287457465,0.0314889829887451,-0.027780057896729354,0.8933954005754198,-0.11064318639009445,1.0297274719788176]],[[-0.07247015875498708,-0.1578905291507247,-0.29573650622031233,-1.05085585608553,9.328626750995284,-3.592907440482944,1.0973085919604564,-2.4081382483035383,-0.17363608104136288,-0.16039743723930475,-0.014299045982511069,0.6123186468212692,-0.032600721146828646,-3.2385214436641436,0.8074970348180867,0.8316940669935138,0.042474403393837915,1.8262273426350524,-0.06574990632577803,0.46457223314678947,-0.006960506231779789,0.8342369598203699,-0.06102236392217009,-0.3419562215636472,-1.3396505991207979,-0.0776417972867869,0.2766898395652232,-0.09639052232580689,-1.0849421449576946,-0.06756892816852661,-3.247119070776303,-0.3178416576572134,-3.10066600474621,0.5905847859139491,-2.058639073232056,-0.03913066045172521,-0.06291872688022535,0.9567515779664384,-0.1323998994285742,1.1139247344465089]]],"activated_output":[[[-0.10252355465908222,-0.020243519710256824,-0.011400970824948498,0.002070690718599208,-0.7922113483118604,0.5783777759711402,0.07160386036187504,0.16034482860057633,-0.08277371507481918,-0.20000019272125685,-0.13139608441245507,-0.049383302916492434,-0.054840285095636356,0.469250928345663,0.054508023832122894,0.022619448428657492,-0.023634207417704212,-0.15655929002278607,0.03359926022360329,0.012189526072175149,0.03162086453813713,-0.05518460591734006,-0.10607167847233606,-0.10471795204353677,0.04156389283626948,-0.1537082299948348,0.052494378103352425,0.06432019979980999,-0.14230122929565858,-0.2286644541181869,0.40139842036661,-0.04656013570358127,0.49487012071528985,-0.04639957692936073,0.29381807725576,0.13691803962042237,0.020530247988886315,-0.1310624932858419,-0.0683012788759792,-0.12162397051925918]],[[-0.10252355465908222,-0.020243519710256824,-0.011400970824948498,0.002070690718599208,-0.7922113483118604,0.5783777759711402,0.07160386036187504,0.16034482860057633,-0.08277371507481918,-0.20000019272125685,-0.13139608441245507,-0.049383302916492434,-0.054840285095636356,0.469250928345663,0.054508023832122894,0.022619448428657492,-0.023634207417704212,-0.15655929002278607,0.03359926022360329,0.012189526072175149,0.03162086453813713,-0.05518460591734006,-0.10607167847233606,-0.10471795204353677,0.04156389283626948,-0.1537082299948348,0.052494378103352425,0.06432019979980999,-0.14230122929565858,-0.2286644541181869,0.40139842036661,-0.04656013570358127,0.49487012071528985,-0.04639957692936073,0.29381807725576,0.13691803962042237,0.020530247988886315,-0.1310624932858419,-0.0683012788759792,-0.12162397051925918]],[[-0.10141983253017106,-0.020401493190871325,-0.012221763962983514,-0.0005939601435756341,-0.781010325167317,0.570631255150523,0.07384482975481164,0.15342155339686883,-0.08258617723700133,-0.1994574926281633,-0.13046438545009978,-0.0475266840182146,-0.053659743800256905,0.4609169772792695,0.05640376130209246,0.02489552159832053,-0.022969650649245093,-0.15071340825456594,0.03463284654827469,0.01373951057286576,0.03182970026549945,-0.053215453202787304,-0.1044004108740784,-0.1050467157099031,0.03745212488610098,-0.15273486198130629,0.05298279000053212,0.06432591678080118,-0.14500687467659767,-0.22774119686184416,0.39287763467004894,-0.04672755219503819,0.48673457327191433,-0.04441219574761811,0.28815068657343407,0.13792911177547734,0.02105719847808251,-0.12835777479382468,-0.06804936740746838,-0.11882298813677566]],[[-0.10141983253017106,-0.020401493190871325,-0.012221763962983514,-0.0005939601435756341,-0.781010325167317,0.570631255150523,0.07384482975481164,0.15342155339686883,-0.08258617723700133,-0.1994574926281633,-0.13046438545009978,-0.0475266840182146,-0.053659743800256905,0.4609169772792695,0.05640376130209246,0.02489552159832053,-0.022969650649245093,-0.15071340825456594,0.03463284654827469,0.01373951057286576,0.03182970026549945,-0.053215453202787304,-0.1044004108740784,-0.1050467157099031,0.03745212488610098,-0.15273486198130629,0.05298279000053212,0.06432591678080118,-0.14500687467659767,-0.22774119686184416,0.39287763467004894,-0.04672755219503819,0.48673457327191433,-0.04441219574761811,0.28815068657343407,0.13792911177547734,0.02105719847808251,-0.12835777479382468,-0.06804936740746838,-0.11882298813677566]],[[-0.06959853366613553,-0.024732355687058807,-0.035214266125029696,-0.07499738478180759,-0.2187143760474896,0.3125636318485874,0.1356391321642886,-0.04485790264687879,-0.07670701581145117,-0.18345785129351688,-0.1036867974031037,0.004705615327092955,-0.019921878584880374,0.19690871015031228,0.10937201542888479,0.08851457384193907,-0.003920823224462704,0.016367268942559784,0.06427745996872944,0.057191990441734175,0.0378322456126056,0.0018337934406866825,-0.05646418381692385,-0.11382748191919782,-0.07805038722285791,-0.12461797030769248,0.0665920685311641,0.06475677269727341,-0.2200236843785319,-0.20126208481563074,0.13030960612238868,-0.05100641201627422,0.22611171649342438,0.011491612630677535,0.12194253167594332,0.16688750980850323,0.03633836389905734,-0.05188485678795589,-0.060727074512756725,-0.039894358635096744]],[[-0.06959853366613553,-0.024732355687058807,-0.035214266125029696,-0.07499738478180759,-0.2187143760474896,0.3125636318485874,0.1356391321642886,-0.04485790264687879,-0.07670701581145117,-0.18345785129351688,-0.1036867974031037,0.004705615327092955,-0.019921878584880374,0.19690871015031228,0.10937201542888479,0.08851457384193907,-0.003920823224462704,0.016367268942559784,0.06427745996872944,0.057191990441734175,0.0378322456126056,0.0018337934406866825,-0.05646418381692385,-0.11382748191919782,-0.07805038722285791,-0.12461797030769248,0.0665920685311641,0.06475677269727341,-0.2200236843785319,-0.20126208481563074,0.13030960612238868,-0.05100641201627422,0.22611171649342438,0.011491612630677535,0.12194253167594332,0.16688750980850323,0.03633836389905734,-0.05188485678795589,-0.060727074512756725,-0.039894358635096744]],[[-0.03483570181548023,-0.029389287690177335,-0.05971580054036333,-0.1535148859667836,0.5803983204293401,-0.02587200111733215,0.1999837821574064,-0.253523179279897,-0.06972013552033697,-0.1653900985545304,-0.0743536859063709,0.060654549855004965,0.01637572971630921,-0.1207289543867588,0.16550809095502683,0.15571789406749723,0.016764281381636985,0.19406900260829377,0.09599893491937318,0.10323839366766932,0.04429167944924095,0.060613054880617225,-0.00460357550165419,-0.1226796238489291,-0.19932901437223902,-0.0937025075367813,0.08111059333517816,0.06532813160569964,-0.2975771063485649,-0.17225198616798515,-0.1719665631882698,-0.05529481059368001,-0.09377538724505642,0.071151016620606,-0.06435218186178687,0.19765414382589166,0.052944149021652565,0.03079148529631146,-0.05277264668590325,0.045141617983586846]],[[-0.025707386459107688,-0.03067554016308258,-0.06619538941557006,-0.174101724111215,0.7154425627894732,-0.11826616355125584,0.21685376665524664,-0.3060416369939153,-0.06786847730861845,-0.16057070178718696,-0.06658736424095964,0.07546560830145554,0.025821894447724255,-0.20367777886059116,0.18029800181066233,0.1733350059606426,0.02219559213054969,0.23959114800400821,0.10414992486790528,0.11530993707474535,0.04595931256536186,0.07625021380344774,0.008927883873794812,-0.12501361630488791,-0.2306298665227084,-0.08553227629033779,0.08498678238493856,0.065407399653368,-0.3175437284638651,-0.1645463946861261,-0.24933330862823316,-0.05649985777246689,-0.17822759519212733,0.0868666808068654,-0.11375727815441566,0.20549749199240044,0.05723668597785723,0.05279890956599893,-0.05072359162894581,0.06778115817836582]],[[0.0070121652476738665,-0.03581855669660951,-0.09017707625320183,-0.24949053638066054,0.9439159679464486,-0.43437206897606967,0.27916067129812466,-0.4842182441034516,-0.06146707121185079,-0.14310980182287278,-0.03831821896792206,0.1302060814827825,0.05940637476274625,-0.48044495436727364,0.2348254422230004,0.23778135427993602,0.04174821413428033,0.39819051963927726,0.13245984193651986,0.15937821685979053,0.05177708001607167,0.13473388401168418,0.057114704217547434,-0.13393568907565806,-0.34214372989755804,-0.055984323569336754,0.09959508448110699,0.06508234588495403,-0.389041468820359,-0.13631841078041343,-0.5052651092396621,-0.06167319899669312,-0.46203134329999274,0.1445239532075778,-0.2915443974410639,0.232421383367052,0.07216510075397088,0.13452882578512498,-0.043652368360000436,0.15208017102196203]],[[0.035911568971346515,-0.04167871619303889,-0.11349490706267308,-0.3213498210071823,0.9896607913950997,-0.6675886233568022,0.3400614054017696,-0.6274489437412311,-0.0566464106171565,-0.12751393708654296,-0.01235599424406097,0.1831198184344022,0.08870492401452562,-0.6826686524165851,0.2875082320934271,0.2990253993052534,0.05929648782384832,0.5327721440835786,0.15566615796037037,0.20097951862001492,0.05656051767317007,0.19290161580446682,0.09923025697087715,-0.1435229775408418,-0.4422048491865061,-0.029358867361293655,0.11439014471278901,0.06326692084311518,-0.4544200536281512,-0.10997458470579871,-0.6925708927700149,-0.06849837013342797,-0.6706495678337357,0.1994056967741129,-0.4495485966580723,0.25384151992799453,0.08429818399173067,0.21402521403540314,-0.03805046572909746,0.23469182068534764]],[[0.059343233907916994,-0.04848555442016573,-0.13595980953397757,-0.38896478495668735,0.9980362008341577,-0.8143096539857821,0.39951354577249765,-0.7355547757714714,-0.05422695881867913,-0.114798963483174,0.010176787766708046,0.23357238616929954,0.11215351126628476,-0.8128930551247098,0.33793303254273893,0.3563839681269398,0.07402933584444218,0.6411442554311093,0.17207090098644584,0.2395094215497392,0.05989178687372482,0.2505734535219902,0.13303047613759011,-0.15424376328883188,-0.5292104683686564,-0.007046375793675771,0.1294408080212034,0.059380055967582786,-0.5130744223915388,-0.08650167829173025,-0.8151461905683264,-0.07769585323012967,-0.8051151975429652,0.2507024822906606,-0.5815735659645958,0.2680171670053914,0.09255204416311523,0.29012130120203733,-0.03450468725837262,0.3146305416601037]],[[0.07603289139222208,-0.05639352942919757,-0.1574202839006795,-0.45183910405159083,0.999605111554378,-0.8982594908856819,0.4572365529964294,-0.8136394253283258,-0.05481521832672538,-0.10569810699865562,0.028385698743682963,0.2810875620121569,0.12856081747746312,-0.8907546311742263,0.38578762577154435,0.40940207946823665,0.08534103632798029,0.7251072426719731,0.1804360392515058,0.2745677213113514,0.06141983152786682,0.30744798534233436,0.15688317987799313,-0.16647184417837022,-0.6029789144137462,0.009875531304800074,0.14477569221815664,0.05297982026106834,-0.5648885741126014,-0.06669704492354231,-0.8901099665289024,-0.08983717269567616,-0.8854408430437741,0.2978729075988744,-0.6865811195843096,0.27363490693947984,0.09609909709902437,0.36185403137851613,-0.03348441587144055,0.39093354306421113]],[[0.0851036125728577,-0.06547713785565899,-0.17776607865113442,-0.5096879310523429,0.9999150267188234,-0.9441641364055873,0.5127499205285624,-0.8685293765224632,-0.05877814544474825,-0.10062325347827722,0.04163291006264019,0.32535675227097954,0.13711183173489705,-0.9357343121375598,0.4308629853691618,0.4578475971731973,0.09284702162053156,0.7885159300494571,0.17997086839345575,0.3059531113595847,0.0608740112377225,0.36311357499852553,0.1697315920036804,-0.18047120258010474,-0.6643534577004095,0.020678478814245133,0.1603810782949375,0.04378029999789202,-0.6101301884620111,-0.051133530707905474,-0.9344370976761309,-0.1053232483664919,-0.9318433059243453,0.3406410571814286,-0.7671134591730576,0.26976687018112894,0.09438855677771833,0.42850643315380554,-0.03532620382525438,0.4627168680746733]],[[0.08605526683279804,-0.07573643095717214,-0.19692673214235415,-0.5624149043138345,0.9999802428688506,-0.9689221417531844,0.5654580514058047,-0.9065862168576942,-0.06624657609851511,-0.09966801240151041,