{"layers":[{"input_weights":[[-1.9142098011372624,0.17250877065289386,0.24436975007461317,-1.7314598630201443,-1.9255437228898251,-1.2242745153834922,2.377713357812615,1.5117747987242505,1.903596399021712,-1.4672834182350252,2.749378732267497,-1.012792890515885,-2.97998671247914,-2.230978502745209,2.8736041578923635,1.349978770500342,3.7578240883485665,1.932292402049872,-1.8602737673265592,-1.1554918223165342],[1.5866461633741948,0.3846352364275485,0.30020295513152356,-1.708366567320589,2.3988530299770545,1.5366649764679274,-1.929705347493817,-1.2682799920624832,-1.2085831947403798,2.340409512178926,-2.008705755496905,1.7154921233410407,-2.9036283265905407,3.763568205643396,-1.8112981186260708,-1.2561864060049686,-2.504679870834951,-1.4301212346791017,2.949285823784627,1.806997574863067]],"inactivated_output":[[[-1.8366939538016684,0.19379117267472293,0.3077375405812523,-1.7263966024228508,-1.8411143522857405,-1.1050332558826514,2.5686775076268686,1.6426046384355928,1.9712170727858576,-1.3590589398268818,2.953890583586653,-0.9320501257986266,-2.7754894681007443,-1.8886182117005106,2.9953333835775573,1.3597268403203997,4.110888637752139,2.1214509095699885,-1.748634006617372,-1.1234052620187007]],[[0.07751584733559397,0.02128240202182907,0.06336779050663914,0.005063260597293649,0.08442937060408462,0.1192412595008408,0.19096414981425336,0.13082983971134227,0.06762067376414566,0.10822447840814343,0.20451185131915625,0.08074276471725837,0.2044972443783958,0.34236029104469823,0.12172922568519372,0.009748069820057593,0.3530645494035724,0.18915850752011665,0.11163976070918716,0.03208656029783345]],[[1.6641620107097888,0.40591763844937756,0.3635707456381627,-1.7033033067232954,2.483282400581139,1.6559062359687682,-1.7387411976795637,-1.1374501523511409,-1.1409625209762342,2.4486339905870698,-1.8041939041777488,1.796234888058299,-2.699131082212145,4.105928496688094,-1.6895688929408772,-1.246438336184911,-2.151615321431379,-1.2409627271589851,3.060925584493814,1.8390841351609004]],[[-0.25004779042747355,0.5784264091022714,0.6079404957127759,-3.4347631697434395,0.557738677691314,0.43163172058527605,0.6389721601330514,0.3743246463731095,0.7626338780454778,0.9813505723520444,0.9451848280897482,0.7834419975424142,-5.679117794691285,1.8749499939428853,1.1840352649514863,0.10354043431543113,1.6062087669171878,0.6913296748908869,1.2006518171672549,0.6835923128443661]]],"activated_output":[[[0.13744276418588988,0.548296731612483,0.5763329154512601,0.1510490811990944,0.13691955165459235,0.24879800833656124,0.9288182975956105,0.8378890267803529,0.877741764890894,0.20439328929076284,0.9504470396962993,0.28250897746302156,0.058663136876885714,0.13140210673000077,0.9523628577817905,0.7957152869940239,0.9838711976153687,0.8929706703069864,0.1482195786345761,0.24538020703346536]],[[0.5193692646879047,0.5053204038595657,0.5158366452435951,0.5012658165823362,0.5210948124106122,0.5297750457030482,0.5475964783246694,0.5326608797227088,0.5168987227679264,0.5270297404673463,0.5509505095709383,0.5201747345420691,0.5509468910388724,0.5847637559746074,0.530394783210681,0.5024369992034843,0.5873605159267457,0.5471491213766391,0.5278809889587862,0.5080209470173405]],[[0.8407959128132375,0.6001086097826209,0.5899045380996528,0.15403433093386737,0.922961502006571,0.839687682445288,0.14947290919697812,0.24278884308097898,0.24214370204419938,0.9204614886061885,0.1413413215608208,0.8576899790220893,0.06302465651196762,0.9837922990778336,0.15583255627046083,0.22331728855810792,0.10418037546926207,0.22426846272331047,0.9552518700268653,0.8628403521481958]],[[0.43781172840166616,0.6407052440573606,0.6474708459522015,0.031226520386059872,0.6359291355803779,0.6062632398171889,0.654521088049177,0.5925035440452041,0.681925292117617,0.7273761171119001,0.7201457768846526,0.6864214697531764,0.003404939094422116,0.8670299977044181,0.7656725708235728,0.5258620035758281,0.8328843550221033,0.6662626332423722,0.7686407059400038,0.6645399970530406]]],"gradient":[[0.0,0.0,0.0,0.0,0.0,0.0,0.0,0.0,0.0,0.0,0.0,0.0,0.0,0.0,0.0,0.0,0.0,0.0,0.0,0.0],[0.0,0.0,0.0,0.0,0.0,0.0,0.0,0.0,0.0,0.0,0.0,0.0,0.0,0.0,0.0,0.0,0.0,0.0,0.0,0.0]],"errors":[[0.0,0.0,0.0,0.0,0.0,0.0,0.0,0.0,0.0,0.0,0.0,0.0,0.0,0.0,0.0,0.0,0.0,0.0,0.0,0.0],[0.0,0.0,0.0,0.0,0.0,0.0,0.0,0.0,0.0,0.0,0.0,0.0,0.0,0.0,0.0,0.0,0.0,0.0,0.0,0.0],[0.0,0.0,0.0,0.0,0.0,0.0,0.0,0.0,0.0,0.0,0.0,0.0,0.0,0.0,0.0,0.0,0.0,0.0,0.0,0.0],[0.0,0.0,0.0,0.0,0.0,0.0,0.0,0.0,0.0,0.0,0.0,0.0,0.0,0.0,0.0,0.0,0.0,0.0,0.0,0.0]],"layer_bias":[0.07751584733559397,0.02128240202182907,0.06336779050663914,0.005063260597293649,0.08442937060408462,0.1192412595008408,0.19096414981425336,0.13082983971134227,0.06762067376414566,0.10822447840814343,0.20451185131915625,0.08074276471725837,0.2044972443783958,0.34236029104469823,0.12172922568519372,0.009748069820057593,0.3530645494035724,0.18915850752011665,0.11163976070918716,0.03208656029783345],"activation_type":"SIGMOID","layer_type":"InputLayer","previous_layer":null,"next_layer":null,"input_data":[],"previous_gradient":[[0.0004002827969732871,-0.000019994753836268106,-0.000126677692841422,0.00030367175977199335,0.0002522246207799396,0.00045305471834897594,-0.0008072325006301046,-0.000667248188703799,-0.0006789688232141592,0.0005320840351435701,-0.0007899216824716717,0.0004736671113669321,0.00028155099341811376,0.0005543675665301232,-0.0006498428325180875,-0.0005727464011286858,-0.0006418458159932627,-0.0007058184191458917,0.0004443820529566859,0.0005052684203378734],[-0.0007022815575571267,-0.00014938241507088997,0.00018913097898377905,0.0003758624470659139,-0.0006179170687408362,-0.0006629749157291918,0.0005188036436773987,0.0004736503501648182,0.0006251211452280201,-0.0005635679879455822,0.0005370093140365401,-0.0005005519621420877,0.000347561766464436,-0.00063554164925395,0.000491007628885841,0.00040538373776285026,0.00046090378346342806,0.0006116022667065007,-0.0006398660520176079,-0.0005346416547164267]]},{"input_weights":[[-1.122122283267763,-1.1672519359213764,-0.30226296326252666,-0.2354754986588235,0.017925631293086407,-0.6643601472174238,0.016344536723071477,0.5265641093823169,-0.33495742653539184,-1.5749675616987615,-0.7394905793244441,-0.09292142860810428,-0.15187238011463308,0.2095320239386549,0.2039787349412577,0.7956356135910531,0.6102539016091719,0.8951288046614664,-0.4580359432392808,0.904130188504049],[0.3062738245933359,-0.4170315142199233,-0.1526773707328144,-0.38601278473588624,0.038015834986302864,-0.3023546653276206,-0.1773371772289264,0.21861321579953016,-0.40203801832677655,-0.16626718104477578,-0.17048852040834095,-0.9518351395364522,-0.35366562775856447,0.3180705852334728,0.23694050236975733,-0.09824964156476064,0.06730278484734006,-0.4060242594080596,-0.8564975839037076,-0.03008883423941415],[-0.502553359817843,-0.3861980010930012,-0.28287206861457515,-0.1689785620794622,-0.5032483751212117,-0.2534226971928344,-0.07372832901474381,-0.7218172901764051,-0.8117729583145293,-0.7558495301066882,0.05163844135060473,-0.9302347801143548,-0.0688488185232804,-0.23693043940245237,-0.5072461498959783,-0.6011897112623247,0.35441075785444637,-0.42589854027463514,0.0849243401633854,-0.6056809981971543],[-0.5583461814078489,-0.5950675477560119,-0.8536050940798264,-0.8720587104492515,0.06654270784453778,-0.7556431457725293,-0.1761702774390725,-0.868553935521487,0.10165062465829246,-0.5662810959712093,-0.4962732328875726,-0.18853534413141543,-0.9896541356241,0.13410914924368947,-0.5474761604621279,-0.6393032465766155,-0.7830107832437346,-0.7935456247714391,-0.4907301155546726,-0.05860930611371229],[-1.56212889311596,-2.014520080318091,-0.6407791562627764,-0.5731928975632586,-0.06393909526608581,-0.9955298357414846,-0.8096169049948168,-0.4167980616166539,-0.3512572506262291,-0.7692512795949609,-0.8504988065981861,-0.04306449160468659,0.08022785846063994,0.0012885688860027784,0.5134607041559881,-0.015809662873423398,0.9993954440898184,1.4928183254104157,-0.7770979658500674,1.181477190669859],[-1.2263268552358302,-1.5481670122868425,-0.7523238475817134,-1.0414526566390023,-0.865806416753656,-0.7706376958845916,-0.5783292131011217,-0.16636729219500757,-0.3616134809883197,-0.35772244793512215,-0.8770848065123865,0.30602484442999717,-0.2050445209352008,0.13814519271731945,0.1169099878753986,0.48561621021436285,0.3281505317952729,0.30642601059476626,0.24996203087240548,0.45713368504105584],[0.7474153739861189,0.9736259327163508,-0.9961594656320448,-0.3783193196949351,-0.5972537559286871,1.1082054369580263,-0.2144485827939487,-0.85728344693584,-1.000881127962516,1.1773985548159724,0.32615586264915924,-0.9227276866215754,-0.5683817308687518,-0.9273732143102308,-1.085935169703259,-0.9150392525233308,-1.4586212689565523,-1.3114672186710736,-0.4939530677183701,-1.1943574793585865],[0.6432379918831154,0.6970260229240361,0.017291895099090692,-0.6036606521417606,-0.46047806204746633,0.2664530895450973,-0.954827263644918,-0.8484217185967575,-0.42884855809125794,0.18935944542535524,-0.3250397564551332,-0.5870931614459436,-0.3226815373623525,-0.6539134250919737,-0.9041879897783884,-0.6444443501379545,-0.4414698627481944,-0.960915010596272,-0.23649913660326885,-1.1873211705156468],[0.02003322990717191,0.15985009289193558,-0.28449986272132577,0.24841537590874227,-0.648850965459092,0.12215400010433183,-0.41820529032012144,-0.72791560560766,-0.28846456045034413,0.5681197937117305,0.4012493805239755,-0.4763782680017251,-0.45359627483362086,-0.7703126621687422,-1.0191700135968296,-0.6282132351129508,-0.9057574820907176,-1.2855337789198902,-0.7053316131986209,-1.2125316144683538],[-0.861018174107146,-1.931001639926648,-0.11961656842731846,0.3127192474003019,-0.7224992765567972,-1.4166690682058505,-0.04000942489871998,-0.23982156108700037,-0.3333856104412144,-1.1645081762064569,-0.9433847441297836,-0.12341006949019244,-0.9577000902948436,0.367643237679384,-0.09686949343058145,0.6608001071240243,0.19964177241312175,0.9367923226160036,-0.4137180910833048,0.023661541712732492],[0.4246815397205529,0.8609081628052704,-0.891883799877675,-0.8723404612109776,-0.7285229607065141,0.8331508164328298,-0.3313794278110276,-0.9861726229266748,-0.16848339805849824,1.0159460547847856,0.5638789994337408,-0.24627735673448464,-0.463825323072476,-1.5707775405229392,-0.4548521275611318,-0.995481790552738,-1.607830374008684,-1.8572629468984612,-0.02395883121133008,-1.875581776610045],[-0.49365768782518865,-1.0532281784388278,0.09468991968974942,-0.5199621162371462,0.1039411496942186,-1.2034637872797158,-0.6264867802429933,-0.06268973746805664,-0.3324116212384148,-1.244885168352151,-0.964106789017417,-0.5677093791491714,-0.024336279808226207,-0.4750398192336128,-0.028462838721898465,-0.1279854953218508,0.5831101885592151,0.22553451178014833,-0.31508108323695144,0.5918452765290606],[-0.9443175372200132,-1.3219658704894637,-0.9875513695218632,-0.49845386325309093,-0.389965433431802,-1.369402236434102,-0.24599852610424913,-0.4037533081651587,0.4273562382748149,-1.530541396118773,-0.4909997254581134,-0.7985716430866544,-0.06314813160478852,0.14605785885809003,-0.14916370586691569,-1.1808875908004643,-1.7157633271551915,-1.2389308061599171,-0.6448579052768517,-1.1036420861994924],[-1.807083138153302,-2.519366680746375,-0.35059364397094556,-0.677075447334388,-0.3332930021366354,-2.238066811439149,-0.9261905009901618,-0.6137893645319281,0.12449168384139536,-2.4905309922211076,-1.5082020670087932,-0.1184896400986498,-0.6686251529708149,0.387742653399706,-0.6806045748465709,0.006456963392515503,-0.25520363852798783,1.1493219323083257,-0.8102454580577904,0.98498721190998],[0.1137114696551884,1.0925027525042184,-0.6713763003296507,0.2326263486153111,-0.7093967382696855,0.4789093071251595,-0.968405976708984,-0.2834265522245408,-0.880984020955982,1.1667670806211614,0.1142362031205196,-0.41234571132462194,-1.3223378327283104,-0.7342946658215647,-0.4059138163928878,-0.843710064767297,-1.7509321138846343,-2.2472271162288817,0.030233837149759697,-1.5706365336912662],[0.6666558341998953,0.6427785155397538,-0.5183802126266264,-0.5880390849324142,0.0442830272784964,0.7238296208974659,-0.11704497414257434,-0.3418059136668698,-0.6617436974602062,0.6435616100872855,-0.24018603577149344,-0.26211162127053383,-0.11650593607063506,-0.11317368934272416,-0.3565406533691985,-0.840193475125255,-0.10333510802585576,-0.6608805173643906,-0.03489671420813387,-1.3080714095792652],[0.9675745509179884,1.5475707109269785,-0.7730803227012811,-0.7050350488760372,-0.5341588500154544,0.8131027256221542,-0.08917702705289715,-1.0204491310850508,-0.06882065900437324,0.09120980843844267,0.5834217450188655,-0.4483216603736595,-0.6457582204579915,-1.0594521825252186,-0.5218594522714854,-1.6075128441301103,-1.740546504233428,-3.329612440803015,-1.411593845961323,-2.2502580738092433],[0.03856881711923722,0.670665053030402,0.03504838840783731,-0.4939192446136811,-1.0017244422290172,0.03655317644938593,-0.7485408986251874,0.1273576513978076,-0.8996390658440416,0.5256267612041479,0.6283441409626634,-1.1123155532586015,-0.38496955769807045,-1.4314486451080584,-0.9982553007509593,-0.13746941986123834,-1.2044477637097095,-1.032802640134968,-0.7488970803036771,-1.274662111751372],[-1.2740292108792963,-2.0960724907070203,0.10918939486121422,-0.3383847133304028,-0.976381848853685,-1.7452150797214292,-0.4830848609510128,-0.650739085310739,-0.12820442177357516,-1.928459315250235,-1.1926446047547423,-0.3334501893263762,-0.44281041228899304,0.3635400152413957,-0.006929510225033781,0.007910222101664217,1.0017416934986418,1.1956001723070688,-0.447175567302955,0.7639277247296274],[-1.046725709170553,-1.0497178625994092,-0.6858498056551464,-0.021416588196100705,0.1230944032410927,-0.5271062706783822,-0.549452581174662,0.40488838267500094,-0.8264646094367931,-1.30643965880601,-0.5171490585972585,0.2719329619573524,0.006802690176340604,0.1492241015036905,-0.4791572610543874,0.6369084571816797,0.21629589858823425,0.36553332975922087,-0.5507643421296253,0.7978733847375518]],"inactivated_output":[[[1.3216508317970483,3.025783688548918,-4.816843654434546,-4.006235808251822,-5.140075977769315,1.7152786749254427,-4.493646695424838,-5.191857760284102,-5.257561843575555,2.20353617183176,0.320651884329957,-5.394787558649867,-4.890508468315342,-6.5616928418699585,-5.601272150744206,-6.163615414718158,-7.93887086196215,-11.436767953036952,-4.574510520216377,-10.354089858763425]],[[-3.966431662449733,-5.0144594051258435,-4.901794936135025,-4.484722474030002,-4.5008062803472315,-4.236804002510633,-4.647404677128097,-4.354722060580402,-4.117457528583623,-4.585448074074585,-3.573736573483943,-4.39190145201076,-4.472374430971433,-3.247346745558337,-3.94554982319784,-3.680734512719494,-4.312644637966545,-5.034488338403008,-4.984774585059224,-4.473912505860563]],[[-8.202937471942091,-11.82340979600801,-3.5050200373760902,-3.899654472705401,-3.728503976716996,-8.67497960061734,-4.693019539423306,-2.58886787175833,-3.8526430041193116,-9.726162814809356,-6.854421131508616,-2.8090343993595006,-3.4567310015043593,-0.2000205161644276,-1.8951199704771633,0.4153115382342782,1.7375767436900427,3.185176814454498,-4.544548034189196,2.5293123634320986]],[[-4.150409601041015,-5.265014163846223,-4.971535927983977,-4.676558408003408,-5.630135460107026,-4.31431306028675,-5.724858609503134,-4.958851154084773,-5.403962809196949,-4.625059209949951,-3.919049829677209,-4.881374938283781,-5.26551053375453,-4.30706684641433,-4.649141633991637,-3.678877712059669,-4.108432840095994,-5.286481710825287,-5.713313821657856,-4.959704776634611]]],"activated_output":[[[0.789456234139437,0.9537254484640841,0.008027331830209242,0.017876404964837604,0.005823136964471277,0.8475196861595747,0.011056196031538231,0.005530904273648106,0.005181006349768524,0.9005666170944058,0.579483114762637,0.0045196642913417975,0.007461506398626562,0.0014114961988934607,0.003679573884502838,0.0021002109824985408,0.00035648185136621496,0.000010791217095850795,0.010206106954039425,0.000031861210575407865]],[[0.018588814659567656,0.006597406116875441,0.0073783846070792905,0.01115419807415799,0.010978186098312357,0.014247780415128353,0.009495423763856972,0.012683085239444131,0.016024893161367796,0.010096205580781777,0.027285463587670415,0.012225851792701147,0.011291220574638291,0.03742235379787412,0.01897362327343495,0.02458481288714464,0.013220938411056479,0.0064674299041856025,0.006794835692628242,0.01127406130700907]],[[0.0002737731656980671,7.330865199019817e-6,0.02916973132966501,0.01984703014175336,0.023464927611525407,0.00017077737309877794,0.009075865027805708,0.06985831282650232,0.020782492424503085,0.00005969738555766336,0.0010536708441354317,0.05683792840685484,0.030568759272361752,0.45016092838049815,0.13066179545951706,0.6023607916248047,0.8503789921128959,0.9602726264570941,0.010513271971155879,0.9261713429703523]],[[0.015513499716738257,0.005142736116727303,0.00688476258830767,0.009225109002357023,0.0035752613907993756,0.01319918910865495,0.003253197079231055,0.006972038758560923,0.004478571930364548,0.009707909481328391,0.019473222239456214,0.0075294550175495035,0.005140196958267116,0.013293902221580318,0.009479099364063168,0.024629374162814646,0.01616781708627373,0.0050340599444575794,0.0032908473108310132,0.006966131522297871]]],"gradient":[[0.0,0.0,0.0,0.0,0.0,0.0,0.0,0.0,0.0,0.0,0.0,0.0,0.0,0.0,0.0,0.0,0.0,0.0,0.0,0.0],[0.0,0.0,0.0,0.0,0.0,0.0,0.0,0.0,0.0,0.0,0.0,0.0,0.0,0.0,0.0,0.0,0.0,0.0,0.0,0.0],[0.0,0.0,0.0,0.0,0.0,0.0,0.0,0.0,0.0,0.0,0.0,0.0,0.0,0.0,0.0,0.0,0.0,0.0,0.0,0.0],[0.0,0.0,0.0,0.0,0.0,0.0,0.0,0.0,0.0,0.0,0.0,0.0,0.0,0.0,0.0,0.0,0.0,0.0,0.0,0.0],[0.0,0.0,0.0,0.0,0.0,0.0,0.0,0.0,0.0,0.0,0.0,0.0,0.0,0.0,0.0,0.0,0.0,0.0,0.0,0.0],[0.0,0.0,0.0,0.0,0.0,0.0,0.0,0.0,0.0,0.0,0.0,0.0,0.0,0.0,0.0,0.0,0.0,0.0,0.0,0.0],[0.0,0.0,0.0,0.0,0.0,0.0,0.0,0.0,0.0,0.0,0.0,0.0,0.0,0.0,0.0,0.0,0.0,0.0,0.0,0.0],[0.0,0.0,0.0,0.0,0.0,0.0,0.0,0.0,0.0,0.0,0.0,0.0,0.0,0.0,0.0,0.0,0.0,0.0,0.0,0.0],[0.0,0.0,0.0,0.0,0.0,0.0,0.0,0.0,0.0,0.0,0.0,0.0,0.0,0.0,0.0,0.0,0.0,0.0,0.0,0.0],[0.0,0.0,0.0,0.0,0.0,0.0,0.0,0.0,0.0,0.0,0.0,0.0,0.0,0.0,0.0,0.0,0.0,0.0,0.0,0.0],[0.0,0.0,0.0,0.0,0.0,0.0,0.0,0.0,0.0,0.0,0.0,0.0,0.0,0.0,0.0,0.0,0.0,0.0,0.0,0.0],[0.0,0.0,0.0,0.0,0.0,0.0,0.0,0.0,0.0,0.0,0.0,0.0,0.0,0.0,0.0,0.0,0.0,0.0,0.0,0.0],[0.0,0.0,0.0,0.0,0.0,0.0,0.0,0.0,0.0,0.0,0.0,0.0,0.0,0.0,0.0,0.0,0.0,0.0,0.0,0.0],[0.0,0.0,0.0,0.0,0.0,0.0,0.0,0.0,0.0,0.0,0.0,0.0,0.0,0.0,0.0,0.0,0.0,0.0,0.0,0.0],[0.0,0.0,0.0,0.0,0.0,0.0,0.0,0.0,0.0,0.0,0.0,0.0,0.0,0.0,0.0,0.0,0.0,0.0,0.0,0.0],[0.0,0.0,0.0,0.0,0.0,0.0,0.0,0.0,0.0,0.0,0.0,0.0,0.0,0.0,0.0,0.0,0.0,0.0,0.0,0.0],[0.0,0.0,0.0,0.0,0.0,0.0,0.0,0.0,0.0,0.0,0.0,0.0,0.0,0.0,0.0,0.0,0.0,0.0,0.0,0.0],[0.0,0.0,0.0,0.0,0.0,0.0,0.0,0.0,0.0,0.0,0.0,0.0,0.0,0.0,0.0,0.0,0.0,0.0,0.0,0.0],[0.0,0.0,0.0,0.0,0.0,0.0,0.0,0.0,0.0,0.0,0.0,0.0,0.0,0.0,0.0,0.0,0.0,0.0,0.0,0.0],[0.0,0.0,0.0,0.0,0.0,0.0,0.0,0.0,0.0,0.0,0.0,0.0,0.0,0.0,0.0,0.0,0.0,0.0,0.0,0.0]],"errors":[[0.0,0.0,0.0,0.0,0.0,0.0,0.0,0.0,0.0,0.0,0.0,0.0,0.0,0.0,0.0,0.0,0.0,0.0,0.0,0.0],[0.0,0.0,0.0,0.0,0.0,0.0,0.0,0.0,0.0,0.0,0.0,0.0,0.0,0.0,0.0,0.0,0.0,0.0,0.0,0.0],[0.0,0.0,0.0,0.0,0.0,0.0,0.0,0.0,0.0,0.0,0.0,0.0,0.0,0.0,0.0,0.0,0.0,0.0,0.0,0.0],[0.0,0.0,0.0,0.0,0.0,0.0,0.0,0.0,0.0,0.0,0.0,0.0,0.0,0.0,0.0,0.0,0.0,0.0,0.0,0.0]],"layer_bias":[-0.0246678779758109,-0.06289692627951163,-0.08154166718751699,-0.08957544375365159,-0.09679890909245133,-0.06376249847003866,-0.09426009398507244,-0.05472689486824705,-0.11917116656501,-0.05908501397618069,-0.0800204754663249,-0.09824563877294672,-0.11993816863045571,-0.08578139884406527,-0.07068217345113081,-0.018786612968975346,-0.051384848786514094,-0.07185274523139364,-0.09788663671763276,-0.08518488734298252],"activation_type":"SIGMOID","layer_type":"HiddenLayer","previous_layer":null,"next_layer":null,"input_data":[],"previous_gradient":[[0.0005454488789219569,0.0002377083500357235,0.00009598630670670298,0.00021341936750598545,0.00015171659560076105,0.0004606170663271044,0.0001946698177365865,-0.000019421558077449937,0.0002447848809271504,0.00039474759578546,0.0005927691345594202,0.00005029896720926509,0.00013984659676319832,-0.0004566647399263159,-0.0001343063388840213,-0.0006508640464379916,-0.0003005664473856623,-0.000018585242648408178,0.00015779242880740703,-0.00007729261173564922],[0.00012655036176347916,0.0001182645358252522,0.00017504066873712514,0.0002504814202101051,0.0001950362959318221,0.00013027715820387647,0.00019718010756284533,0.000130800152875523,0.00028172443849979476,0.00013215304133019497,0.00007541635444793435,0.00017630374257508334,0.0002015882289418111,-0.000010995897015455322,0.00009970855169448326,7.595238810192105e-6,0.00010386224706611548,0.00011674607980944005,0.0001691853668551763,0.00011792504914744518],[0.00010379387033489512,0.0001126428768118472,0.00018108650760784983,0.0002549215992435183,0.0002014135739814472,0.00011205168846479556,0.00020076535205424897,0.0001425924066099717,0.0002890565255023925,0.00011771442597783436,0.00004766016959703936,0.0001864871979176192,0.00020867677830890168,0.000022137851331735557,0.00011719844655954044,0.00004655743166371684,0.00012728822123276196,0.0001261956719768819,0.00017246409315009373,0.0001319815355700837],[0.0002653366598120139,0.00013023004530732715,0.00013683372788456178,0.00017581406469516271,0.0002068587572909997,0.00021351698534382272,0.00018474536378843543,0.00021084472205167617,0.000266042622101429,0.00018192362660707825,0.0003068771530361531,0.0001994614848925009,0.00020613134448674785,0.00044967299093195143,0.00026551678792855057,0.0003098459568404591,0.00018948469511165887,0.00013725603348580906,0.00015630004268613222,0.0002034950166198382],[0.0006684192177637443,0.00028512339683232565,0.0001306341452099293,0.0002588036457751875,0.0001638776864194002,0.0005700047768251983,0.00021283721148184585,-8.188386664572414e-6,0.00026188430399181863,0.0004892541066896118,0.0007171873338881464,0.00007115173057006282,0.00015896849105827792,-0.0005043428752894976,-0.00013514402222496665,-0.0006203507051553958,-0.0002560477223089511,-1.2178339312639134e-6,0.0001792167260523374,-0.00006732772922841209],[0.0005135068361928853,0.00023716554753093244,0.00013791924185336773,0.0002526736053786191,0.0001737331247662188,0.00044271247924478096,0.00020995331988055943,0.00002665923412378582,0.00026998028876551867,0.0003852007818106831,0.0005368754662281064,0.000096551579074265,0.00017017361224091026,-0.00037236074742136847,-0.00007477822715199175,-0.0004735449383693446,-0.00017582183239215685,0.000026532521130395543,0.00017624834179552694,-0.000021295801833922723],[-0.00031850770680374584,-0.000013173676449798496,0.00027270257616671654,0.000286571683247158,0.0002773346366730622,-0.0002308649174524777,0.0002167956103415307,0.0003712165453720668,0.000352798048230553,-0.00016011093961808802,-0.0004523610228591732,0.00036354775036809815,0.0003033477917786953,0.0007698220768259699,0.00048321999402418177,0.0009698700193752818,0.0006557449356666494,0.0003072398870886726,0.00019588728982117883,0.000415299413684509],[-0.00025217589082290984,2.686170733413526e-6,0.0002353408780462595,0.00026156627724708116,0.0002503536655488612,-0.00017985479503220323,0.00020432801819949132,0.0003029000993917294,0.000327028598785593,-0.00012066921235911377,-0.00036736647254762553,0.00030656199191128955,0.0002690973713878554,0.0005754398474046873,0.00038062097121957256,0.0007056503049972173,0.0004962610661686845,0.0002511372344194599,0.00018068336611485773,0.00033282565739127133],[-0.0002629778735004232,2.257015810212923e-6,0.0002514483440949816,0.00027585144159647767,0.000252848650994653,-0.00018421285954314145,0.00020529753593250013,0.00031598646850961466,0.0003288574978350396,-0.0001218860049247484,-0.0003895771893688651,0.00032088071971252645,0.00027593177541100655,0.0005913364753267997,0.00039653442105471847,0.0007750685458682389,0.0005479749720967256,0.00026711292657062916,0.00018453532285960295,0.0003504174925701833],[0.0006422528165112226,0.00028216208247354365,0.00015351099240830434,0.00027974049253058695,0.0001760072836015185,0.000553116786480623,0.0002208472315324529,0.00001767778148142185,0.00027575919274664583,0.0004782587563715769,0.0006763792718668179,0.0000969330328019264,0.0001756295068308435,-0.0004551842080975768,-0.00010126482913211772,-0.0005200212718918959,-0.00018596395027250503,0.00002411208892224537,0.00018891509632436336,-0.000035620714866023786],[-0.0003034315503422157,-5.054628918853759e-6,0.0002918693446648924,0.00030476404923347647,0.00028776363298265464,-0.00021549231699355924,0.00022462543798086875,0.0003935567026075367,0.0003638389340791952,-0.0001457108039517112,-0.0004414554928454647,0.0003848552462346312,0.0003176357109777844,0.0008142317890205341,0.0005125044521816251,0.0010539985915504588,0.000712748921378478,0.00032749386934136007,0.00020543201382785517,0.00044133448464930906],[0.0005103769833676736,0.00023922203589015655,0.00014981645717503393,0.0002652565858644512,0.00017503744761101475,0.0004441012015726439,0.00021157938006897357,0.00003166107159185475,0.00027192838636991816,0.0003884868293886168,0.0005246246172087448,0.00010459126955386292,0.00017452873521859254,-0.00038161538337600127,-0.00007170547142620312,-0.00044326090121388304,-0.0001475594468543058,0.00003549098426845548,0.0001797456133046191,-0.0000140391783405656],[0.0004117528405915058,0.00017822389752348666,0.00017279450697909275,0.0002086267582164695,0.00024568243640745677,0.0003306783892898007,0.00021462746022370824,0.0002817905552912222,0.0003048428747533203,0.00027690168057024715,0.000483537612644698,0.000255434959692448,0.0002496636285224775,0.0006524639307539619,0.0003686410790508945,0.0005256775815975201,0.0003085378961033682,0.00018379320642254463,0.0001866009124146847,0.0002781409944545402],[0.0008725848704909886,0.0003648027829198908,0.00020054829406019372,0.000341260222417595,0.0002130778857802463,0.0007464664493849015,0.00026165028284864483,0.000058127999626857385,0.0003215248906054109,0.0006400676773902736,0.0009340249967605958,0.000140553871821348,0.00021893735145793645,-0.0004196422336262588,-0.00006141953351589948,-0.0004414944379278168,-0.0001217286268213048,0.000055532003797499434,0.0002299863657799769,4.831885246313057e-7],[-0.0002962746285231457,-2.593194435188795e-6,0.0002934897303084094,0.00030709473475363375,0.0002813973419117913,-0.00020734492663441063,0.00022046126968122307,0.0003862953636217133,0.0003563155187152348,-0.00013810342750997847,-0.00043771303772609433,0.0003806072063303962,0.000312775563370833,0.0007816845992411187,0.0004998135696108101,0.0010450936706228433,0.0007136045474425559,0.000325286316418484,0.00020309680111004903,0.00043427958121922594],[-0.0002649254448977823,-7.335891577676403e-6,0.0002141888543597712,0.00023778109466012897,0.0002327006955206177,-0.00019320577629613263,0.0001889025719585719,0.00027975173962206895,0.00030463350926233603,-0.00013388300084105613,-0.0003750877107131778,0.00028260307386133033,0.0002487694080795963,0.0005382863435676871,0.0003529382751804153,0.0006447286402247988,0.0004517532577451462,0.00023106821923047475,0.00016576346899651077,0.0003076713191272728],[-0.0002456639900110389,0.00002151338971055454,0.0003408298419945549,0.0003515013945333317,0.0003241041952254474,-0.0001634342856585469,0.0002522796035058115,0.000461344602414757,0.00040329290287217066,-0.00009970654219910112,-0.00038504435601373625,0.00044611509186364025,0.0003622198935991463,0.0009695001488954648,0.000604522071917805,0.0012812909116457533,0.0008581749968162187,0.0003826049073106754,0.0002352901332400554,0.0005174208154445177],[-0.0002655289194426388,3.5775003121269833e-6,0.00026084931637263144,0.000284287714491105,0.0002674413878282167,-0.0001872523602802882,0.0002157528779609365,0.0003376318916032678,0.0003458011149445648,-0.00012434699664720032,-0.0003910950060270659,0.00033864047462134984,0.0002907884930900323,0.0006546880198085831,0.00042833740700965074,0.0008311439201633315,0.0005782882748363602,0.00028148490727121495,0.00019347488125330255,0.0003737984453479064],[0.0007407119934843285,0.0003143291414783632,0.0001602557748992189,0.0002930206908832801,0.00017803885486920694,0.0006350479513936151,0.00022790425075882345,0.000013614694848745443,0.00027905849744940453,0.0005459541388021699,0.000788627878604302,0.00009641715097356992,0.0001788712678007494,-0.0004922529024034962,-0.00011369714488178832,-0.0005476911567665316,-0.0001963827345448387,0.0000211921810225904,0.00019672010815439104,-0.00004382281473944876],[0.0005342841326408474,0.0002443010989810201,0.0001408814226162567,0.0002575493919480098,0.00016718455507623423,0.0004625456355399313,0.00020661317605299203,0.000017883634454246604,0.0002625534784776196,0.00040264366022251696,0.0005553838826493166,0.00009184691559136,0.00016545490774976294,-0.0004151232836796046,-0.00009105520337812176,-0.0004887096896784364,-0.00017682246423822282,0.000023674721871329616,0.00017496921814547393,-0.00003046767291715359]]},{"input_weights":[[2.2982060585492765],[2.6429872299394956],[2.2363519064842357],[1.7314472064276614],[2.0526445960155866],[2.4002575625921683],[2.0447642104531356],[2.1725857908851034],[1.718100492979918],[2.8106434709301173],[1.860517368868425],[2.00562506347101],[2.054716185876297],[1.8035882051536951],[1.942339343724552],[2.339522211535409],[2.5025165765672437],[2.7806019876114085],[2.521331080047479],[2.438026443405908]],"inactivated_output":[[[5.6906279524719245]],[[-3.846460028293203]],[[5.633403094365228]],[[-4.040025958913483]]],"activated_output":[[[0.9966338973312885]],[[0.020908691889913837]],[[0.996436361246383]],[[0.017292713733169728]]],"gradient":[[0.0],[0.0],[0.0],[0.0],[0.0],[0.0],[0.0],[0.0],[0.0],[0.0],[0.0],[0.0],[0.0],[0.0],[0.0],[0.0],[0.0],[0.0],[0.0],[0.0]],"errors":[[-0.0033661026687115125],[0.020908691889913837],[-0.0035636387536169822],[0.017292713733169728]],"layer_bias":[-4.458081956179322],"activation_type":"SIGMOID","layer_type":"OutputLayer","previous_layer":null,"next_layer":null,"input_data":[],"previous_gradient":[[-0.00200855071605493],[-0.00200855071605493],[-0.00200855071605493],[-0.00200855071605493],[-0.00200855071605493],[-0.00200855071605493],[-0.00200855071605493],[-0.00200855071605493],[-0.00200855071605493],[-0.00200855071605493],[-0.00200855071605493],[-0.00200855071605493],[-0.00200855071605493],[-0.00200855071605493],[-0.00200855071605493],[-0.00200855071605493],[-0.00200855071605493],[-0.00200855071605493],[-0.00200855071605493],[-0.00200855071605493]]}],"learning_rate":0.09227447,"number_of_hidden_neurons":20,"input_dimensions":[1,2,4],"number_of_output_neurons":1,"number_of_hidden_layers":1,"number_data_sets":4,"number_rows_in_data":1,"number_columns_in_data":2}