{"layers":[{"input_weights":[[0.36783202206340077,1.760579436783267,0.3684166840354877,0.40008691131808793,-0.21466287931009476,0.13286164215307544,0.049363703870765,0.12306318350999158,0.6360328266755411,-1.4055597739542927,0.4614388871716429,-0.3121668261452508,0.6236503268248255,0.4211529063434757,-1.0503504936877073,0.23808429356013977,0.3867650516005925,-0.26157780229101707,0.08465415922591416,-2.214630091699586,0.2377507345170431,-0.6252099330017158,-1.2615277387699688,-0.2425284779588263,0.6053931705240537,0.6535787364775453,0.495681038409907,0.7964868464095765,-0.624390563259009,-0.11899171239994773,0.22262494832296817,-0.029123343795004673,0.21399120850182046,-0.3011170410495464,0.1366334377400655,-0.184465213520447,0.22272227192948457,0.2739410225321745,-0.8680873280086595,0.3413178761987933],[0.0994600141731195,0.27112725167876095,-0.46729279040789334,-1.0415765410404763,0.5001363001051679,0.26899192904317126,-0.6253454154270544,0.4207111260057713,2.706940436510818,0.13712337097042354,0.13408354686688706,-0.16788018472246538,-0.26851869134011014,0.03138674766225357,0.4423912637122273,-0.41136857765907714,0.30422577566059994,-1.605801173792521,-0.3030735790417928,-0.25929643984113493,0.6989470819397191,0.4677418181859577,-0.33291358380829916,0.1271746053243125,0.6011529575501287,26.790492146052898,-0.7958880656426875,-0.5129980774259019,0.5096187858006374,-0.7293503871764278,0.6405458649403781,0.2694683151049998,0.11913173980574111,0.07774522110982586,0.1464474643435253,-0.31655136290719216,-0.4711565562946525,0.912933585663733,-0.4011650200947635,-0.0448873397897761]],"inactivated_output":[[[0.20251144592390197,-0.1304485086049127,-0.35426054962315034,-0.0576192985961652,0.1333498519764082,-0.38559288965340816,-0.187381800873605,0.2490133684249827,0.0027100225213722573,-0.048165117495864246,-0.25579253279104425,-0.10510499590831426,-0.16654077062547293,-0.16850363196243,0.06814749850101846,-0.1400495721515554,0.08283041082182827,-0.39248561705971863,-0.09252290402808264,-0.14048641187008343,0.1471971531450197,0.009632076695759079,-0.245674382808667,-0.20051117182466482,0.36007289352112515,2.7598395970873066,-0.18118974194580673,-0.14131075599939028,-0.005479252862684018,0.10481531203892938,0.1082797476722336,0.30318172762370044,0.29714383405213013,-0.059308430797662536,0.16512747455916646,-0.16325632103960652,-0.19974101816399423,0.2392268744097406,-0.047677642479497254,-0.094891612103455]],[[0.5917358725533806,1.6505528570106953,-0.19118181595259434,-0.09416734926017216,0.1294746366738853,-0.15177755799071796,-0.3906244483672,0.5342078431617832,1.6897173824674634,-1.3285975543642727,0.2362078287687714,-0.4688155546352887,0.3185195633220672,0.24414632812877332,-0.7527289650174125,-0.07841692433305344,0.5719475201066311,-1.2833049987531933,-0.1333308843801813,-2.348103574921144,0.6526391837120982,-0.39722063238148786,-1.577291168163457,-0.3800433837558248,1.1756575885390277,14.096936255162133,-0.028647981713470078,0.41015251711934664,-0.3948027736384876,-0.2999669696115921,0.5759917945552047,0.38330187706044594,0.548088178051156,-0.31427153135080127,0.35350822614963884,-0.46511881904690805,-0.17661748234884486,0.8646442800807996,-1.0328266121256293,0.21140543436948817]],[[0.38398346419555973,0.5537108771017889,-0.6827198899813824,-0.8950164577030718,0.5298068022435356,-0.11028474297628515,-0.7378517487902627,0.6584191777076748,2.597964622049994,-0.27614402711105623,-0.019757618817935196,-0.3342388686948458,-0.2522950111253657,-0.03496733248053288,0.20371201242009623,-0.45076021865468985,0.4533248718165164,-1.9031011240457418,-0.34412558535921756,-0.9275107306520013,0.8356872105200276,0.27429722981269206,-0.8606785429286283,-0.14668614652249012,1.0524588479472543,27.0346772126543,-0.7735687414217487,-0.40388731408030787,0.2970800135431374,-0.5813479645198425,0.740427263199316,0.538422375269449,0.45786020200275224,-0.06461699206120586,0.3310885519033556,-0.4942688510361912,-0.5681013508468103,1.1293523571401438,-0.6257479925669492,-0.04996074886455517]],[[0.3835550186709818,0.6889599170980072,-0.3033187172817061,-0.12514453116869695,0.15607616289725607,-0.2665942398476563,-0.3099848537573986,0.3986940963156065,0.8988004383893432,-0.6210174449730126,-0.026534595527853755,-0.27794917363693916,0.039869570900976675,0.019811069727582842,-0.28175322313088336,-0.13228809878228304,0.31911131141202104,-0.8742983420171357,-0.1258285387405519,-1.1524155324643663,0.41018779783348364,-0.1516275763122084,-0.8647014347556623,-0.2755482581223683,0.7586571370829978,9.202691647364817,-0.15110115052736486,0.08318903014877013,-0.1567548743299113,-0.11410171334362654,0.3513340243873969,0.35263640226599835,0.41656035386323337,-0.17090735759370754,0.25756276958640545,-0.3153831763220529,-0.21233644918208594,0.5669962388012342,-0.5132231481450164,0.0415509865103776]],[[0.5041337040158906,1.3132266295573662,-0.0521588687140504,0.27045196868466687,-0.04267370905786952,-0.27664634308788627,-0.14690356369957772,0.3499251789031758,0.524256940395316,-1.2007241321383841,0.12258735468970294,-0.3610817933474199,0.34485249737088386,0.17684175123922005,-0.7931399063229014,0.05517954856775922,0.3999777531343141,-0.6069794149383526,-0.023106493462833028,-1.9564830870637437,0.34215275544899504,-0.5030400683656479,-1.2801271286000413,-0.3993845237509024,0.8564952933508492,3.2957741609988935,0.22526870955031705,0.5118084580564625,-0.5174795147350714,0.007242107870972236,0.29083220529706755,0.2793005857117966,0.4726166250236229,-0.3062244044582906,0.2771668935060202,-0.3145177961263731,-0.017108755181816898,0.46385851288612373,-0.759509251446598,0.1849890463795555]],[[0.3582352226511217,0.43047031652696033,-0.7085090578638665,-0.9230225414953379,0.5448332037952421,-0.11958505792700042,-0.7413072080612162,0.6498047548619754,2.553442324182706,-0.17775484293425572,-0.05205834091995015,-0.31238719086467825,-0.29595053400310345,-0.06444803592457618,0.27723654697823574,-0.46742611920389965,0.42625131820447487,-1.8847906778853707,-0.3500513765050316,-0.7724866242330304,0.8190446591038346,0.3180619251228121,-0.7723716012147306,-0.1297091530653723,1.0100813260105705,26.988926701100873,-0.8082664141104422,-0.45964139332897824,0.340787352971268,-0.5730185446518462,0.7248435168167082,0.5404610093350994,0.4428808174076248,-0.04353879918773761,0.321524211261551,-0.48135628608975994,-0.5836919098818742,1.1101764855628917,-0.5649818796063432,-0.07385300019847069]]],"activated_output":[[[0.19978769937750615,-0.12971353236132555,-0.3401485719897172,-0.057555622783928236,0.1325650142225812,-0.36755464806502003,-0.18521905249457904,0.2439909773765051,0.0027100045668910057,-0.048127933615452576,-0.2503559334944498,-0.1047196586597368,-0.16501794194382033,-0.16692670681798655,0.0680421745998558,-0.1391410397509907,0.08264151250486938,-0.3735010598187162,-0.09225979605530937,-0.13956943997686366,0.14614317807928393,0.009631783155960123,-0.24084823685756646,-0.19786653820693506,0.3452782074823756,0.9920177032686986,-0.17923265119625065,-0.14037760038298014,-0.005479164078870542,0.10443312945405485,0.10785857077979272,0.294221632480953,0.2886966533225667,-0.0592390001815939,0.16364280770789,-0.16182117217914968,-0.19712641367624134,0.23476533562276639,-0.04764156818458936,-0.09460779473663973]],[[0.5311429421592981,0.9289334894718602,-0.18888611123435287,-0.0938899714069644,0.12875596198045683,-0.1506227272770127,-0.37189839949734343,0.48859096255289514,0.9341111814129442,-0.868906127249406,0.23191069835787728,-0.43724182452826993,0.3081676448073488,0.2394082823525926,-0.6367741640758509,-0.07825658783328082,0.516788117501514,-0.8573630026141782,-0.13254634934134882,-0.9819054536838345,0.5734440067034916,-0.377568300826424,-0.918177756662073,-0.36274513343546183,0.8260774401602029,1.0,-0.02864014156255027,0.38860218788327333,-0.3754932240492583,-0.29128238024370356,0.5197460280732186,0.3655715369615568,0.499085940214075,-0.3043180746117035,0.3394831426455701,-0.4342469800145225,-0.17480366873150774,0.698642810842161,-0.7750395368839919,0.2083113261884441]],[[0.36616187443883114,0.5032962815200257,-0.5932847672993226,-0.7138626585974346,0.4852334238820846,-0.10983978765056565,-0.6278454181315117,0.5773104720374165,0.9889829127857221,-0.2693325365157665,-0.019755054828553876,-0.3223243750871743,-0.24707479699101514,-0.034953084663005285,0.20094007918472248,-0.42252370897968894,0.4246282465090065,-0.9565021434063113,-0.33115556766373144,-0.7294311581719919,0.6835179542592349,0.26761889217366175,-0.6966071335713494,-0.14564304498469044,0.7827604364729687,1.0,-0.6489998232392099,-0.38327016000057257,0.2886381324778038,-0.5236444617500632,0.6294032090439945,0.4917928232679654,0.42833863475836803,-0.06452721925328989,0.3194985214516591,-0.4575980344094934,-0.5139635409242225,0.8107975344370936,-0.5551174118574449,-0.04991921734285184]],[[0.36579081002062297,0.5973133726748906,-0.2943467364879206,-0.12449526174710346,0.15482108795819757,-0.26045292397586783,-0.3004233486327669,0.3788310606562079,0.7157132058958917,-0.5518360242628036,-0.026528374574364105,-0.2710059194004085,0.039848451676871614,0.019808458718889796,-0.27452695110067526,-0.13152180258460178,0.3087031325065688,-0.703551430894083,-0.12516864076049694,-0.8185526677729446,0.388632138095247,-0.15047611000016028,-0.698672033514512,-0.2687798940600899,0.6402853073003638,1.0,-0.14996161259172994,0.08299764981940924,-0.15548343700489478,-0.11360912840208667,0.3375580782617692,0.3387115425792097,0.3940287334282897,-0.16926253198643704,0.25201444465952977,-0.3053264061607829,-0.20920175691883838,0.5131499113012029,-0.47245273666026394,0.04152712351935778]],[[0.4653618311338291,0.8650895126136167,-0.05211162567331677,0.26404532363711286,-0.04264783420497277,-0.2697983703228224,-0.14585585390090627,0.3363091840057983,0.48097880871932064,-0.8338752996847688,0.1219769164091845,-0.34616650761304485,0.33180259235697657,0.17502105897816686,-0.6601841199250778,0.05512357966820221,0.37992988676552186,-0.541997331174764,-0.023102372966355724,-0.9608205918622655,0.32939790339017505,-0.4645046289038479,-0.8565187481738372,-0.37942220512400826,0.6944475061799642,0.9972599718631747,0.22153395454314018,0.4713530192059268,-0.4757523511678483,0.007241983027903302,0.28290059072359064,0.2722576268938979,0.44031102176121617,-0.2969984365404459,0.27028095962200366,-0.3045415232476729,-0.017107068600625806,0.43322376606414786,-0.6407878039418751,0.18290734506011155]],[[0.3436586147857065,0.4057142978552411,-0.6097410628658355,-0.7273242171696739,0.49663773476517376,-0.11901825259863695,-0.6299342831618853,0.5715385492756513,0.9879630777038191,-0.17590601003299425,-0.052011386220297245,-0.30260723133481465,-0.2876024328830134,-0.06435896947847589,0.27034551153832204,-0.4361173294988873,0.40218370864020747,-0.9549163093957893,-0.33642109397899445,-0.6483730853955687,0.6745495502432733,0.30775342774638526,-0.6483063708187288,-0.12898660097781442,0.7657956223472215,1.0,-0.6686327572296034,-0.4297918637103839,0.3281801597891999,-0.5175726353205273,0.619900485272969,0.4933368035861122,0.41602949128157185,-0.04351127128252522,0.31088443810153554,-0.4473291606938857,-0.5253435925046755,0.8041246961476389,-0.51166437785683,-0.07371900001129407]]],"gradient":[[0.0,0.0,0.0,0.0,0.0,0.0,0.0,0.0,0.0,0.0,0.0,0.0,0.0,0.0,0.0,0.0,0.0,0.0,0.0,0.0,0.0,0.0,0.0,0.0,0.0,0.0,0.0,0.0,0.0,0.0,0.0,0.0,0.0,0.0,0.0,0.0,0.0,0.0,0.0,0.0],[0.0,0.0,0.0,0.0,0.0,0.0,0.0,0.0,0.0,0.0,0.0,0.0,0.0,0.0,0.0,0.0,0.0,0.0,0.0,0.0,0.0,0.0,0.0,0.0,0.0,0.0,0.0,0.0,0.0,0.0,0.0,0.0,0.0,0.0,0.0,0.0,0.0,0.0,0.0,0.0]],"errors":[[0.0,0.0,0.0,0.0,0.0,0.0,0.0,0.0,0.0,0.0,0.0,0.0,0.0,0.0,0.0,0.0,0.0,0.0,0.0,0.0,0.0,0.0,0.0,0.0,0.0,0.0,0.0,0.0,0.0,0.0,0.0,0.0,0.0,0.0,0.0,0.0,0.0,0.0,0.0,0.0],[0.0,0.0,0.0,0.0,0.0,0.0,0.0,0.0,0.0,0.0,0.0,0.0,0.0,0.0,0.0,0.0,0.0,0.0,0.0,0.0,0.0,0.0,0.0,0.0,0.0,0.0,0.0,0.0,0.0,0.0,0.0,0.0,0.0,0.0,0.0,0.0,0.0,0.0,0.0,0.0],[0.0,0.0,0.0,0.0,0.0,0.0,0.0,0.0,0.0,0.0,0.0,0.0,0.0,0.0,0.0,0.0,0.0,0.0,0.0,0.0,0.0,0.0,0.0,0.0,0.0,0.0,0.0,0.0,0.0,0.0,0.0,0.0,0.0,0.0,0.0,0.0,0.0,0.0,0.0,0.0],[0.0,0.0,0.0,0.0,0.0,0.0,0.0,0.0,0.0,0.0,0.0,0.0,0.0,0.0,0.0,0.0,0.0,0.0,0.0,0.0,0.0,0.0,0.0,0.0,0.0,0.0,0.0,0.0,0.0,0.0,0.0,0.0,0.0,0.0,0.0,0.0,0.0,0.0,0.0,0.0],[0.0,0.0,0.0,0.0,0.0,0.0,0.0,0.0,0.0,0.0,0.0,0.0,0.0,0.0,0.0,0.0,0.0,0.0,0.0,0.0,0.0,0.0,0.0,0.0,0.0,0.0,0.0,0.0,0.0,0.0,0.0,0.0,0.0,0.0,0.0,0.0,0.0,0.0,0.0,0.0],[0.0,0.0,0.0,0.0,0.0,0.0,0.0,0.0,0.0,0.0,0.0,0.0,0.0,0.0,0.0,0.0,0.0,0.0,0.0,0.0,0.0,0.0,0.0,0.0,0.0,0.0,0.0,0.0,0.0,0.0,0.0,0.0,0.0,0.0,0.0,0.0,0.0,0.0,0.0,0.0]],"layer_bias":[0.17417384340342,-0.24559020561195213,-0.3259521047841354,0.026534009941978035,0.09406936593139614,-0.41913516466537903,-0.12731544452443783,0.20078909664890598,-0.2997856624634866,0.008400534104808035,-0.2922728318363151,-0.07270863612880518,-0.17087141783270318,-0.19269995204582915,0.07642589681418109,-0.11081692906365465,0.033069580675738654,-0.21882660956591565,-0.06644825408519907,-0.0038252633009906506,0.06541490822519562,-0.005881608472750905,-0.14930663748933864,-0.20110220845915475,0.2696879392399096,0.048111445658139115,-0.12638498730203332,-0.1298352905772789,-0.025221603279797302,0.18369993637656953,0.03309391376204737,0.2776910633029507,0.274531099646465,-0.0520271008561678,0.14365105623781066,-0.12237792407286495,-0.1637614761310032,0.1342364647167586,0.03584322593041207,-0.10746877193441705],"activation_type":"TANH","layer_type":"InputLayer","previous_layer":null,"next_layer":null,"input_data":[],"previous_gradient":[[0.00009325851937337269,-0.0001290384811394058,0.0001505960354690027,0.000029711314495455513,0.000057034967514968244,0.00022814705021472815,0.00007984680461044764,0.00008351296700269722,-0.00010744514981792777,0.00007004276118378465,-0.000040982692576419434,-0.00006220655680800439,0.0001386817693363131,-0.0001812018780620009,-0.00004254471297813605,-0.000010992365768203749,-0.000013828262816815339,-0.00001343203325353363,-0.000040129011170309,-0.000018014941233348688,-0.00018689033291985916,-0.000018471819911956464,0.00007253237741033468,0.00024752155209120175,-1.6936214466908725e-6,1.2513568801313793e-7,-8.082297303768674e-6,0.000023278957256302928,-0.000012457061288765891,-0.0001234462879302456,-0.000021576143739130578,0.000054255899917044056,0.0001601863643813556,4.2509965087542795e-6,0.00017245634499408314,0.000053833232635644944,0.00009905351400709073,0.000051201078459399324,-0.00007489727312994508,-0.00011166022253670448],[0.00007613669180704706,-0.0005024146825760978,0.00009203678124502866,0.0000428776206733869,0.00008393039367549852,-0.00036164002344942024,0.00004861439167498725,0.00001619809628563922,-0.000047889631921281065,-0.00006321948815036561,0.0001447819111683642,-0.00003853164557697053,0.00019054972810097907,-0.00005348891267354804,-0.0001808092450960822,0.000022825330771703565,-0.0001788935717498677,-0.000020155255100222223,-0.00012554241903901353,-0.00003445977777021572,-0.00011288056429614648,0.00009352049321917008,0.00010402689195247478,-0.00014035144373098852,0.00004287997103381933,2.4268408173256754e-7,-1.3292494033476652e-6,-0.00005749896237894055,-0.0002658291642155424,-0.00006705297939306552,0.00008748468646856624,-0.00015394777953762882,0.00022377240429677212,0.00010976116209707805,0.00018952441614971129,0.000029397809941668004,-0.00009741984990127442,-0.00004415936364901858,-0.0000384963386241443,0.00006755624710679756]],"m1":[[0.00011796821048272011,-0.00012774899001630248,0.00013138075984639924,0.000027266058544201716,0.00007255483900004088,0.00027405774789829334,0.00008530442393191756,0.00008163146641295659,-0.00009845973222858191,0.00008896564445093322,-0.00003279789697333542,-0.00007129251115216456,0.0001332540883533647,-0.0001728726415486012,-0.000027733655657585323,0.000019467258455105426,-0.00002224773795583352,-9.348164542645174e-6,-0.000014126602443506492,-8.5554114574154e-6,-0.00014426610544673104,0.00003417145843686847,0.00006999259800989314,0.0002712456775608583,-4.414870652248642e-7,5.127194578267563e-6,0.00004164333362866439,0.000049461074378414905,-7.15917357200156e-6,-0.0001503865085877317,-4.123477628991057e-6,0.00003919596902265976,0.00014915364603684632,-4.141552356548451e-6,0.00016561948074497723,0.00007905014373838981,0.00011807210835717442,0.00003458841239970159,-0.00004709200192857601,-0.00012233673814027673],[0.00010928517194850248,-0.0005256556481304286,0.00008690675353397455,0.00004409902045751275,0.00010259152472853854,-0.0002980698089376286,0.00006671812624545066,0.000024313696267721954,-0.00003940800141757129,-0.000035056876766524994,0.0001606802714970892,-0.00004802529775442805,0.0001960929028055381,-0.00006501561032685747,-0.0001630838871256534,0.000042860870898198074,-0.00018699468289158354,-0.000014265273735994781,-0.0001009423044490163,-0.000030964015827942334,-0.00008044303602003667,1.6119437929483413e-6,0.00009770080220728518,-0.00008743562141724585,0.00004554979043071309,5.25238780436686e-6,0.00003263017017810932,-0.000036665831861259715,-0.00027276815160294694,-0.0001040904914836175,0.00010239401960805468,-0.00017641031515058838,0.00022100274443170932,0.00009562671431870657,0.00019183399527030105,0.00005823398522327563,-0.00006716554872260004,-0.0000529668517353107,-8.280646944249367e-6,0.00005017497138768114]],"v1":[[0.06829612963937019,0.015565347328444107,0.19689784585310294,0.2746316325015521,0.20883058881838443,0.020767867322889773,0.27029112645220965,0.25328245560851537,0.10194320652074565,0.051810678899647446,0.3322786417385785,0.3326036978840168,0.2588870874168085,0.06180786143649724,0.02555006463204691,0.05688452091726288,0.10019724516256279,0.11936661265001243,0.2836062473453412,0.00638958237111978,0.25224565552744266,0.15782880261375534,0.03693060200542985,0.10048296633462905,0.13362814304221862,0.18497165828298145,0.254290098435882,0.04668802744175803,0.15665492050145027,0.2967335151095248,0.09224808818676208,0.37364491817356504,0.1522691087981188,0.16546775316191817,0.22407487748942345,0.24621169609690519,0.09508095923699338,0.1033552361978498,0.2677263923819742,0.1340351526985676],[0.33950468272376216,0.32502197350451484,0.3260322596603092,0.2483150877277152,0.1010535264388906,0.0806182449506864,0.0782996817991983,0.28589586467874956,0.006770515145804902,0.2668821402929979,0.1105346048355892,0.22898260945584004,0.2858639960475809,0.23465347131813946,0.26997995819139275,0.350072841280979,0.3649640847593851,0.05109974318019923,0.26534862303461115,0.3732985638652612,0.24704837141856298,0.2707419626047702,0.13431220291993756,0.2119331597209857,0.35590872826409403,0.00019106043804901644,0.40402529073751264,0.24424252491175405,0.39527819410991705,0.29104745018298217,0.12262284102731429,0.3921125540472774,0.2537490914606116,0.39918719986888435,0.3750405264701359,0.3120141057576482,0.2925274327058287,0.1214444295877099,0.052171737101322065,0.4049840570208987]]},{"input_weights":[[0.597346744784302,0.26735030198804033,0.11463490081803047,-1.7269066242577038,0.5576764695826942,0.5790199642913477,1.0516282654408846,0.42399416663374745,0.33620872986827427,-0.4464303261468111,-0.6088638083696677,0.07411154593135386,-0.4035760291796572,-0.9972082951396906,0.07759279518658214,0.3646031690650452,-0.579026244633232,0.4985221885872227,-0.5728567667575788,-1.0681784567700605,-1.0921936035950275,0.05982855986054062,0.20574191568868383,-4.24788115209397,0.5295001059577663,0.9332235472144725,-11.468004990468168,0.35382107173365124,-0.23021687581985845,-0.2803932641810666,1.3536194916746662,-0.5423451493100195,-1.1538796161921565,1.0576309236931192,-0.8907599144986165,0.06244626280091122,0.05643571112452732,-0.21035082387187187,-0.02803312945995026,0.17758608397362477],[-0.5478618863710493,-0.2505307474014939,0.10489866875274156,-0.8338216306825088,-1.6287509277073695,-0.02506740264118683,0.2492784658971159,-0.009176887331236944,-1.1457460077853678,-0.09459588482381705,0.7948977962472173,-0.22509207034815576,0.7502219577441666,-0.3098568887534135,-6.338974197998146,0.7645178815568825,-0.5415599727936143,-0.4495928651191391,-0.2898796747310851,-0.13874212860935956,0.5397833684095273,0.37056692438308286,-0.7923696269323101,0.8112756478789785,0.6347409806077862,-0.6966529325268906,0.6527486475873129,-2.949612038624512,1.0577330748312213,-0.1694769751876782,0.028895481575926817,0.2430765518836465,-0.1664064488580973,-1.0703475239402143,-0.555916158523684,-0.21204580365073467,-0.48914828887162554,0.07544765817497438,0.7463329358872689,-0.37033132776188044],[-0.3775442424700385,0.027639119907388654,-1.2281275466883828,-0.38251446257134936,0.005748558465225576,-0.49223199966300807,-1.0356547894284127,-0.07522032303910799,0.8568872818152162,-0.18583711841703393,0.6623014061744563,1.0573412839453094,-0.6807644884244941,-0.40937994056052107,0.25195580795343725,0.15453009820668315,0.27776029117265255,0.021061915935341936,0.594204534291396,0.9103454102231462,0.6627568130118615,0.5807859513824621,-0.0008964525936194784,-0.39731670957576076,0.5960444301903535,0.3187533292237775,0.11748929515646465,0.5076388770605396,-3.8769771743589505,0.2982611813617266,-0.33648876261906313,0.008502491343656732,-1.5671989436260212,0.24497736903675957,0.19182478396884467,-0.1800499087177067,-0.20101702542859595,-0.755596311483069,0.932716672364314,0.4230492596043685],[0.679410362715782,-0.08261502798611244,-0.3381880196151267,0.21481331661893846,0.4254777962007939,0.250707430806126,0.30354925527391985,-0.23117190979995766,0.26058526305233964,-0.8992426338626075,-0.009895056775234046,1.0212790850188822,-0.26394402231041364,0.10595287628243895,0.45389966354679784,-1.0108030447302578,0.06441519231084133,-0.635793497562068,-0.09794990707803078,0.15133077400134345,0.09964453841926162,-1.2149668793191089,-0.894408247666311,-0.014964918177022155,0.49994860463168567,0.15379485157317244,-0.17488086127104532,0.7118073145060989,-0.0834114919994215,0.35324364033479005,0.7017119433045643,-0.5162401760461903,-0.3426524460049116,0.10747160819457553,0.37695957765580956,0.6589799312272946,0.07770996497756644,-0.4771498376573319,0.7267154037495637,-0.42465341848824256],[-0.0018600619492284897,-0.22639806726552256,0.8719332429589091,-0.408176594325824,-0.32487775070032876,0.6941714108497133,-0.4273634435120552,-0.627640192301674,-0.19434993010635168,0.42141937576251387,-0.6395616033237916,0.38004780600665106,-0.765551050637532,0.02081050486176499,1.1269282652700252,0.447449532767006,-0.3943939332853858,0.2796846106328441,-0.6523102608087822,0.7690376024026795,0.30392850513710246,-0.20732781050019813,-0.7165853198346026,-0.05071014635471794,1.7623050077018239,0.5246695454434687,-0.471401937683076,1.141800879742473,-0.2739115665799867,0.4598238576143767,0.1724746502390022,-0.5964576452582375,-0.05891777496590413,-0.9269687148493299,-0.3660734025935012,0.46261790186638596,0.4275640312185678,-0.03967168946236207,0.25219075809604263,0.19095669315504188],[0.6382985805347255,-0.47434909430112293,0.9286053817900476,-0.4670199515947254,0.27307038117331034,0.010863636380726382,-0.44228895004105234,0.9666351461920819,-0.8787253611860301,0.6810547521558569,0.4189244027445922,0.1062410628767411,-0.5255240013897844,-0.1918967893815076,0.7532925651150697,-0.9591660407859075,-4.109137031131353,-0.8910702394550217,-0.17510101684233031,0.6461227968402578,0.9621357967234773,0.08918595160794641,-0.40059646940884047,0.520251390526152,-0.09429218797907453,-0.43532459317336275,-0.08909637726987478,-0.46322181477366053,0.6056019146810321,0.8873362032684268,-0.8957729843047266,1.0215500990088857,-0.37607070709068957,-0.19347833916647475,-0.4505376504705078,0.23413588545610167,-0.7040567405376705,-0.616442277250607,-0.3077314551980774,0.3044542718841152],[1.4032715061113838,0.6819036780155769,-0.7046111333335245,-0.4174739199595365,0.18716482337569668,-0.40617790063273335,0.577043754443359,-0.4701038151859309,-0.3497775621104951,0.8243836699798965,-0.270804185037316,0.2821905050869839,-0.24995761841240333,-0.5764162984257657,0.35474061444151395,-0.23348047916270595,-0.262907119284746,-0.12024040721541773,0.12248070316064098,0.9436580857485495,0.7969374262081305,-0.05433341921029844,0.45853814029071166,-0.8094659346548025,-0.41862202370195906,0.08898168532243181,1.026024457592865,0.15869197239385852,0.4789703293065243,0.0758127561432189,-0.3123474255895966,0.3689018675704035,-1.371507782288151,-0.18166367779578763,-0.9948419320751557,0.15838429675247612,-0.42750077007925885,0.8569181698091383,0.28646799290779634,-0.11023152663103787],[-0.6559322289832696,-0.10118482268698013,-1.1094228224049456,0.8564390248697439,-0.15751272355306584,0.4845726252422861,0.10805331697458945,-0.48132278904732995,-0.055837749196050744,-0.14735730755568285,0.4170405797874251,0.01828436675744185,-0.11777169288708157,0.4724675596835638,0.6558756525039078,0.43648755791110994,-0.6113544339059587,0.5333905681594717,0.4656294005890729,-0.3883060178216695,-0.21688295903201205,-0.5602171427480892,0.6118408421837549,-0.3494541847386314,0.06898862263522283,0.18032215020015674,-0.3375236941243001,-0.4996767995605289,-0.8074643220758162,0.25534608087082844,-0.4980859866035813,0.37390232366341913,0.45845095470328295,0.3557891347220103,0.5836901843656831,-0.3414283421439421,0.43289019993614203,-0.35004449642928387,0.7161228130500228,-0.15551180348695348],[-0.46568516299752255,-0.07957155894679746,-0.5022530363698403,0.26669107842620965,0.9453009439498291,-0.06290579312862336,0.47206325639458435,0.4972812537207593,-0.5630582689735527,0.6929511057466572,-0.11568567542908875,-0.002117492958621502,-0.3031200406410873,0.5590150476074269,-0.26941136877249827,0.21440726512348615,0.3782459160818337,-0.07625915545865722,0.11732562545589549,-0.33739148447036177,-0.42065760580161654,0.1563864846872737,0.8881706702594175,0.9625496360091539,0.8391948277584275,-0.35222396512341353,0.9361843373959817,-0.17868598372251154,-0.5279792187957282,-0.7775239611565056,0.09403634768110855,-0.08803971317911938,-0.8989702895257399,0.5171526142013941,-0.02231025384804861,0.48651854416831253,0.7228536039833796,-0.37169582085513464,0.6785290549164142,-0.04676120439796072],[-0.7351575523359498,-0.01236170042705805,-0.19109601438485851,0.41277370285082227,-0.6881101536764609,-0.7816686603871276,-0.6785998813903519,-0.007918995862212837,-0.2165165485118175,-0.20767404372373235,0.054409842763216074,0.40890428603013745,-1.0925713578754557,-0.2050477804416982,0.799636951729223,0.7698625609358553,-0.4018242093215291,-0.5899096544330583,-0.016248517450763205,0.5418680264756606,0.40293418946171394,-0.34427920229214465,0.922097733268753,-0.13664338353158073,0.6428554465531733,0.04575570058289916,0.12104000867334488,-0.9180787486998364,0.2300234938695221,-0.48807232943032164,-0.18075772201114015,-1.142661922633848,0.1449859165121093,0.21055008940562037,-0.020544557351773032,0.18985600699898889,0.07318118706667384,0.13745647866740998,-1.1305725697590958,-0.25756177331702795],[0.04465024604107403,0.41763347847053656,0.3441712729094149,-1.0396268537436464,0.19267427314623278,0.0972790125047843,-0.3007211032410405,0.40794265254282697,-0.07881974843511902,-0.7243299010988536,0.08515828408344767,0.11756945373657336,-0.10033389471177508,0.10925198205166956,0.3943419004531996,-1.0398683549133294,0.1826286139470716,0.06004934261136608,-0.44526549510275687,0.13053945134629796,0.6512651371276765,0.023032158260303436,-0.12628855421099183,0.5558168721756629,-0.27938543970138224,-0.7045361713173031,-0.6191530394205104,2.505643757327343,-0.828597228704151,0.21229820307977776,0.3094116673662761,-0.38897506148074357,-0.17119368976557484,-0.6915573458439146,-0.17548105181731863,0.6340960343605002,0.10927744217080478,0.17335109794943443,-0.48902762032751723,0.3035865587104749],[0.08437331089852546,-0.05543282219611388,0.5948554066721514,0.003300513196648116,-0.8174724659421931,-0.1654792886692886,0.5492508391099552,2.288284637469118,0.8241088533589199,0.12685679229488508,0.964555471570996,-0.008700148659763587,-0.7593682303155646,0.06892211492251647,-0.18546859944928754,-1.0071723493678961,0.33659231092008646,-0.37074569653869216,-0.06821566227516236,-0.07510875108975391,-0.05665586536251246,-0.656140845862087,0.0984677643676723,-0.6583314543102491,-0.13551228067073384,-0.4309508992284014,-0.4736857131832798,0.5654077531426805,-0.4167290737366952,0.12219872747852405,-0.39689320938555045,0.3906999265562191,-0.9370261730929536,-1.6752254866085134,-0.41542197646452766,-0.03514873403072635,0.5942035674830342,-0.2259977025772102,-0.15973937614370617,-0.38650602948936463],[0.746805166426337,0.4313559765901927,-0.7820905767068372,-0.4686660800618942,0.076339961564111,0.1926525134056947,-0.3504617953614814,0.2855289411274946,0.12938757956345437,-0.5836009517035999,0.5170625564678369,0.026792862697631883,-0.05218391272255663,0.8317725998400414,0.3401965392867416,0.17152508664781826,-0.8112218783851194,-0.36958454410430686,0.5342914306120722,-0.6620482620993035,0.5278144755288195,0.12344770067530082,0.5653367949047218,-0.2851596572140263,-0.5572543439391904,-0.6045239940973173,-0.045571456324178944,0.1186607101922602,-0.9153936575392366,-0.37394653324140414,0.25079940906334136,0.16903466363679923,0.8760515102384883,0.28640703337955453,1.1543119623187645,-0.6833884913295352,-0.7811184174956738,0.8165893933059211,0.8465326132502495,0.5063430977326574],[0.45875933681674946,0.3026007597202307,1.0906749835582388,-0.2029591244231615,-1.2185145467549328,0.567144650898453,0.7796967632923969,0.699389453653464,0.3045597856418887,-0.011510855343392893,0.7582794240845505,-0.35287446518449805,0.36048028138945976,-2.65396670145096,0.2284713033057254,-0.14872493512282087,0.3956172703868,-0.24684735219497864,-1.1349006774966095,-0.23790028269373,-0.6047406319333722,0.01785038162387476,-1.3289661188354678,-0.11844429165845272,-0.3708613518030042,-0.23807965825590122,1.0282150943755677,0.0003357014393572208,0.007143015997727515,-0.46641841854391425,0.09770542584564476,-0.29183664900600415,-0.3947056410655971,-0.7248852655059378,-1.049204728874554,0.6588353537494682,0.03790414605458558,0.2495152550244249,0.03845311961855074,-0.1567234228257235],[0.29714444917876776,-0.10951932411505136,0.32900257680078354,0.5436230530441412,0.7075392805381145,-0.33512873150356026,-0.3758725007602307,0.7187729052771747,0.3393114921152254,-0.06129427000864177,-0.41246375445207883,-0.07041478581643347,0.49876087863889274,0.1565344489140256,-0.3471577663044209,0.6683578068881154,-0.11950081666117715,-0.08174150411313039,0.6152390078565801,-0.9185931030537572,-0.6264933763955755,0.19367185744886053,-0.451789484578191,-0.07306207418657099,0.8539004338433982,-0.06117189872915456,1.524327841122562,0.37075948616004456,-0.5544866455990655,0.5985188616638621,-0.9680321913672894,-0.7879627645727569,-0.0013898582088025012,0.26074261853298053,0.06527755288430723,-0.4447085138501777,-0.09796813426324673,-0.7173205286754847,0.10771427000335458,0.21506851571610833],[-0.7898593001890029,-0.007302597228918708,-0.717719671006085,0.25183472826705616,0.9411442311730635,-0.7407891792013668,-1.5242652548243898,0.4738958989479485,-0.576109677818298,-0.18810211157871704,-0.314975343590609,0.08523844869167153,0.28553532588064773,-1.1502926509849198,0.39675025913905754,0.7472443650376809,0.1890213364377316,-1.8707413702048552,0.029114279187479,0.11963785430899858,-0.4810318586299177,-0.5848207522682212,0.44077708006717164,0.19654506646916606,0.05445311336648306,-0.32312765803634164,0.0826832726202855,0.08660569166654869,-0.0053000804986838655,0.6544275184357236,0.34808600356274927,-0.32875439762874903,0.5945507357736632,-0.1968169557293608,0.1546279607262605,-0.30746974928494636,-0.23353413336699955,0.1471627311861211,0.3985484228593254,0.7174315993279178],[0.6843471933430435,0.2560063705309096,-0.24751168263786774,0.39777703576145507,0.4982537454197912,-0.6357599606049182,0.9760950606562372,-0.4108638386276609,0.3882336731305346,0.686771734582361,1.3523900769473514,-0.41591914058400037,-0.7814906943523783,0.7458043214693245,0.1875192886421387,-0.30874223919214716,0.06487669149021336,-0.5366006031243382,0.29348446935877764,-0.03489316508531582,0.29029451369349557,0.20211482277890488,-0.8067753355690328,0.5858395213582906,0.43041282218014626,-0.28540347308315994,-0.4587359704114152,-0.7719980690026927,0.5655169355591166,0.750972394396419,-0.9561301014917711,-0.16145479941825436,0.6502711517344715,0.38055055141361455,0.3739232649561695,-0.38076486962242034,-0.7564716234505674,-0.2721567453418812,0.04117154980630516,-0.6782443769154324],[0.4530153288798055,0.680345783999477,-1.255801088211552,0.08347634263121699,1.287838723025976,-0.6783184934026724,0.2692190591898964,0.7455816629199411,0.329962783647487,0.7307133013437236,0.4600036822368357,-0.021981056648559514,-4.1617467451105155,-0.030100555355105977,-0.07552522801130061,-0.15831968714820466,-0.47527643587304313,-0.49292100623486856,-0.6346451515222692,-0.4498767695399887,0.22811931214670567,-0.60347490666926,-0.27238698321640215,-0.47515372394351313,-0.1275070971745214,-0.6629726563037388,0.06855950160182836,-0.5205157807016234,-0.629958139773339,0.000016869561227906105,-0.1638491361383419,-0.897513297723605,0.23206669871128355,-0.3801160106501575,0.5909675039988894,-0.1446718901420608,0.29520778837599754,0.4202876047001899,-1.0174364785286623,1.3766841172246531],[0.2686779626722487,0.6688694381846849,0.2587371864128945,-0.17283829126215658,1.176085150431045,0.3900342922917701,0.4349685100925787,0.7706382739463301,-0.059942228660317676,0.01680940334759402,0.38051596676043137,1.3808048215111064,-0.42202057386725284,-0.4045998952983552,-0.7709646894611488,0.9242246204419782,0.18254995640778043,-0.09934199740310592,-0.6328381770847845,-0.3222968160185662,0.4465006397574193,-0.34443365616961863,0.3014650618084119,0.19778015995171389,0.000176621991930142,-0.36952212288395897,-0.357521783200882,-3.4494619547824894,-0.4527723443365261,0.6557920803602341,0.30943396040679644,0.12283638371766349,-0.007649910357751607,-0.7243175445728989,0.3903772065083651,-0.6142126067220618,-0.09769932850971669,0.00205922018665462,0.6823295591309129,-0.18144832333314093],[0.16650269240183263,-0.1557247585182985,0.2588466356017736,-0.35431737973616945,-0.148084647242112,-0.2858643545198212,-0.5831216332472087,0.026303485778044894,0.4834735917374239,-0.22516548367678865,-0.4551477512093963,0.02854666018958866,0.571044925153492,0.4590286156718811,0.44520369510187113,-1.1962713513675172,0.5056090427457071,0.1693978533555474,0.27475188992496935,0.025812802650322878,0.05969052912395983,-0.05695127689675459,-0.06540690598315492,0.06530385299083977,-0.1537877143985029,-0.4913637976812157,-0.24230957636848446,0.5787430141423446,0.047114499283380976,0.5062734636963753,-1.1607027388414717,-0.7133131634411821,-0.42874957115578954,0.30918964683896033,0.12124558033674483,-0.31617477847886766,-0.29177517091102023,-0.12285439069009137,-0.36390557125246376,0.29139256750288917],[0.35765803503781485,0.17139668406580658,2.161132869878512,-0.606151390018365,0.2471448170716593,-0.3339110419326289,1.0643507567894281,0.00036656378173638936,-0.7601304560255401,0.24667318338305722,-0.07006690209234381,0.1558191343139641,0.0033370069375231316,-0.35717139735641484,0.5150998132081395,-0.3030238070629289,-0.5850871331523468,-0.4933826098654428,1.5207060050927004,-0.7361853774975499,-0.7474343248216129,-0.021971503101093793,0.05521965452964723,0.5184222647141223,-0.46254141086498496,-0.021129729878094757,-0.12554252110444897,-0.7664488784987616,-0.19117043802838726,0.013530141216369126,1.3993177541534068,-1.0293078118262922,-0.9670720973235352,-0.3220922217995166,0.8459742055123293,-1.2150168848449312,0.3252070496215938,-0.2621927377757825,0.9162477601287454,-0.09975401018826882],[0.9946554272361352,-0.5111444426453373,0.1416494877311202,0.04347591457389522,-0.47346963721254276,0.576137452752343,0.8446697708964106,0.05633504624084458,0.16707511737625452,0.31036891037266584,0.6535519101270187,0.9020309629175146,-0.3458632444100466,-0.5804976415554624,0.4834866152202922,0.9257314383267142,-1.1134731550873853,-0.37969642080981647,0.3835038738682776,-1.787172782204048,0.42368903485796633,-0.29302926504792076,0.10299420167232987,0.38367111455950514,-0.2524247940797634,0.3585869476851762,1.4873468240877346,1.262253588334695,0.5166002734558128,0.9682202761937416,-0.5740685200301342,0.09254195909802508,-0.6607878626987171,-1.0376620488943784,0.1894372369229472,0.4216452744522458,1.0978536281085702,0.32629570645671396,-1.457856356028569,-0.6977064662844545],[0.09309864279455386,-0.9963628790515991,0.15335470341262014,-0.4149164662168096,0.4607736575656416,0.5568580742236029,0.11676875772040314,0.4462323786211538,-0.4051042630830317,-0.31563033523674894,-0.11743159396412994,-0.27996710867769553,0.25756346491584914,0.3201273963125269,-0.4621305886171346,1.0425637027569983,0.34750470902920527,1.0793186261827612,0.554735072043556,0.1653651180105771,0.4285912108563876,-0.049813400308448,-0.23884705286765906,0.09982547029558497,-0.2747047275313259,0.4058898914248761,0.325625267318554,0.2344854318964317,0.20233369600663956,-0.21832810252877574,0.5308495420585451,0.6068820960912692,0.43164186416637107,-0.7008979746157683,-0.3383358825519177,-2.1133533333693273,0.5016879514063224,0.20486493113892695,-0.7983600410616205,0.7269353847037793],[0.8523512032743805,0.3373500603433613,0.054031116826139924,0.6399706080411277,-0.5536940989706484,-0.20581842270458173,0.2540467801628377,0.04084080731038672,0.8639560784356352,-0.00045237576467968245,-0.5630562413407944,-0.46187482294231247,0.20090673682791801,-0.40539973526639084,-0.516850377002655,0.46303815785720986,-2.9888332135121933,-0.20614076255211586,0.12087225765445307,-0.6844785765389609,0.2563175720714543,-0.8103301835317506,-0.2532504260430414,-0.7136790623761161,0.5055620574889742,-0.039394427645193686,-0.19488257624980723,-0.5377516689894929,-0.8857129829083612,-0.32011760499790004,-1.041543964731382,-0.6332784212125941,0.977277397690598,-0.5618963304262332,-0.012682245986945595,0.14158176966161762,-0.1643326460574836,-1.8108777266872893,-0.23065659390492838,0.40398715041558164],[0.324792860870656,0.16483459047789975,-0.21670654283550517,1.4547521192718083,0.24132081295366742,0.19697874868670084,0.37166849080246184,-0.4125337231684504,0.9861289294477218,-0.5298557855054474,0.02728861228013945,-0.7983235909870091,0.4682891756897508,-0.3378522093053919,1.472359911326402,0.4158513751636742,0.9183178742595101,0.8977541548783657,-0.15153379292510044,-0.10127966564242633,-0.32554963118209473,-0.24565763200980456,0.2851300448383545,0.06627970932802545,-0.5972282930128304,-0.02749093964853279,0.8235070003637193,-0.5614092192355201,0.5815538234070822,0.2151342181175418,-1.063666000267799,0.04426290673467493,0.7845915210327847,-1.0461472430754974,0.11353115941757139,0.4118025050583595,0.7743419286598253,0.22791633695756144,-0.3349612455657283,0.45516409859626483],[0.5470734429114412,0.4889294371420757,0.24817585374738774,0.7888125284699848,0.7889286189557051,0.010319738239996646,0.558191428246616,-0.8294469825039882,0.12685563036221068,4.475471133856601,0.06630625275436437,-0.8681359026247252,0.4324216092855975,0.49042260998139986,-0.0545391852449365,1.8213556919739777,-0.05600997274142613,0.2037290944609539,0.9162168895594651,0.04640510575522969,-0.19813388158936648,0.10233995233296142,-0.496727284322313,0.3900119497432862,0.6247369190271447,1.024562383834895,0.30455673221231,-0.4399651006005611,-0.7076598403103996,-1.0820444467877732,0.40334506096163447,-0.46510547116965656,0.6515324998461184,0.16680790699132772,-0.8479474333007437,0.20095359980405486,-1.5370367541971839,-0.016220131279097993,0.7934435746340871,0.08225415352393055],[0.31717841568380634,1.0882877941634708,-0.0008979534939006624,-0.49911939791576315,-0.18776897567629064,-0.20306789713604192,0.5872265019956868,0.507884667858084,0.06361670228179271,-0.13467925254535446,-1.8563941161499977,0.19654023413960256,0.07916334434905943,-1.0393935995069887,0.4543433982425076,-0.02407086890154832,-0.34013720197769315,0.5635579842537837,0.5064817509945835,0.5994729051865612,0.04860252110126856,-0.38459633410893235,-0.30805289779918665,-0.30583538775420327,-0.7723622259491304,-1.258110231993648,0.43715921801583424,-0.00624993746580093,0.25456350012174844,0.5354519594490463,-0.5980141774834477,0.023531137095928738,-0.5268855032710972,-1.5849339223223309,4.910219768038573,0.4601085123974903,-0.18597332125124286,-0.7353447274577325,0.1541948645409973,0.4912965253096093],[0.7686812631795186,-0.2810104582789815,-0.323494436250651,-0.8527326932531656,0.7895289143101762,-0.7130281380260249,0.43817046163286133,0.11774355383279111,0.27358685497798646,0.41640065616316885,0.15393896219055245,0.6155221990273935,0.7992723024712848,-0.647260676693697,-1.1409219174732692,1.3969804271136375,0.003597994324095783,0.18031800039673135,0.35812932316777324,-0.3920625045971189,0.541241388589802,-0.06628841767845019,0.1767863958125965,-0.393906482161542,-0.142672860612119,0.10476461256927473,-0.540477716498577,-0.4703841118145766,-0.06804712240217692,0.5108840324898928,0.03423219117052285,0.4951545623239059,-0.47652415023159134,-0.4831349712475885,0.19043396892754758,0.8146601494445981,0.49187547469134224,0.05420851289620333,-0.6425351453449458,-0.7243248238129698],[-0.44830670880326295,-1.18939894088457,0.1307777624300275,0.12319939737515179,0.5534334124593145,0.2871042301329035,0.7169266180131443,0.3506377591179988,-0.7567401301835186,-0.1259866125613157,-0.7214555155655266,0.019794151875788594,0.5547613017044958,-0.17056237028701907,-0.17023971138778976,-0.3227973115544402,-0.3848145180078406,0.7135183939393582,0.23682963582470723,0.03762246252837192,-0.4535363298698933,-0.39421512631230593,0.21944926243898255,0.6110255378360715,-0.8942307213375152,-0.2459591244217865,0.005080909985988851,0.1317459675012235,-0.4424299063024716,0.08761597847406832,-0.9676104776681808,0.32526240684938085,-0.17069377250400045,-0.2008062576298315,0.33681376568006555,-0.3170454629082022,0.15438632488671603,-0.04951709821532344,-0.04493234248026258,0.6899414237287397],[-0.35673498178054613,-0.1691963663107311,-0.17902779751557618,-0.10452172658367269,-1.0148791585427959,-0.4521718070001463,1.0065248811474916,1.770654596730293,-0.814011221947449,0.6137252843579936,-0.007884777107706508,0.3761951818497743,0.9618725531231141,-0.7708370218971207,-0.396816904457927,0.6878207162979596,0.004676536599631775,-0.650175875731712,-0.8625205516884417,0.46759999572077093,-5.702303364232628,0.26068231357027016,0.6093859980671467,0.17628256968256584,-0.515689354943392,0.7877636404185945,-1.2891655546075411,-0.38572027829756156,-0.22932456801142276,-0.5642461828952917,0.23315577543140192,0.611992125574431,-0.11121067788324954,0.7776662838668658,-0.20439197761557112,-0.697304196021221,0.4055014572954875,-0.22257106933408946,-2.410773294069752,1.087448407521829],[-1.5033783117343742,0.2949373511873055,0.21202280294976364,0.3064788423137207,0.4945109946792464,0.30328271600615747,0.7313814794546801,-0.15186566009790023,-0.6773332474775652,-0.3342411990365819,-0.1823752897343443,0.09487784333711148,0.2124230494137666,-0.5760957765151153,0.48572720979038103,-0.2651322489213161,-0.37359695256303904,-0.8913508519728107,-0.331836814777035,0.6201734215985995,-0.09903851633585409,0.3838103126530132,0.36939454816884143,0.9641310961482558,-0.379305541347626,-0.5010434382557333,0.004059445830783427,-0.4960583750063343,-0.2784047777254589,0.6100817588574264,1.5735215624626506,-0.09347483527331037,0.15427197869158535,0.7989178728913214,-0.5716120480662253,-0.3903120847775879,0.5089684240371121,-0.9006531624297235,-0.5149532916324387,-0.667548577065326],[-0.16166269149643175,-1.5349655560398299,-0.9902182587739277,0.4035114795347698,0.21975099413794583,-0.23788286374795434,0.7059046285354145,-0.2114306484040366,0.3258445721017594,0.1861563266535369,-0.48493357014071714,0.4428083726441575,-0.5866533018281318,0.46871241492133436,-0.09357931906828473,-0.09364843679629148,-0.020288694777692275,0.550875553886937,-0.2058187706927992,-0.08416311715156376,0.04292568784864517,0.01687975595184172,0.3650732865283198,0.5561018318793527,0.07570330762218368,-0.8568005536482396,0.5978602827937046,-0.4209248476907565,0.19901822869113137,-0.44452977059835747,-0.42762201325587573,0.6570835418330118,-0.9768178138309753,0.22582874116575694,-0.030694671935321736,-0.4467387979830716,-1.019687474720538,-0.5334559892360462,0.8952024369591248,-0.5121935361595688],[-0.4937642734042182,0.501954353258374,0.041784368152818004,0.41373530692148996,-0.8708233905520913,0.37330681636694324,-0.16237668108691072,-0.3271685338599105,-0.4230167639891998,-0.4363868911406181,0.5157803156414398,0.34867807641842574,-0.3434469769060287,-0.2446908043181813,0.2835010910472783,0.9875031535385818,-0.45943474388491684,0.8556275961775004,-0.4429633410346664,2.1452444551459973,-0.7221412806139644,1.0207073020533808,0.9329477359556761,-0.5261808845841581,-0.6729849960266284,0.4091641829844987,-0.7213279408239249,-0.6944618418906893,0.5426521378067464,-0.5780646770926275,0.8907849897578007,0.1022736842052826,0.483054648404644,0.45549087875479743,0.3390053610935424,-0.15431452883371385,-0.046148483523727794,-0.37316218255861444,0.0481587986427837,-0.1100073553094561],[0.5110067633399369,-0.23515260040094624,-0.49551541439469043,-0.33578833452447515,0.0056381799271663,0.2776872532129905,0.31696994956163405,-0.2757183554430197,0.10600604359667476,0.045848159203875784,-0.20323551951246552,-0.5070205159050203,-0.582042794017315,-0.23111477779880962,-0.6499721539752142,0.12400114480069829,0.16004568064974084,-1.0118108981877305,-0.7715575567315845,0.045408187494032796,0.4204248864276972,0.640903141173475,-0.10385509239791815,0.1820385469914488,-0.5867208125976121,-0.49697232995255747,-0.11340611221873158,0.08831205235960007,-0.021721228506579055,0.10875501215523542,0.9139393687267009,0.7788363584501364,-0.09395465613667628,0.5392907758246644,0.09949157863623696,0.667576074508202,-0.09514138333125254,0.623928571460948,-0.39642983722208847,-0.8847084328810196],[-0.1437149087546364,-0.020016247181605745,-0.8782235820584195,-0.12820872202958059,-0.2088830741516898,1.1697283891703836,-0.04115193397192304,-0.24774374194101376,0.7655252210314072,-0.005243377392688329,-0.3339653211851171,0.5616006236782036,0.051368675883902926,0.27751068838083026,-0.25797508104171696,-0.1720571365978611,0.06102719089447722,-0.6068610455579354,0.35914358082450976,0.3296578149672681,0.6068359212364872,-0.8211496095601093,-0.307647744082007,-0.15251496774307327,-0.5173523572997504,0.7855109389250883,-0.8844700994095904,0.40107387505681685,0.09273932002795453,0.770137379737,0.3571950254814708,-0.8386516973528065,0.278234469018704,0.41195052104360125,0.8374178442100891,-0.5545322363362563,0.09405687523420804,-0.7003527257096916,0.04417861851504718,0.166523608143547],[0.04777008840155098,-0.1779824214902859,0.2669706051226365,-0.45137859582211626,-0.34037760402157197,-0.2898338294265124,-0.5187091565969344,-0.5469373207727409,-0.07609514683382293,0.18764945911663927,-1.2123629211874307,-0.21839748851520968,-0.19536929400399972,-0.4280034900922952,0.40728217864396116,0.6553702647505438,-0.4571385935110887,0.3732707336939048,-0.06838202192305796,-0.5450812293488365,0.9396765066360339,-0.030269301962358917,-0.11441546056336259,-0.5932400497230971,0.22345157218676065,0.6107596246555744,0.5541781411644089,-0.20230029296626617,-0.07066737140242918,-0.034039941504107045,-0.2839712571969008,-0.47594329248310385,0.12328383132510774,0.0193539918725364,-0.6909158079424119,0.26030681766097147,0.318305435293397,0.441037471511796,-0.1540545721895059,0.26416336260807327],[0.3300502087932655,0.10713379981931558,0.30997274470291064,0.42521745865603294,0.3425261346054621,-0.0447702376988526,0.7067740481207295,-0.3546973901150325,0.6702511511804787,-0.5164975587367986,-0.14823427657760252,0.7109418831904196,-0.4716657158230216,0.07258535800762231,0.3409984892478135,0.5018872956515115,-1.8068146039283521,-0.06921873063348735,-0.014938815644578664,0.10132418446236567,-0.14790906802225226,-1.6216781880513977,-0.08436451137142986,0.32609399316127036,1.8905936927916798,-0.156201869891716,-0.28406528573087336,-0.13500223037173786,0.9256963580342601,1.1463286861335011,-1.1948292350149725,-0.16891606467582165,1.3860932258707224,-0.210910614754847,-0.06610638029376387,0.3177956331435785,-0.4309823740772622,0.037193288574528825,-0.4223339382915068,0.3872262137656657],[0.4112364165064117,0.20919395226174542,0.8097658706624172,0.8169137500892321,0.16715291937698512,-0.6575902939027437,0.588592524734348,0.13848921140067025,-0.3612669407758086,0.8816934293297034,0.03214707244867158,0.01602461097602891,-0.6623883814361196,0.7043028840009194,-1.183869579619405,-1.5320539825381896,-0.19586184869332848,0.48221627275138135,-0.9151012025487745,0.21001847292647477,-0.5091371797822827,0.8839881341157734,-0.5184155849487219,-0.34926178013288867,0.15770636680744307,-0.3228835809913516,-0.5558272543910643,-0.10612826194872302,-0.09210024985909655,-0.6118015965958992,-1.3005893109872206,-0.061427837228708836,0.6415502069808076,-0.8281700647571092,-0.1993481590046396,-3.021232804096569,0.7313302996902584,-0.37598874878365957,0.17023340856406607,0.03552857896940975],[-0.7355450632715322,0.2463147116587051,0.8022724574300436,0.013555564481028822,-0.004100497801452115,-0.9363949773313333,-0.1701961542193883,0.2874575322734482,-0.1626732755644822,0.7979764146951693,-0.6015841239203816,-0.8049358364210738,0.15791639101867463,-0.006431841974547756,0.8431816750186604,0.8192792495480368,-0.1324918490199091,-0.0921165014395159,-0.3413539308919368,-0.2529912912357199,-0.11464707729043527,0.5829688667017339,0.07170057474641449,0.07702938826544832,-0.4745773667483557,0.9042188289589124,0.9511791091541981,0.19528494623611498,0.12676959666947746,0.3486487520650279,0.009268263423935054,-0.8561200013209648,-0.27660303632855093,-0.3510104986851219,-0.274173632524289,-0.1413552920722781,-0.3370033282202059,0.18555599004360243,0.4854199379288909,0.602302465053204],[0.1201272180206573,0.3950616298648868,0.637972440419829,0.26537590008709194,0.12244303701562195,0.007968083069167705,-0.15029872418718568,0.5426496946054356,-0.4735223316874557,-0.4223860620676128,-0.028542733813991764,-0.28164256957055933,-0.5617748334135624,-0.1700865280890512,0.649368835770912,-0.7559380414020368,1.278087530760902,0.22631562075108685,0.10007094166052927,0.5672395321112694,-0.31306839162850475,1.2102750933299067,-0.02707775483023346,0.2143455924373223,0.23338390001969805,0.006647709497921604,-1.0243057414243526,0.3342923902339563,-0.615179053676359,-0.5048780717029545,0.21295567409036617,-0.5676472852340035,-0.17889216103503838,0.7376984106272056,-0.46254685335309936,-0.6993256340291005,-0.46581579308008614,-0.37790144140848086,-1.5066476217365723,-0.04032577448877091]],"inactivated_output":[[[-0.6206560039326157,-0.08033918367879395,0.4840706022917736,2.6005328454671837,0.30901938579192156,1.026810607764899,1.7134504030960258,-2.469371315796041,0.02976932044324583,4.366484387507124,-0.20300529114929075,-1.2735101351581366,1.983011190494538,1.6702722345594583,0.8313957527689234,2.0462352423895047,2.1831278764232036,1.5815019788262303,0.7197931608274736,0.006131075978557873,-3.128563312408918,0.960310783177904,0.5280793535890977,-0.11304227077187512,0.30171771387457297,2.1575415597674756,-2.455711757093981,-0.8360557318803333,0.896763904989679,-1.890143244065429,1.2661812319300003,-0.39927131428375695,1.2471859289528322,1.5115332173321918,-1.0968608443932333,-0.8147113182181291,-0.7006423041749053,-0.4507819576277401,1.5657888132944024,-1.2889858869772732]],[[-0.6387483282340709,1.6979297918311413,0.6611858031336566,1.3990799029802765,0.3147623341171606,2.6088582359472854,4.3292632769512505,-4.093857860098754,-1.652916645884714,3.781441808534013,2.643711977432625,-1.2531403648525075,3.8541293756022514,0.8301205431622926,-5.8160885364376975,0.7413892139498893,1.9902773920150905,1.4517282784178924,0.3305826213698845,0.6366019291809851,-1.7916392836591275,2.891454750468216,-0.23688402741573933,1.1328581261427388,1.1130760255528713,-0.26580137457910424,-7.671442044092445,-4.746495570329576,0.7618527559813287,-3.0089728639249906,3.8857987467635087,1.3180099348397745,1.0031194228727758,1.208118525742538,-0.3678696730578229,-0.32592364629180176,-0.9645293874517533,-1.6843472077051,6.349063876732076,-3.8752895353730077]],[[-2.1883500025029905,-1.26515398024481,2.941409977884721,4.076339788188315,-0.07300649553066671,3.272229924859961,3.9341471010470923,-4.436121904240397,-2.0603664888052244,5.036249783376028,1.6797761651434098,-2.8091449988704364,3.4674888276016675,3.080697108890739,-2.8947034215140697,0.9452780230247243,0.7762888235546963,2.34495519838514,0.9086299525130928,-1.3450497105893817,-1.71512405213002,3.449704102067839,0.485411083787123,2.738313860599306,1.5383111651198118,0.990796054225398,-3.197214061000584,-2.666291252620284,1.7342819617457603,-3.0868901756778926,1.6878494372027306,0.08723304465123483,1.4291352229907508,1.7706081966176637,-3.4440105850976503,-1.977726923431572,0.7738360103314823,-2.244636873484528,4.579418817130921,-4.215433511691776]],[[-0.9063614837176004,0.6928429950913586,0.6398634878407666,2.219903191489847,0.14331713440954952,2.072355952699298,3.4957600271144025,-3.420344034360667,-1.2867676662714105,4.339018063309664,1.4992441478391287,-1.4373841748421703,3.2509694671683924,1.3314052721083618,-3.9566948340904267,1.6262293822414897,1.9530630707946621,1.4555629392903566,0.4169688728335944,0.06444908637392681,-2.597071207630311,2.2020196910321,0.20037787156986414,1.0310683768824438,1.060035261876281,0.8407761165604424,-4.6682920626513065,-3.5219549791389695,1.0281762997875332,-2.7947086285707274,2.7606826250455203,0.8141984288364598,1.024215751487481,1.269928935504892,-1.0888083521192142,-0.3633115208121298,-0.5812686804855438,-1.2270595197995702,4.596660480032899,-3.0137900466963474]],[[0.1518670723431734,2.3969524304472154,-0.7157437528000071,0.8017515190144576,0.26362680629387525,1.6941987633044258,3.7057780550254664,-3.2725986635814404,-0.8819880119623942,3.4540166929899576,2.098431824377295,-0.46698331022504835,3.0285150399208756,-0.12514335498754214,-5.558198389826959,1.4284717120233457,2.312468385672487,0.8469164996597051,0.07974980841515775,1.1507594694059395,-2.5088071113402,1.6747533952790334,-0.469650885174839,-0.05718150135845611,0.7449931344475514,0.040812657980837275,-7.208278775965404,-4.703260938641127,0.5124747665409993,-2.4667374450770763,3.7505630857785803,1.3040341991920883,0.9227719288757374,0.7880105703877978,0.8574162589370903,0.5816650033568578,-1.6646660174922034,-0.9385322987070192,5.3121393676020485,-2.714616291941815]],[[-2.259952355285818,-1.4584347515181888,3.0253564020613397,4.282925495255143,-0.016931249178979826,3.1841357147281855,3.780496494278961,-4.362977571136354,-1.9704441201138572,5.106317946994114,1.4463731416969956,-2.836513783865274,3.3832236610850734,3.2399031761187453,-2.238704414508292,0.98621727016087,0.7813487005752552,2.3998230637783218,1.0039803711993531,-1.4267835530177841,-1.7832988718429639,3.367182310917606,0.6283252807054125,2.759029994581725,1.544880623173656,1.136602448865777,-2.755652984243088,-2.3324765382435726,1.7190804643608053,-3.0461327043870177,1.4384140086268178,-0.10572075150669655,1.4164485789631123,1.8503425855382727,-3.5183660521028868,-2.0850724584455333,0.8977330975708666,-2.2601471163429085,4.283368472663022,-4.117184830906521]]],"activated_output":[[[-0.5515846515727393,-0.08016676937160501,0.4494976348072545,0.9890390241858916,0.2995447339795631,0.7726260454436404,0.9370694404280111,-0.9857747719509964,0.029760495452690404,0.999677697645527,-0.20026181801703188,-0.8547461324944715,0.9628073888173384,0.9315877068825098,0.6812247533158915,0.9671526188997136,0.9749211683532405,0.9188360923306182,0.6167811469939789,0.0061309970977853,-0.9961737880981373,0.7444154610282809,0.48391150359389506,-0.11256319692518427,0.29288380155507554,0.9736216366770769,-0.9853836083918265,-0.6837143001551171,0.7147185094693956,-0.9553856439445527,0.8527592571515242,-0.3793253037882311,0.8474925957834011,0.9072107675724729,-0.7993686183629274,-0.672181036702979,-0.6047753249009561,-0.4225415809513108,0.9163532455681075,-0.8588606783764876]],[[-0.5640466422321713,0.9351497782872055,0.5791520076097196,0.885152619607161,0.30476331696187,0.9892189985281304,0.9996528142151972,-0.9994440824670783,-0.9292567479666061,0.9989618251787632,0.9899413780001813,-0.8491619366080223,0.999102256826141,0.6805406849209057,-0.9999821800232241,0.6299837199969078,0.9633341380601631,0.8960340927218466,0.3190441333644855,0.5625814436501105,-0.9459333551775362,0.9938593394927772,-0.23255043147475904,0.8119951537403041,0.8051470229536319,-0.25971368712993653,-0.9999995449751664,-0.9998492515864515,0.642166956833867,-0.9951424180318249,0.999157306075687,0.8662881844346081,0.7629011968603898,0.8361142754008912,-0.3521269390899673,-0.3148532531442522,-0.7462903353403388,-0.9334234173586277,0.9999938106734083,-0.9991393918574824]],[[-0.9751784064573688,-0.8524788039119044,0.9944416228822469,0.9994242976298419,-0.07287703218165127,0.9971279981538989,0.999234943336499,-0.9997196066833337,-0.9680533964249819,0.9999155254337848,0.9328325090779765,-0.9927645244579205,0.9980555196919646,0.995790274956463,-0.9938991186739329,0.7376378476762904,0.6505713939361237,0.9817921889635571,0.720473973910503,-0.8728797903682225,-0.9372732817032444,0.9979852411563112,0.4505666718175514,0.9916680502880174,0.9118360775541036,0.7577014666904204,-0.9966638539841851,-0.9903833150000679,0.9395598824973221,-0.9958420467763657,0.9338726697750684,0.08701242021745623,0.8914892624215376,0.9436760401620029,-0.9979621985643017,-0.9624197208442733,0.6491545154502393,-0.9777918597201363,0.9997894377926443,-0.9995641200766968]],[[-0.7193812971872433,0.5998053099978767,0.5648066187793758,0.9766786891324915,0.1423439091831815,0.9687984258839925,0.998162324744725,-0.9978635297043826,-0.8582776724080604,0.9996595676907839,0.905011504595398,-0.8931698963736736,0.9970034647024402,0.869592347656892,-0.9992686169727832,0.925522790120844,0.9605569325376598,0.8967873003066732,0.39437378333937667,0.06435997300035355,-0.9889632841626519,0.9758397540447747,0.19773843162885205,0.7743364273754993,0.7856773014829902,0.6862199500173901,-0.999823669914664,-0.9982561425711538,0.7731758785125609,-0.9925534502703327,0.9920311051363991,0.6718997574634937,0.7715780624352669,0.8537783729646573,-0.7964427407441795,-0.34812755486959446,-0.5235869436276521,-0.8417243044510767,0.9997965755916715,-0.9951890078031695]],[[0.15071020902642498,0.9835758696191027,-0.6142659667385189,0.6650148504983359,0.25768466792600614,0.9346799236759427,0.9987922297867172,-0.9971300652273,-0.7074137797385335,0.9980025692957054,0.9703605815047134,-0.43575865411418735,0.9953282412777662,-0.12449413794979644,-0.9999703483190027,0.8913529239667168,0.9805818960116075,0.6894550937716244,0.0795811390161109,0.8180054675309465,-0.9868464200286913,0.9321772955655395,-0.43791721663242195,-0.057119272687110687,0.6321524130051673,0.04079001657535689,-0.9999989153852245,-0.999835676135645,0.47187119001774136,-0.9857001874918946,0.9988956084754612,0.8627580995461531,0.7272061196528156,0.6572805252786864,0.6949240937106217,0.5238745396596396,-0.9308429748494801,-0.7345472282508022,0.9999513918338883,-0.9912653375091547]],[[-0.9784544331689694,-0.8973480956552161,0.9952987511643899,0.999619087686583,-0.016929644413878266,0.9965756103592479,0.9989598007340015,-0.9996753995840838,-0.9618788774264917,0.9999266028857453,0.8949733714439728,-0.9931486323732748,0.9976991199421502,0.9969365062386517,-0.9775296010189931,0.7557447514760163,0.6534800958906297,0.983669038760157,0.7632607062995658,-0.8910055506673065,-0.9450488549889644,0.9976241573567058,0.5568978962518446,0.9920047924788652,0.9129368133621649,0.8132667892979233,-0.9919509125821165,-0.9813363585414447,0.9377522726794723,-0.9954896158112073,0.8933780392765993,-0.10532863906255575,0.8888557465781004,0.9517782516677681,-0.9982435558817939,-0.969570105598523,0.7151922453635235,-0.9784628698442971,0.9996194667988991,-0.9994694427937875]]],"gradient":[[0.0,0.0,0.0,0.0,0.0,0.0,0.0,0.0,0.0,0.0,0.0,0.0,0.0,0.0,0.0,0.0,0.0,0.0,0.0,0.0,0.0,0.0,0.0,0.0,0.0,0.0,0.0,0.0,0.0,0.0,0.0,0.0,0.0,0.0,0.0,0.0,0.0,0.0,0.0,0.0],[0.0,0.0,0.0,0.0,0.0,0.0,0.0,0.0,0.0,0.0,0.0,0.0,0.0,0.0,0.0,0.0,0.0,0.0,0.0,0.0,0.0,0.0,0.0,0.0,0.0,0.0,0.0,0.0,0.0,0.0,0.0,0.0,0.0,0.0,0.0,0.0,0.0,0.0,0.0,0.0],[0.0,0.0,0.0,0.0,0.0,0.0,0.0,0.0,0.0,0.0,0.0,0.0,0.0,0.0,0.0,0.0,0.0,0.0,0.0,0.0,0.0,0.0,0.0,0.0,0.0,0.0,0.0,0.0,0.0,0.0,0.0,0.0,0.0,0.0,0.0,0.0,0.0,0.0,0.0,0.0],[0.0,0.0,0.0,0.0,0.0,0.0,0.0,0.0,0.0,0.0,0.0,0.0,0.0,0.0,0.0,0.0,0.0,0.0,0.0,0.0,0.0,0.0,0.0,0.0,0.0,0.0,0.0,0.0,0.0,0.0,0.0,0.0,0.0,0.0,0.0,0.0,0.0,0.0,0.0,0.0],[0.0,0.0,0.0,0.0,0.0,0.0,0.0,0.0,0.0,0.0,0.0,0.0,0.0,0.0,0.0,0.0,0.0,0.0,0.0,0.0,0.0,0.0,0.0,0.0,0.0,0.0,0.0,0.0,0.0,0.0,0.0,0.0,0.0,0.0,0.0,0.0,0.0,0.0,0.0,0.0],[0.0,0.0,0.0,0.0,0.0,0.0,0.0,0.0,0.0,0.0,0.0,0.0,0.0,0.0,0.0,0.0,0.0,0.0,0.0,0.0,0.0,0.0,0.0,0.0,0.0,0.0,0.0,0.0,0.0,0.0,0.0,0.0,0.0,0.0,0.0,0.0,0.0,0.0,0.0,0.0],[0.0,0.0,0.0,0.0,0.0,0.0,0.0,0.0,0.0,0.0,0.0,0.0,0.0,0.0,0.0,0.0,0.0,0.0,0.0,0.0,0.0,0.0,0.0,0.0,0.0,0.0,0.0,0.0,0.0,0.0,0.0,0.0,0.0,0.0,0.0,0.0,0.0,0.0,0.0,0.0],[0.0,0.0,0.0,0.0,0.0,0.0,0.0,0.0,0.0,0.0,0.0,0.0,0.0,0.0,0.0,0.0,0.0,0.0,0.0,0.0,0.0,0.0,0.0,0.0,0.0,0.0,0.0,0.0,0.0,0.0,0.0,0.0,0.0,0.0,0.0,0.0,0.0,0.0,0.0,0.0],[0.0,0.0,0.0,0.0,0.0,0.0,0.0,0.0,0.0,0.0,0.0,0.0,0.0,0.0,0.0,0.0,0.0,0.0,0.0,0.0,0.0,0.0,0.0,0.0,0.0,0.0,0.0,0.0,0.0,0.0,0.0,0.0,0.0,0.0,0.0,0.0,0.0,0.0,0.0,0.0],[0.0,0.0,0.0,0.0,0.0,0.0,0.0,0.0,0.0,0.0,0.0,0.0,0.0,0.0,0.0,0.0,0.0,0.0,0.0,0.0,0.0,0.0,0.0,0.0,0.0,0.0,0.0,0.0,0.0,0.0,0.0,0.0,0.0,0.0,0.0,0.0,0.0,0.0,0.0,0.0],[0.0,0.0,0.0,0.0,0.0,0.0,0.0,0.0,0.0,0.0,0.0,0.0,0.0,0.0,0.0,0.0,0.0,0.0,0.0,0.0,0.0,0.0,0.0,0.0,0.0,0.0,0.0,0.0,0.0,0.0,0.0,0.0,0.0,0.0,0.0,0.0,0.0,0.0,0.0,0.0],[0.0,0.0,0.0,0.0,0.0,0.0,0.0,0.0,0.0,0.0,0.0,0.0,0.0,0.0,0.0,0.0,0.0,0.0,0.0,0.0,0.0,0.0,0.0,0.0,0.0,0.0,0.0,0.0,0.0,0.0,0.0,0.0,0.0,0.0,0.0,0.0,0.0,0.0,0.0,0.0],[0.0,0.0,0.0,0.0,0.0,0.0,0.0,0.0,0.0,0.0,0.0,0.0,0.0,0.0,0.0,0.0,0.0,0.0,0.0,0.0,0.0,0.0,0.0,0.0,0.0,0.0,0.0,0.0,0.0,0.0,0.0,0.0,0.0,0.0,0.0,0.0,0.0,0.0,0.0,0.0],[0.0,0.0,0.0,0.0,0.0,0.0,0.0,0.0,0.0,0.0,0.0,0.0,0.0,0.0,0.0,0.0,0.0,0.0,0.0,0.0,0.0,0.0,0.0,0.0,0.0,0.0,0.0,0.0,0.0,0.0,0.0,0.0,0.0,0.0,0.0,0.0,0.0,0.0,0.0,0.0],[0.0,0.0,0.0,0.0,0.0,0.0,0.0,0.0,0.0,0.0,0.0,0.0,0.0,0.0,0.0,0.0,0.0,0.0,0.0,0.0,0.0,0.0,0.0,0.0,0.0,0.0,0.0,0.0,0.0,0.0,0.0,0.0,0.0,0.0,0.0,0.0,0.0,0.0,0.0,0.0],[0.0,0.0,0.0,0.0,0.0,0.0,0.0,0.0,0.0,0.0,0.0,0.0,0.0,0.0,0.0,0.0,0.0,0.0,0.0,0.0,0.0,0.0,0.0,0.0,0.0,0.0,0.0,0.0,0.0,0.0,0.0,0.0,0.0,0.0,0.0,0.0,0.0,0.0,0.0,0.0],[0.0,0.0,0.0,0.0,0.0,0.0,0.0,0.0,0.0,0.0,0.0,0.0,0.0,0.0,0.0,0.0,0.0,0.0,0.0,0.0,0.0,0.0,0.0,0.0,0.0,0.0,0.0,0.0,0.0,0.0,0.0,0.0,0.0,0.0,0.0,0.0,0.0,0.0,0.0,0.0],[0.0,0.0,0.0,0.0,0.0,0.0,0.0,0.0,0.0,0.0,0.0,0.0,0.0,0.0,0.0,0.0,0.0,0.0,0.0,0.0,0.0,0.0,0.0,0.0,0.0,0.0,0.0,0.0,0.0,0.0,0.0,0.0,0.0,0.0,0.0,0.0,0.0,0.0,0.0,0.0],[0.0,0.0,0.0,0.0,0.0,0.0,0.0,0.0,0.0,0.0,0.0,0.0,0.0,0.0,0.0,0.0,0.0,0.0,0.0,0.0,0.0,0.0,0.0,0.0,0.0,0.0,0.0,0.0,0.0,0.0,0.0,0.0,0.0,0.0,0.0,0.0,0.0,0.0,0.0,0.0],[0.0,0.0,0.0,0.0,0.0,0.0,0.0,0.0,0.0,0.0,0.0,0.0,0.0,0.0,0.0,0.0,0.0,0.0,0.0,0.0,0.0,0.0,0.0,0.0,0.0,0.0,0.0,0.0,0.0,0.0,0.0,0.0,0.0,0.0,0.0,0.0,0.0,0.0,0.0,0.0],[0.0,0.0,0.0,0.0,0.0,0.0,0.0,0.0,0.0,0.0,0.0,0.0,0.0,0.0,0.0,0.0,0.0,0.0,0.0,0.0,0.0,0.0,0.0,0.0,0.0,0.0,0.0,0.0,0.0,0.0,0.0,0.0,0.0,0.0,0.0,0.0,0.0,0.0,0.0,0.0],[0.0,0.0,0.0,0.0,0.0,0.0,0.0,0.0,0.0,0.0,0.0,0.0,0.0,0.0,0.0,0.0,0.0,0.0,0.0,0.0,0.0,0.0,0.0,0.0,0.0,0.0,0.0,0.0,0.0,0.0,0.0,0.0,0.0,0.0,0.0,0.0,0.0,0.0,0.0,0.0],[0.0,0.0,0.0,0.0,0.0,0.0,0.0,0.0,0.0,0.0,0.0,0.0,0.0,0.0,0.0,0.0,0.0,0.0,0.0,0.0,0.0,0.0,0.0,0.0,0.0,0.0,0.0,0.0,0.0,0.0,0.0,0.0,0.0,0.0,0.0,0.0,0.0,0.0,0.0,0.0],[0.0,0.0,0.0,0.0,0.0,0.0,0.0,0.0,0.0,0.0,0.0,0.0,0.0,0.0,0.0,0.0,0.0,0.0,0.0,0.0,0.0,0.0,0.0,0.0,0.0,0.0,0.0,0.0,0.0,0.0,0.0,0.0,0.0,0.0,0.0,0.0,0.0,0.0,0.0,0.0],[0.0,0.0,0.0,0.0,0.0,0.0,0.0,0.0,0.0,0.0,0.0,0.0,0.0,0.0,0.0,0.0,0.0,0.0,0.0,0.0,0.0,0.0,0.0,0.0,0.0,0.0,0.0,0.0,0.0,0.0,0.0,0.0,0.0,0.0,0.0,0.0,0.0,0.0,0.0,0.0],[0.0,0.0,0.0,0.0,0.0,0.0,0.0,0.0,0.0,0.0,0.0,0.0,0.0,0.0,0.0,0.0,0.0,0.0,0.0,0.0,0.0,0.0,0.0,0.0,0.0,0.0,0.0,0.0,0.0,0.0,0.0,0.0,0.0,0.0,0.0,0.0,0.0,0.0,0.0,0.0],[0.0,0.0,0.0,0.0,0.0,0.0,0.0,0.0,0.0,0.0,0.0,0.0,0.0,0.0,0.0,0.0,0.0,0.0,0.0,0.0,0.0,0.0,0.0,0.0,0.0,0.0,0.0,0.0,0.0,0.0,0.0,0.0,0.0,0.0,0.0,0.0,0.0,0.0,0.0,0.0],[0.0,0.0,0.0,0.0,0.0,0.0,0.0,0.0,0.0,0.0,0.0,0.0,0.0,0.0,0.0,0.0,0.0,0.0,0.0,0.0,0.0,0.0,0.0,0.0,0.0,0.0,0.0,0.0,0.0,0.0,0.0,0.0,0.0,0.0,0.0,0.0,0.0,0.0,0.0,0.0],[0.0,0.0,0.0,0.0,0.0,0.0,0.0,0.0,0.0,0.0,0.0,0.0,0.0,0.0,0.0,0.0,0.0,0.0,0.0,0.0,0.0,0.0,0.0,0.0,0.0,0.0,0.0,0.0,0.0,0.0,0.0,0.0,0.0,0.0,0.0,0.0,0.0,0.0,0.0,0.0],[0.0,0.0,0.0,0.0,0.0,0.0,0.0,0.0,0.0,0.0,0.0,0.0,0.0,0.0,0.0,0.0,0.0,0.0,0.0,0.0,0.0,0.0,0.0,0.0,0.0,0.0,0.0,0.0,0.0,0.0,0.0,0.0,0.0,0.0,0.0,0.0,0.0,0.0,0.0,0.0],[0.0,0.0,0.0,0.0,0.0,0.0,0.0,0.0,0.0,0.0,0.0,0.0,0.0,0.0,0.0,0.0,0.0,0.0,0.0,0.0,0.0,0.0,0.0,0.0,0.0,0.0,0.0,0.0,0.0,0.0,0.0,0.0,0.0,0.0,0.0,0.0,0.0,0.0,0.0,0.0],[0.0,0.0,0.0,0.0,0.0,0.0,0.0,0.0,0.0,0.0,0.0,0.0,0.0,0.0,0.0,0.0,0.0,0.0,0.0,0.0,0.0,0.0,0.0,0.0,0.0,0.0,0.0,0.0,0.0,0.0,0.0,0.0,0.0,0.0,0.0,0.0,0.0,0.0,0.0,0.0],[0.0,0.0,0.0,0.0,0.0,0.0,0.0,0.0,0.0,0.0,0.0,0.0,0.0,0.0,0.0,0.0,0.0,0.0,0.0,0.0,0.0,0.0,0.0,0.0,0.0,0.0,0.0,0.0,0.0,0.0,0.0,0.0,0.0,0.0,0.0,0.0,0.0,0.0,0.0,0.0],[0.0,0.0,0.0,0.0,0.0,0.0,0.0,0.0,0.0,0.0,0.0,0.0,0.0,0.0,0.0,0.0,0.0,0.0,0.0,0.0,0.0,0.0,0.0,0.0,0.0,0.0,0.0,0.0,0.0,0.0,0.0,0.0,0.0,0.0,0.0,0.0,0.0,0.0,0.0,0.0],[0.0,0.0,0.0,0.0,0.0,0.0,0.0,0.0,0.0,0.0,0.0,0.0,0.0,0.0,0.0,0.0,0.0,0.0,0.0,0.0,0.0,0.0,0.0,0.0,0.0,0.0,0.0,0.0,0.0,0.0,0.0,0.0,0.0,0.0,0.0,0.0,0.0,0.0,0.0,0.0],[0.0,0.0,0.0,0.0,0.0,0.0,0.0,0.0,0.0,0.0,0.0,0.0,0.0,0.0,0.0,0.0,0.0,0.0,0.0,0.0,0.0,0.0,0.0,0.0,0.0,0.0,0.0,0.0,0.0,0.0,0.0,0.0,0.0,0.0,0.0,0.0,0.0,0.0,0.0,0.0],[0.0,0.0,0.0,0.0,0.0,0.0,0.0,0.0,0.0,0.0,0.0,0.0,0.0,0.0,0.0,0.0,0.0,0.0,0.0,0.0,0.0,0.0,0.0,0.0,0.0,0.0,0.0,0.0,0.0,0.0,0.0,0.0,0.0,0.0,0.0,0.0,0.0,0.0,0.0,0.0],[0.0,0.0,0.0,0.0,0.0,0.0,0.0,0.0,0.0,0.0,0.0,0.0,0.0,0.0,0.0,0.0,0.0,0.0,0.0,0.0,0.0,0.0,0.0,0.0,0.0,0.0,0.0,0.0,0.0,0.0,0.0,0.0,0.0,0.0,0.0,0.0,0.0,0.0,0.0,0.0],[0.0,0.0,0.0,0.0,0.0,0.0,0.0,0.0,0.0,0.0,0.0,0.0,0.0,0.0,0.0,0.0,0.0,0.0,0.0,0.0,0.0,0.0,0.0,0.0,0.0,0.0,0.0,0.0,0.0,0.0,0.0,0.0,0.0,0.0,0.0,0.0,0.0,0.0,0.0,0.0],[0.0,0.0,0.0,0.0,0.0,0.0,0.0,0.0,0.0,0.0,0.0,0.0,0.0,0.0,0.0,0.0,0.0,0.0,0.0,0.0,0.0,0.0,0.0,0.0,0.0,0.0,0.0,0.0,0.0,0.0,0.0,0.0,0.0,0.0,0.0,0.0,0.0,0.0,0.0,0.0]],"errors":[[0.0,0.0,0.0,0.0,0.0,0.0,0.0,0.0,0.0,0.0,0.0,0.0,0.0,0.0,0.0,0.0,0.0,0.0,0.0,0.0,0.0,0.0,0.0,0.0,0.0,0.0,0.0,0.0,0.0,0.0,0.0,0.0,0.0,0.0,0.0,0.0,0.0,0.0,0.0,0.0],[0.0,0.0,0.0,0.0,0.0,0.0,0.0,0.0,0.0,0.0,0.0,0.0,0.0,0.0,0.0,0.0,0.0,0.0,0.0,0.0,0.0,0.0,0.0,0.0,0.0,0.0,0.0,0.0,0.0,0.0,0.0,0.0,0.0,0.0,0.0,0.0,0.0,0.0,0.0,0.0],[0.0,0.0,0.0,0.0,0.0,0.0,0.0,0.0,0.0,0.0,0.0,0.0,0.0,0.0,0.0,0.0,0.0,0.0,0.0,0.0,0.0,0.0,0.0,0.0,0.0,0.0,0.0,0.0,0.0,0.0,0.0,0.0,0.0,0.0,0.0,0.0,0.0,0.0,0.0,0.0],[0.0,0.0,0.0,0.0,0.0,0.0,0.0,0.0,0.0,0.0,0.0,0.0,0.0,0.0,0.0,0.0,0.0,0.0,0.0,0.0,0.0,0.0,0.0,0.0,0.0,0.0,0.0,0.0,0.0,0.0,0.0,0.0,0.0,0.0,0.0,0.0,0.0,0.0,0.0,0.0],[0.0,0.0,0.0,0.0,0.0,0.0,0.0,0.0,0.0,0.0,0.0,0.0,0.0,0.0,0.0,0.0,0.0,0.0,0.0,0.0,0.0,0.0,0.0,0.0,0.0,0.0,0.0,0.0,0.0,0.0,0.0,0.0,0.0,0.0,0.0,0.0,0.0,0.0,0.0,0.0],[0.0,0.0,0.0,0.0,0.0,0.0,0.0,0.0,0.0,0.0,0.0,0.0,0.0,0.0,0.0,0.0,0.0,0.0,0.0,0.0,0.0,0.0,0.0,0.0,0.0,0.0,0.0,0.0,0.0,0.0,0.0,0.0,0.0,0.0,0.0,0.0,0.0,0.0,0.0,0.0]],"layer_bias":[0.0032441983351120733,0.03251288950792849,0.0027063567879616304,0.10185725159546465,0.018555004771202074,0.06445622608910674,-0.03288591109681764,-0.14104337903969727,-0.0686216046137164,0.025711953664630315,-0.04711436158675308,0.007265055703015017,-0.008951812988684858,0.08771566845277046,0.0012336372530204179,0.007280561388923489,0.07371897992642314,0.0009258814047576155,0.005384498950383899,-0.051033636514021,-0.2598143513879039,0.028824100457652935,0.08341290530658198,-0.07118896818668582,-0.002388355838665438,0.02144599788394591,-0.0034842311548341515,0.013171502740418384,0.02647103438612471,0.0512621832969406,0.017259483836196653,0.01948157178739266,-0.02083394780609411,-0.04549872014223974,0.06833639746905265,-0.007997358407404951,-0.019766360300656993,-0.009244706908305237,0.02634611920322789,-0.16434115156466444],"activation_type":"TANH","layer_type":"HiddenLayer","previous_layer":null,"next_layer":null,"input_data":[],"previous_gradient":[[8.945088398824996e-6,7.818560706492913e-6,-0.00002985246065870686,-5.032276595012116e-7,-0.000019187160846963777,-2.3554442945750777e-6,1.0841079040393733e-6,1.926001564762098e-7,0.000012841599049057797,-1.4376629591303405e-8,-0.000011655651960831882,5.385651782966108e-6,-7.000236621329242e-7,9.705759860158132e-6,6.8790971064765935e-6,5.169409377995252e-6,-0.000013219999002805417,5.0461831419229125e-6,4.3412885108519494e-7,0.00004142835562479961,0.000022299242247266176,6.157607780035013e-7,7.449162346791585e-6,-0.000011174642711761663,-4.7264744385377e-6,0.000014495409279712608,2.1465429947921156e-6,-4.13715407738995e-6,-0.000010283192999577735,-2.6192614013824376e-7,0.000038677674436624315,4.438024641080626e-6,0.00003381411303496649,3.0845786641026e-6,-4.2308856074934395e-6,-0.000016546837321389627,6.163979136463574e-7,-1.1428198307950692e-6,5.521356706295632e-6,3.5307929899903954e-6],[0.0000354158480220748,-0.00004009513364316655,-0.00008106626000141725,-6.142476601472371e-7,-4.837035124041203e-6,0.00001464634801159027,-1.3077912899200904e-6,-1.2336568325575716e-6,0.00009350951623328427,-3.725834247541206e-9,-0.0000260226253527302,0.00001700894017240088,1.8607668615655948e-6,0.00002229027208187764,0.00003372481767683745,0.000015565589326466056,-0.00010001459348692664,0.000010760643237955408,5.052455169721526e-7,0.00010032830774366938,0.00005318504201910575,-1.8270471761035827e-6,0.00005653708748777327,-0.00006658690917466503,-0.000030018709942763753,0.00003530296519464752,2.773393592399463e-6,0.0000309379981874058,-0.000023980043464065278,1.7286442640241043e-6,0.000043303418106581314,-0.000018577259179260825,0.000043180571406866434,5.563453460352927e-6,-0.000017232540763504132,-0.00003447063029965415,1.1426702337075266e-6,-7.431964478014661e-6,-4.192987822820868e-6,-3.98938775070759e-6],[-2.875256653284419e-6,-0.00005812547523702144,0.000016942853383746317,-2.722632718188906e-7,0.000044042415483014526,8.452788488372826e-6,-1.937664380975085e-6,-6.944356540662813e-7,4.2319854087798775e-6,-4.731292656079049e-10,0.00001881584643952624,-2.9622172563833283e-6,1.3437831925220524e-6,-0.000011292530336884057,-0.000014466838779032789,5.668418976650209e-8,-0.000041548588767808896,-3.7426140875493258e-6,-1.3897304305681517e-7,-0.000020667232965434796,-0.00001495149946749392,-1.5508189551993402e-6,-9.60843723733719e-6,-6.67151531094161e-6,5.305535835128212e-7,-0.00003136548544651702,-4.100536179276613e-6,3.4459234147393995e-6,0.000012602806195213844,6.734262936325944e-7,-0.0000714574032874852,-0.000026903131812898646,-0.00004909365519629113,-1.9843788676501093e-6,5.610798384162327e-6,0.000012392875095214622,-1.4492057142646967e-6,-1.0090281283435298e-6,-9.38696756667673e-6,-6.599416857731965e-6],[-2.7619628593964445e-6,-0.00007546910508915948,0.00001215245428291693,1.0884114811281245e-7,0.000037238534708997225,-9.111246555644422e-7,3.4447139599639444e-8,6.548473663053805e-8,-0.0000328398133348049,1.1667033959433513e-8,0.00003138845967999781,-2.4435157984442174e-6,-6.988561882189132e-7,-3.203847814247246e-6,-0.000043883007808506215,-1.304808700522048e-6,-0.000037768572983778244,-1.2214563046733175e-6,1.6997421343328032e-6,-9.068636842927123e-7,-0.000020983874130797638,-3.506939966501303e-8,-0.000027924888947191003,5.842050261429922e-6,8.945002685064305e-6,-0.000036066753829185234,-5.412579711235321e-6,-0.00003259891357160421,0.000011754492417363486,-7.025572603479021e-7,-0.00010573332810464347,-0.000027198264158414956,-0.0000371411644456487,2.6267707459943964e-6,3.846407961200652e-6,3.863630101302857e-6,-3.21285138131754e-6,7.32051401526871e-7,-9.993474510368662e-7,-8.137296789987e-7],[2.3221956001827682e-6,0.00004773022422830994,-0.000011179887859537253,-1.6015874650960274e-8,-0.00003053347362568887,-2.1783671777227622e-6,6.038421149035615e-7,1.6669161863460525e-7,0.000013320784570515775,-5.700019585542886e-9,-0.00001924606508967175,2.1058771960238096e-6,-1.2263047458517155e-7,4.852367929804076e-6,0.000022854713069967516,5.506158796953598e-7,0.000029804954495267358,1.8633644503038886e-6,-5.768938736909769e-7,8.773612401819745e-6,0.000013482849906457296,4.938923268431567e-7,0.000013784119870093427,-9.575919614159371e-7,-4.398149119931526e-6,0.000019814190677278217,3.5598708472786114e-6,0.000012475743144778135,-3.835766445263518e-6,9.821786710636773e-8,0.0000625662466764305,0.000020797138130275146,0.00003203475123940349,-2.566646611104235e-7,-1.0568233286873834e-7,-5.938150220042519e-6,1.6945351874757448e-6,-7.951471181932686e-8,3.4111436158456465e-6,2.42721452545466e-6],[-1.8053620756082657e-6,-4.123710510611542e-6,0.00001142730099376186,-4.536756923680543e-7,0.000023209255294790314,0.000011031293046211099,-2.3940644010178356e-6,-9.318346061271775e-7,0.000032610438981355784,-1.2333849052324797e-8,-3.8771037814609085e-6,-1.7855017711140194e-6,2.2390764428410433e-6,-0.000011666774070780567,0.000020180872685353696,1.3370809578528238e-6,-0.000019373468493708392,-3.749448694405965e-6,-1.7713969811933756e-6,-0.000026774038515792387,1.225811926777414e-7,-1.8611014284801622e-6,0.000013629201024362901,-0.000012467451231088123,-6.40006583406176e-6,0.000012459318995682964,-3.5476089306572477e-7,0.000032377855253073865,5.890290035108744e-6,1.411201903601004e-6,-5.466225136356699e-6,-0.000010467404839855615,-0.00002955044778813714,-5.011198690966837e-6,4.0351581870902894e-6,0.000012497877153239287,1.118714049810727e-6,-1.7819871073134773e-6,-0.000010654231616774296,-7.3814830673433635e-6],[-6.546460952324011e-6,-0.00004706560412392257,0.000024163620506460838,3.2941052719646134e-7,0.000038418566315495716,2.0211468144191888e-6,-8.481014263251692e-7,-2.553727367533975e-7,-0.000023095292242693026,1.3269091486314117e-8,0.00002475510873350808,-4.4901050981640365e-6,2.0199424928552605e-7,-8.092631066407035e-6,-0.000027423521980239866,-2.7928735898636795e-6,-0.00002404701785651414,-3.945867556806285e-6,3.79440215040921e-7,1.1614770991912201e-7,-0.000022663114399139843,-5.712329855422617e-7,-0.00001637678082253691,7.818198857027276e-6,7.843045671827729e-6,-0.000026241886812540755,-4.429539043082766e-6,-0.000013510279024464494,0.00001349312867072013,-1.4261387284801428e-7,-0.00008549467097244219,-0.00002327125551819444,-0.00004547790462938007,-9.935800819275699e-7,4.609032017988027e-6,0.00001258687690237076,-1.8651536903496991e-6,8.652514968280986e-7,-4.8957370635186525e-6,-3.2558507470351487e-6],[8.263801514247e-6,0.0000339577793238704,-0.000029591830092357744,-3.921939677529213e-7,-0.00003669281391520683,-3.4486039061901503e-6,1.260549336164443e-6,2.7461078018519827e-7,0.000017468352397564935,-1.3458531164979182e-8,-0.000020901729354245492,5.411208589366834e-6,-6.512643510537086e-7,0.000010540026548544153,0.00001888940639509725,3.717564484216184e-6,0.000014013983157995773,5.141282625112677e-6,1.7099425284890874e-7,0.000038473967458379,0.000023828325783922317,8.260261820820984e-7,0.00001177274952635733,-8.575190436890886e-6,-6.7297140273314655e-6,0.000021675572355680942,3.862652636399914e-6,3.872741161698671e-6,-0.000013924675599803394,-1.5164645000165097e-7,0.000073626150579278,0.000019246060306355557,0.00004776122082437268,2.5666944263425353e-6,-5.122378170137887e-6,-0.000016549759539159995,1.3030478274710732e-6,-8.806545065689188e-7,6.5995900658817445e-6,4.391083511183792e-6],[0.000040691024444888083,-0.00001751115098113092,-0.00009048243101364156,-4.0268645406711097e-7,-0.00009594964884930806,0.000012766633852119923,-8.314618055217198e-7,-1.1185058045366884e-6,0.00012041183966580846,1.9108941385423166e-8,-0.00005438808701231473,0.000019724212868929782,2.26947653243527e-6,0.000028382933970035303,0.00006526974618881884,4.718911619158164e-6,0.00004056033825040905,0.000014287796570719434,3.1381545985059698e-6,0.00013021958898172282,0.000037387224580554673,-1.3484462181134417e-6,0.00004280931797461462,-0.00004215661404591507,-0.000049672590189625885,0.000030303036672606762,7.403933210917742e-6,0.000052344560423761765,-0.00004321903997911765,2.513373756200836e-6,0.00014476286330287826,0.00006258234885211478,0.00011282181405476949,0.00001079309125858902,-0.00002167302797551864,-0.00004182335060192022,-5.820194582506868e-7,-7.9750400717765e-6,-9.484266373842697e-7,-1.59498227454825e-6],[-0.000024452636043123185,0.00003993934621440961,0.0000622083180120942,7.162619287325196e-7,-0.000010548048626431123,-6.021572866227437e-6,-8.023590659307151e-8,4.964011867508155e-7,-0.00004557229997037542,1.3708596986133695e-8,8.90222065437969e-6,-0.000012161217999270228,-1.5620150510706024e-7,-0.000017872708652168916,-5.932199538508455e-6,-0.000014177029341466614,0.0001027821029856779,-8.719458952251804e-6,-5.653200191424203e-7,-0.00008062216878428039,-0.00004353378403966562,5.82133080417995e-7,-0.000014587569994477224,0.000042726514287555146,0.00001341633702861359,-0.000047844955074339125,-7.886917441562008e-7,-4.516605133063486e-9,0.000014123827024657699,2.2597885663821624e-7,-4.748823964172583e-6,0.000030296247128664723,-0.00002611183819548348,-5.1120970599421846e-6,0.000011168019750992454,0.00002926370227678969,-6.698645022685792e-7,4.550488974186562e-6,-1.2506529720539361e-6,4.4051468288368984e-9],[3.976276064880991e-6,-0.000017184834360465586,-7.473143358103901e-6,-8.802063533429708e-7,0.000020892975972595735,9.59718321248012e-6,-1.6905516237008358e-6,-8.084854240807649e-7,0.00003540725494726854,-2.2746653465208137e-8,-4.738293126353255e-6,1.4995096774117995e-6,1.6373955041986885e-6,-6.040363383970348e-6,0.000015128148705587982,5.3182378775075305e-6,-0.000042740393955856246,-4.990880669605575e-7,-1.1927110190290108e-6,2.488412661105706e-6,0.000012498969199352638,-1.502162386170958e-6,0.000013983332119831192,-0.00002006638008848815,-7.634693497867892e-6,0.000015708719187177232,-1.4785803533779432e-7,0.000022459353654287133,1.7506296830384138e-6,1.0918047842378414e-6,-6.022220883086689e-6,-0.0000160147838546878,-0.000015943855576633696,-2.4394717721468884e-6,2.2457636137244637e-6,1.6809019721639162e-6,9.128662341432539e-7,-2.5485414122114356e-6,-7.284030405986786e-6,-5.3037555901935335e-6],[-7.448170063687938e-6,-8.502160106716643e-6,0.000010076925092388326,5.379827408356771e-7,0.000014204494676044378,-1.0392990516447467e-7,-4.78798657928278e-7,1.5622492585997315e-8,-0.000018695411834890575,1.5362831738121212e-8,0.000012103492607876046,-4.3883205531318656e-6,1.4612960105996218e-7,-6.180258045651261e-6,-0.000011529336202018916,-4.666235090855365e-6,0.00001243119353901449,-3.700681569341386e-6,-2.4261079460342796e-9,-0.00003090171419064702,-0.000019797781777655267,-1.7861507105556712e-7,-9.674324902736675e-6,0.000012211213934473217,5.781704026515015e-6,-0.00001606776370750046,-2.003994744876759e-6,-3.919338139249251e-6,8.259376103543881e-6,-7.622167066051783e-8,-0.000036386643162069826,-3.556616694564194e-6,-0.000025342045946499442,3.575926153729614e-6,2.9277605618083063e-6,0.000012034483174114478,-8.28923288921618e-7,1.3599399045734335e-6,-2.822908824890776e-6,-1.6762553026643623e-6],[5.112269937017996e-6,-0.000048911894389319055,-0.000010429781281600915,-8.022651137444325e-7,0.0000287935966772751,6.559877450863578e-6,-9.980958056681402e-7,-5.414136452614457e-7,0.00001688056786202999,-1.6444254908939508e-8,7.797906972565082e-6,1.8825305715260416e-6,7.490440034538301e-7,-2.923906609938243e-6,-7.161181890848911e-6,5.351166833402348e-6,-0.00005793861860026438,7.242560591979643e-7,4.914513801878648e-8,0.000015958176562042153,7.140452145570783e-6,-1.0308132123013373e-6,-2.243260920104667e-7,-0.000017298214929610306,-3.484384389178808e-6,-5.128033963164443e-7,-2.083924572032451e-6,1.6859674739914755e-6,3.5944984209557867e-6,4.5286344803224475e-7,-0.00004435697613024733,-0.000024982724721753474,-0.000019694809494590274,4.2289283898020884e-7,1.9574467784666382e-6,-2.4755147923252917e-6,-6.606148195826e-7,-2.0995364711212776e-6,-4.56033635662291e-6,-3.5275923082452177e-6],[4.061584200453017e-6,-0.000019053086962062963,-8.787787763748142e-6,-7.198826579262034e-7,0.000017070727770676484,6.840357229409448e-6,-1.1228332098258814e-6,-5.742611070505244e-7,0.00002528319239827902,-1.7910674019715148e-8,-2.0298225431789863e-6,1.6734438834878382e-6,1.0671643189548061e-6,-3.432496742286244e-6,7.955711327615016e-6,5.1898336999837545e-6,-0.000038576238312523596,-1.040980836268076e-6,-6.751318798119491e-7,7.731321651103661e-6,0.000011279807973008763,-1.0532901963436804e-6,8.939356092894534e-6,-0.00001624119951811886,-5.518266209561597e-6,0.000010345793232408034,-3.5934827658341606e-7,0.000013304861982909163,1.039523984431928e-6,7.159119570280886e-7,-9.9067537755039e-6,-0.000014508918044013426,-0.000011095095546077131,-1.1467482976742684e-6,1.3986238975350794e-6,-7.418729204936729e-7,4.648883942473883e-7,-2.0191436686645e-6,-4.829773611951563e-6,-3.595677816238657e-6],[-0.000013260869768092847,0.00006938885548771822,0.000032527968847725254,9.9079485829293e-7,-0.00002954654562812919,-5.89731639389849e-6,4.0829127980357337e-7,4.797986219991141e-7,-0.000021456099203632924,1.835945304774742e-8,-8.614456878812543e-6,-6.0233380947768325e-6,-2.1621767658065707e-7,-5.0514173862809835e-6,0.000014079108234896941,-9.521787686503777e-6,0.00008650894843289738,-4.3847186224698345e-6,-8.580470634369837e-7,-0.00004946304439326002,-0.000019235201933343488,7.916444298301872e-7,1.8836438424202373e-6,0.000027934931196156277,5.770539822129604e-6,-1.0085313305582063e-8,2.246613601652675e-6,9.953251239072187e-6,1.3473936072147527e-6,-1.8311586043677882e-7,0.000050810498254878196,0.00003420755928431555,7.181714178409822e-6,1.435631828783475e-6,2.0357802622644757e-6,0.000014748430072559378,1.0778467248797265e-6,3.14012898950564e-6,1.73540581139785e-6,1.8733337210965283e-6],[-1.4091758320531373e-6,-0.00004393377133031398,8.409510405403249e-6,-8.962998538444356e-8,0.000028459589435187718,2.8892178057002433e-6,-6.887421846865742e-7,-2.7098019920222434e-7,-7.662175194196128e-6,2.4468755870300086e-9,0.000016192846752464115,-1.577748778150266e-6,2.6856815445000674e-7,-4.697865476346456e-6,-0.000018394198476375702,1.3748458370527736e-7,-0.000030628945299223114,-1.5772806363350733e-6,4.090429997394865e-7,-6.436537360190569e-6,-0.000010225942814290362,-5.815687154591545e-7,-0.00001073179695447701,-1.5289516640250342e-6,2.8945571685694093e-6,-0.000015636259305053528,-3.106856101112282e-6,-8.691276370819813e-6,3.8385036275139325e-6,2.6293040054487322e-8,-0.00006120596293998308,-0.00001967996195635115,-0.000029038399943396762,6.479262873382503e-8,2.926903549104504e-6,2.5228702998841956e-6,-1.4037370502634223e-6,-2.277443551669032e-7,-3.6615461416606124e-6,-2.6266842694563595e-6],[9.642040639444135e-6,0.000012834139116648464,-0.00002940609247785413,-6.810967522565685e-7,-0.00001878057249134256,1.7547100838256616e-6,2.583038108689354e-7,-1.587099954252387e-7,0.00003032972256620619,-1.893037633771496e-8,-0.000017615210288387333,5.532298304039706e-6,1.8594719864362952e-7,-0.000012116841409180307,0.00001975009503969583,5.646595220888968e-6,-0.000012574384504450095,4.307888707454252e-6,-1.831893494299425e-7,0.00003624897226066752,0.000024771271913551094,-3.7941341199556385e-8,0.000013714807478598618,-0.000017591408884594773,-9.307606856331189e-6,0.000022522585980297582,2.7706239378184347e-6,0.000011398075494869736,-0.00001072555165185161,3.5706760926859633e-7,0.00005097824141129438,6.502655136862538e-6,0.0000311860692030368,1.5310740862914393e-6,-3.7089040751127196e-6,-0.000013795160757037676,1.2172996096729566e-6,-2.0246156904022708e-6,2.0338837669479827e-6,1.1035000274308201e-6],[-0.000021788197226976703,-0.00003180580136193578,0.00006271394018075639,4.413170445489458e-7,0.000077188799195625,3.118420626561027e-6,-1.816054285689408e-6,-2.3211152862828496e-7,-0.00004606194756489164,5.220175459117417e-9,0.0000381864997790662,-2.2356049429522562e-7,6.650359018915616e-7,-0.000023280801352595288,-0.000034431189369872684,-4.778493203536565e-6,0.00003007581562266301,-0.000011018664086784487,-1.739037854310098e-6,-0.00008959945008590078,-0.00003633130582127896,-1.0353431977350797e-6,-5.287712640652956e-6,0.00002576864091601581,0.000020804300331344103,-0.000028378040661990612,-6.553292051450995e-6,-0.00001070107623038544,0.000030088773887557648,-1.972935033723714e-7,-0.00012647981302034422,-0.000044488054469592545,-0.00009550883286359619,-7.647030433329986e-6,0.0000132223239158963,0.000034283798560073194,-8.041654433389207e-7,2.8539225783510683e-6,-9.997710725032539e-6,-6.4483515986580454e-6],[-2.224833904794238e-6,-0.000029643369487820887,9.461221690930632e-6,8.446038538310636e-8,0.000020537609502135256,1.2945103176451152e-6,-4.187134299016328e-7,-9.785247342209459e-8,-0.000010365775577471115,5.4587542086033075e-9,0.000013133789777892578,-1.7680083438889096e-6,8.551379220958466e-8,-3.548112959274091e-6,-0.000015244280440270668,-8.13165879106553e-7,-0.000017429741298427277,-1.5598214106295837e-6,3.3229696823384736e-7,-8.984013557577242e-6,-0.00001028172569460443,-3.179329266119055e-7,-9.211480688414844e-6,1.9795022294362167e-6,3.428633648936105e-6,-0.000013761659674583533,-2.395748732226746e-6,-8.094326843949272e-6,6.50455157577021e-6,-7.423543251037405e-8,-0.00004667396128120613,-0.000013462006506603227,-0.00002253337711440815,-5.996427467717326e-8,-9.945492628436098e-7,4.953959131200985e-6,-1.0973782794387567e-6,2.1187786354801623e-7,-2.3805410150912163e-6,-1.6589628947597515e-6],[-0.000040554708315667883,0.000027812244676194396,0.00009595612495481409,-5.268403127362365e-8,0.00003754808963490262,-7.476111374551712e-6,-3.412481641409588e-7,6.343384318382759e-7,-0.00008161634838263699,-1.713744008818837e-8,0.000030981993306798196,-0.000020091693130920726,-5.175888371197484e-7,-0.000034911411294459406,-0.000030450193606745156,-0.000013431246285203508,0.00006824222828834573,-0.000014595278662007476,2.9098152796600755e-6,-0.00012781100260628636,-0.00005410769528370598,5.521258174829686e-7,-9.294104481846483e-6,0.00006199337597405668,0.00003091747931450688,-0.000028996822432502057,-4.245220434537817e-6,-0.000015893995963503197,0.00003392532775015744,-1.0096216150350797e-6,-0.00007332736268560115,-1.1686022689881125e-6,-0.00007945690992929258,-0.000010072648678572013,0.000023983904115150382,0.000046585938730817365,-5.741740879205843e-7,6.639158875075671e-6,-3.452309640257089e-6,-1.3052916167462332e-6],[0.000011604818658009055,0.00003498875564160648,-0.000035883876978983995,-6.536463003429874e-7,-0.00004076783553488546,9.347262363494854e-7,6.035682504604383e-7,-1.0102658300628196e-7,0.00004010980095171503,-1.8522056002577207e-8,-0.00002896685599718096,6.895099303691003e-6,2.2374718879738553e-7,9.702174229179903e-6,0.00003316706085591878,4.928588262392917e-6,0.000013023736457052596,5.535351709963118e-6,-1.701494516609976e-7,0.00004374282533260685,0.000029387239664953053,1.7706113516289694e-7,0.000017065575259126765,-0.000018932653009152073,-0.000013599061716456886,0.000030836026991442895,4.774190861473817e-6,0.000019606832054714348,-0.000016804944805664894,5.15206657723957e-7,0.0000911880490072092,0.0000232074612709467,0.00005198902170420566,1.969556960333723e-6,-5.7809464161785594e-6,-0.00001767419095361439,1.775595129114845e-6,-2.213147693211169e-6,3.625997576398299e-6,2.2379076541373153e-6],[-6.028201318079285e-6,0.00005534878371162107,0.000015288148691978753,6.106357583801326e-7,-0.000023088610249210532,-1.7444603900595257e-6,-5.218200730614085e-8,1.3168899894600377e-7,7.694330506046452e-8,1.0313766662931998e-8,-0.000011901318974778553,-2.602260161641636e-6,3.0207934085999303e-7,-2.142659195617427e-6,0.0000204260758786438,-4.9502878679904365e-6,0.000055935900207441155,-2.3675556040409035e-6,-9.850292913703054e-7,-0.000020461807758183833,-5.880463301014772e-6,9.90528864631544e-8,8.502382521136586e-6,0.000011966848504436165,-1.0996751073607999e-7,9.123680796980734e-6,2.4780897654513475e-6,0.000016855189919255432,-2.046262790263224e-6,2.3486011973028505e-7,0.0000521527087018035,0.00001720250483695207,0.000010403339699452353,-2.926145563901514e-6,-3.5602745968655667e-7,8.049915988172634e-6,1.4425874759376553e-6,1.3184257112968666e-6,-1.255118017941686e-8,3.866367947136574e-7],[-0.000026722065321129906,3.7527172315984813e-6,0.00007045428094998246,4.160645544988138e-7,0.000041534183534157353,-1.4961573134677483e-6,-1.083365285010291e-6,1.369830125225591e-7,-0.0000519765842731056,3.4345336310602755e-9,0.00002710649489234429,-0.000014103453451942467,2.7674269088540173e-7,-0.000024599529309883568,-0.000023343524494808354,-9.770981800942923e-6,0.00003060027451757814,-0.000011308900090712112,-1.5058933299567984e-6,-0.00009650855999880607,-0.000042973800505309877,-2.778970300031937e-7,-8.81253426547417e-6,9.570390642232935e-6,0.00002020192769691426,-0.000026046175995430632,-4.240566174386261e-6,-6.522457071444064e-6,0.00002603801510540095,-3.428699171126721e-7,-0.00007657737317884252,-0.000011482332999064896,-0.00007136948037990445,-7.617726984905209e-6,0.000014795314152790307,0.000036045826079496886,-6.808190986668029e-7,4.138034858238294e-6,-6.419784230864701e-6,-3.7051481660221685e-6],[-5.255352919577591e-6,4.718804323952274e-6,6.247309566768848e-6,2.2637734589353593e-6,9.489672267658984e-6,4.087848566188412e-6,-1.2178019092154696e-6,-4.4053695312200346e-7,4.743151557532195e-6,6.665643383150566e-9,1.4074557029254768e-6,-3.2664955890758967e-6,1.0583686143038e-6,-7.789856445054881e-6,7.038174854765659e-6,-3.133027339418627e-6,0.000013070266899798007,-3.694523603706121e-6,-7.970543919167283e-7,-0.000030754555264200874,-0.000011726903681725299,-7.956265439877112e-7,1.1051846781182404e-6,3.151598111736329e-6,-4.20238739483565e-7,-1.849911143119641e-6,-5.72021608992455e-7,0.000014973816510834484,5.467174289476604e-6,6.080072314786115e-7,-8.894885159206687e-6,8.975187220078946e-7,-0.000020672444906604337,-3.1949998528016555e-6,2.6652495908971976e-6,0.000012348987653839102,2.2782268422267255e-7,1.812145033036514e-7,-5.675155851049306e-6,-3.7282996507673896e-6],[0.000018500964673133122,0.000023632362550199545,-0.000055527487381154544,-4.968550853373462e-7,-0.000055741167712234935,-3.376117369922649e-6,1.7594004947901144e-6,2.64555351364471e-7,0.000034258599760215866,-1.0546716267415048e-8,-0.00002909597156894926,0.000010692996233687952,-8.59456451678529e-7,0.000020183621660725515,0.00002374302513138427,6.202606443797407e-6,0.00001018213430286686,9.641268113872292e-6,1.2641287193149074e-6,0.00007804691925212046,0.0000355545142152693,1.001654560092039e-6,0.00005171950027221573,-0.00002214104684344046,-0.000014770822624227088,0.000025551194411266938,5.105403780149404e-6,-4.1382377878514684e-8,-0.000023936024608635533,-7.662069104472082e-8,0.00009655477279998638,0.000027256972992010446,0.00007624796288658686,6.4116120963498665e-6,-0.000010627327198139763,-0.00003051152541464232,9.002697671067056e-7,-2.3603135184031405e-6,9.3659606122298e-6,6.0218319647397e-6],[0.00001410099269130894,0.00005593395288812467,-0.00006161136399461036,1.0016258771321411e-7,-0.00008641747787536318,-0.00002432416993759601,6.0115129915623335e-6,2.0332406364190313e-6,-0.00003437896115452999,-3.316533505226224e-9,-0.000021495715092798937,0.000010530197428975114,-4.92180380149467e-6,0.000034444662418284285,-0.000010180886685400356,4.10752555203068e-6,-0.000027619283558644658,0.000013640714264344832,3.0511679110124614e-6,0.0000995039172463191,0.00003620367015191536,4.4439468057991334e-6,-3.636240063304417e-6,0.000010009559380300786,3.440995620135741e-6,0.000011053659347954345,5.911367722625196e-6,-0.000052856927190452694,-0.000028579141498661894,-2.7745415218254578e-6,0.00011258438857879988,0.00003977825389170364,0.00011519251098431965,0.000011881368886889944,-0.000013417815190098002,-0.000045020587050375894,1.5229304802404005e-7,1.932766153498584e-6,0.00002810561372883288,0.000019201210530302557],[-1.0037937010968239e-6,-0.00007445090339625954,9.363773053333795e-6,-2.3679929342279563e-7,0.00003942659396209198,3.7983424293609455e-6,-8.434009519804792e-7,-2.9797232156042825e-7,-0.000012200648092722824,2.928835100071195e-9,0.000025119066083775443,-1.7660416779182455e-6,2.33647473712228e-7,-6.051148367668354e-6,-0.00003077682308353154,2.2677197416065618e-7,-0.000044489505402273946,-1.5624215337291697e-6,1.0678621207297741e-6,-1.6361608588017114e-6,-0.00001573477205506625,-7.642418648501781e-7,-0.00002054650044222827,-3.273896804938549e-6,3.646446178415827e-6,-0.000037367785180430504,-4.80997412360473e-6,-0.00001683290611135842,6.966762513498998e-6,2.285099399946735e-7,-0.00009452170624061899,-0.00002751370074819304,-0.00003951045818423207,1.227078020939163e-6,4.450315688682723e-6,5.249155591070457e-6,-2.586469358183289e-6,-4.717954975151421e-7,-4.622816878208566e-6,-3.395620829769946e-6],[6.6522715584810785e-6,-0.0000717030715381188,-0.000013740108879267924,-8.607683450455998e-7,0.00003334725511318224,5.879479453382871e-6,-7.712475657056181e-7,-4.3678144998282793e-7,0.00001079555171996589,-1.4319436125250885e-8,0.000014335269102091587,2.45231796988737e-6,4.1894207700316407e-7,-0.000016697705688290667,-0.00001855652687830726,5.648842074801128e-6,-0.00006826547513098574,1.5914152800594813e-6,8.158480276936994e-7,0.000026352998405635694,4.562583067300118e-6,-9.207089710694457e-7,-8.918603473835179e-6,-0.00001836098824101934,-2.661129684470499e-6,-9.37670926530915e-6,-3.2144204854171533e-6,-9.596003559282224e-6,4.302771557520504e-6,2.2248609172555872e-7,-0.00006675309131379905,-0.00002987950246123789,-0.000024261372463893255,2.1873918479858263e-6,0.00001042378366894672,-4.5306215704956985e-7,-1.6612884282964307e-6,-2.190979149781844e-6,-3.7110876096775783e-6,-3.042835761459832e-6],[-5.91191256967955e-6,0.00005708150104084494,0.000015099072772616697,5.792069264054452e-7,-0.000023120187015629933,-1.1626241672032e-6,-1.6491020772237682e-7,8.174241365003914e-8,2.966396965826677e-6,9.12256982946512e-9,-0.000013129993392224585,-2.5422894313783346e-6,4.3159564530740224e-7,-2.512150804655769e-6,0.000022917361775281828,-4.743095263035028e-6,0.00005561493746166255,-2.460546403674065e-6,-1.1318431749552745e-6,-0.000029708356742792256,-4.858788315145895e-6,1.411405423747448e-7,0.000010276354841238676,0.000010958734515680708,-7.583331200388321e-7,0.000011136476429488305,2.6517996630072497e-6,0.000019494800938561242,-2.219581458379763e-6,3.2627742846666435e-7,0.00005545466525839331,0.000024359955399944598,0.000010355715512457936,-3.23960535188025e-6,-3.264147148131044e-7,8.366482748349036e-6,1.6172420845999316e-6,1.1861943366718953e-6,-4.717981029447425e-7,6.785436700948542e-8],[-6.1039362702986754e-6,-0.00003775614026509198,0.00001720917303026901,7.264944781091301e-7,0.00002073102160957298,-6.9126441943676095e-6,1.0378993270114958e-6,6.041894703047434e-7,-0.000050048723941083966,2.2592296811842894e-8,0.000027317138725467226,-3.5171336658598733e-6,-1.562922951269435e-6,5.68462721507401e-7,-0.00004210025120292724,-3.960750427737646e-6,-7.563811714072512e-6,-1.3894640911442237e-6,1.5497042033227347e-6,-0.0000103895838467143,-0.00002260945868502845,9.230819416208374e-7,-0.00002486329641127326,0.000019224608108986317,0.000013734130609468364,-0.00003456210056036575,-3.807645831385721e-6,-0.000038048330458658334,9.338387826648635e-6,-1.2706579595298899e-6,-0.0000769843350983746,-0.000015235057226166838,-0.000023362569083199155,2.4024033177837402e-6,1.6155455041423807e-6,3.867845873263881e-6,-2.4901147335235867e-6,2.462355812684206e-6,3.5577627500792584e-6,2.591658848795e-6],[-3.5534838328839455e-6,0.000033607529103276903,-0.00001579052096619626,-6.562438492203713e-7,-0.000035371093170459274,1.6435469878065946e-6,3.0128847983913797e-7,-1.592789266460511e-7,0.000039263916438301704,-1.9107566962956396e-8,-0.000027197888437638058,6.124688584190458e-6,3.715686220071446e-7,7.824722456043852e-6,0.00003248195534224264,4.77454404078896e-6,-0.00003275398848705702,4.735846043683502e-6,-3.767131343721733e-7,0.00003735095638990362,0.000027601393235553693,3.0040449492642525e-8,0.00001776437519095754,-0.00001811313040499302,-0.000012741855599413901,0.000030189912975113795,4.423398661571107e-6,0.000020756602896796014,-0.00001486787991987712,5.742628149090507e-7,0.00008436831675862606,0.00002019959703058945,0.0000453268413700672,1.2584919095850805e-6,-4.846808911584285e-6,-0.000014793246499810065,4.18310640407884e-6,-2.1414090937615506e-6,2.561174260420841e-6,1.5276393751589066e-6],[5.466508280252446e-6,0.000034340347799642954,-0.000022889195987400005,-1.1198885232478992e-7,-0.00003513989198770359,-6.216815808711298e-6,1.6647114700278253e-6,5.11377265559186e-7,2.051872997753607e-6,-6.719572155959656e-9,-0.000012450222286210649,4.040381880858232e-6,-1.1506104561256347e-6,0.000010666978673005977,0.000010006858032132878,2.0219463510024854e-6,0.000020481909850359045,4.5031356582867356e-6,4.235731971712791e-7,0.00003161586457470919,0.000017528901978570527,1.216579859766635e-6,6.928735255281584e-6,-5.997895389314268e-7,-2.3453478429678816e-6,0.000014142751855929838,3.2320635959132046e-6,-5.280965017960605e-6,-0.000011787855741741439,-5.432014150949523e-7,0.00006210539478544193,0.000018727937859568447,0.000044086405830857565,2.8096396654845752e-6,-4.727482564456069e-6,-0.000014705538147728811,9.131186263231263e-7,1.146498859893736e-7,8.147799304211926e-6,5.564165072854269e-6],[7.763482491413602e-6,0.000018259171136661905,-0.00002876677208337828,-3.1985206938430667e-7,-0.0000283156721174755,-5.414438446408971e-6,1.651853760574322e-6,4.4817689790192095e-7,3.957807539223441e-6,-1.0617641729118487e-8,-0.000012476711439581103,5.088769807650467e-6,-1.197645607216058e-6,0.00001154457002998789,5.039453905116391e-6,3.856184516233759e-6,1.9860019097044275e-6,5.363903472166583e-6,6.71503099906408e-7,0.000041507266310225954,0.000020601707046582742,1.1124675678391267e-6,5.4125233913193205e-6,-5.319641848587994e-6,-2.8036776127298227e-6,0.000012706309449999964,2.5975221239910214e-6,-9.350553173748822e-6,-0.000011564201042793104,-5.764279365657623e-7,0.00004835974676686962,0.000011184275197540232,0.000041730762991934575,3.6715531693816175e-6,-4.798365976735862e-6,-0.000017598129353401586,5.706213075463417e-7,-4.094049157597479e-7,8.062726297358358e-6,5.370584761140167e-6],[-4.702171785339474e-6,4.196326297893509e-6,0.000014764265036126031,4.0198179902872465e-7,-9.26178408573062e-7,2.2409010150840536e-8,-3.357897646554695e-7,-3.938599653361591e-9,-5.7916294251842535e-6,1.0049813004002484e-8,1.0883297227879256e-6,-2.5865370515913742e-6,2.6934543865635454e-7,-3.5439561803264623e-6,2.12270596645167e-6,-3.5653648013578006e-6,0.000022537673226304875,-2.3307703881350763e-6,-2.7864157087033757e-7,-0.000021682308501210624,-0.000010629664454152228,-1.0227141041628316e-7,-2.0283442289997814e-6,7.773426908838872e-6,1.6463630053334273e-6,-4.214329513358398e-6,-1.303966366075882e-7,4.921449763660796e-6,2.8244816801230564e-6,1.2141046313512977e-7,-1.1336522242973613e-7,6.213290935633681e-6,-8.083526225876056e-6,-1.5996023909939842e-6,1.1334847289332282e-6,7.78998036603575e-6,2.8906402721861366e-8,1.6580048546447674e-7,-1.6935117669184692e-6,-9.562249877246398e-7],[5.285109715745838e-6,0.000015626350096586936,-7.647856537047142e-6,-2.90969515102207e-7,-0.00001911026379827302,-2.5199066016861936e-6,8.873176991834272e-7,2.0507464669391992e-7,-3.840847364435743e-6,-9.610483149514732e-9,-0.000010612259105978246,-1.5846859023454032e-6,-5.547559940979437e-7,6.810628359997199e-6,7.78207611982956e-6,2.8707013769517273e-6,1.4472177514984882e-6,3.380321730813069e-6,2.0139281478807932e-7,0.000026059700576372348,0.0000152642394206853,5.726316700920631e-7,6.442272478699519e-6,-5.312149125398215e-6,